<?xml version="1.0"?>
<opencv_storage>
<my_svm type_id="opencv-ml-svm">
  <svm_type>C_SVC</svm_type>
  <kernel><type>POLY</type>
    <degree>3.4300000000000002e+000</degree>
    <gamma>5.0625000000000009e-001</gamma>
    <coef0>1.4000000000000001e+000</coef0></kernel>
  <C>6.2500000000000000e+001</C>
  <term_criteria><epsilon>1.1920928955078125e-007</epsilon>
    <iterations>1000</iterations></term_criteria>
  <var_all>3</var_all>
  <var_count>3</var_count>
  <class_count>3</class_count>
  <class_labels type_id="opencv-matrix">
    <rows>1</rows>
    <cols>3</cols>
    <dt>i</dt>
    <data>
      1 2 3</data></class_labels>
  <sv_total>42</sv_total>
  <support_vectors>
    <_>
      5.00000000e-001 0. 5.00000000e-001</_>
    <_>
      5.00000000e-001 0. 5.00000000e-001</_>
    <_>
      3.33333343e-001 0. 6.66666687e-001</_>
    <_>
      2.00000003e-001 0. 8.00000012e-001</_>
    <_>
      0. 0. 1.</_>
    <_>
      5.00000000e-001 2.50000000e-001 2.50000000e-001</_>
    <_>
      1. 0. 0.</_>
    <_>
      5.00000000e-001 5.00000000e-001 0.</_>
    <_>
      0. 0. 1.</_>
    <_>
      1.42857149e-001 1.42857149e-001 7.14285731e-001</_>
    <_>
      0. 5.00000000e-001 5.00000000e-001</_>
    <_>
      2.00000003e-001 6.00000024e-001 2.00000003e-001</_>
    <_>
      0. 3.33333343e-001 6.66666687e-001</_>
    <_>
      2.00000003e-001 2.00000003e-001 6.00000024e-001</_>
    <_>
      2.50000000e-001 5.00000000e-001 2.50000000e-001</_>
    <_>
      0. 1.42857149e-001 8.57142925e-001</_>
    <_>
      1.66666672e-001 1.66666672e-001 6.66666687e-001</_>
    <_>
      1. 0. 0.</_>
    <_>
      2.00000003e-001 2.00000003e-001 6.00000024e-001</_>
    <_>
      5.00000000e-001 0. 5.00000000e-001</_>
    <_>
      7.50000000e-001 0. 2.50000000e-001</_>
    <_>
      1. 0. 0.</_>
    <_>
      5.00000000e-001 2.50000000e-001 2.50000000e-001</_>
    <_>
      1. 0. 0.</_>
    <_>
      2.50000000e-001 0. 7.50000000e-001</_>
    <_>
      0. 0. 1.</_>
    <_>
      2.00000003e-001 2.00000003e-001 6.00000024e-001</_>
    <_>
      0. 2.50000000e-001 7.50000000e-001</_>
    <_>
      3.33333343e-001 3.33333343e-001 3.33333343e-001</_>
    <_>
      0. 3.33333343e-001 6.66666687e-001</_>
    <_>
      1.66666672e-001 0. 8.33333373e-001</_>
    <_>
      2.50000000e-001 2.50000000e-001 5.00000000e-001</_>
    <_>
      6.66666687e-001 3.33333343e-001 0.</_>
    <_>
      2.50000000e-001 2.50000000e-001 5.00000000e-001</_>
    <_>
      6.66666687e-001 0. 3.33333343e-001</_>
    <_>
      1.00000001e-001 2.00000003e-001 6.99999988e-001</_>
    <_>
      0. 2.00000003e-001 8.00000012e-001</_>
    <_>
      1.42857149e-001 1.42857149e-001 7.14285731e-001</_>
    <_>
      1.25000000e-001 3.75000000e-001 5.00000000e-001</_>
    <_>
      9.09090936e-002 2.72727281e-001 6.36363626e-001</_>
    <_>
      1.00000001e-001 3.00000012e-001 6.00000024e-001</_>
    <_>
      1.11111112e-001 3.33333343e-001 5.55555582e-001</_></support_vectors>
  <decision_functions>
    <_>
      <sv_count>29</sv_count>
      <rho>-2.4599784926249837e-001</rho>
      <alpha>
        6.2500000000000000e+001 4.2358252868587471e+001
        4.3934805799184469e+000 7.0671678289215754e+000
        5.1889990825702611e+001 5.1902962271553818e+001
        6.2500000000000000e+001 3.7305867142390454e+001
        3.3203512598849677e+001 9.6480831232986510e+000
        2.2136821976036609e+000 6.2133783345595610e+001
        2.2092168019015737e+001 4.1641467193790227e+001
        2.6432637011280114e+001 6.2500000000000000e+001
        -6.2500000000000000e+001 -2.2065894077210423e+001
        -4.9465042772777984e+001 -1.4356804693482124e+000
        -6.2497556625320492e+001 -2.7683577785256464e+001
        -6.2500000000000000e+001 -6.2500000000000000e+001
        -5.2813670808761238e+001 -5.4170079928703295e+001
        -6.2500000000000000e+001 -5.3319279285762626e+001
        -6.3322732533672808e+000</alpha>
      <index>
        0 1 2 3 4 5 6 7 8 9 10 12 13 15 16 17 19 20 21 22 23 24 25 27 28
        29 30 32 34</index></_>
    <_>
      <sv_count>16</sv_count>
      <rho>-1.9568499124597345e+000</rho>
      <alpha>
        3.0316398234273521e+001 6.2500000000000000e+001
        3.7190761013000024e+000 6.2500000000000000e+001
        6.2500000000000000e+001 6.7162186831299122e+000
        6.2500000000000000e+001 6.2500000000000000e+001
        6.2500000000000000e+001 -6.2500000000000000e+001
        -5.6467493247478657e+001 -6.2500000000000000e+001
        -6.2500000000000000e+001 -6.2500000000000000e+001
        -6.2500000000000000e+001 -4.6784199771224728e+001</alpha>
      <index>
        9 10 11 12 13 14 15 16 18 35 36 37 38 39 40 41</index></_>
    <_>
      <sv_count>12</sv_count>
      <rho>-2.3278859748501679e+000</rho>
      <alpha>
        2.1403310313962628e+001 6.2500000000000000e+001
        6.2500000000000000e+001 6.2500000000000000e+001
        6.2494174346454145e+001 1.4446525618373832e+001
        -6.2500000000000000e+001 -2.8153295728063600e+001
        -6.2500000000000000e+001 -5.6544871107866847e+001
        -6.2500000000000000e+001 -1.3645843442860027e+001</alpha>
      <index>
        25 26 27 29 31 33 35 36 37 38 39 40</index></_></decision_functions></my_svm>
</opencv_storage>
