<?xml version="1.0"?>
<opencv_storage>
<my_svm type_id="opencv-ml-svm">
  <svm_type>C_SVC</svm_type>
  <kernel><type>LINEAR</type></kernel>
  <C>1.0000000000000001e-001</C>
  <term_criteria><epsilon>2.2204460492503131e-016</epsilon>
    <iterations>100</iterations></term_criteria>
  <var_all>19600</var_all>
  <var_count>19600</var_count>
  <class_count>2</class_count>
  <class_labels type_id="opencv-matrix">
    <rows>1</rows>
    <cols>2</cols>
    <dt>i</dt>
    <data>
      1 2</data></class_labels>
  <sv_total>1</sv_total>
  <support_vectors>
    <_>
      0. 0. 0. 0. 0. 0. 0. 0. 0. 0. 0. 0. 0. 0. 0. 0. 0. 0. 0. 0. 0. 0.
      0. 0. 0. 0. 0. 0. 0. 0. 0. 0. 0. 0. 0. 0. 0. 0. 0. 0. 0. 0. 0. 0.
      0. 0. 0. 0. 0. 0. 0. 0. 0. 0. 0. 0. 0. 0. 0. 0. 0. 0. 0. 0. 0. 0.
      0. 0. 0. 0. 0. 0. 0. 0. 0. 0. 0. 0. 0. 0. 0. 0. 0. 0. 0. 0. 0. 0.
      0. 0. 0. 0. 0. 0. 0. 0. 0. 0. 0. 0. 0. 0. 0. 0. 0. 0. 0. 0. 0. 0.
      0. 0. 0. 0. 0. 0. 0. 0. 0. 0. 0. 0. 0. 0. 0. 0. 0. 0. 0. 0. 0. 0.
      0. 0. 0. 0. 0. 0. 0. 0. 0. 0. 0. 0. 0. 0. 0. 0. 0. 0. 0. 0. 0. 0.
      0. 0. 0. 0. 0. 0. 0. 0. 0. 0. 0. 0. 0. 0. 0. 0. 0. 0. 0. 0. 0. 0.
      0. 0. 0. 0. 0. 0. 0. 0. 0. 0. 0. 0. 0. 0. 0. 0. 0. 0. 0. 0. 0. 0.
      0. 0. 0. 0. 0. 0. 0. 0. 0. 0. 0. 0. 0. 0. 0. 0. 0. 0. 0. 0. 0. 0.
      0. 0. 0. 0. 0. 0. 0. 0. 0. 0. 0. 0. 0. 0. 0. 0. 0. 0. 0. 0. 0. 0.
      0. 0. 0. 0. 0. 0. 0. 0. 0. 0. 0. 0. 0. 0. 0. 0. 0. 0. 0. 0. 0. 0.
      0. 0. 0. 0. 0. 0. 0. 0. 0. 0. 0. 0. 0. 0. 0. 0. 0. 0. 0. 0. 0. 0.
      0. 0. 0. 0. 0. 0. 0. 0. 0. 0. 0. 0. 0. 0. 0. 0. 0. 0. 0. 0. 0. 0.
      0. 0. 0. 0. 0. 0. 0. 0. 0. 0. 0. 0. 0. 0. 0. 0. 0. 0. 0. 0. 0. 0.
      0. 0. 0. 0. 0. 0. 0. 0. 0. 0. 0. 0. 0. 0. 0. 0. 0. 0. 0. 0. 0. 0.
      0. 0. 0. 0. 0. 0. 0. 0. 0. 0. 0. 0. 0. 0. 0. 0. 0. 0. 0. 0. 0. 0.
      0. 0. 0. 0. 0. 0. 0. 0. 0. 0. 0. 0. 0. 0. 0. 0. 0. 0. 0. 0. 0. 0.
      0. 0. 0. 0. 0. 0. 0. 0. 0. 0. 0. 0. 0. 0. 0. 0. 0. 0. 0. 0. 0. 0.
      0. 0. 0. 0. 0. 0. 0. 0. 0. 0. 0. 0. 0. 0. 0. 0. 0. 0. 0. 0. 0. 0.
      0. 0. 0. 0. 0. 0. 0. 0. 0. 0. 0. 0. 0. 0. 0. 0. 0. 0. 0. 0. 0. 0.
      0. 0. 0. 0. 0. 0. 0. 0. 0. 0. 0. 0. 0. 0. 0. 0. 0. 0. 0. 0. 0. 0.
      0. 0. 0. 0. 0. 0. 0. 0. 0. 0. 0. 0. 0. 0. 0. 0. 0. 0. 0. 0. 0. 0.
      0. 0. 0. 0. 0. 0. 0. 0. 0. 0. 0. 0. 0. 0. 0. 0. 0. 0. 0. 0. 0. 0.
      0. 0. 0. 0. 0. 0. 0. 0. 0. 0. 0. 0. 0. 0. 0. 0. 0. 0. 0. 0. 0. 0.
      0. 0. 0. 0. 0. 0. 0. 0. 0. 0. 0. 0. 0. 0. 0. 0. 0. 0. 0. 0. 0. 0.
      0. 0. 0. 0. 0. 0. 0. 0. 0. 0. 0. 0. 0. 0. 0. 0. 0. 0. 0. 0. 0. 0.
      0. 0. 0. 0. 0. 0. 0. 0. 0. 0. 0. 0. 0. 0. 0. 0. 0. 0. 0. 0. 0. 0.
      0. 0. 0. 0. 0. 0. 0. 0. 0. 0. 0. 0. 0. 0. 0. 0. 0. 0. 0. 0. 0. 0.
      0. 0. 0. 0. 0. 0. 0. 0. 0. 0. 0. 0. 0. 0. 0. 0. 0. 0. 0. 0. 0. 0.
      0. 0. 0. 0. 0. 0. 0. 0. 0. 0. 0. 0. 0. 0. 0. 0. 0. 0. 0. 0. 0. 0.
      0. 0. 0. 0. 0. 0. 0. 0. 0. 0. 0. 0. 0. 0. 0. 0. 0. 0. 0. 0. 0. 0.
      0. 0. 0. 0. 0. 0. 0. 0. 0. 0. 0. 0. 0. 0. 0. 0. 0. 0. 0. 0. 0. 0.
      0. 0. 0. 0. 0. 0. 0. 0. 0. 0. 0. 0. 0. 0. 0. 0. 0. 0. 0. 0. 0. 0.
      0. 0. 0. 0. 0. 0. 0. 0. 0. 0. 0. 0. 0. 0. 0. 0. 0. 0. 0. 0. 0. 0.
      0. 0. 0. 0. 0. 0. 0. 0. 0. 0. 0. 0. 0. 0. 0. 0. 0. 0. 0. 0. 0. 0.
      0. 0. 0. 0. 0. 0. 0. 0. 0. 0. 0. 0. 0. 0. 0. 0. 0. 0. 0. 0. 0. 0.
      0. 0. 0. 0. 0. 0. 0. 0. 0. 0. 0. 0. 0. 0. 0. 0. 0. 0. 0. 0. 0. 0.
      0. 0. 0. 0. 0. 0. 0. 0. 0. 0. 0. 0. 0. 0. 0. 0. 0. 0. 0. 0. 0. 0.
      0. 0. 0. 0. 0. 0. 0. 0. 0. 0. 0. 0. 0. 0. 0. 0. 0. 0. 0. 0. 0. 0.
      0. 0. 0. 0. 0. 0. 0. 0. 0. 0. 0. 0. 0. 0. 0. 0. 0. 0. 0. 0. 0. 0.
      0. 0. 0. 0. 0. 0. 0. 0. 0. 0. 0. 0. 0. 0. 0. 0. 0. 0. 0. 0. 0. 0.
      0. 0. 0. 0. 0. 0. 0. 0. 0. 0. 0. 0. 0. 0. 0. 0. 0. 0. 0. 0. 0. 0.
      0. 0. 0. 0. 0. 0. 0. 0. 0. 0. 0. 0. 0. 0. 0. 0. 0. 0. 0. 0. 0. 0.
      0. 0. 0. 0. 0. 0. 0. 0. 0. 0. 0. 0. 0. 0. 0. 0. 0. 0. 0. 0. 0. 0.
      0. 0. 0. 0. 0. 0. 0. 0. 0. 0. 0. 0. 0. 0. 0. 0. 0. 0. 0. 0. 0. 0.
      0. 0. 0. 0. 0. 0. 0. 0. 0. 0. 0. 0. 0. 0. 0. 0. 0. 0. 0. 0. 0. 0.
      0. 0. 0. 0. 0. 0. 0. 0. 0. 0. 0. 0. 0. 0. 0. 0. 0. 0. 0. 0. 0. 0.
      0. 0. 0. 0. 0. 0. 0. 0. 0. 0. 0. 0. 0. 0. 0. 0. 0. 0. 0. 0. 0. 0.
      0. 0. 0. 0. 0. 0. 0. 0. 0. 0. 0. 0. 0. 0. 0. 0. 0. 0. 0. 0. 0. 0.
      0. 0. 0. 0. 0. 0. 0. 0. 0. 0. 0. 0. 0. 0. 0. 0. 0. 0. 0. 0. 0. 0.
      0. 0. 0. 0. 0. 0. 0. 0. 0. 0. 0. 0. 0. 0. 0. 0. 0. 0. 0. 0. 0. 0.
      0. 0. 0. 0. 0. 0. 0. 0. 0. 0. 0. 0. 0. 0. 0. 0. 0. 0. 0. 0. 0. 0.
      0. 0. 0. 0. 0. 0. 0. 0. 0. 0. 0. 0. 0. 0. 0. 0. 0. 0. 0. 0. 0. 0.
      0. 0. 0. 0. 0. 0. 0. 0. 0. 0. 0. 0. 0. 0. 0. 0. 0. 0. 0. 0. 0. 0.
      0. 0. 0. 0. 0. 0. 0. 0. 0. 0. 0. 0. 0. 0. 0. 0. 0. 0. 0. 0. 0. 0.
      0. 0. 0. 0. 0. 0. 0. 0. 0. 0. 0. 0. 0. 0. 0. 0. 0. 0. 0. 0. 0. 0.
      0. 0. 0. 0. 0. 0. 0. 0. 0. 0. 0. 0. 0. 0. 0. 0. 0. 0. 0. 0. 0. 0.
      0. 0. 0. 0. 0. 0. 0. 0. 0. 0. 0. 0. 0. 0. 0. 0. 0. 0. 0. 0. 0. 0.
      0. 0. 0. 0. 0. 0. 0. 0. 0. 0. 0. 0. 0. 0. 0. 0. 0. 0. 0. 0. 0. 0.
      0. 0. 0. 0. 0. 0. 0. 0. 0. 0. 0. 0. 0. 0. 0. 0. 0. 0. 0. 0. 0. 0.
      0. 0. 0. 0. 0. 0. 0. 0. 0. 0. 0. 0. 0. 0. 0. 0. 0. 0. 0. 0. 0. 0.
      0. 0. 0. 0. 0. 0. 0. 0. 0. 0. 0. 0. 0. 0. 0. 0. 0. 0. 0. 0. 0. 0.
      0. 0. 0. 0. 0. 0. 0. 0. 0. 0. 0. 0. 0. 0. 0. 0. 0. 0. 0. 0. 0. 0.
      0. 0. 0. 0. 0. 0. 0. 0. 0. 0. 0. 0. 0. 0. 0. 0. 0. 0. 0. 0. 0. 0.
      0. 0. 0. 0. 0. 0. 0. 0. 0. 0. 0. 0. 0. 0. 0. 0. 0. 0. 0. 0. 0. 0.
      0. 0. 0. 0. 0. 0. 0. 0. 0. 0. 0. 0. 0. 0. 0. 0. 0. 0. 0. 0. 0. 0.
      0. 0. 0. 0. 0. 0. 0. 0. 0. 0. 0. 0. 0. 0. 0. 0. 0. 0. 0. 0. 0. 0.
      0. 0. 0. 0. 0. 0. 0. 0. 0. 0. 0. 0. 0. 0. 0. 0. 0. 0. 0. 0. 0. 0.
      0. 0. 0. 0. 0. 0. 0. 0. 0. 0. 0. 0. 0. 0. 0. 0. 0. 0. 0. 0. 0. 0.
      0. 0. 0. 0. 0. 0. 0. 0. 0. 0. 0. 0. 0. 0. 0. 0. 0. 0. 0. 0. 0. 0.
      0. 0. 0. 0. 0. 0. 0. 0. 0. 0. 0. 0. 0. 0. 0. 0. 0. 0. 0. 0. 0. 0.
      0. 0. 0. 0. 0. 0. 0. 0. 0. 0. 0. 0. 0. 0. 0. 0. 0. 0. 0. 0. 0. 0.
      0. 0. 0. 0. 0. 0. 0. 0. 0. 0. 0. 0. 0. 0. 0. 0. 0. 0. 0. 0. 0. 0.
      0. 0. 0. 0. 0. 0. 0. 0. 0. 0. 0. 0. 0. 0. 0. 0. 0. 0. 0. 0. 0. 0.
      0. 0. 0. 0. 0. 0. 0. 0. 0. 0. 0. 0. 0. 0. 0. 0. 0. 0. 0. 0. 0. 0.
      0. 0. 0. 0. 0. 0. 0. 0. 0. 0. 0. 0. 0. 0. 0. 0. 0. 0. 0. 0. 0. 0.
      0. 0. 0. 0. 0. 0. 0. 0. 0. 0. 0. 0. 0. 0. 0. 0. 0. 0. 0. 0. 0. 0.
      0. 0. 0. 0. 0. 0. 0. 0. 0. 0. 0. 0. 0. 0. 0. 0. 0. 0. 0. 0. 0. 0.
      0. 0. 0. 0. 0. 0. 0. 0. 0. 0. 0. 0. 0. 0. 0. 0. 0. 0. 0. 0. 0. 0.
      0. 0. 0. 0. 0. 0. 0. 0. 0. 0. 0. 0. 0. 0. 0. 0. 0. 0. 0. 0. 0. 0.
      0. 0. 0. 0. 0. 0. 0. 0. 0. 0. 0. 0. 0. 0. 0. 0. 0. 0. 0. 0. 0. 0.
      0. 0. 0. 0. 0. 0. 0. 0. 0. 0. 0. 0. 0. 0. 0. 0. 0. 0. 0. 0. 0. 0.
      0. 0. 0. 0. 0. 0. 0. 0. 0. 0. 0. 0. 0. 0. 0. 0. 0. 0. 0. 0. 0. 0.
      0. 0. 0. 0. 0. 0. 0. 0. 0. 0. 0. 0. 0. 0. 0. 0. 0. 0. 0. 0. 0. 0.
      0. 0. 0. 0. 0. 0. 0. 0. 0. 0. 0. 0. 0. 0. 0. 0. 0. 0. 0. 0. 0. 0.
      0. 0. 0. 0. 0. 0. 0. 0. 0. 0. 0. 0. 0. 0. 0. 0. 0. 0. 0. 0. 0. 0.
      0. 0. 0. 0. 0. 0. 0. 0. 0. 0. 0. 0. 0. 0. 0. 0. 0. 0. 0. 0. 0. 0.
      0. 0. 0. 0. 0. 0. 0. 0. 0. 0. 0. 0. 0. 0. 0. 0. 0. 0. 0. 0. 0. 0.
      0. 0. 0. 0. 0. 0. 0. 0. 0. 0. 0. 0. 0. 0. 0. 0. 0. 0. 0. 0. 0. 0.
      0. 0. 0. 0. 0. 0. 0. 0. 0. 0. 0. 0. 0. 0. 0. 0. 0. 0. 0. 0. 0. 0.
      0. 0. 0. 0. 0. 0. 0. 0. 0. 0. 0. 0. 0. 0. 0. 0. 0. 0. 0. 0. 0. 0.
      0. 0. 0. 0. 0. 0. 0. -1.53821693e-012 0. 0. 0. 0. 0. 0. 0. 0. 0.
      0. 0. 0. 0. 0. 0. 0. 0. 0. 0. 0. 0. 0. 0. 0. 0. 0. 0. 0. 0. 0. 0.
      0. 0. 0. 0. 0. 0. 0. 0. 0. 0. 0. 0. 0. 0. 0. 0. 0. 0. 0. 0. 0. 0.
      0. 0. 0. 0. 0. 0. 0. 0. 0. 0. 0. 0. 0. 0. 0. 0. 0. 0. 0. 0. 0. 0.
      0. 0. 0. 0. 0. 0. 0. 0. 0. 0. 0. 0. 0. 0. 0. 0. 0. 0. 0. 0. 0. 0.
      0. 0. 0. 0. 0. 0. 0. 0. 0. 0. 0. 0. 0. 0. 0. 0. 0. 0. 0. 0. 0. 0.
      0. 0. 0. 0. 0. 0. 0. 0. 0. 0. 0. 0. 0. 0. 0. 0. 0. 0.
      -1.53821693e-012 -5.56217832e-012 -5.56107330e-012
      -5.56217832e-012 -1.53821693e-012 0. 0. 0. 0. 0. 0. 0. 0. 0. 0. 0.
      0. 0. 0. 0. 0. 0. 0. 0. 0. 0. 0. 0. 0. 0. 0. 0. 0. 0. 0. 0. 0. 0.
      0. 0. 0. 0. 0. 0. 0. 0. 0. 0. 0. 0. 0. 0. 0. 0. 0. 0. 0. 0. 0. 0.
      0. 0. 0. 0. 0. 0. 0. 0. 0. 0. 0. 0. 0. 0. 0. 0. 0. 0. 0. 0. 0. 0.
      0. 0. 0. 0. 0. 0. 0. 0. 0. 0. 0. 0. 0. 0. 0. 0. 0. 0. 0. 0. 0. 0.
      0. 0. 0. 0. 0. 0. 0. 0. 0. 0. 0. 0. 0. 0. 0. 0. 0. 0. 0. 0. 0. 0.
      0. 0. 0. 0. 0. 0. 0. 0. 0. 0. 0. 0. 0. -5.56217832e-012
      -6.47509000e-012 -6.70972219e-012 -6.70972219e-012
      -6.70972219e-012 -5.56107330e-012 -5.56217832e-012
      -1.53821693e-012 0. 0. 0. 0. 0. 0. 0. 0. 0. 0. 0. 0. 0. 0. 0. 0.
      0. 0. 0. 0. 0. 0. 0. 0. 0. 0. 0. 0. 0. 0. 0. 0. 0. 0. 0. 0. 0. 0.
      0. 0. 0. 0. 0. 0. 0. 0. 0. 0. 0. 0. 0. 0. 0. 0. 0. 0. 0. 0. 0. 0.
      0. 0. 0. 0. 0. 0. 0. 0. 0. 0. 0. 0. 0. 0. 0. 0. 0. 0. 0. 0. 0. 0.
      0. 0. 0. 0. 0. 0. 0. 0. 0. 0. 0. 0. 0. 0. 0. 0. 0. 0. 0. 0. 0. 0.
      0. 0. 0. 0. 0. 0. 0. 0. 0. 0. 0. 0. 0. 0. 0. 0. 0. 0. 0. 0. 0. 0.
      0. 0. 0. 0. 0. -6.71371769e-012 -5.85084151e-012 -6.70889516e-012
      -6.70889516e-012 -6.70889516e-012 -6.70889516e-012
      -6.70972219e-012 -6.70972219e-012 -5.32355019e-012
      -5.56217832e-012 0. 0. 0. 0. 0. 0. 0. 0. 0. 0. 0. 0. 0. 0. 0. 0.
      0. 0. 0. 0. 0. 0. 0. 0. 0. 0. 0. 0. 0. 0. 0. 0. 0. 0. 0. 0. 0. 0.
      0. 0. 0. 0. 0. 0. 0. 0. 0. 0. 0. 0. 0. 0. 0. 0. 0. 0. 0. 0. 0. 0.
      0. 0. 0. 0. 0. 0. 0. 0. 0. 0. 0. 0. 0. 0. 0. 0. 0. 0. 0. 0. 0. 0.
      0. 0. 0. 0. 0. 0. 0. 0. 0. 0. 0. 0. 0. 0. 0. 0. 0. 0. 0. 0. 0. 0.
      0. 0. 0. 0. 0. 0. 0. 0. 0. 0. 0. 0. 0. 0. 0. 0. 0. 0. 0. 0. 0. 0.
      0. 0. 0. -6.71371769e-012 -5.67220012e-012 -6.70889516e-012
      -6.70889516e-012 -7.42162668e-012 -7.42162668e-012
      -7.42162668e-012 -6.70889516e-012 -6.53108080e-012
      -6.70972219e-012 -4.93682482e-012 -5.56217832e-012
      -1.53821693e-012 0. 0. 0. 0. 0. 0. 0. 0. 0. 0. 0. 0. 0. 0. 0. 0.
      0. 0. 0. 0. 0. 0. 0. 0. 0. 0. 0. 0. 0. 0. 0. 0. 0. 0. 0. 0. 0. 0.
      0. 0. 0. 0. 0. 0. 0. 0. 0. 0. 0. 0. 0. 0. 0. 0. 0. 0. 0. 0. 0. 0.
      0. 0. 0. 0. 0. 0. 0. 0. 0. 0. 0. 0. 0. 0. 0. 0. 0. 0. 0. 0. 0. 0.
      0. 0. 0. 0. 0. 0. 0. 0. 0. 0. 0. 0. 0. 0. 0. 0. 0. 0. 0. 0. 0. 0.
      0. 0. 0. 0. 0. 0. 0. 0. 0. 0. 0. 0. 0. 0. 0. 0. 0. 0. 0. 0. 0. 0.
      -6.71371769e-012 -5.67220012e-012 -6.70889516e-012
      -7.42162668e-012 -7.42162668e-012 -8.07918836e-012
      -8.64452086e-012 -8.72911726e-012 -8.64503261e-012
      -7.98695918e-012 -6.70896325e-012 -6.70972219e-012
      -6.70972219e-012 -5.56107330e-012 -5.56217832e-012
      -1.53821693e-012 -1.53821693e-012 0. 0. 0. 0. 0. 0. 0. 0. 0. 0. 0.
      0. 0. 0. 0. 0. 0. 0. 0. 0. 0. 0. 0. 0. 0. 0. 0. 0. 0. 0. 0. 0. 0.
      0. 0. 0. 0. 0. 0. 0. 0. 0. 0. 0. 0. 0. 0. 0. 0. 0. 0. 0. 0. 0. 0.
      0. 0. 0. 0. 0. 0. 0. 0. 0. 0. 0. 0. 0. 0. 0. 0. 0. 0. 0. 0. 0. 0.
      0. 0. 0. 0. 0. 0. 0. 0. 0. 0. 0. 0. 0. 0. 0. 0. 0. 0. 0. 0. 0. 0.
      0. 0. 0. 0. 0. 0. 0. 0. 0. 0. 0. 0. 0. 0. 0. 0. 0. 0. 0. 0. 0. 0.
      0. -6.71371769e-012 -5.67220012e-012 -6.70889516e-012
      -7.42162668e-012 -7.96913230e-012 -8.64452086e-012
      -8.72864454e-012 -8.72823862e-012 -8.72818311e-012
      -8.72823862e-012 -8.55089697e-012 -8.64510113e-012
      -7.98702684e-012 -6.53108080e-012 -6.70972219e-012
      -5.55818282e-012 -5.56107330e-012 -5.56107330e-012
      -1.53821693e-012 -1.53821693e-012 0. 0. 0. 0. 0. 0. 0. 0. 0. 0. 0.
      0. 0. 0. 0. 0. 0. 0. 0. 0. 0. 0. 0. 0. 0. 0. 0. 0. 0. 0. 0. 0. 0.
      0. 0. 0. 0. 0. 0. 0. 0. 0. 0. 0. 0. 0. 0. 0. 0. 0. 0. 0. 0. 0. 0.
      0. 0. 0. 0. 0. 0. 0. 0. 0. 0. 0. 0. 0. 0. 0. 0. 0. 0. 0. 0. 0. 0.
      0. 0. 0. 0. 0. 0. 0. 0. 0. 0. 0. 0. 0. 0. 0. 0. 0. 0. 0. 0. 0. 0.
      0. 0. 0. 0. 0. 0. 0. 0. 0. 0. 0. 0. 0. 0. 0. 0. 0. 0. 0. 0.
      -6.71371769e-012 -6.29355769e-012 -7.42162668e-012
      -8.07970097e-012 -8.64452086e-012 -8.72864454e-012
      -8.72823862e-012 -8.72818311e-012 -8.72818311e-012
      -8.72818311e-012 -8.72818311e-012 -8.55036875e-012
      -8.72830714e-012 -8.72877985e-012 -8.64510113e-012
      -7.98702684e-012 -6.70972219e-012 -6.70972219e-012
      -5.55818282e-012 -5.56107330e-012 -5.32355019e-012
      -1.53821693e-012 0. 0. 0. 0. 0. 0. 0. 0. 0. 0. 0. 0. 0. 0. 0. 0.
      0. 0. 0. 0. 0. 0. 0. 0. 0. 0. 0. 0. 0. 0. 0. 0. 0. 0. 0. 0. 0. 0.
      0. 0. 0. 0. 0. 0. 0. 0. 0. 0. 0. 0. 0. 0. 0. 0. 0. 0. 0. 0. 0. 0.
      0. 0. 0. 0. 0. 0. 0. 0. 0. 0. 0. 0. 0. 0. 0. 0. 0. 0. 0. 0. 0. 0.
      0. 0. 0. 0. 0. 0. 0. 0. 0. 0. 0. 0. 0. 0. 0. 0. 0. 0. 0. 0. 0. 0.
      0. 0. 0. 0. 0. 0. 0. 0. 0. 0. 0. 0. 0. -5.56217832e-012
      -6.47219951e-012 -7.42162668e-012 -7.96913230e-012
      -8.54243239e-012 -8.64094300e-012 -8.71511543e-012
      -8.72818311e-012 -8.72818311e-012 -8.72818311e-012
      -8.72818311e-012 -8.72818311e-012 -8.72818311e-012
      -8.55036875e-012 -8.71518309e-012 -8.72830714e-012
      -8.64418259e-012 -8.64510113e-012 -7.74950416e-012
      -6.70981326e-012 -6.70981326e-012 -4.93682482e-012
      -5.32355019e-012 -1.53821693e-012 0. 0. 0. 0. 0. 0. 0. 0. 0. 0. 0.
      0. 0. 0. 0. 0. 0. 0. 0. 0. 0. 0. 0. 0. 0. 0. 0. 0. 0. 0. 0. 0. 0.
      0. 0. 0. 0. 0. 0. 0. 0. 0. 0. 0. 0. 0. 0. 0. 0. 0. 0. 0. 0. 0. 0.
      0. 0. 0. 0. 0. 0. 0. 0. 0. 0. 0. 0. 0. 0. 0. 0. 0. 0. 0. 0. 0. 0.
      0. 0. 0. 0. 0. 0. 0. 0. 0. 0. 0. 0. 0. 0. 0. 0. 0. 0. 0. 0. 0. 0.
      0. 0. 0. 0. 0. 0. 0. 0. 0. 0. 0. 0. 0. 0. 0. 0. -4.02396129e-012
      -6.08946964e-012 -6.70889516e-012 -8.07970097e-012
      -8.62702878e-012 -8.64094300e-012 -8.72818311e-012
      -8.72818311e-012 -8.72818311e-012 -8.72818311e-012
      -8.72818311e-012 -8.72818311e-012 -8.72818311e-012
      -8.72818311e-012 -8.55036875e-012 -8.72825076e-012
      -8.72825076e-012 -8.72830714e-012 -8.72830714e-012
      -8.61872379e-012 -8.40757759e-012 -6.85889019e-012
      -6.70972219e-012 -4.93682482e-012 -5.56217832e-012 0. 0. 0. 0. 0.
      0. 0. 0. 0. 0. 0. 0. 0. 0. 0. 0. 0. 0. 0. 0. 0. 0. 0. 0. 0. 0. 0.
      0. 0. 0. 0. 0. 0. 0. 0. 0. 0. 0. 0. 0. 0. 0. 0. 0. 0. 0. 0. 0. 0.
      0. 0. 0. 0. 0. 0. 0. 0. 0. 0. 0. 0. 0. 0. 0. 0. 0. 0. 0. 0. 0. 0.
      0. 0. 0. 0. 0. 0. 0. 0. 0. 0. 0. 0. 0. 0. 0. 0. 0. 0. 0. 0. 0. 0.
      0. 0. 0. 0. 0. 0. 0. 0. 0. 0. 0. 0. 0. 0. 0. 0. 0. 0. 0. 0. 0. 0.
      -5.56217832e-012 -6.70972219e-012 -8.07970097e-012
      -8.62702878e-012 -8.62781981e-012 -8.72818311e-012
      -8.72818311e-012 -8.72818311e-012 -8.72818311e-012
      -8.72818311e-012 -8.72818311e-012 -8.72818311e-012
      -8.72818311e-012 -8.72818311e-012 -8.72818311e-012
      -8.55036875e-012 -8.72825076e-012 -8.72825076e-012
      -8.72825076e-012 -8.72825076e-012 -8.51663445e-012
      -8.64199597e-012 -7.09641287e-012 -6.70972219e-012
      -5.56217832e-012 0. 0. 0. 0. 0. 0. 0. 0. 0. 0. 0. 0. 0. 0. 0. 0.
      0. 0. 0. 0. 0. 0. 0. 0. 0. 0. 0. 0. 0. 0. 0. 0. 0. 0. 0. 0. 0. 0.
      0. 0. 0. 0. 0. 0. 0. 0. 0. 0. 0. 0. 0. 0. 0. 0. 0. 0. 0. 0. 0. 0.
      0. 0. 0. 0. 0. 0. 0. 0. 0. 0. 0. 0. 0. 0. 0. 0. 0. 0. 0. 0. 0. 0.
      0. 0. 0. 0. 0. 0. 0. 0. 0. 0. 0. 0. 0. 0. 0. 0. 0. 0. 0. 0. 0. 0.
      0. 0. 0. 0. 0. 0. 0. 0. 0. 0. -5.56217832e-012 -6.47219951e-012
      -8.07970097e-012 -7.95164108e-012 -8.71552136e-012
      -8.72818311e-012 -8.72818311e-012 -8.72818311e-012
      -8.72818311e-012 -8.72818311e-012 -8.72818311e-012
      -8.72818311e-012 -8.72818311e-012 -8.72818311e-012
      -8.72818311e-012 -8.72818311e-012 -8.55036875e-012
      -8.72825076e-012 -8.72825076e-012 -8.72825076e-012
      -8.72825076e-012 -8.72825076e-012 -8.72923608e-012
      -7.35882449e-012 -6.70972219e-012 -5.56107330e-012
      -1.53821693e-012 0. 0. 0. 0. 0. 0. 0. 0. 0. 0. 0. 0. 0. 0. 0. 0.
      0. 0. 0. 0. 0. 0. 0. 0. 0. 0. 0. 0. 0. 0. 0. 0. 0. 0. 0. 0. 0. 0.
      0. 0. 0. 0. 0. 0. 0. 0. 0. 0. 0. 0. 0. 0. 0. 0. 0. 0. 0. 0. 0. 0.
      0. 0. 0. 0. 0. 0. 0. 0. 0. 0. 0. 0. 0. 0. 0. 0. 0. 0. 0. 0. 0. 0.
      0. 0. 0. 0. 0. 0. 0. 0. 0. 0. 0. 0. 0. 0. 0. 0. 0. 0. 0. 0. 0. 0.
      0. 0. 0. 0. 0. 0. 0. 0. 0. -5.56217832e-012 -6.70972219e-012
      -8.16429736e-012 -8.71552136e-012 -8.72818311e-012
      -8.72818311e-012 -8.72818311e-012 -8.72818311e-012
      -8.72818311e-012 -8.72818311e-012 -8.72818311e-012
      -8.72818311e-012 -8.72818311e-012 -8.72818311e-012
      -8.72818311e-012 -8.72818311e-012 -8.55036875e-012
      -8.72825076e-012 -8.72825076e-012 -8.72825076e-012
      -8.72825076e-012 -8.72825076e-012 -8.55036875e-012
      -8.72916756e-012 -7.35882449e-012 -6.70972219e-012
      -5.56217832e-012 0. 0. 0. 0. 0. 0. 0. 0. 0. 0. 0. 0. 0. 0. 0. 0.
      0. 0. 0. 0. 0. 0. 0. 0. 0. 0. 0. 0. 0. 0. 0. 0. 0. 0. 0. 0. 0. 0.
      0. 0. 0. 0. 0. 0. 0. 0. 0. 0. 0. 0. 0. 0. 0. 0. 0. 0. 0. 0. 0. 0.
      0. 0. 0. 0. 0. 0. 0. 0. 0. 0. 0. 0. 0. 0. 0. 0. 0. 0. 0. 0. 0. 0.
      0. 0. 0. 0. 0. 0. 0. 0. 0. 0. 0. 0. 0. 0. 0. 0. 0. 0. 0. 0. 0. 0.
      0. 0. 0. 0. 0. 0. 0. 0. -5.56217832e-012 -6.70972219e-012
      -8.07970097e-012 -8.16331291e-012 -8.72858903e-012
      -8.72818311e-012 -8.72818311e-012 -8.72818311e-012
      -8.72818311e-012 -8.72818311e-012 -8.72818311e-012
      -8.72818311e-012 -8.72818311e-012 -8.72818311e-012
      -8.72818311e-012 -8.72818311e-012 -8.72818311e-012
      -8.55036875e-012 -8.72825076e-012 -8.72825076e-012
      -8.49072809e-012 -8.49072809e-012 -8.49072809e-012
      -8.49072809e-012 -8.62707909e-012 -8.00377386e-012
      -6.79431945e-012 -5.56217832e-012 0. 0. 0. 0. 0. 0. 0. 0. 0. 0. 0.
      0. 0. 0. 0. 0. 0. 0. 0. 0. 0. 0. 0. 0. 0. 0. 0. 0. 0. 0. 0. 0. 0.
      0. 0. 0. 0. 0. 0. 0. 0. 0. 0. 0. 0. 0. 0. 0. 0. 0. 0. 0. 0. 0. 0.
      0. 0. 0. 0. 0. 0. 0. 0. 0. 0. 0. 0. 0. 0. 0. 0. 0. 0. 0. 0. 0. 0.
      0. 0. 0. 0. 0. 0. 0. 0. 0. 0. 0. 0. 0. 0. 0. 0. 0. 0. 0. 0. 0. 0.
      0. 0. 0. 0. 0. 0. 0. 0. 0. 0. 0. 0. -4.02396129e-012
      -6.08946964e-012 -6.53108080e-012 -8.16429736e-012
      -8.72858903e-012 -8.72818311e-012 -8.72818311e-012
      -8.72818311e-012 -8.72818311e-012 -8.72818311e-012
      -8.72818311e-012 -8.72818311e-012 -8.72818311e-012
      -8.72818311e-012 -8.72818311e-012 -8.72818311e-012
      -8.72818311e-012 -8.55036875e-012 -8.55036875e-012
      -8.72825076e-012 -8.49072809e-012 -8.49072809e-012
      -8.72834183e-012 -8.72834183e-012 -8.49072809e-012
      -8.49072809e-012 -8.72916756e-012 -7.35965108e-012
      -5.56217832e-012 0. 0. 0. 0. 0. 0. 0. 0. 0. 0. 0. 0. 0. 0. 0. 0.
      0. 0. 0. 0. 0. 0. 0. 0. 0. 0. 0. 0. 0. 0. 0. 0. 0. 0. 0. 0. 0. 0.
      0. 0. 0. 0. 0. 0. 0. 0. 0. 0. 0. 0. 0. 0. 0. 0. 0. 0. 0. 0. 0. 0.
      0. 0. 0. 0. 0. 0. 0. 0. 0. 0. 0. 0. 0. 0. 0. 0. 0. 0. 0. 0. 0. 0.
      0. 0. 0. 0. 0. 0. 0. 0. 0. 0. 0. 0. 0. 0. 0. 0. 0. 0. 0. 0. 0. 0.
      0. 0. 0. 0. 0. 0. 0. -6.71371769e-012 -6.53108080e-012
      -7.42162668e-012 -8.72911726e-012 -8.64088748e-012
      -8.72818311e-012 -8.72818311e-012 -8.72818311e-012
      -8.72818311e-012 -8.72818311e-012 -8.72818311e-012
      -8.72818311e-012 -8.72818311e-012 -8.72818311e-012
      -8.72818311e-012 -8.72818311e-012 -8.55036875e-012
      -8.55036875e-012 -8.72825076e-012 -8.49072809e-012
      -8.49072809e-012 -8.72834183e-012 -8.10698383e-012
      -8.10698383e-012 -8.10698383e-012 -8.72834183e-012
      -8.49123983e-012 -8.01766899e-012 -5.64677515e-012 0. 0. 0. 0. 0.
      0. 0. 0. 0. 0. 0. 0. 0. 0. 0. 0. 0. 0. 0. 0. 0. 0. 0. 0. 0. 0. 0.
      0. 0. 0. 0. 0. 0. 0. 0. 0. 0. 0. 0. 0. 0. 0. 0. 0. 0. 0. 0. 0. 0.
      0. 0. 0. 0. 0. 0. 0. 0. 0. 0. 0. 0. 0. 0. 0. 0. 0. 0. 0. 0. 0. 0.
      0. 0. 0. 0. 0. 0. 0. 0. 0. 0. 0. 0. 0. 0. 0. 0. 0. 0. 0. 0. 0. 0.
      0. 0. 0. 0. 0. 0. 0. 0. 0. 0. 0. 0. 0. 0. 0. 0. 0.
      -5.17550109e-012 -6.53218582e-012 -7.42162668e-012
      -8.05372956e-012 -8.62697327e-012 -8.72818311e-012
      -8.72818311e-012 -8.72818311e-012 -8.72818311e-012
      -8.72818311e-012 -8.72818311e-012 -8.72818311e-012
      -8.72818311e-012 -8.72818311e-012 -8.72818311e-012
      -8.72818311e-012 -8.55036875e-012 -8.55036875e-012
      -8.72825076e-012 -8.49072809e-012 -8.49072809e-012
      -8.10698383e-012 -8.10698383e-012 -8.72857949e-012
      -8.72857949e-012 -8.72857949e-012 -8.10698383e-012
      -8.10749645e-012 -8.01735414e-012 -5.97347952e-012
      -1.53821693e-012 0. 0. 0. 0. 0. 0. 0. 0. 0. 0. 0. 0. 0. 0. 0. 0.
      0. 0. 0. 0. 0. 0. 0. 0. 0. 0. 0. 0. 0. 0. 0. 0. 0. 0. 0. 0. 0. 0.
      0. 0. 0. 0. 0. 0. 0. 0. 0. 0. 0. 0. 0. 0. 0. 0. 0. 0. 0. 0. 0. 0.
      0. 0. 0. 0. 0. 0. 0. 0. 0. 0. 0. 0. 0. 0. 0. 0. 0. 0. 0. 0. 0. 0.
      0. 0. 0. 0. 0. 0. 0. 0. 0. 0. 0. 0. 0. 0. 0. 0. 0. 0. 0. 0. 0. 0.
      0. 0. 0. 0. -1.15153969e-012 -4.99685926e-012 -7.42273170e-012
      -7.96913230e-012 -8.62702878e-012 -8.72818311e-012
      -8.72818311e-012 -7.65438147e-012 -7.65438147e-012
      -7.65438147e-012 -7.65438147e-012 -7.65438147e-012
      -7.65438147e-012 -7.65438147e-012 -7.65438147e-012
      -7.47656711e-012 -7.47656711e-012 -7.65444999e-012
      -7.65444999e-012 -7.41692732e-012 -7.41692732e-012
      -7.03318306e-012 -7.03318306e-012 -7.65477872e-012
      -7.65477872e-012 -7.65477872e-012 -7.65477872e-012
      -8.72857949e-012 -8.72909210e-012 -8.01759180e-012
      -6.21109327e-012 -1.53821693e-012 0. 0. 0. 0. 0. 0. 0. 0. 0. 0. 0.
      0. 0. 0. 0. 0. 0. 0. 0. 0. 0. 0. 0. 0. 0. 0. 0. 0. 0. 0. 0. 0. 0.
      0. 0. 0. 0. 0. 0. 0. 0. 0. 0. 0. 0. 0. 0. 0. 0. 0. 0. 0. 0. 0. 0.
      0. 0. 0. 0. 0. 0. 0. 0. 0. 0. 0. 0. 0. 0. 0. 0. 0. 0. 0. 0. 0. 0.
      0. 0. 0. 0. 0. 0. 0. 0. 0. 0. 0. 0. 0. 0. 0. 0. 0. 0. 0. 0. 0. 0.
      0. 0. 0. 0. 0. 0. 0. 0. 0. -5.17550109e-012 -7.42273170e-012
      -7.31105888e-012 -8.72911726e-012 -7.56708151e-012
      -7.65438147e-012 -7.65438147e-012 -7.65509010e-012
      -7.65509010e-012 -7.65509010e-012 -7.65509010e-012
      -7.65509010e-012 -7.65509010e-012 -7.65509010e-012
      -7.47727574e-012 -7.47727574e-012 -7.65515776e-012
      -7.41763508e-012 -7.41763508e-012 -7.65524883e-012
      -7.03389083e-012 -7.03389083e-012 -7.65548649e-012
      -7.65548649e-012 -7.65548649e-012 -7.65548649e-012
      -7.65548649e-012 -7.65477872e-012 -7.65477872e-012
      -8.72956481e-012 -7.35997981e-012 -5.56217832e-012 0. 0. 0. 0. 0.
      0. 0. 0. 0. 0. 0. 0. 0. 0. 0. 0. 0. 0. 0. 0. 0. 0. 0. 0. 0. 0. 0.
      0. 0. 0. 0. 0. 0. 0. 0. 0. 0. 0. 0. 0. 0. 0. 0. 0. 0. 0. 0. 0. 0.
      0. 0. 0. 0. 0. 0. 0. 0. 0. 0. 0. 0. 0. 0. 0. 0. 0. 0. 0. 0. 0. 0.
      0. 0. 0. 0. 0. 0. 0. 0. 0. 0. 0. 0. 0. 0. 0. 0. 0. 0. 0. 0. 0. 0.
      0. 0. 0. 0. 0. 0. 0. 0. 0. 0. 0. 0. 0. 0. -1.15153969e-012
      -6.71289066e-012 -6.11030280e-012 -7.57071923e-012
      -7.56714223e-012 -7.65509010e-012 -7.65509010e-012
      -7.65509010e-012 -7.65509010e-012 -7.65509010e-012
      -7.65509010e-012 -7.65509010e-012 -7.65509010e-012
      -7.47727574e-012 -7.47727574e-012 -7.65515776e-012
      -2.12812255e-012 -2.12812255e-012 -2.12812255e-012
      -2.36573630e-012 -1.74437851e-012 -1.74437851e-012
      -2.36597395e-012 -2.36597395e-012 -2.36597395e-012
      -2.36597395e-012 -2.36597395e-012 -2.36597395e-012
      -7.65548649e-012 -7.82135988e-012 -7.65529046e-012
      -8.01764731e-012 -6.12649601e-012 -1.53821693e-012 0. 0. 0. 0. 0.
      0. 0. 0. 0. 0. 0. 0. 0. 0. 0. 0. 0. 0. 0. 0. 0. 0. 0. 0. 0. 0. 0.
      0. 0. 0. 0. 0. 0. 0. 0. 0. 0. 0. 0. 0. 0. 0. 0. 0. 0. 0. 0. 0. 0.
      0. 0. 0. 0. 0. 0. 0. 0. 0. 0. 0. 0. 0. 0. 0. 0. 0. 0. 0. 0. 0. 0.
      0. 0. 0. 0. 0. 0. 0. 0. 0. 0. 0. 0. 0. 0. 0. 0. 0. 0. 0. 0. 0. 0.
      0. 0. 0. 0. 0. 0. 0. 0. 0. 0. 0. 0. 0. -7.77384410e-014
      -6.35182141e-012 -7.00609536e-012 -2.26442324e-012
      -2.36557236e-012 -2.36557735e-012 -2.36557735e-012
      -2.36557735e-012 -7.65509010e-012 -7.65509010e-012
      -7.65509010e-012 -7.65509010e-012 -7.47727574e-012
      -7.47727574e-012 -2.12812255e-012 -2.12812255e-012
      -2.36922331e-012 -2.36922331e-012 -2.36922331e-012
      -2.36922331e-012 -1.74786563e-012 -2.36946118e-012
      -2.36946118e-012 -2.36946118e-012 -2.36946118e-012
      -2.36946118e-012 -2.36946118e-012 -2.36946118e-012
      -2.36597395e-012 -2.36597395e-012 -2.53235974e-012
      -6.94384611e-012 -5.50224796e-012 -5.56217832e-012 0. 0. 0. 0. 0.
      0. 0. 0. 0. 0. 0. 0. 0. 0. 0. 0. 0. 0. 0. 0. 0. 0. 0. 0. 0. 0. 0.
      0. 0. 0. 0. 0. 0. 0. 0. 0. 0. 0. 0. 0. 0. 0. 0. 0. 0. 0. 0. 0. 0.
      0. 0. 0. 0. 0. 0. 0. 0. 0. 0. 0. 0. 0. 0. 0. 0. 0. 0. 0. 0. 0. 0.
      0. 0. 0. 0. 0. 0. 0. 0. 0. 0. 0. 0. 0. 0. 0. 0. 0. 0. 0. 0. 0. 0.
      0. 0. 0. 0. 0. 0. 0. 0. 0. 0. 0. 1.07380120e-012 -7.77384410e-014
      -5.63979722e-012 -1.05902125e-012 -2.28191511e-012
      -2.36912031e-012 -2.36906458e-012 -2.36906458e-012
      -2.36906458e-012 -2.36906458e-012 -2.36557735e-012
      -2.36557735e-012 -2.36557735e-012 -2.18776299e-012
      -2.18776299e-012 -2.12812255e-012 -2.94869923e-012
      -2.36922331e-012 -2.36922331e-012 -2.36922331e-012
      -2.36922331e-012 -1.74786563e-012 -2.36946118e-012
      -2.36946118e-012 -2.36946118e-012 -2.36946118e-012
      -2.36946118e-012 -2.71404047e-013 -2.71404047e-013
      -1.61347945e-013 -2.25940512e-012 -2.36950325e-012
      -2.36997314e-012 -1.82015644e-012 -9.11663323e-013
      -6.12751039e-012 0. 0. 0. 0. 0. 0. 0. 0. 0. 0. 0. 0. 0. 0. 0. 0.
      0. 0. 0. 0. 0. 0. 0. 0. 0. 0. 0. 0. 0. 0. 0. 0. 0. 0. 0. 0. 0. 0.
      0. 0. 0. 0. 0. 0. 0. 0. 0. 0. 0. 0. 0. 0. 0. 0. 0. 0. 0. 0. 0. 0.
      0. 0. 0. 0. 0. 0. 0. 0. 0. 0. 0. 0. 0. 0. 0. 0. 0. 0. 0. 0. 0. 0.
      0. 0. 0. 0. 0. 0. 0. 0. 0. 0. 0. 0. 0. 0. 0. 0. 0. 0. 0. 0.
      1.07380120e-012 1.07380120e-012 1.07309333e-012 -7.84463572e-014
      -1.06301675e-012 -2.53715972e-012 -2.36952645e-012
      -2.35599647e-012 -2.71007446e-013 -2.71007446e-013
      -2.71007446e-013 -2.71007446e-013 -2.71007446e-013
      -2.36906458e-012 -2.19125022e-012 -2.19125022e-012
      -2.13160956e-012 -2.13160956e-012 -2.36922331e-012
      -2.36922331e-012 -2.71166336e-013 -2.71166336e-013 3.50191420e-013
      3.50191420e-013 -2.71404047e-013 -2.71404047e-013 -2.71404047e-013
      -2.71404047e-013 -2.71404047e-013 -2.72787191e-013
      -1.62731116e-013 -1.62731116e-013 -2.71446141e-013
      -2.71446141e-013 -2.25940512e-012 -2.37050158e-012
      -1.89882181e-012 2.36817429e-013 -1.53821693e-012 0. 0.
      1.07380120e-012 1.07380120e-012 1.07380120e-012 1.07380120e-012
      1.07380120e-012 0. 0. 0. 0. 0. 0. 0. 0. 0. 0. 0. 0. 0. 0. 0. 0. 0.
      0. 0. 0. 0. 0. 0. 0. 0. 0. 0. 0. 0. 0. 0. 0. 0. 0. 0. 0. 0. 0. 0.
      0. 0. 0. 0. 0. 0. 0. 0. 0. 0. 0. 0. 0. 0. 0. 0. 0. 0. 0. 0. 0. 0.
      0. 0. 0. 0. 0. 0. 0. 0. 0. 0. 0. 0. 0. 0. 0. 0. 0. 0. 0. 0. 0. 0.
      0. 0. 0. 0. 0. 0. 0. 0. 0. 0. 0. 1.07380120e-012 1.07309333e-012
      -7.84463572e-014 -5.46198286e-012 -1.05902125e-012
      -1.80466698e-012 -2.58345564e-013 -2.71007446e-013 6.91007255e-016
      6.91007255e-016 6.91007255e-016 -2.72390590e-013 -2.72390590e-013
      -9.31930789e-014 -9.31930789e-014 -3.35525471e-014
      -3.35525471e-014 -2.71166336e-013 -2.71166336e-013
      -2.71166336e-013 5.32114568e-016 3.48808249e-013 3.48808249e-013
      -2.72787191e-013 -2.72787191e-013 -2.72787191e-013
      -2.72787191e-013 -2.72787191e-013 -1.62731116e-013 1.10350497e-013
      2.52302686e-016 2.52302686e-016 2.52302686e-016 -2.72829312e-013
      -2.71446141e-013 -2.72388720e-013 -1.00045525e-012 2.32622352e-013
      4.82509692e-012 6.36331352e-012 1.07380120e-012 1.07309333e-012
      1.07309333e-012 1.07309333e-012 1.07309333e-012 9.07219449e-013
      1.07380120e-012 0. 0. 0. 0. 0. 0. 0. 0. 0. 0. 0. 0. 0. 0. 0. 0. 0.
      0. 0. 0. 0. 0. 0. 0. 0. 0. 0. 0. 0. 0. 0. 0. 0. 0. 0. 0. 0. 0. 0.
      0. 0. 0. 0. 0. 0. 0. 0. 0. 0. 0. 0. 0. 0. 0. 0. 0. 0. 0. 0. 0. 0.
      0. 0. 0. 0. 0. 0. 0. 0. 0. 0. 0. 0. 0. 0. 0. 0. 0. 0. 0. 0. 0. 0.
      0. 0. 0. 0. 0. 0. 0. 0. 0. 1.07380120e-012 1.07309333e-012
      1.07309333e-012 -7.84463572e-014 -1.06301675e-012 -1.80466698e-012
      -2.58345564e-013 -3.23403251e-013 6.91007255e-016 5.10975167e-016
      5.10975167e-016 5.10975167e-016 6.91007255e-016 1.78505363e-013
      1.78505363e-013 6.22982092e-016 2.38145902e-013 5.32114568e-016
      5.32114568e-016 5.32114568e-016 5.32114568e-016 6.21709823e-013
      6.21889855e-013 2.94406074e-016 2.94406074e-016 2.94406074e-016
      2.94406074e-016 2.94406074e-016 1.10350497e-013 1.10350497e-013
      7.22705650e-017 7.22705650e-017 7.22705650e-017 7.22705650e-017
      2.52302686e-016 2.52302686e-016 -5.97396264e-013 3.84869979e-013
      2.32622352e-013 4.82090149e-012 5.54202908e-012 6.36260575e-012
      6.36260575e-012 6.36260575e-012 1.07309333e-012 1.07309333e-012
      1.07309333e-012 9.07219449e-013 1.07380120e-012 0. 0. 0. 0. 0. 0.
      0. 0. 0. 0. 0. 0. 0. 0. 0. 0. 0. 0. 0. 0. 0. 0. 0. 0. 0. 0. 0. 0.
      0. 0. 0. 0. 0. 0. 0. 0. 0. 0. 0. 0. 0. 0. 0. 0. 0. 0. 0. 0. 0. 0.
      0. 0. 0. 0. 0. 0. 0. 0. 0. 0. 0. 0. 0. 0. 0. 0. 0. 0. 0. 0. 0. 0.
      0. 0. 0. 0. 0. 0. 0. 0. 0. 0. 0. 0. 0. 0. 0. 0. 0. 0. 0.
      1.07380120e-012 1.07309333e-012 -7.84463572e-014 -3.50284932e-013
      -1.87959804e-012 -1.80466698e-012 1.66807734e-015 -4.16729029e-014
      5.10975167e-016 5.10975167e-016 5.10975167e-016 5.10975167e-016
      1.78325331e-013 1.78325331e-013 4.42949977e-016 2.37965870e-013
      3.52082479e-016 3.52082479e-016 3.52082479e-016 3.52082479e-016
      6.21709823e-013 6.21709823e-013 1.14373959e-016 1.14373959e-016
      1.14373959e-016 1.14373959e-016 1.10170465e-013 1.10170465e-013
      7.22705650e-017 7.22705650e-017 7.22705650e-017 7.22705650e-017
      7.22705650e-017 7.22705650e-017 7.22705650e-017 -4.21116050e-014
      2.94406074e-016 -5.98625316e-013 2.24873549e-012 7.96940367e-013
      6.35911853e-012 6.35911853e-012 6.35911853e-012 6.35911853e-012
      6.36260575e-012 6.36260575e-012 1.07309333e-012 1.07309333e-012
      1.07380120e-012 0. 0. 0. 0. 0. 0. 0. 0. 0. 0. 0. 0. 0. 0. 0. 0. 0.
      0. 0. 0. 0. 0. 0. 0. 0. 0. 0. 0. 0. 0. 0. 0. 0. 0. 0. 0. 0. 0. 0.
      0. 0. 0. 0. 0. 0. 0. 0. 0. 0. 0. 0. 0. 0. 0. 0. 0. 0. 0. 0. 0. 0.
      0. 0. 0. 0. 0. 0. 0. 0. 0. 0. 0. 0. 0. 0. 0. 0. 0. 0. 0. 0. 0. 0.
      0. 0. 0. 0. 0. 0. 0. 1.07380120e-012 1.07309333e-012
      1.07309333e-012 5.21106595e-012 -1.17086169e-012 -1.72058212e-012
      1.61230593e-015 -4.16729029e-014 5.10975167e-016 5.10975167e-016
      5.10975167e-016 5.10975167e-016 1.78325331e-013 1.78325331e-013
      4.42949977e-016 2.37965870e-013 2.37965870e-013 3.52082479e-016
      3.52082479e-016 3.52082479e-016 2.97615556e-013 2.97615556e-013
      -3.23979884e-013 -3.23979884e-013 1.14373959e-016 1.10170465e-013
      1.10170465e-013 7.22705650e-017 7.22705650e-017 7.22705650e-017
      7.22705650e-017 1.01688345e-013 7.22705650e-017 7.22705650e-017
      7.22705650e-017 7.22705650e-017 7.22705650e-017 -4.21116050e-014
      -1.44945612e-015 2.24735226e-012 2.89499739e-012 8.45717593e-012
      8.45717593e-012 8.45717593e-012 8.45717593e-012 6.35911853e-012
      5.54202908e-012 6.36260575e-012 1.07309333e-012 1.07380120e-012 0.
      0. 0. 0. 0. 0. 0. 0. 0. 0. 0. 0. 0. 0. 0. 0. 0. 0. 0. 0. 0. 0. 0.
      0. 0. 0. 0. 0. 0. 0. 0. 0. 0. 0. 0. 0. 0. 0. 0. 0. 0. 0. 0. 0. 0.
      0. 0. 0. 0. 0. 0. 0. 0. 0. 0. 0. 0. 0. 0. 0. 0. 0. 0. 0. 0. 0. 0.
      0. 0. 0. 0. 0. 0. 0. 0. 0. 0. 0. 0. 0. 0. 0. 0. 0. 0. 0. 0. 0. 0.
      0. 1.07380120e-012 1.07309333e-012 6.36260575e-012 2.85227245e-012
      -1.06539896e-012 6.51068555e-013 -3.66229020e-013 5.10975167e-016
      5.10975167e-016 5.10975167e-016 1.78325331e-013 1.78325331e-013
      4.42949977e-016 4.42949977e-016 2.37965870e-013 2.37965870e-013
      3.52082479e-016 3.52082479e-016 3.52082479e-016 2.97615556e-013
      6.21585899e-013 -8.17099155e-013 -7.07043040e-013 -1.03101338e-012
      -2.13923795e-013 7.22705650e-017 7.22705650e-017 7.22705650e-017
      7.22705650e-017 1.01688345e-013 1.01688345e-013 3.33960110e-017
      1.01688345e-013 1.01688345e-013 8.73677148e-014 7.22705650e-017
      7.22705650e-017 7.22705650e-017 -4.38133653e-014 2.52043373e-012
      2.89361438e-012 8.45579249e-012 8.45579249e-012 8.45579249e-012
      8.45579249e-012 8.73025697e-012 8.45717593e-012 6.36260575e-012
      1.07309333e-012 1.07380120e-012 0. 0. 0. 0. 0. 0. 0. 0. 0. 0. 0.
      0. 0. 0. 0. 0. 0. 0. 0. 0. 0. 0. 0. 0. 0. 0. 0. 0. 0. 0. 0. 0. 0.
      0. 0. 0. 0. 0. 0. 0. 0. 0. 0. 0. 0. 0. 0. 0. 0. 0. 0. 0. 0. 0. 0.
      0. 0. 0. 0. 0. 0. 0. 0. 0. 0. 0. 0. 0. 0. 0. 0. 0. 0. 0. 0. 0. 0.
      0. 0. 0. 0. 0. 0. 0. 0. 0. 0. 0. 0. 1.07380120e-012
      1.07309333e-012 6.36260575e-012 4.39048927e-012 3.67018915e-012
      1.30573970e-012 -3.66701732e-013 5.10975167e-016 5.10975167e-016
      5.10975167e-016 1.78325331e-013 1.78325331e-013 4.42949977e-016
      4.42949977e-016 2.37965870e-013 2.37965870e-013 3.52082479e-016
      3.52082479e-016 6.21709823e-013 2.97615556e-013 -8.17099155e-013
      -7.07043040e-013 1.09734060e-013 -3.64137267e-016 -3.64137267e-016
      -1.14111162e-012 -1.14111162e-012 -8.17017298e-013
      -7.15401263e-013 -7.15401263e-013 3.33960110e-017 3.33960110e-017
      3.33960110e-017 8.73288394e-014 8.73288394e-014 1.01654952e-013
      1.88983784e-013 8.73677148e-014 7.22705650e-017 -3.58343032e-016
      6.55982321e-013 3.16669586e-012 8.72887439e-012 8.72887439e-012
      8.72887439e-012 8.72887439e-012 8.72869398e-012 8.40477948e-012
      8.73374463e-012 1.07380120e-012 0. 0. 0. 0. 0. 0. 0. 0. 0. 0. 0.
      0. 0. 0. 0. 0. 0. 0. 0. 0. 0. 0. 0. 0. 0. 0. 0. 0. 0. 0. 0. 0. 0.
      0. 0. 0. 0. 0. 0. 0. 0. 0. 0. 0. 0. 0. 0. 0. 0. 0. 0. 0. 0. 0. 0.
      0. 0. 0. 0. 0. 0. 0. 0. 0. 0. 0. 0. 0. 0. 0. 0. 0. 0. 0. 0. 0. 0.
      0. 0. 0. 0. 0. 0. 0. 0. 0. 0. 0. 0. 0. 1.07380120e-012
      1.07309333e-012 6.36260575e-012 5.76741909e-012 6.04243261e-012
      7.81733348e-013 1.77863461e-013 1.78325331e-013 1.78325331e-013
      1.78325331e-013 1.78325331e-013 4.42949977e-016 4.42949977e-016
      2.37965870e-013 2.37965870e-013 3.52082479e-016 6.21709823e-013
      6.21709823e-013 1.14373959e-016 -1.03101338e-012 -7.07043040e-013
      -1.66237981e-013 -1.66237981e-013 -1.66237981e-013
      -3.64137267e-016 -3.64137267e-016 -3.64137267e-016
      -2.22718382e-013 -2.22718382e-013 -3.24373341e-013
      -1.14115043e-012 -1.14115043e-012 8.73288394e-014 8.73288394e-014
      1.61558713e-027 1.61558713e-027 1.61558713e-027 1.01654952e-013
      8.73677148e-014 1.01688345e-013 -1.68525972e-015 2.60118381e-012
      8.72869398e-012 8.72869398e-012 8.72869398e-012 8.72869398e-012
      8.72869398e-012 8.72869398e-012 8.69138095e-012 1.34688278e-012 0.
      0. 0. 0. 0. 0. 0. 0. 0. 0. 0. 0. 0. 0. 0. 0. 0. 0. 0. 0. 0. 0. 0.
      0. 0. 0. 0. 0. 0. 0. 0. 0. 0. 0. 0. 0. 0. 0. 0. 0. 0. 0. 0. 0. 0.
      0. 0. 0. 0. 0. 0. 0. 0. 0. 0. 0. 0. 0. 0. 0. 0. 0. 0. 0. 0. 0. 0.
      0. 0. 0. 0. 0. 0. 0. 0. 0. 0. 0. 0. 0. 0. 0. 0. 0. 0. 0. 0. 0. 0.
      1.07380120e-012 1.07309333e-012 8.46066273e-012 8.45717593e-012
      6.03911756e-012 5.28588588e-012 6.46546781e-013 -1.89190070e-017
      4.42949977e-016 4.42949977e-016 4.42949977e-016 4.42949977e-016
      4.42949977e-016 2.37965870e-013 2.37965870e-013 6.21709823e-013
      6.21709823e-013 1.14373959e-016 1.14373959e-016 -1.03101338e-012
      -7.07043040e-013 -6.46219122e-014 -6.46219122e-014 1.01188507e-013
      1.88483953e-013 2.26735338e-014 1.01251940e-013 1.01251940e-013
      1.01251940e-013 -4.03011818e-016 -4.03011818e-016 -4.03011818e-016
      8.68924277e-014 -1.05385503e-012 -1.14118383e-012 1.61558713e-027
      1.61558713e-027 1.61558713e-027 1.61558713e-027 1.61558713e-027
      1.61558713e-027 1.08938581e-013 1.80385503e-012 8.72869398e-012
      8.72869398e-012 8.72869398e-012 8.72869398e-012 8.72869398e-012
      8.72869398e-012 8.73356422e-012 1.34688278e-012 0. 0. 0. 0. 0. 0.
      0. 0. 0. 0. 0. 0. 0. 0. 0. 0. 0. 0. 0. 0. 0. 0. 0. 0. 0. 0. 0. 0.
      0. 0. 0. 0. 0. 0. 0. 0. 0. 0. 0. 0. 0. 0. 0. 0. 0. 0. 0. 0. 0. 0.
      0. 0. 0. 0. 0. 0. 0. 0. 0. 0. 0. 0. 0. 0. 0. 0. 0. 0. 0. 0. 0. 0.
      0. 0. 0. 0. 0. 0. 0. 0. 0. 0. 0. 0. 0. 0. 0. 0. 0. 1.07380120e-012
      3.17115041e-012 2.84567292e-012 8.73236119e-012 5.99675344e-012
      5.32806958e-012 8.12146981e-014 3.87178522e-016 4.42949977e-016
      4.42949977e-016 4.42949977e-016 4.42949977e-016 4.42949977e-016
      2.37965870e-013 6.21709823e-013 6.21709823e-013 1.14373959e-016
      1.14373959e-016 1.10170465e-013 -9.29397293e-013 -6.46219122e-014
      -1.66276864e-013 8.68289951e-014 8.68289951e-014 -4.99840760e-016
      -1.66310257e-013 8.68924277e-014 8.68924277e-014 8.68924277e-014
      8.68924277e-014 8.68924277e-014 8.68924277e-014 8.68924277e-014
      -4.36407812e-016 -8.17213539e-013 -1.14118383e-012 1.61558713e-027
      1.61558713e-027 1.61558713e-027 1.61558713e-027 1.61558713e-027
      1.00895786e-013 1.14679544e-012 7.19047695e-012 8.72869398e-012
      8.72869398e-012 8.72869398e-012 8.72869398e-012 8.72869398e-012
      8.73356422e-012 1.34688278e-012 0. 0. 0. 0. 0. 0. 0. 0. 0. 0. 0.
      0. 0. 0. 0. 0. 0. 0. 0. 0. 0. 0. 0. 0. 0. 0. 0. 0. 0. 0. 0. 0. 0.
      0. 0. 0. 0. 0. 0. 0. 0. 0. 0. 0. 0. 0. 0. 0. 0. 0. 0. 0. 0. 0. 0.
      0. 0. 0. 0. 0. 0. 0. 0. 0. 0. 0. 0. 0. 0. 0. 0. 0. 0. 0. 0. 0. 0.
      0. 0. 0. 0. 0. 0. 0. 0. 0. 0. 0. 0. 0. 3.17185839e-012
      3.16976718e-012 7.58082139e-012 6.03969652e-012 5.32806958e-012
      6.46546781e-013 -1.89190070e-017 4.42949977e-016 4.42949977e-016
      4.42949977e-016 4.42949977e-016 2.37965870e-013 6.21709823e-013
      6.21709823e-013 1.14373959e-016 1.14373959e-016 1.14373959e-016
      -9.29397293e-013 1.01251940e-013 -1.66276864e-013 8.68289951e-014
      8.68289951e-014 -4.99840760e-016 -4.99840760e-016 -1.66310257e-013
      -4.36407812e-016 -4.36407812e-016 -4.36407812e-016
      -4.36407812e-016 -4.36407812e-016 -4.36407812e-016
      -4.36407812e-016 -4.36407812e-016 -4.36407812e-016
      -8.17213539e-013 -3.24094267e-013 1.61558713e-027 1.61558713e-027
      1.61558713e-027 1.61558713e-027 1.61558713e-027 -1.71865568e-015
      2.60118381e-012 8.72869398e-012 8.72869398e-012 8.72869398e-012
      8.72869398e-012 8.72869398e-012 8.73356422e-012 1.34688278e-012 0.
      0. 0. 0. 0. 0. 0. 0. 0. 0. 0. 0. 0. 0. 0. 0. 0. 0. 0. 0. 0. 0. 0.
      0. 0. 0. 0. 0. 0. 0. 0. 0. 0. 0. 0. 0. 0. 0. 0. 0. 0. 0. 0. 0. 0.
      0. 0. 0. 0. 0. 0. 0. 0. 0. 0. 0. 0. 0. 0. 0. 0. 0. 0. 0. 0. 0. 0.
      0. 0. 0. 0. 0. 0. 0. 0. 0. 0. 0. 0. 0. 0. 0. 0. 0. 0. 0. 0. 0. 0.
      2.09805719e-012 3.17047517e-012 3.44284887e-012 7.58064184e-012
      6.03969652e-012 6.46034821e-013 6.49910085e-013 -1.89190070e-017
      4.42949977e-016 4.42949977e-016 4.42949977e-016 2.37965870e-013
      8.59323626e-013 6.21709823e-013 1.14373959e-016 1.14373959e-016
      1.14373959e-016 -2.13923795e-013 -1.03949553e-012 -4.03011818e-016
      -7.89814178e-014 -7.89814178e-014 -4.99840760e-016
      -4.99840760e-016 -4.99840760e-016 -1.66310257e-013
      -4.36407812e-016 -4.36407812e-016 -4.36407812e-016
      -4.36407812e-016 -4.36407812e-016 -4.36407812e-016
      -4.36407812e-016 -4.36407812e-016 -8.17213539e-013
      -8.17213539e-013 -3.24094267e-013 1.61558713e-027 1.61558713e-027
      1.61558713e-027 1.61558713e-027 1.61558713e-027 -1.71865568e-015
      2.60118381e-012 8.72869398e-012 8.72869398e-012 8.72869398e-012
      8.72869398e-012 8.72869398e-012 8.73427199e-012 2.73081606e-013 0.
      0. 0. 0. 0. 0. 0. 0. 0. 0. 0. 0. 0. 0. 0. 0. 0. 0. 0. 0. 0. 0. 0.
      0. 0. 0. 0. 0. 0. 0. 0. 0. 0. 0. 0. 0. 0. 0. 0. 0. 0. 0. 0. 0. 0.
      0. 0. 0. 0. 0. 0. 0. 0. 0. 0. 0. 0. 0. 0. 0. 0. 0. 0. 0. 0. 0. 0.
      0. 0. 0. 0. 0. 0. 0. 0. 0. 0. 0. 0. 0. 0. 0. 0. 0. 0. 0. 0. 0. 0.
      2.09805719e-012 2.36975543e-012 3.40119274e-012 7.58064184e-012
      1.30300350e-012 1.38085116e-012 6.49910085e-013 -1.89190070e-017
      4.42949977e-016 4.42949977e-016 2.37965870e-013 8.59323626e-013
      6.21709823e-013 1.14373959e-016 1.14373959e-016 1.14373959e-016
      -3.23979884e-013 -1.12307712e-013 -9.05430641e-017
      -7.29884686e-013 8.68924277e-014 -1.66310257e-013 -1.66310257e-013
      -1.66310257e-013 -1.66310257e-013 -1.66310257e-013
      -4.36407812e-016 -4.36407812e-016 -4.36407812e-016
      -4.36407812e-016 -4.36407812e-016 -4.36407812e-016
      -8.17213539e-013 -8.17213539e-013 -8.17213539e-013
      -1.23939078e-016 -3.24094267e-013 1.61558713e-027 1.61558713e-027
      1.61558713e-027 1.61558713e-027 1.61558713e-027 -1.71865568e-015
      2.60155656e-012 8.16336235e-012 8.72869398e-012 8.72869398e-012
      8.72869398e-012 8.72869398e-012 8.73427199e-012 2.73081606e-013 0.
      0. 0. 0. 0. 0. 0. 0. 0. 0. 0. 0. 0. 0. 0. 0. 0. 0. 0. 0. 0. 0. 0.
      0. 0. 0. 0. 0. 0. 0. 0. 0. 0. 0. 0. 0. 0. 0. 0. 0. 0. 0. 0. 0. 0.
      0. 0. 0. 0. 0. 0. 0. 0. 0. 0. 0. 0. 0. 0. 0. 0. 0. 0. 0. 0. 0. 0.
      0. 0. 0. 0. 0. 0. 0. 0. 0. 0. 0. 0. 0. 0. 0. 0. 0. 0. 0. 0. 0. 0.
      2.09805719e-012 2.36975543e-012 8.73288941e-012 7.57715418e-012
      2.84122053e-012 6.48332408e-013 5.65313204e-013 2.37559755e-013
      2.37965870e-013 2.37965870e-013 6.21709823e-013 6.21709823e-013
      1.14373959e-016 1.14373959e-016 1.14373959e-016 -3.23979884e-013
      -3.23979884e-013 2.11662597e-013 -9.05430641e-017 -7.29884686e-013
      -8.17213539e-013 -4.36407812e-016 -4.36407812e-016
      -4.36407812e-016 -4.26202856e-014 -4.36407812e-016
      -4.36407812e-016 -4.36407812e-016 -4.36407812e-016
      -4.36407812e-016 -8.17213539e-013 -8.17213539e-013
      -1.23939078e-016 1.29440399e-014 1.29440399e-014 -1.23939078e-016
      -3.24094267e-013 1.61558713e-027 1.61558713e-027 1.61558713e-027
      1.30679786e-014 -5.00503207e-018 -9.59490335e-016 1.45001676e-012
      8.16336235e-012 8.72869398e-012 8.72869398e-012 8.72869398e-012
      8.72869398e-012 8.73427199e-012 2.73081606e-013 0. 0. 0. 0. 0. 0.
      0. 0. 0. 0. 0. 0. 0. 0. 0. 0. 0. 0. 0. 0. 0. 0. 0. 0. 0. 0. 0. 0.
      0. 0. 0. 0. 0. 0. 0. 0. 0. 0. 0. 0. 0. 0. 0. 0. 0. 0. 0. 0. 0. 0.
      0. 0. 0. 0. 0. 0. 0. 0. 0. 0. 0. 0. 0. 0. 0. 0. 0. 0. 0. 0. 0. 0.
      0. 0. 0. 0. 0. 0. 0. 0. 0. 0. 0. 0. 0. 0. 0. 0. 0. 2.73081606e-013
      2.37095868e-012 8.73288941e-012 2.84046137e-012 2.84462297e-012
      6.48332408e-013 -1.09786501e-016 3.52082479e-016 3.52082479e-016
      6.21709823e-013 6.21709823e-013 1.14373959e-016 1.14373959e-016
      -3.23979884e-013 -3.23979884e-013 -9.56511129e-018 1.10046527e-013
      1.01564407e-013 8.72049015e-014 -1.23939078e-016 -8.17213539e-013
      -8.17213539e-013 -4.36407812e-016 -4.26202856e-014
      -4.52539634e-016 -4.26202856e-014 -4.36407812e-016
      -4.36407812e-016 -8.17213539e-013 -8.17213539e-013
      -1.23939078e-016 1.29440399e-014 1.29440399e-014 -1.28944103e-016
      -1.28944103e-016 1.29440399e-014 -3.11026270e-013 1.30679786e-014
      1.30679786e-014 1.30679786e-014 -5.00503207e-018 -5.00503207e-018
      -5.25647895e-016 7.91943171e-013 8.16336235e-012 8.72869398e-012
      8.72869398e-012 8.72869398e-012 8.72940175e-012 7.66047122e-012
      2.73081606e-013 0. 0. 0. 0. 0. 0. 0. 0. 0. 0. 0. 0. 0. 0. 0. 0. 0.
      0. 0. 0. 0. 0. 0. 0. 0. 0. 0. 0. 0. 0. 0. 0. 0. 0. 0. 0. 0. 0. 0.
      0. 0. 0. 0. 0. 0. 0. 0. 0. 0. 0. 0. 0. 0. 0. 0. 0. 0. 0. 0. 0. 0.
      0. 0. 0. 0. 0. 0. 0. 0. 0. 0. 0. 0. 0. 0. 0. 0. 0. 0. 0. 0. 0. 0.
      0. 0. 0. 0. 0. 0. 2.73081606e-013 7.66047122e-012 8.72940175e-012
      6.86442266e-012 6.45441871e-013 8.87432976e-013 6.21247953e-013
      6.21709823e-013 6.21709823e-013 1.14373959e-016 1.14373959e-016
      1.14373959e-016 -3.23979884e-013 -3.23979884e-013 -9.56511129e-018
      -9.56511129e-018 2.11662597e-013 -9.05430641e-017 8.72049015e-014
      -1.23939078e-016 -1.23939078e-016 -8.17213539e-013
      -8.17213539e-013 -4.26202856e-014 -4.52539634e-016
      -4.26202856e-014 -4.36407812e-016 -8.17213539e-013
      -8.17213539e-013 -1.23939078e-016 1.29440399e-014 1.29440399e-014
      -1.28944103e-016 -1.28944103e-016 -1.28944103e-016
      -3.24099254e-013 -3.24099254e-013 -5.00503207e-018
      -5.00503207e-018 -5.00503207e-018 -5.00503207e-018
      -5.00503207e-018 -5.25647895e-016 7.92957225e-013 6.62514488e-012
      8.72869398e-012 8.72869398e-012 8.72869398e-012 8.73288941e-012
      2.37113866e-012 0. 0. 0. 0. 0. 0. 0. 0. 0. 0. 0. 0. 0. 0. 0. 0. 0.
      0. 0. 0. 0. 0. 0. 0. 0. 0. 0. 0. 0. 0. 0. 0. 0. 0. 0. 0. 0. 0. 0.
      0. 0. 0. 0. 0. 0. 0. 0. 0. 0. 0. 0. 0. 0. 0. 0. 0. 0. 0. 0. 0. 0.
      0. 0. 0. 0. 0. 0. 0. 0. 0. 0. 0. 0. 0. 0. 0. 0. 0. 0. 0. 0. 0. 0.
      0. 0. 0. 0. 0. 0. 0. 2.73081606e-013 7.66047122e-012
      6.86513043e-012 6.86569378e-012 6.45441871e-013 6.49581517e-013
      -3.47495002e-016 1.14373959e-016 1.14373959e-016 1.14373959e-016
      1.14373959e-016 1.14373959e-016 -3.23979884e-013 -9.56511129e-018
      -9.56511129e-018 1.10046527e-013 2.11662597e-013 -9.05430641e-017
      8.72049015e-014 -1.23939078e-016 -1.23939078e-016 -1.23939078e-016
      -1.23939078e-016 -8.17213539e-013 -8.17213539e-013
      -8.17213539e-013 -8.17213539e-013 -8.17213539e-013
      -1.23939078e-016 1.29440399e-014 1.29440399e-014 -1.66002791e-013
      -3.24099254e-013 -3.24099254e-013 -3.24099254e-013
      -3.24099254e-013 -5.00503207e-018 -5.00503207e-018
      -5.00503207e-018 -5.00503207e-018 -5.00503207e-018
      -5.00503207e-018 -5.25647895e-016 7.95610106e-013 2.60118381e-012
      8.72869398e-012 8.72869398e-012 8.72869398e-012 8.73427199e-012
      2.73081606e-013 0. 0. 0. 0. 0. 0. 0. 0. 0. 0. 0. 0. 0. 0. 0. 0. 0.
      0. 0. 0. 0. 0. 0. 0. 0. 0. 0. 0. 0. 0. 0. 0. 0. 0. 0. 0. 0. 0. 0.
      0. 0. 0. 0. 0. 0. 0. 0. 0. 0. 0. 0. 0. 0. 0. 0. 0. 0. 0. 0. 0. 0.
      0. 0. 0. 0. 0. 0. 0. 0. 0. 0. 0. 0. 0. 0. 0. 0. 0. 0. 0. 0. 0. 0.
      0. 0. 0. 0. 0. 0. 0. 5.28951232e-012 7.65716397e-012
      6.86513043e-012 6.45441871e-013 1.27117696e-012 8.42493935e-014
      5.86025171e-017 1.14373959e-016 1.14373959e-016 1.14373959e-016
      1.14373959e-016 1.14373959e-016 -2.13923795e-013 -2.13923795e-013
      1.10046527e-013 1.01564407e-013 -9.05430641e-017 8.72049015e-014
      -1.23939078e-016 -1.23939078e-016 -1.23939078e-016
      -1.23939078e-016 1.29440399e-014 1.29440399e-014 1.29440399e-014
      1.29440399e-014 1.29440399e-014 -3.11026270e-013 -3.11026270e-013
      -4.76900149e-013 -4.89973134e-013 -3.24035720e-013
      -1.65878853e-013 -1.65878853e-013 -5.00503207e-018
      -5.00503207e-018 -5.00503207e-018 -5.00503207e-018
      -5.00503207e-018 -5.00503207e-018 -5.00503207e-018
      -5.00503207e-018 -5.25647895e-016 7.95610106e-013 2.60118381e-012
      8.72869398e-012 8.72869398e-012 8.72869398e-012 8.73356422e-012
      1.34688278e-012 0. 0. 0. 0. 0. 0. 0. 0. 0. 0. 0. 0. 0. 0. 0. 0. 0.
      0. 0. 0. 0. 0. 0. 0. 0. 0. 0. 0. 0. 0. 0. 0. 0. 0. 0. 0. 0. 0. 0.
      0. 0. 0. 0. 0. 0. 0. 0. 0. 0. 0. 0. 0. 0. 0. 0. 0. 0. 0. 0. 0. 0.
      0. 0. 0. 0. 0. 0. 0. 0. 0. 0. 0. 0. 0. 0. 0. 0. 0. 0. 0. 0. 0. 0.
      0. 0. 0. 0. 0. 0. 0. 5.28951232e-012 7.65716397e-012
      8.01666979e-012 6.44682712e-013 6.49581517e-013 8.42493935e-014
      5.86025171e-017 1.14373959e-016 1.14373959e-016 1.14373959e-016
      1.10170465e-013 1.10170465e-013 7.22705650e-017 -3.24021978e-013
      -2.22405902e-013 -2.22405902e-013 -2.36765414e-013 8.72049015e-014
      -1.23939078e-016 -1.23939078e-016 1.29440399e-014 1.29440399e-014
      -1.28944103e-016 -1.28944103e-016 -1.28944103e-016
      -3.24099254e-013 -3.24099254e-013 -1.65878853e-013
      -1.65878853e-013 5.85246033e-017 5.85246033e-017 5.85246033e-017
      5.85246033e-017 -1.65878853e-013 -1.65878853e-013 -5.00503207e-018
      -5.00503207e-018 -5.00503207e-018 -5.00503207e-018
      -5.00503207e-018 -5.00503207e-018 -5.00503207e-018
      -5.25647895e-016 7.95610106e-013 2.60118381e-012 8.72869398e-012
      8.72869398e-012 8.72869398e-012 8.73374463e-012 1.07380120e-012 0.
      0. 0. 0. 0. 0. 0. 0. 0. 0. 0. 0. 0. 0. 0. 0. 0. 0. 0. 0. 0. 0. 0.
      0. 0. 0. 0. 0. 0. 0. 0. 0. 0. 0. 0. 0. 0. 0. 0. 0. 0. 0. 0. 0. 0.
      0. 0. 0. 0. 0. 0. 0. 0. 0. 0. 0. 0. 0. 0. 0. 0. 0. 0. 0. 0. 0. 0.
      0. 0. 0. 0. 0. 0. 0. 0. 0. 0. 0. 0. 0. 0. 0. 0. 0. 0. 0. 0. 0. 0.
      0. 5.28951232e-012 8.73096560e-012 3.82612692e-012 6.47335538e-013
      6.49581517e-013 -3.47495002e-016 1.14373959e-016 1.14373959e-016
      1.14373959e-016 1.10170465e-013 1.10170465e-013 7.22705650e-017
      7.22705650e-017 1.01688345e-013 1.01688345e-013 8.73288394e-014
      8.73288394e-014 -3.24094267e-013 -3.24094267e-013 -3.11026270e-013
      -3.11026270e-013 -3.24099254e-013 -3.24099254e-013
      -3.24099254e-013 -4.89973134e-013 -1.65878853e-013
      -1.65878853e-013 5.85246033e-017 5.85246033e-017 -8.17031067e-013
      -8.17031067e-013 -8.17031067e-013 5.85246033e-017 5.85246033e-017
      -1.65878853e-013 -1.65878853e-013 -5.00503207e-018
      -5.00503207e-018 -5.00503207e-018 -5.00503207e-018
      -5.00503207e-018 -5.00503207e-018 -9.59490335e-016 1.45331100e-012
      3.16651588e-012 8.72869398e-012 8.72869398e-012 8.72869398e-012
      8.73356422e-012 1.34688278e-012 0. 0. 0. 0. 0. 0. 0. 0. 0. 0. 0.
      0. 0. 0. 0. 0. 0. 0. 0. 0. 0. 0. 0. 0. 0. 0. 0. 0. 0. 0. 0. 0. 0.
      0. 0. 0. 0. 0. 0. 0. 0. 0. 0. 0. 0. 0. 0. 0. 0. 0. 0. 0. 0. 0. 0.
      0. 0. 0. 0. 0. 0. 0. 0. 0. 0. 0. 0. 0. 0. 0. 0. 0. 0. 0. 0. 0. 0.
      0. 0. 0. 0. 0. 0. 0. 0. 0. 0. 0. 0. 0. 8.46137049e-012
      8.56300014e-012 3.99206449e-012 2.01967870e-012 4.82693583e-013
      1.09708595e-013 1.10170465e-013 1.10170465e-013 1.10170465e-013
      7.22705650e-017 7.22705650e-017 7.22705650e-017 1.01688345e-013
      -6.41855004e-014 -7.85450128e-014 -7.85450128e-014
      -1.65873852e-013 -1.65873852e-013 -1.52805869e-013
      -1.52805869e-013 -1.65878853e-013 -1.65878853e-013
      -1.65878853e-013 -1.65878853e-013 5.85246033e-017 -8.17031067e-013
      -8.17031067e-013 -8.17031067e-013 -8.17031067e-013 3.71469687e-016
      3.71469687e-016 3.71469687e-016 -8.17031067e-013 -8.17031067e-013
      5.85246033e-017 -1.65878853e-013 -5.00503207e-018 -5.00503207e-018
      -5.00503207e-018 -5.00503207e-018 -5.00503207e-018
      -5.00503207e-018 -9.59490335e-016 1.45331100e-012 3.16651588e-012
      8.72869398e-012 8.72869398e-012 8.72869398e-012 8.73356422e-012
      1.34688278e-012 0. 0. 0. 0. 0. 0. 0. 0. 0. 0. 0. 0. 0. 0. 0. 0. 0.
      0. 0. 0. 0. 0. 0. 0. 0. 0. 0. 0. 0. 0. 0. 0. 0. 0. 0. 0. 0. 0. 0.
      0. 0. 0. 0. 0. 0. 0. 0. 0. 0. 0. 0. 0. 0. 0. 0. 0. 0. 0. 0. 0. 0.
      0. 0. 0. 0. 0. 0. 0. 0. 0. 0. 0. 0. 0. 0. 0. 0. 0. 0. 0. 0. 0. 0.
      0. 0. 0. 0. 0. 0. 1.07380120e-012 8.29478933e-012 8.45585581e-012
      3.99224447e-012 2.18561605e-012 6.48588822e-013 -1.66263447e-013
      -1.65801577e-013 -1.65801577e-013 -1.65801577e-013
      -1.65801577e-013 -1.65801577e-013 -6.41855004e-014
      -6.41855004e-014 8.73923668e-014 8.73923668e-014 6.35296349e-017
      6.35296349e-017 6.35296349e-017 1.31315086e-014 5.85246033e-017
      5.85246033e-017 5.85246033e-017 5.85246033e-017 -8.17031067e-013
      -8.17031067e-013 3.71469687e-016 3.71469687e-016 3.71469687e-016
      3.71469687e-016 3.71469687e-016 3.71469687e-016 3.71469687e-016
      3.71469687e-016 -8.17031067e-013 -8.17031067e-013 5.85246033e-017
      -1.65878853e-013 -5.00503207e-018 -5.00503207e-018
      -5.00503207e-018 -5.00503207e-018 -5.00503207e-018
      -9.59490335e-016 1.44964412e-012 8.72869398e-012 8.72869398e-012
      8.72869398e-012 8.72869398e-012 8.73356422e-012 1.34688278e-012 0.
      0. 0. 0. 0. 0. 0. 0. 0. 0. 0. 0. 0. 0. 0. 0. 0. 0. 0. 0. 0. 0. 0.
      0. 0. 0. 0. 0. 0. 0. 0. 0. 0. 0. 0. 0. 0. 0. 0. 0. 0. 0. 0. 0. 0.
      0. 0. 0. 0. 0. 0. 0. 0. 0. 0. 0. 0. 0. 0. 0. 0. 0. 0. 0. 0. 0. 0.
      0. 0. 0. 0. 0. 0. 0. 0. 0. 0. 0. 0. 0. 0. 0. 0. 0. 0. 0. 0. 0. 0.
      1.07380120e-012 8.46072604e-012 8.45585581e-012 3.99224447e-012
      2.18557399e-012 5.63991941e-013 -2.70297319e-016 1.35800200e-016
      1.01751879e-013 1.01751879e-013 1.01751879e-013 1.01751879e-013
      1.01751879e-013 8.73923668e-014 8.73923668e-014 6.35296349e-017
      6.35296349e-017 6.35296349e-017 1.31315086e-014 5.85246033e-017
      5.85246033e-017 -8.17031067e-013 -8.17031067e-013 -8.17031067e-013
      3.71469687e-016 3.71469687e-016 3.71469687e-016 3.71469687e-016
      3.71469687e-016 3.71469687e-016 3.71469687e-016 -4.18124059e-014
      -4.18124059e-014 -4.18124059e-014 3.71469687e-016 -8.17031067e-013
      5.85246033e-017 -1.65878853e-013 -5.00503207e-018 -5.00503207e-018
      -5.00503207e-018 -5.00503207e-018 -5.00503207e-018
      -9.59490335e-016 1.45065817e-012 7.19047695e-012 8.72869398e-012
      8.72869398e-012 8.72869398e-012 8.73356422e-012 1.34688278e-012 0.
      0. 0. 0. 0. 0. 0. 0. 0. 0. 0. 0. 0. 0. 0. 0. 0. 0. 0. 0. 0. 0. 0.
      0. 0. 0. 0. 0. 0. 0. 0. 0. 0. 0. 0. 0. 0. 0. 0. 0. 0. 0. 0. 0. 0.
      0. 0. 0. 0. 0. 0. 0. 0. 0. 0. 0. 0. 0. 0. 0. 0. 0. 0. 0. 0. 0. 0.
      0. 0. 0. 0. 0. 0. 0. 0. 0. 0. 0. 0. 0. 0. 0. 0. 0. 0. 0. 0. 0.
      1.07380120e-012 3.17121394e-012 8.45934347e-012 4.43189496e-012
      3.99489729e-012 2.84364763e-012 5.63519229e-013 -2.70297319e-016
      1.01751879e-013 9.69256493e-017 9.69256493e-017 9.69256493e-017
      9.69256493e-017 8.73923668e-014 8.73923668e-014 6.35296349e-017
      6.35296349e-017 -8.17026080e-013 -8.17026080e-013 -8.03958083e-013
      -8.17031067e-013 -8.17031067e-013 3.71469687e-016 3.71469687e-016
      3.71469687e-016 3.71469687e-016 3.71469687e-016 3.71469687e-016
      3.71469687e-016 -4.18124059e-014 -4.18124059e-014 -3.65906659e-013
      3.87626099e-016 3.87626099e-016 3.87626099e-016 -4.18124059e-014
      -8.59214934e-013 5.85246033e-017 -1.65878853e-013 -5.00503207e-018
      -5.00503207e-018 -5.00503207e-018 1.77877380e-013 1.77877380e-013
      -9.59490335e-016 1.45065817e-012 7.19047695e-012 8.72869398e-012
      8.72869398e-012 8.72869398e-012 8.73427199e-012 2.73081606e-013 0.
      0. 0. 0. 0. 0. 0. 0. 0. 0. 0. 0. 0. 0. 0. 0. 0. 0. 0. 0. 0. 0. 0.
      0. 0. 0. 0. 0. 0. 0. 0. 0. 0. 0. 0. 0. 0. 0. 0. 0. 0. 0. 0. 0. 0.
      0. 0. 0. 0. 0. 0. 0. 0. 0. 0. 0. 0. 0. 0. 0. 0. 0. 0. 0. 0. 0. 0.
      0. 0. 0. 0. 0. 0. 0. 0. 0. 0. 0. 0. 0. 0. 0. 0. 0. 0. 0. 0. 0.
      1.07380120e-012 3.17121394e-012 8.45934347e-012 3.71916300e-012
      3.99536740e-012 2.18557399e-012 6.65608031e-013 5.65022909e-013
      -3.09171896e-016 9.69256493e-017 8.73923668e-014 8.73923668e-014
      8.73923668e-014 6.35296349e-017 -8.17026080e-013 -8.17026080e-013
      -8.17026080e-013 3.76474699e-016 1.34444534e-014 3.71469687e-016
      3.71469687e-016 3.71469687e-016 3.71469687e-016 3.71469687e-016
      -4.18124059e-014 -3.65906659e-013 -3.65906659e-013
      -3.65906659e-013 -3.65906659e-013 -3.23706638e-013
      -3.23706638e-013 5.11754119e-016 -3.23706638e-013 -3.23706638e-013
      3.87626099e-016 3.87626099e-016 -8.17014913e-013 -4.21253507e-014
      -2.08062734e-013 -5.00503207e-018 -5.00503207e-018
      -5.00503207e-018 1.77877380e-013 -7.31339298e-017 -1.02761921e-015
      1.45331100e-012 3.16651588e-012 8.72869398e-012 8.72869398e-012
      8.73007742e-012 6.63621545e-012 2.73081606e-013 0. 0. 0. 0. 0. 0.
      0. 0. 0. 0. 0. 0. 0. 0. 0. 0. 0. 0. 0. 0. 0. 0. 0. 0. 0. 0. 0. 0.
      0. 0. 0. 0. 0. 0. 0. 0. 0. 0. 0. 0. 0. 0. 0. 0. 0. 0. 0. 0. 0. 0.
      0. 0. 0. 0. 0. 0. 0. 0. 0. 0. 0. 0. 0. 0. 0. 0. 0. 0. 0. 0. 0. 0.
      0. 0. 0. 0. 0. 0. 0. 0. 0. 0. 0. 0. 0. 0. 0. 0. 1.07380120e-012
      3.17121394e-012 3.16983072e-012 4.70846365e-012 2.02608806e-012
      6.48116109e-013 5.64967181e-013 -3.09171896e-016 8.73923668e-014
      6.35296349e-017 6.35296349e-017 -8.17026080e-013 -8.17026080e-013
      -8.17026080e-013 3.76474699e-016 3.76474699e-016 3.76474699e-016
      1.34444534e-014 1.34444534e-014 3.71469687e-016 3.71469687e-016
      -3.23722792e-013 -3.65906659e-013 -3.65906659e-013
      -3.23706638e-013 5.11754119e-016 5.11754119e-016 5.11754119e-016
      5.11754119e-016 5.11754119e-016 5.11754119e-016 5.11754119e-016
      5.11754119e-016 -3.23706638e-013 -3.23706638e-013 3.87626099e-016
      -8.17014913e-013 -1.65862698e-013 -4.21888815e-014
      -4.21888815e-014 -5.00503207e-018 1.77877380e-013 -7.31339298e-017
      -7.31339298e-017 -1.02761921e-015 1.45331100e-012 3.16753004e-012
      7.19047695e-012 8.72869398e-012 8.73356422e-012 1.34670281e-012
      2.73081606e-013 0. 0. 0. 0. 0. 0. 0. 0. 0. 0. 0. 0. 0. 0. 0. 0. 0.
      0. 0. 0. 0. 0. 0. 0. 0. 0. 0. 0. 0. 0. 0. 0. 0. 0. 0. 0. 0. 0. 0.
      0. 0. 0. 0. 0. 0. 0. 0. 0. 0. 0. 0. 0. 0. 0. 0. 0. 0. 0. 0. 0. 0.
      0. 0. 0. 0. 0. 0. 0. 0. 0. 0. 0. 0. 0. 0. 0. 0. 0. 0. 0. 0. 0. 0.
      0. 0. 0. 0. 0. 3.17185839e-012 2.84573645e-012 3.44291240e-012
      4.66609954e-012 2.84349063e-012 -1.68973464e-013 -2.52122433e-013
      -8.17398775e-013 -8.17026080e-013 -8.17026080e-013
      -8.17026080e-013 3.76474699e-016 3.76474699e-016 3.76474699e-016
      -3.23717778e-013 -3.65901645e-013 -3.10649808e-013
      -3.10649808e-013 -3.23722792e-013 -3.23722792e-013
      -3.65906659e-013 -4.16882783e-014 5.11754119e-016 5.11754119e-016
      5.11754119e-016 5.11754119e-016 5.11754119e-016 5.11754119e-016
      5.11754119e-016 5.11754119e-016 5.11754119e-016 5.11754119e-016
      5.11754119e-016 5.11754119e-016 -3.23706638e-013 3.87626099e-016
      -9.82952326e-013 -1.65862698e-013 1.11513807e-017 -4.21888815e-014
      -4.21888815e-014 1.77877380e-013 -7.31339298e-017 -7.31339298e-017
      -1.02761921e-015 1.45331100e-012 3.16753004e-012 7.19047695e-012
      8.72869398e-012 8.73218164e-012 3.44475989e-012 2.73081606e-013 0.
      0. 0. 0. 0. 0. 0. 0. 0. 0. 0. 0. 0. 0. 0. 0. 0. 0. 0. 0. 0. 0. 0.
      0. 0. 0. 0. 0. 0. 0. 0. 0. 0. 0. 0. 0. 0. 0. 0. 0. 0. 0. 0. 0. 0.
      0. 0. 0. 0. 0. 0. 0. 0. 0. 0. 0. 0. 0. 0. 0. 0. 0. 0. 0. 0. 0. 0.
      0. 0. 0. 0. 0. 0. 0. 0. 0. 0. 0. 0. 0. 0. 0. 0. 0. 0. 0. 0. 0.
      3.17185839e-012 3.16995497e-012 8.40833046e-012 4.70512561e-012
      2.84350668e-012 6.06245197e-013 5.23096215e-013 3.77319098e-018
      3.76474699e-016 3.76474699e-016 3.76474699e-016 3.76474699e-016
      -3.23717778e-013 -3.65901645e-013 -4.16832740e-014 5.16759131e-016
      -2.86152937e-014 -4.16882783e-014 -4.16882783e-014
      -4.16882783e-014 5.11754119e-016 5.11754119e-016 5.11754119e-016
      5.11754119e-016 5.11754119e-016 5.11754119e-016 5.11754119e-016
      5.11754119e-016 5.11754119e-016 5.11754119e-016 5.11754119e-016
      5.11754119e-016 5.11754119e-016 5.11754119e-016 2.97888829e-013
      -1.23743057e-013 4.55732728e-013 1.11513807e-017 1.11513807e-017
      1.11513807e-017 -4.21888815e-014 1.77877380e-013 -7.31339298e-017
      -7.31339298e-017 -1.02761921e-015 1.45400207e-012 2.01864307e-012
      3.16651588e-012 8.72869398e-012 8.73218164e-012 3.44493986e-012 0.
      0. 0. 0. 0. 0. 0. 0. 0. 0. 0. 0. 0. 0. 0. 0. 0. 0. 0. 0. 0. 0. 0.
      0. 0. 0. 0. 0. 0. 0. 0. 0. 0. 0. 0. 0. 0. 0. 0. 0. 0. 0. 0. 0. 0.
      0. 0. 0. 0. 0. 0. 0. 0. 0. 0. 0. 0. 0. 0. 0. 0. 0. 0. 0. 0. 0. 0.
      0. 0. 0. 0. 0. 0. 0. 0. 0. 0. 0. 0. 0. 0. 0. 0. 0. 0. 0. 0. 0.
      2.09805719e-012 3.17059920e-012 3.44303644e-012 8.40816652e-012
      3.22949154e-012 2.01878076e-012 5.64392554e-013 -4.21801029e-014
      -4.18074016e-014 3.76474699e-016 3.76474699e-016 3.76474699e-016
      -3.65901645e-013 -3.65901645e-013 5.16759131e-016 5.16759131e-016
      1.35847373e-014 5.11754119e-016 5.11754119e-016 5.11754119e-016
      5.11754119e-016 5.11754119e-016 5.11754119e-016 5.11754119e-016
      5.11754119e-016 5.11754119e-016 5.11754119e-016 5.11754119e-016
      5.11754119e-016 5.11754119e-016 5.11754119e-016 5.11754119e-016
      5.11754119e-016 6.22107183e-013 5.35502578e-013 -1.06919508e-012
      -9.82623705e-013 2.37862654e-013 8.59220355e-013 6.21606607e-013
      1.11513807e-017 -4.21888815e-014 1.77877380e-013 -7.31339298e-017
      -7.31339298e-017 -5.06976377e-016 6.57046032e-013 1.45331100e-012
      3.16753004e-012 7.19047695e-012 8.73218164e-012 3.44493986e-012 0.
      0. 0. 0. 0. 0. 0. 0. 0. 0. 0. 0. 0. 0. 0. 0. 0. 0. 0. 0. 0. 0. 0.
      0. 0. 0. 0. 0. 0. 0. 0. 0. 0. 0. 0. 0. 0. 0. 0. 0. 0. 0. 0. 0. 0.
      0. 0. 0. 0. 0. 0. 0. 0. 0. 0. 0. 0. 0. 0. 0. 0. 0. 0. 0. 0. 0. 0.
      0. 0. 0. 0. 0. 0. 0. 0. 0. 0. 0. 0. 0. 0. 0. 0. 0. 0. 0. 0. 0.
      2.09805719e-012 3.17059920e-012 3.44303644e-012 8.73238547e-012
      1.69127462e-012 1.93331440e-012 5.64392554e-013 1.99296033e-017
      -4.18074016e-014 -4.18074016e-014 -3.65901645e-013
      -3.65901645e-013 5.16759131e-016 5.16759131e-016 5.16759131e-016
      5.16759131e-016 1.35847373e-014 5.11754119e-016 5.11754119e-016
      5.11754119e-016 5.11754119e-016 5.11754119e-016 5.11754119e-016
      5.11754119e-016 5.11754119e-016 5.11754119e-016 5.11754119e-016
      5.11754119e-016 5.11754119e-016 5.11754119e-016 5.11754119e-016
      6.22107183e-013 9.69819169e-013 2.42430553e-014 -1.01873739e-012
      -8.72525522e-013 1.10437924e-013 1.34127108e-014 2.37862654e-013
      8.59220355e-013 1.11513807e-017 -4.21888815e-014 -5.00503207e-018
      1.77877380e-013 -7.31339298e-017 -7.31339298e-017 -1.02761921e-015
      1.45331100e-012 3.16753004e-012 7.19047695e-012 8.73218164e-012
      3.44493986e-012 0. 0. 0. 0. 0. 0. 0. 0. 0. 0. 0. 0. 0. 0. 0. 0. 0.
      0. 0. 0. 0. 0. 0. 0. 0. 0. 0. 0. 0. 0. 0. 0. 0. 0. 0. 0. 0. 0. 0.
      0. 0. 0. 0. 0. 0. 0. 0. 0. 0. 0. 0. 0. 0. 0. 0. 0. 0. 0. 0. 0. 0.
      0. 0. 0. 0. 0. 0. 0. 0. 0. 0. 0. 0. 0. 0. 0. 0. 0. 0. 0. 0. 0. 0.
      0. 0. 0. 0. 0. 2.09805719e-012 3.17059920e-012 3.44303644e-012
      7.19416800e-012 2.25412094e-012 1.69570065e-012 2.40298287e-013
      -3.24035449e-013 -3.23701623e-013 -3.23701623e-013
      -3.23701623e-013 5.16759131e-016 5.16759131e-016 5.16759131e-016
      5.16759131e-016 1.35847373e-014 5.11754119e-016 5.11754119e-016
      5.11754119e-016 5.11754119e-016 5.11754119e-016 5.11754119e-016
      5.11754119e-016 5.11754119e-016 5.11754119e-016 5.11754119e-016
      6.35180168e-013 8.72793970e-013 8.72793970e-013 8.72793970e-013
      1.08454706e-012 4.63189383e-013 2.93492742e-013 -1.09334179e-013
      -7.80456808e-013 3.80320992e-013 3.80320992e-013 1.97771771e-013
      2.10839741e-013 8.72293340e-013 1.11513807e-017 -4.21888815e-014
      -5.00503207e-018 1.77877380e-013 -7.31339298e-017 -7.31339298e-017
      -9.76852817e-016 1.36871417e-012 3.16753004e-012 7.19047695e-012
      8.73218164e-012 3.44493986e-012 0. 0. 0. 0. 0. 0. 0. 0. 0. 0. 0.
      0. 0. 0. 0. 0. 0. 0. 0. 0. 0. 0. 0. 0. 0. 0. 0. 0. 0. 0. 0. 0. 0.
      0. 0. 0. 0. 0. 0. 0. 0. 0. 0. 0. 0. 0. 0. 0. 0. 0. 0. 0. 0. 0. 0.
      0. 0. 0. 0. 0. 0. 0. 0. 0. 0. 0. 0. 0. 0. 0. 0. 0. 0. 0. 0. 0. 0.
      0. 0. 0. 0. 0. 0. 0. 0. 0. 0. 0. 2.09805719e-012 3.17059920e-012
      3.44303644e-012 7.19416800e-012 2.01650697e-012 2.01991895e-012
      1.22259028e-012 -2.89784821e-016 5.16759131e-016 5.16759131e-016
      5.16759131e-016 5.16759131e-016 5.16759131e-016 5.16759131e-016
      5.16759131e-016 1.35847373e-014 5.11754119e-016 5.11754119e-016
      5.11754119e-016 5.11754119e-016 5.11754119e-016 5.11754119e-016
      5.11754119e-016 5.11754119e-016 6.35180168e-013 8.72793970e-013
      2.38368244e-013 8.45335123e-016 2.12598480e-013 3.90480861e-013
      1.78808696e-013 2.66137535e-013 -4.01832593e-013 -9.82436354e-013
      5.27131579e-016 5.27131579e-016 1.78341486e-013 2.79957562e-013
      2.12131270e-013 1.05665238e-012 1.00412971e-013 -2.91158970e-014
      -5.00503207e-018 -5.00503207e-018 1.77877380e-013 1.77877380e-013
      -9.76852817e-016 1.36908681e-012 2.60219775e-012 7.19047695e-012
      8.73218164e-012 3.44493986e-012 0. 0. 0. 0. 0. 0. 0. 0. 0. 0. 0.
      0. 0. 0. 0. 0. 0. 0. 0. 0. 0. 0. 0. 0. 0. 0. 0. 0. 0. 0. 0. 0. 0.
      0. 0. 0. 0. 0. 0. 0. 0. 0. 0. 0. 0. 0. 0. 0. 0. 0. 0. 0. 0. 0. 0.
      0. 0. 0. 0. 0. 0. 0. 0. 0. 0. 0. 0. 0. 0. 0. 0. 0. 0. 0. 0. 0. 0.
      0. 0. 0. 0. 0. 0. 0. 0. 0. 0. 0. 1.07380120e-012 3.17121394e-012
      1.90481962e-012 2.01968130e-012 2.01991895e-012 2.01991895e-012
      1.22259028e-012 -2.89784821e-016 5.16759131e-016 5.16759131e-016
      5.16759131e-016 5.16759131e-016 5.16759131e-016 5.16759131e-016
      1.35847373e-014 5.11754119e-016 5.11754119e-016 5.11754119e-016
      5.11754119e-016 5.11754119e-016 5.11754119e-016 5.11754119e-016
      5.11754119e-016 1.35847373e-014 6.35180168e-013 4.16250639e-013
      3.90480861e-013 3.90480861e-013 3.67753598e-013 8.83231747e-014
      8.83231747e-014 1.02773430e-015 -4.89128052e-013 -8.16562475e-013
      5.27131579e-016 5.27131579e-016 5.27131579e-016 1.78341486e-013
      4.59106363e-016 1.07101188e-012 1.46799917e-013 1.00396816e-013
      1.30679786e-014 -5.00503207e-018 -5.00503207e-018 -5.00503207e-018
      -4.74881504e-016 7.11063966e-013 2.51760093e-012 7.19047695e-012
      8.73356422e-012 1.34688278e-012 0. 0. 0. 0. 0. 0. 0. 0. 0. 0. 0.
      0. 0. 0. 0. 0. 0. 0. 0. 0. 0. 0. 0. 0. 0. 0. 0. 0. 0. 0. 0. 0. 0.
      0. 0. 0. 0. 0. 0. 0. 0. 0. 0. 0. 0. 0. 0. 0. 0. 0. 0. 0. 0. 0. 0.
      0. 0. 0. 0. 0. 0. 0. 0. 0. 0. 0. 0. 0. 0. 0. 0. 0. 0. 0. 0. 0. 0.
      0. 0. 0. 0. 0. 0. 0. 0. 0. 0. 0. 1.07380120e-012 3.17121394e-012
      1.90481962e-012 2.01968130e-012 2.01991895e-012 1.30718721e-012
      6.75084717e-013 1.14866992e-013 5.16759131e-016 5.16759131e-016
      5.16759131e-016 5.16759131e-016 5.16759131e-016 5.16759131e-016
      1.35847373e-014 5.11754119e-016 5.11754119e-016 5.11754119e-016
      5.11754119e-016 5.11754119e-016 5.11754119e-016 5.11754119e-016
      1.35847373e-014 5.16759131e-016 1.24936151e-012 2.12666500e-013
      8.83231747e-014 8.83231747e-014 1.02773430e-015 1.02773430e-015
      1.02773430e-015 -4.89128052e-013 -8.16562475e-013 5.27131579e-016
      5.27131579e-016 5.27131579e-016 5.27131579e-016 1.78341486e-013
      4.59106363e-016 8.59339780e-013 1.69602667e-013 1.88983784e-013
      1.00396816e-013 1.30679786e-014 -5.00503207e-018 -5.00503207e-018
      -5.00503207e-018 -1.66788929e-015 2.51760093e-012 7.19047695e-012
      8.73356422e-012 1.34688278e-012 0. 0. 0. 0. 0. 0. 0. 0. 0. 0. 0.
      0. 0. 0. 0. 0. 0. 0. 0. 0. 0. 0. 0. 0. 0. 0. 0. 0. 0. 0. 0. 0. 0.
      0. 0. 0. 0. 0. 0. 0. 0. 0. 0. 0. 0. 0. 0. 0. 0. 0. 0. 0. 0. 0. 0.
      0. 0. 0. 0. 0. 0. 0. 0. 0. 0. 0. 0. 0. 0. 0. 0. 0. 0. 0. 0. 0. 0.
      0. 0. 0. 0. 0. 0. 0. 0. 0. 0. 0. 1.07380120e-012 3.17121394e-012
      -2.39222336e-012 2.02249805e-012 2.01991895e-012 1.30718721e-012
      -3.45556249e-016 8.78405896e-014 1.35847373e-014 1.35847373e-014
      5.16759131e-016 5.16759131e-016 5.16759131e-016 5.16759131e-016
      1.35847373e-014 5.11754119e-016 5.11754119e-016 5.11754119e-016
      5.11754119e-016 1.78394138e-013 1.78394138e-013 1.91467122e-013
      5.16759131e-016 2.80054083e-013 9.21262198e-013 9.47203795e-013
      1.02773430e-015 1.02773430e-015 1.02773430e-015 1.02773430e-015
      1.02773430e-015 -4.89128052e-013 -8.16562475e-013 5.27131579e-016
      5.27131579e-016 5.27131579e-016 1.78341486e-013 4.59106363e-016
      4.59106363e-016 8.17139704e-013 1.10170465e-013 1.01688345e-013
      1.88983784e-013 1.30679786e-014 1.30679786e-014 -5.00503207e-018
      -5.00503207e-018 -1.66788929e-015 2.51658677e-012 8.72869398e-012
      8.73356422e-012 1.34688278e-012 0. 0. 0. 0. 0. 0. 0. 0. 0. 0. 0.
      0. 0. 0. 0. 0. 0. 0. 0. 0. 0. 0. 0. 0. 0. 0. 0. 0. 0. 0. 0. 0. 0.
      0. 0. 0. 0. 0. 0. 0. 0. 0. 0. 0. 0. 0. 0. 0. 0. 0. 0. 0. 0. 0. 0.
      0. 0. 0. 0. 0. 0. 0. 0. 0. 0. 0. 0. 0. 0. 0. 0. 0. 0. 0. 0. 0. 0.
      0. 0. 0. 0. 0. 0. 0. 0. 0. 0. 0. 0. 3.17185839e-012
      1.74574949e-012 2.02008289e-012 1.30718721e-012 -3.45556249e-016
      8.78405896e-014 5.11754119e-016 5.11754119e-016 1.35847373e-014
      5.16759131e-016 5.16759131e-016 5.16759131e-016 5.16759131e-016
      1.35847373e-014 5.11754119e-016 5.11754119e-016 5.11754119e-016
      1.78394138e-013 4.43625195e-016 4.43625195e-016 1.35166087e-014
      4.48630206e-016 3.90152293e-013 2.65808941e-013 8.59908390e-013
      8.59908390e-013 1.02773430e-015 1.02773430e-015 1.02773430e-015
      -3.11313665e-013 1.78654427e-013 -6.38748115e-013 1.78341486e-013
      4.15864392e-013 4.15864392e-013 4.15864392e-013 2.37982024e-013
      1.95781989e-013 8.17139704e-013 1.14373959e-016 1.10170465e-013
      1.01688345e-013 8.73288394e-014 1.30679786e-014 1.30679786e-014
      1.30679786e-014 -1.66788929e-015 2.51658677e-012 8.72869398e-012
      8.73356422e-012 1.34688278e-012 0. 0. 0. 0. 0. 0. 0. 0. 0. 0. 0.
      0. 0. 0. 0. 0. 0. 0. 0. 0. 0. 0. 0. 0. 0. 0. 0. 0. 0. 0. 0. 0. 0.
      0. 0. 0. 0. 0. 0. 0. 0. 0. 0. 0. 0. 0. 0. 0. 0. 0. 0. 0. 0. 0. 0.
      0. 0. 0. 0. 0. 0. 0. 0. 0. 0. 0. 0. 0. 0. 0. 0. 0. 0. 0. 0. 0. 0.
      0. 0. 0. 0. 0. 0. 0. 0. 0. 0. 0. 0. -8.52102948e-013
      1.74840231e-012 1.30735104e-012 1.09752641e-013 2.02568526e-013
      5.11754119e-016 5.11754119e-016 5.11754119e-016 1.35847373e-014
      5.16759131e-016 5.16759131e-016 5.16759131e-016 5.16759131e-016
      1.35847373e-014 5.11754119e-016 5.11754119e-016 1.78394138e-013
      4.43625195e-016 4.43625195e-016 4.43625195e-016 4.43625195e-016
      1.35166087e-014 3.39717376e-013 6.13478832e-013 1.78513508e-013
      8.59908390e-013 8.59908390e-013 4.16364995e-013 4.16364995e-013
      -2.51673140e-013 -5.79107563e-013 2.37982024e-013 2.37982024e-013
      3.68238892e-016 3.68238892e-016 3.68238892e-016 -4.18317927e-014
      -4.18317927e-014 6.21709823e-013 1.14373959e-016 1.10170465e-013
      7.22705650e-017 1.88983784e-013 1.61558713e-027 1.61558713e-027
      1.61558713e-027 -1.66288428e-015 2.51658677e-012 8.72869398e-012
      8.73356422e-012 1.34688278e-012 0. 0. 0. 0. 0. 0. 0. 0. 0. 0. 0.
      0. 0. 0. 0. 0. 0. 0. 0. 0. 0. 0. 0. 0. 0. 0. 0. 0. 0. 0. 0. 0. 0.
      0. 0. 0. 0. 0. 0. 0. 0. 0. 0. 0. 0. 0. 0. 0. 0. 0. 0. 0. 0. 0. 0.
      0. 0. 0. 0. 0. 0. 0. 0. 0. 0. 0. 0. 0. 0. 0. 0. 0. 0. 0. 0. 0. 0.
      0. 0. 0. 0. 0. 0. 0. 0. 0. 0. 0. 0. -2.00364269e-012
      1.74916147e-012 5.64680572e-013 1.14866992e-013 5.11754119e-016
      5.11754119e-016 5.11754119e-016 5.11754119e-016 1.35847373e-014
      5.16759131e-016 5.16759131e-016 5.16759131e-016 5.16759131e-016
      1.35847373e-014 5.11754119e-016 5.11754119e-016 1.78394138e-013
      4.43625195e-016 4.43625195e-016 4.43625195e-016 2.38057404e-013
      2.51130388e-013 1.15080553e-013 3.12507588e-013 3.75774038e-013
      1.78513508e-013 1.78513508e-013 6.22226554e-013 6.22226554e-013
      1.32070814e-013 -1.95363609e-013 3.68238892e-016 3.68238892e-016
      3.68238892e-016 3.68238892e-016 -4.18317927e-014 -4.18317927e-014
      6.21709823e-013 6.21709823e-013 1.14373959e-016 1.14373959e-016
      1.10170465e-013 1.88983784e-013 1.61558713e-027 1.61558713e-027
      -4.33842414e-016 6.56410798e-013 2.51658677e-012 8.72869398e-012
      8.73356422e-012 1.34688278e-012 0. 0. 0. 0. 0. 0. 0. 0. 0. 0. 0.
      0. 0. 0. 0. 0. 0. 0. 0. 0. 0. 0. 0. 0. 0. 0. 0. 0. 0. 0. 0. 0. 0.
      0. 0. 0. 0. 0. 0. 0. 0. 0. 0. 0. 0. 0. 0. 0. 0. 0. 0. 0. 0. 0. 0.
      0. 0. 0. 0. 0. 0. 0. 0. 0. 0. 0. 0. 0. 0. 0. 0. 0. 0. 0. 0. 0. 0.
      0. 0. 0. 0. 0. 0. 0. 0. 0. 0. 0. 2.09805719e-012 -3.07870287e-012
      1.03707396e-012 -1.81680560e-016 5.11754119e-016 5.11754119e-016
      5.11754119e-016 5.11754119e-016 5.11754119e-016 1.35847373e-014
      5.16759131e-016 5.16759131e-016 5.16759131e-016 1.35847373e-014
      5.11754119e-016 5.11754119e-016 1.78394138e-013 4.43625195e-016
      4.43625195e-016 4.43625195e-016 4.43625195e-016 2.38057404e-013
      3.52619181e-016 3.52619181e-016 7.23603035e-013 8.46774202e-013
      1.07019179e-012 5.03422716e-013 8.79265736e-014 -3.23587240e-013
      -9.82832956e-013 1.30530371e-016 6.21725978e-013 6.21725978e-013
      5.79525956e-013 5.79525956e-013 6.21709823e-013 6.21709823e-013
      6.21709823e-013 1.14373959e-016 1.14373959e-016 1.14373959e-016
      1.10170465e-013 7.22705650e-017 1.88983784e-013 1.01654952e-013
      -1.66288428e-015 2.52068223e-012 2.51658677e-012 8.72869398e-012
      8.73427199e-012 2.73081606e-013 0. 0. 0. 0. 0. 0. 0. 0. 0. 0. 0.
      0. 0. 0. 0. 0. 0. 0. 0. 0. 0. 0. 0. 0. 0. 0. 0. 0. 0. 0. 0. 0. 0.
      0. 0. 0. 0. 0. 0. 0. 0. 0. 0. 0. 0. 0. 0. 0. 0. 0. 0. 0. 0. 0. 0.
      0. 0. 0. 0. 0. 0. 0. 0. 0. 0. 0. 0. 0. 0. 0. 0. 0. 0. 0. 0. 0. 0.
      0. 0. 0. 0. 0. 0. 0. 0. 0. 0. 0. 2.09805719e-012 -3.07870287e-012
      2.94403472e-013 3.02928284e-016 5.11754119e-016 5.11754119e-016
      5.11754119e-016 5.11754119e-016 5.11754119e-016 1.35847373e-014
      5.16759131e-016 5.16759131e-016 1.35847373e-014 1.35847373e-014
      5.11754119e-016 5.11754119e-016 1.78394138e-013 4.43625195e-016
      4.43625195e-016 4.43625195e-016 2.38057404e-013 3.52619181e-016
      3.52619181e-016 6.21948077e-013 6.21948077e-013 1.14548315e-016
      7.23603035e-013 1.26242951e-012 4.03220263e-013 -2.36291808e-013
      -8.95537442e-013 1.30530371e-016 1.30530371e-016 1.30530371e-016
      -4.20695041e-014 1.14373959e-016 1.14373959e-016 1.14373959e-016
      1.14373959e-016 1.14373959e-016 1.14373959e-016 1.14373959e-016
      1.14373959e-016 1.10170465e-013 -7.85061374e-014 -1.65834970e-013
      -9.03718827e-016 1.45647145e-012 2.52025375e-012 3.00064205e-012
      8.73427199e-012 2.73081606e-013 0. 0. 0. 0. 0. 0. 0. 0. 0. 0. 0.
      0. 0. 0. 0. 0. 0. 0. 0. 0. 0. 0. 0. 0. 0. 0. 0. 0. 0. 0. 0. 0. 0.
      0. 0. 0. 0. 0. 0. 0. 0. 0. 0. 0. 0. 0. 0. 0. 0. 0. 0. 0. 0. 0. 0.
      0. 0. 0. 0. 0. 0. 0. 0. 0. 0. 0. 0. 0. 0. 0. 0. 0. 0. 0. 0. 0. 0.
      0. 0. 0. 0. 0. 0. 0. 0. 0. 0. 0. 9.46517387e-013 -3.07794372e-012
      2.94403472e-013 3.02928284e-016 5.11754119e-016 5.11754119e-016
      5.11754119e-016 5.11754119e-016 5.11754119e-016 1.35847373e-014
      1.35847373e-014 1.35847373e-014 1.35847373e-014 5.11754119e-016
      5.11754119e-016 1.78394138e-013 4.43625195e-016 4.43625195e-016
      4.43625195e-016 4.43625195e-016 2.38057404e-013 3.52619181e-016
      3.52619181e-016 6.21948077e-013 1.14548315e-016 1.14548315e-016
      1.14548315e-016 1.14548315e-016 7.13384972e-013 -5.80243752e-013
      2.24837279e-013 8.74259703e-014 8.74259703e-014 -4.20695041e-014
      1.14373959e-016 1.14373959e-016 1.14373959e-016 1.14373959e-016
      1.14373959e-016 1.14373959e-016 1.14373959e-016 1.14373959e-016
      -1.65759469e-013 -5.57033837e-014 1.35800200e-016 8.74312423e-014
      -2.08961442e-013 1.32658608e-012 3.04340212e-012 3.16722386e-012
      7.66047122e-012 2.73081606e-013 0. 0. 0. 0. 0. 0. 0. 0. 0. 0. 0.
      0. 0. 0. 0. 0. 0. 0. 0. 0. 0. 0. 0. 0. 0. 0. 0. 0. 0. 0. 0. 0. 0.
      0. 0. 0. 0. 0. 0. 0. 0. 0. 0. 0. 0. 0. 0. 0. 0. 0. 0. 0. 0. 0. 0.
      0. 0. 0. 0. 0. 0. 0. 0. 0. 0. 0. 0. 0. 0. 0. 0. 0. 0. 0. 0. 0. 0.
      0. 0. 0. 0. 0. 0. 0. 0. 0. 0. 0. -1.15153969e-012 -4.53208695e-012
      -5.05361649e-013 7.83438402e-016 5.11754119e-016 5.11754119e-016
      5.11754119e-016 5.11754119e-016 5.11754119e-016 5.11754119e-016
      5.11754119e-016 5.11754119e-016 5.11754119e-016 5.11754119e-016
      5.11754119e-016 1.78394138e-013 4.43625195e-016 4.43625195e-016
      4.43625195e-016 2.38057404e-013 2.38057404e-013 3.52619181e-016
      6.21948077e-013 1.14548315e-016 1.14548315e-016 1.14548315e-016
      1.14548315e-016 1.14548315e-016 5.35434490e-013 -8.05069932e-013
      1.01666105e-013 2.24837279e-013 1.97482059e-013 1.55282037e-013
      1.14373959e-016 1.14373959e-016 1.14373959e-016 1.14373959e-016
      1.14373959e-016 1.14373959e-016 1.14373959e-016 -1.65759469e-013
      -1.65759469e-013 1.10233993e-013 1.35800200e-016 -8.59137685e-013
      -8.59137685e-013 -7.90636805e-016 1.36943820e-012 2.05490572e-012
      2.09829289e-012 2.73081606e-013 0. 0. 0. 0. 0. 0. 0. 0. 0. 0. 0.
      0. 0. 0. 0. 0. 0. 0. 0. 0. 0. 0. 0. 0. 0. 0. 0. 0. 0. 0. 0. 0. 0.
      0. 0. 0. 0. 0. 0. 0. 0. 0. 0. 0. 0. 0. 0. 0. 0. 0. 0. 0. 0. 0. 0.
      0. 0. 0. 0. 0. 0. 0. 0. 0. 0. 0. 0. 0. 0. 0. 0. 0. 0. 0. 0. 0. 0.
      0. 0. 0. 0. 0. 0. 0. 0. 0. 0. 0. -1.15153969e-012 -6.07030398e-012
      -1.06967972e-012 1.15613994e-015 1.15613994e-015 1.15613994e-015
      5.11754119e-016 5.11754119e-016 5.11754119e-016 5.11754119e-016
      5.11754119e-016 5.11754119e-016 5.11754119e-016 5.11754119e-016
      1.78394138e-013 4.43625195e-016 4.43625195e-016 2.38057404e-013
      2.38057404e-013 3.52619181e-016 3.52619181e-016 3.52619181e-016
      6.21948077e-013 1.14548315e-016 1.14548315e-016 1.14548315e-016
      1.14548315e-016 1.14548315e-016 -5.19672846e-013 4.15570844e-013
      -1.65862698e-013 1.01666105e-013 7.25390546e-014 8.73677148e-014
      1.10170465e-013 1.10170465e-013 1.14373959e-016 1.14373959e-016
      1.14373959e-016 1.14373959e-016 1.14373959e-016 -1.65759469e-013
      1.77903600e-016 -7.06855581e-013 -8.59137685e-013 -4.17351327e-014
      4.64901709e-016 -7.07312139e-013 -1.60383222e-013 2.05490572e-012
      2.72254116e-012 -3.75087982e-012 0. 0. 0. 0. 0. 0. 0. 0. 0. 0. 0.
      0. 0. 0. 0. 0. 0. 0. 0. 0. 0. 0. 0. 0. 0. 0. 0. 0. 0. 0. 0. 0. 0.
      0. 0. 0. 0. 0. 0. 0. 0. 0. 0. 0. 0. 0. 0. 0. 0. 0. 0. 0. 0. 0. 0.
      0. 0. 0. 0. 0. 0. 0. 0. 0. 0. 0. 0. 0. 0. 0. 0. 0. 0. 0. 0. 0. 0.
      0. 0. 0. 0. 0. 0. 0. 0. 0. 0. 0. 0. -7.81550714e-013
      -8.94971543e-013 -8.94762671e-013 -1.07264512e-012
      -1.07264512e-012 1.15613994e-015 1.15613994e-015 5.11754119e-016
      5.11754119e-016 5.11754119e-016 5.11754119e-016 5.11754119e-016
      5.11754119e-016 1.78394138e-013 4.43625195e-016 2.38057404e-013
      2.38057404e-013 3.52619181e-016 3.52619181e-016 3.52619181e-016
      3.52619181e-016 6.21948077e-013 1.14548315e-016 1.14548315e-016
      1.14548315e-016 1.14548315e-016 1.14548315e-016 -5.19672846e-013
      4.15570844e-013 -1.65862698e-013 1.11513807e-017 7.25390546e-014
      1.01654952e-013 8.73677148e-014 7.22705650e-017 1.10170465e-013
      1.10170465e-013 1.10170465e-013 1.14373959e-016 -1.65759469e-013
      1.77903600e-016 1.77903600e-016 -7.49039448e-013 -4.17351327e-014
      4.64901709e-016 4.64901709e-016 1.10928748e-015 -1.89103702e-012
      2.53436974e-013 2.10195988e-012 -5.28909642e-012 0. 0. 0. 0. 0. 0.
      0. 0. 0. 0. 0. 0. 0. 0. 0. 0. 0. 0. 0. 0. 0. 0. 0. 0. 0. 0. 0. 0.
      0. 0. 0. 0. 0. 0. 0. 0. 0. 0. 0. 0. 0. 0. 0. 0. 0. 0. 0. 0. 0. 0.
      0. 0. 0. 0. 0. 0. 0. 0. 0. 0. 0. 0. 0. 0. 0. 0. 0. 0. 0. 0. 0. 0.
      0. 0. 0. 0. 0. 0. 0. 0. 0. 0. 0. 0. 0. 0. 0. 0. -2.19629068e-012
      -7.80102762e-013 -1.07292202e-012 -1.07271321e-012
      -1.07264512e-012 -1.07264512e-012 -1.07264512e-012
      -1.07264512e-012 1.15613994e-015 5.11754119e-016 5.11754119e-016
      5.11754119e-016 5.11754119e-016 1.78394138e-013 4.43625195e-016
      4.43625195e-016 2.38057404e-013 3.52619181e-016 3.52619181e-016
      3.52619181e-016 3.52619181e-016 6.21948077e-013 6.21948077e-013
      1.14548315e-016 1.14548315e-016 1.14548315e-016 1.14548315e-016
      1.14548315e-016 -5.19672846e-013 4.15570844e-013 -1.65862698e-013
      1.11513807e-017 1.30841349e-014 5.94710777e-014 1.01654952e-013
      8.73677148e-014 8.73677148e-014 7.22705650e-017 7.22705650e-017
      -5.57033837e-014 -5.57033837e-014 1.10233993e-013 -7.49039448e-013
      -4.17351327e-014 4.64901709e-016 4.64901709e-016 4.64901709e-016
      1.10928748e-015 -1.07316467e-012 -4.57911703e-013 3.90274750e-015
      -5.28644359e-012 -4.02396129e-012 0. 0. 0. 0. 0. 0. 0. 0. 0. 0. 0.
      0. 0. 0. 0. 0. 0. 0. 0. 0. 0. 0. 0. 0. 0. 0. 0. 0. 0. 0. 0. 0. 0.
      0. 0. 0. 0. 0. 0. 0. 0. 0. 0. 0. 0. 0. 0. 0. 0. 0. 0. 0. 0. 0. 0.
      0. 0. 0. 0. 0. 0. 0. 0. 0. 0. 0. 0. 0. 0. 0. 0. 0. 0. 0. 0. 0. 0.
      0. 0. 0. 0. 0. 0. 0. 0. 0. 0. -7.42670519e-013 -2.04661722e-012
      -1.34541412e-012 -8.94598794e-013 -1.07264512e-012
      -1.07264512e-012 -1.07264512e-012 -1.07264512e-012
      -1.07264512e-012 1.15613994e-015 5.11754119e-016 5.11754119e-016
      5.11754119e-016 1.78394138e-013 4.43625195e-016 2.38057404e-013
      3.52619181e-016 3.52619181e-016 3.52619181e-016 3.52619181e-016
      6.21948077e-013 6.21948077e-013 1.14548315e-016 1.14548315e-016
      1.14548315e-016 1.14548315e-016 1.14548315e-016 2.97729669e-013
      -1.95578593e-013 4.15570844e-013 -1.65862698e-013 1.11513807e-017
      1.30841349e-014 -4.21838772e-014 1.01654952e-013 1.01654952e-013
      3.88745573e-017 8.73677148e-014 -7.85061374e-014 -1.65801577e-013
      1.35800200e-016 -8.59137685e-013 -8.59137685e-013 4.64901709e-016
      4.64901709e-016 4.64901709e-016 1.10928748e-015 -1.07269196e-012
      -1.07269196e-012 -8.75147014e-013 -1.35875805e-012
      -5.28542965e-012 -5.56217832e-012 0. 0. 0. 0. 0. 0. 0. 0. 0. 0. 0.
      0. 0. 0. 0. 0. 0. 0. 0. 0. 0. 0. 0. 0. 0. 0. 0. 0. 0. 0. 0. 0. 0.
      0. 0. 0. 0. 0. 0. 0. 0. 0. 0. 0. 0. 0. 0. 0. 0. 0. 0. 0. 0. 0. 0.
      0. 0. 0. 0. 0. 0. 0. 0. 0. 0. 0. 0. 0. 0. 0. 0. 0. 0. 0. 0. 0. 0.
      0. 0. 0. 0. 0. 0. 0. 0. 0. 0. -1.45540242e-012 -2.04614732e-012
      -1.34541412e-012 -1.34556277e-012 -1.07248119e-012
      -1.07248119e-012 -1.07248119e-012 -1.07248119e-012
      -1.07264512e-012 -1.07264512e-012 1.15613994e-015 5.11754119e-016
      1.78394138e-013 4.43625195e-016 4.43625195e-016 2.38057404e-013
      3.52619181e-016 3.52619181e-016 3.52619181e-016 6.21948077e-013
      6.21948077e-013 1.14548315e-016 1.14548315e-016 1.14548315e-016
      1.14548315e-016 1.14548315e-016 1.14548315e-016 2.97729669e-013
      1.78179005e-013 -5.79401110e-013 7.46810156e-017 -1.65862698e-013
      1.30841349e-014 -4.21838772e-014 1.61558713e-027 1.01654952e-013
      -1.65834970e-013 -1.65834970e-013 8.74312423e-014 8.74312423e-014
      -8.59137685e-013 -8.59137685e-013 4.64901709e-016 4.64901709e-016
      4.64901709e-016 4.64901709e-016 1.10928748e-015 -1.07269196e-012
      -9.85396443e-013 -1.06864062e-012 -7.79979380e-012
      -5.28542965e-012 -5.56217832e-012 0. 0. 0. 0. 0. 0. 0. 0. 0. 0. 0.
      0. 0. 0. 0. 0. 0. 0. 0. 0. 0. 0. 0. 0. 0. 0. 0. 0. 0. 0. 0. 0. 0.
      0. 0. 0. 0. 0. 0. 0. 0. 0. 0. 0. 0. 0. 0. 0. 0. 0. 0. 0. 0. 0. 0.
      0. 0. 0. 0. 0. 0. 0. 0. 0. 0. 0. 0. 0. 0. 0. 0. 0. 0. 0. 0. 0. 0.
      0. 0. 0. 0. 0. 0. 0. 0. 0. 0. -7.97328729e-013 -5.08364293e-013
      2.67753311e-012 -1.34821559e-012 -1.34556277e-012 -1.16768043e-012
      -1.34556277e-012 -1.34556277e-012 -1.07248119e-012
      -1.07248119e-012 -1.07264512e-012 1.15613994e-015 1.78394138e-013
      4.43625195e-016 4.43625195e-016 2.38057404e-013 3.52619181e-016
      3.52619181e-016 6.21948077e-013 6.21948077e-013 1.14548315e-016
      1.14548315e-016 1.14548315e-016 1.14548315e-016 1.14548315e-016
      1.14548315e-016 6.21948077e-013 -3.23865771e-013 1.78179005e-013
      -5.79401110e-013 7.46810156e-017 -1.52789714e-013 -1.65857698e-013
      -1.65857698e-013 -2.08057719e-013 -6.42188939e-014 1.02404192e-016
      1.02404192e-016 1.02404192e-016 -7.71842226e-013 -8.59137685e-013
      4.64901709e-016 4.64901709e-016 4.64901709e-016 4.64901709e-016
      4.64901709e-016 1.10928748e-015 -8.83780408e-013 -1.07138105e-012
      -3.16669781e-012 -7.79957435e-012 -5.64310838e-012
      -5.56217832e-012 0. 0. 0. 0. 0. 0. 0. 0. 0. 0. 0. 0. 0. 0. 0. 0.
      0. 0. 0. 0. 0. 0. 0. 0. 0. 0. 0. 0. 0. 0. 0. 0. 0. 0. 0. 0. 0. 0.
      0. 0. 0. 0. 0. 0. 0. 0. 0. 0. 0. 0. 0. 0. 0. 0. 0. 0. 0. 0. 0. 0.
      0. 0. 0. 0. 0. 0. 0. 0. 0. 0. 0. 0. 0. 0. 0. 0. 0. 0. 0. 0. 0. 0.
      0. 0. 0. 0. 0. -7.97328729e-013 -2.60642137e-012 -2.61072045e-012
      -1.10742763e-012 -1.16768043e-012 -1.34563096e-012
      -1.16768043e-012 -1.16768043e-012 -1.34556277e-012
      -1.34556277e-012 -1.07248119e-012 -8.94762671e-013 1.79038520e-013
      4.43625195e-016 4.43625195e-016 2.38057404e-013 3.52619181e-016
      3.52619181e-016 6.21948077e-013 1.14548315e-016 1.14548315e-016
      1.14548315e-016 1.14548315e-016 1.14548315e-016 1.14548315e-016
      1.14548315e-016 6.21948077e-013 -3.23865771e-013 4.15883799e-013
      -8.17014913e-013 7.46810156e-017 1.31476649e-014 7.96860473e-017
      7.96860473e-017 7.96860473e-017 5.95346052e-014 -4.20814710e-014
      -4.20814710e-014 -7.71842226e-013 -7.71842226e-013 4.64901709e-016
      4.64901709e-016 4.64901709e-016 4.64901709e-016 -3.23629361e-013
      -3.23629361e-013 -2.21368889e-013 -9.85435366e-013
      -1.06820683e-012 -8.45621056e-012 -7.79920139e-012
      -6.20844045e-012 -5.56217832e-012 0. 0. 0. 0. 0. 0. 0. 0. 0. 0. 0.
      0. 0. 0. 0. 0. 0. 0. 0. 0. 0. 0. 0. 0. 0. 0. 0. 0. 0. 0. 0. 0. 0.
      0. 0. 0. 0. 0. 0. 0. 0. 0. 0. 0. 0. 0. 0. 0. 0. 0. 0. 0. 0. 0. 0.
      0. 0. 0. 0. 0. 0. 0. 0. 0. 0. 0. 0. 0. 0. 0. 0. 0. 0. 0. 0. 0. 0.
      0. 0. 0. 0. 0. 0. 0. 0. 0. 0. -8.45968871e-014 -1.45535157e-012
      -1.07326257e-012 -1.34605554e-012 -1.34563096e-012
      -1.34563096e-012 -1.34563096e-012 -1.34563096e-012
      -1.16768043e-012 -1.16768043e-012 -1.16768043e-012
      -8.94598794e-013 1.08801107e-015 4.43625195e-016 4.43625195e-016
      4.43625195e-016 2.38057404e-013 6.21948077e-013 1.14548315e-016
      1.14548315e-016 1.14548315e-016 1.14548315e-016 1.14548315e-016
      1.14548315e-016 1.14548315e-016 6.21948077e-013 3.52619181e-016
      -1.45915262e-013 2.38001405e-013 3.87626099e-016 -8.17014913e-013
      1.31476649e-014 7.96860473e-017 7.96860473e-017 7.96860473e-017
      1.01734640e-013 -8.16971003e-013 -7.29642204e-013 -7.29642204e-013
      4.64901709e-016 4.64901709e-016 4.64901709e-016 -3.23629361e-013
      -3.23629361e-013 5.89029676e-016 1.02849492e-013 -8.83656267e-013
      -9.85435366e-013 -1.06820683e-012 -8.45604663e-012
      -8.07228329e-012 -6.20844045e-012 -5.56217832e-012 0. 0. 0. 0. 0.
      0. 0. 0. 0. 0. 0. 0. 0. 0. 0. 0. 0. 0. 0. 0. 0. 0. 0. 0. 0. 0. 0.
      0. 0. 0. 0. 0. 0. 0. 0. 0. 0. 0. 0. 0. 0. 0. 0. 0. 0. 0. 0. 0. 0.
      0. 0. 0. 0. 0. 0. 0. 0. 0. 0. 0. 0. 0. 0. 0. 0. 0. 0. 0. 0. 0. 0.
      0. 0. 0. 0. 0. 0. 0. 0. 0. 0. 0. 0. 0. 0. 0. 0. -8.45968871e-014
      -1.45535157e-012 -3.17131976e-012 -1.07213067e-012
      -1.34612362e-012 -1.34563096e-012 -1.34563096e-012
      -1.34563096e-012 -1.34563096e-012 -1.34563096e-012
      -1.34563096e-012 -1.34563096e-012 -1.07254928e-012 1.08801107e-015
      4.43625195e-016 4.43625195e-016 2.38057404e-013 6.21948077e-013
      1.14548315e-016 1.14548315e-016 1.14548315e-016 1.14548315e-016
      1.14548315e-016 1.14548315e-016 1.14548315e-016 6.21948077e-013
      3.52619181e-016 9.17895317e-014 3.87626099e-016 3.87626099e-016
      -8.17014913e-013 -8.03941928e-013 -8.17009925e-013
      -8.17009925e-013 -8.17009925e-013 -7.15354967e-013 8.77603451e-014
      8.77603451e-014 4.64901709e-016 4.64901709e-016 4.64901709e-016
      4.64901709e-016 -3.23629361e-013 5.89029676e-016 1.02205110e-013
      1.02849492e-013 -9.85311225e-013 -1.06820683e-012 -8.45577601e-012
      -8.45604663e-012 -8.07228329e-012 -6.20844045e-012
      -5.56217832e-012 0. 0. 0. 0. 0. 0. 0. 0. 0. 0. 0. 0. 0. 0. 0. 0.
      0. 0. 0. 0. 0. 0. 0. 0. 0. 0. 0. 0. 0. 0. 0. 0. 0. 0. 0. 0. 0. 0.
      0. 0. 0. 0. 0. 0. 0. 0. 0. 0. 0. 0. 0. 0. 0. 0. 0. 0. 0. 0. 0. 0.
      0. 0. 0. 0. 0. 0. 0. 0. 0. 0. 0. 0. 0. 0. 0. 0. 0. 0. 0. 0. 0. 0.
      0. 0. 0. 0. 0. 0. -8.45968871e-014 -1.45535157e-012
      -1.07326257e-012 -1.34486465e-012 -1.34510957e-012
      -1.34510957e-012 -1.34563096e-012 -1.34563096e-012
      -1.34563096e-012 -1.34563096e-012 -1.34563096e-012
      -1.34563096e-012 1.25188674e-015 4.43625195e-016 4.43625195e-016
      2.38057404e-013 6.21948077e-013 1.14548315e-016 1.14548315e-016
      1.14548315e-016 1.14548315e-016 1.14548315e-016 1.14548315e-016
      1.14548315e-016 6.21948077e-013 3.52619181e-016 9.17895317e-014
      3.87626099e-016 3.87626099e-016 3.87626099e-016 3.87626099e-016
      1.34606097e-014 3.92631111e-016 1.02047582e-013 8.77603451e-014
      8.77603451e-014 1.10563095e-013 1.10563095e-013 1.10563095e-013
      4.64901709e-016 -3.23629361e-013 5.89029676e-016 5.89029676e-016
      1.02849492e-013 -9.85311225e-013 -1.89004259e-012 -1.06820683e-012
      -8.45561208e-012 -8.72912766e-012 -8.07228329e-012
      -6.21109327e-012 -1.53821693e-012 0. 0. 0. 0. 0. 0. 0. 0. 0. 0. 0.
      0. 0. 0. 0. 0. 0. 0. 0. 0. 0. 0. 0. 0. 0. 0. 0. 0. 0. 0. 0. 0. 0.
      0. 0. 0. 0. 0. 0. 0. 0. 0. 0. 0. 0. 0. 0. 0. 0. 0. 0. 0. 0. 0. 0.
      0. 0. 0. 0. 0. 0. 0. 0. 0. 0. 0. 0. 0. 0. 0. 0. 0. 0. 0. 0. 0. 0.
      0. 0. 0. 0. 0. 0. 0. 0. 0. 0. 0. -8.45968871e-014 -1.44227859e-012
      -3.17131976e-012 -4.70847276e-012 -2.61041579e-012
      -2.61041579e-012 -1.34510957e-012 -1.34510957e-012
      -1.34563096e-012 -1.34563096e-012 -1.34563096e-012
      -1.34563096e-012 -2.71829732e-013 6.07500871e-016 4.43625195e-016
      2.38057404e-013 6.21948077e-013 1.14548315e-016 1.14548315e-016
      1.14548315e-016 1.14548315e-016 1.14548315e-016 1.14548315e-016
      6.21948077e-013 3.52619181e-016 2.38057404e-013 -1.45824244e-013
      3.87626099e-016 3.87626099e-016 3.87626099e-016 3.87626099e-016
      1.34606097e-014 3.92631111e-016 1.02047582e-013 8.77603451e-014
      1.10563095e-013 1.10563095e-013 5.07005070e-016 1.10563095e-013
      -3.23629361e-013 -3.23629361e-013 5.89029676e-016 1.02205110e-013
      1.19454103e-015 -9.85311225e-013 -1.06946580e-012 -6.35771904e-012
      -8.45561208e-012 -8.72988747e-012 -6.83341491e-012
      -6.21210722e-012 0. 0. 0. 0. 0. 0. 0. 0. 0. 0. 0. 0. 0. 0. 0. 0.
      0. 0. 0. 0. 0. 0. 0. 0. 0. 0. 0. 0. 0. 0. 0. 0. 0. 0. 0. 0. 0. 0.
      0. 0. 0. 0. 0. 0. 0. 0. 0. 0. 0. 0. 0. 0. 0. 0. 0. 0. 0. 0. 0. 0.
      0. 0. 0. 0. 0. 0. 0. 0. 0. 0. 0. 0. 0. 0. 0. 0. 0. 0. 0. 0. 0. 0.
      0. 0. 0. 0. 0. 0. 0. 0. -1.45540242e-012 -3.17131976e-012
      -3.17025594e-012 -3.17025594e-012 -3.17025594e-012
      -2.61041579e-012 -2.61167477e-012 -1.34510957e-012
      -1.34563096e-012 -1.34563096e-012 -1.34563096e-012
      -2.71829732e-013 1.25188674e-015 1.08801107e-015 2.38701799e-013
      6.22592472e-013 7.58934162e-016 7.58934162e-016 7.58934162e-016
      7.58934162e-016 7.58934162e-016 7.58934162e-016 6.22592472e-013
      9.97005001e-016 2.38701799e-013 1.79038520e-013 -3.23062242e-013
      1.03201192e-015 1.03201192e-015 1.03201192e-015 1.41049951e-014
      1.03701693e-015 1.90020810e-013 1.10928748e-015 1.11207484e-013
      1.15139094e-015 1.15139094e-015 -2.12886769e-013 -3.22984966e-013
      1.23341550e-015 1.02849492e-013 1.02849492e-013 8.84899860e-014
      -9.82137006e-013 -6.35771904e-012 -8.45561208e-012
      -8.64136540e-012 -8.72985365e-012 -6.92376928e-012
      -1.62281386e-012 0. 0. 0. 0. 0. 0. 0. 0. 0. 0. 0. 0. 0. 0. 0. 0.
      0. 0. 0. 0. 0. 0. 0. 0. 0. 0. 0. 0. 0. 0. 0. 0. 0. 0. 0. 0. 0. 0.
      0. 0. 0. 0. 0. 0. 0. 0. 0. 0. 0. 0. 0. 0. 0. 0. 0. 0. 0. 0. 0. 0.
      0. 0. 0. 0. 0. 0. 0. 0. 0. 0. 0. 0. 0. 0. 0. 0. 0. 0. 0. 0. 0. 0.
      0. 0. 0. 0. 0. 0. 0. 0. -7.12731848e-013 -3.17180418e-012
      -3.17094701e-012 -3.17094701e-012 -3.17025594e-012
      -3.17025594e-012 -1.07219886e-012 -2.61167477e-012
      -1.34510957e-012 -1.34563096e-012 -1.34563096e-012
      -1.34563096e-012 -1.34563096e-012 -1.07254928e-012
      -8.35099405e-013 -4.51208759e-013 -1.07304226e-012
      -1.07304226e-012 -1.07304226e-012 -1.07304226e-012
      -1.07304226e-012 -1.07304226e-012 -4.51208759e-013
      -8.35099405e-013 -8.94762671e-013 -1.07264512e-012
      -1.07264512e-012 -1.39686342e-012 -1.39686342e-012
      -1.07276915e-012 -1.05969617e-012 -1.07276416e-012
      -8.83780408e-013 -1.07269196e-012 -9.62593720e-013
      -1.07264978e-012 -1.39674405e-012 -1.28668799e-012
      -1.07256782e-012 -9.70951726e-013 -9.70951726e-013
      -9.85311225e-013 -1.80271379e-012 -1.39368421e-012
      -6.39991922e-012 -8.45561208e-012 -8.64212434e-012
      -7.57878395e-012 -6.21205127e-012 -8.45968871e-014 0. 0. 0. 0. 0.
      0. 0. 0. 0. 0. 0. 0. 0. 0. 0. 0. 0. 0. 0. 0. 0. 0. 0. 0. 0. 0. 0.
      0. 0. 0. 0. 0. 0. 0. 0. 0. 0. 0. 0. 0. 0. 0. 0. 0. 0. 0. 0. 0. 0.
      0. 0. 0. 0. 0. 0. 0. 0. 0. 0. 0. 0. 0. 0. 0. 0. 0. 0. 0. 0. 0. 0.
      0. 0. 0. 0. 0. 0. 0. 0. 0. 0. 0. 0. 0. 0. 0. 0. 0. 0. 0.
      -7.12731848e-013 -2.02026460e-012 -2.01940721e-012
      -2.01940721e-012 -3.17094701e-012 -3.17094701e-012
      -3.17025594e-012 -1.07219886e-012 -2.61167477e-012
      -1.34510957e-012 -1.34563096e-012 -1.34563096e-012
      -1.34563096e-012 -8.34935528e-013 -8.35099405e-013
      -4.51208759e-013 -1.07304226e-012 -1.07304226e-012
      -1.07304226e-012 -1.07304226e-012 -1.07304226e-012
      -4.51208759e-013 -1.07280417e-012 -6.57148923e-013
      -8.94762671e-013 -1.07264512e-012 -1.07264512e-012
      -1.07264512e-012 -1.07264512e-012 -1.38379043e-012
      -1.39685843e-012 -1.39685843e-012 -1.29520353e-012
      -1.30949071e-012 -1.39678622e-012 -1.28668799e-012
      -1.28668799e-012 -9.62469579e-013 -9.70951726e-013
      -9.70951726e-013 -9.85311225e-013 -9.85311225e-013
      -1.39368421e-012 -6.35771904e-012 -8.45561208e-012
      -8.72869398e-012 -8.64255802e-012 -6.92336292e-012
      -2.18814593e-012 0. 0. 0. 0. 0. 0. 0. 0. 0. 0. 0. 0. 0. 0. 0. 0.
      0. 0. 0. 0. 0. 0. 0. 0. 0. 0. 0. 0. 0. 0. 0. 0. 0. 0. 0. 0. 0. 0.
      0. 0. 0. 0. 0. 0. 0. 0. 0. 0. 0. 0. 0. 0. 0. 0. 0. 0. 0. 0. 0. 0.
      0. 0. 0. 0. 0. 0. 0. 0. 0. 0. 0. 0. 0. 0. 0. 0. 0. 0. 0. 0. 0. 0.
      0. 0. 0. 0. 0. 0. 0. 0. 0. -7.12731848e-013 -2.02026460e-012
      -2.01940721e-012 -2.01940721e-012 -2.01940721e-012
      -2.01940721e-012 -3.17094701e-012 -3.17025594e-012
      -1.07219886e-012 -2.61167477e-012 -1.34510957e-012
      -1.34563096e-012 -1.10801711e-012 -8.34935528e-013
      -4.51208759e-013 -1.07304226e-012 -1.07304226e-012
      -1.07304226e-012 -1.07304226e-012 -1.07304226e-012
      -1.07304226e-012 -4.51208759e-013 -8.35099405e-013
      -8.94762671e-013 -1.07264512e-012 -1.07264512e-012
      -1.07264512e-012 -1.07264512e-012 -1.07264512e-012
      -1.05957213e-012 -1.07264002e-012 -1.07264002e-012
      -1.07264002e-012 -8.83656267e-013 -9.70951726e-013
      -9.70951726e-013 -9.70951726e-013 -9.70951726e-013
      -9.70951726e-013 -9.85311225e-013 -9.85311225e-013
      -1.06958995e-012 -6.35771904e-012 -8.45561208e-012
      -8.72869398e-012 -8.72945292e-012 -7.57881691e-012
      -6.21164535e-012 -6.49929004e-013 0. 0. 0. 0. 0. 0. 0. 0. 0. 0. 0.
      0. 0. 0. 0. 0. 0. 0. 0. 0. 0. 0. 0. 0. 0. 0. 0. 0. 0. 0. 0. 0. 0.
      0. 0. 0. 0. 0. 0. 0. 0. 0. 0. 0. 0. 0. 0. 0. 0. 0. 0. 0. 0. 0. 0.
      0. 0. 0. 0. 0. 0. 0. 0. 0. 0. 0. 0. 0. 0. 0. 0. 0. 0. 0. 0. 0. 0.
      0. 0. 0. 0. 0. 0. 0. 0. 0. 0. 0. 0. 0. 0. -7.12731848e-013
      -2.02073449e-012 -2.01987710e-012 -2.01987710e-012
      -2.01940721e-012 -2.01940721e-012 -2.01940721e-012
      -3.17094701e-012 -3.17025594e-012 -1.07219886e-012
      -1.34612362e-012 -1.10801711e-012 -1.10801711e-012
      -4.51044882e-013 -4.51044882e-013 -1.07287844e-012
      -1.07287844e-012 -1.07287844e-012 -1.07287844e-012
      -1.07287844e-012 -1.07287844e-012 -4.51044882e-013
      -6.56985046e-013 -1.07248119e-012 -1.07248119e-012
      -1.07248119e-012 -1.07248119e-012 -1.07248119e-012
      -1.07248119e-012 -1.05940820e-012 -1.07247620e-012
      -1.07247620e-012 -1.07247620e-012 -9.85147402e-013
      -1.07244281e-012 -1.07244281e-012 -1.07244281e-012
      -1.07244281e-012 -9.85147402e-013 -9.85147402e-013
      -1.07247620e-012 -1.06804290e-012 -8.45561208e-012
      -8.45561208e-012 -8.72869398e-012 -8.72945292e-012
      -7.57878395e-012 -6.21210722e-012 0. 0. 0. 0. 0. 0. 0. 0. 0. 0. 0.
      0. 0. 0. 0. 0. 0. 0. 0. 0. 0. 0. 0. 0. 0. 0. 0. 0. 0. 0. 0. 0. 0.
      0. 0. 0. 0. 0. 0. 0. 0. 0. 0. 0. 0. 0. 0. 0. 0. 0. 0. 0. 0. 0. 0.
      0. 0. 0. 0. 0. 0. 0. 0. 0. 0. 0. 0. 0. 0. 0. 0. 0. 0. 0. 0. 0. 0.
      0. 0. 0. 0. 0. 0. 0. 0. 0. 0. 0. 0. 0. 0. 0. 0. -1.30800264e-012
      -1.30795190e-012 -1.30795190e-012 -2.02024985e-012
      -2.01987710e-012 -2.01940721e-012 -2.01940721e-012
      -3.17094701e-012 -1.07219886e-012 -2.61167477e-012
      -1.34520054e-012 -7.24126488e-013 -7.24126488e-013
      -1.34596002e-012 -1.34596002e-012 -1.34596002e-012
      -1.34596002e-012 -1.34596002e-012 -1.34596002e-012
      -7.24126488e-013 -1.34572193e-012 -9.30066679e-013
      -1.34556277e-012 -1.34556277e-012 -1.34556277e-012
      -1.34556277e-012 -1.34556277e-012 -1.33248978e-012
      -1.34555778e-012 -1.34555778e-012 -1.34555778e-012
      -1.34555778e-012 -1.34555778e-012 -1.25822898e-012
      -1.25822898e-012 -1.25822898e-012 -1.25822898e-012
      -1.25822898e-012 -1.34555778e-012 -1.34555778e-012
      -1.34112459e-012 -8.72869398e-012 -8.72869398e-012
      -8.72869398e-012 -8.72945292e-012 -7.57881691e-012
      -6.21210722e-012 0. 0. 0. 0. 0. 0. 0. 0. 0. 0. 0. 0. 0. 0. 0. 0.
      0. 0. 0. 0. 0. 0. 0. 0. 0. 0. 0. 0. 0. 0. 0. 0. 0. 0. 0. 0. 0. 0.
      0. 0. 0. 0. 0. 0. 0. 0. 0. 0. 0. 0. 0. 0. 0. 0. 0. 0. 0. 0. 0. 0.
      0. 0. 0. 0. 0. 0. 0. 0. 0. 0. 0. 0. 0. 0. 0. 0. 0. 0. 0. 0. 0. 0.
      0. 0. 0. 0. 0. 0. 0. 0. 0. 0. 0. -8.45968871e-014 -8.45968871e-014
      -8.45968871e-014 -7.42619779e-013 -1.30795190e-012
      -2.02024985e-012 -2.01940721e-012 -2.01940721e-012
      -3.17094701e-012 -1.07219886e-012 -1.34612362e-012
      -7.24126488e-013 -1.34596002e-012 -1.34596002e-012
      -1.34596002e-012 -1.34596002e-012 -1.34596002e-012
      -1.34596002e-012 -1.34596002e-012 -7.24126488e-013
      -1.34572193e-012 -9.30066679e-013 -1.34556277e-012
      -1.34556277e-012 -1.34556277e-012 -1.34556277e-012
      -1.34556277e-012 -1.33248978e-012 -1.34555778e-012
      -1.34555778e-012 -1.34555778e-012 -1.34555778e-012
      -1.34555778e-012 -1.34555778e-012 -1.34555778e-012
      -1.34555778e-012 -1.34555778e-012 -1.34555778e-012
      -1.34555778e-012 -1.34429880e-012 -3.43918167e-012
      -8.72869398e-012 -8.72869398e-012 -8.72869398e-012
      -8.72945292e-012 -7.57881691e-012 -6.21210722e-012 0. 0. 0. 0. 0.
      0. 0. 0. 0. 0. 0. 0. 0. 0. 0. 0. 0. 0. 0. 0. 0. 0. 0. 0. 0. 0. 0.
      0. 0. 0. 0. 0. 0. 0. 0. 0. 0. 0. 0. 0. 0. 0. 0. 0. 0. 0. 0. 0. 0.
      0. 0. 0. 0. 0. 0. 0. 0. 0. 0. 0. 0. 0. 0. 0. 0. 0. 0. 0. 0. 0. 0.
      0. 0. 0. 0. 0. 0. 0. 0. 0. 0. 0. 0. 0. 0. 0. 0. 0. 0. 0. 0. 0. 0.
      0. 0. 0. -8.45968871e-014 -8.45968871e-014 -7.42619779e-013
      -2.02024985e-012 -2.01940721e-012 -3.17094701e-012
      -1.07219886e-012 -1.34612362e-012 -1.34596002e-012
      -1.34596002e-012 -1.34596002e-012 -1.34596002e-012
      -1.34596002e-012 -1.34596002e-012 -1.34596002e-012
      -1.34596002e-012 -7.24126488e-013 -1.34572193e-012
      -9.30066679e-013 -1.34556277e-012 -1.34556277e-012
      -1.34556277e-012 -1.34556277e-012 -1.33248978e-012
      -1.34555778e-012 -1.34555778e-012 -1.34555778e-012
      -1.34555778e-012 -1.34555778e-012 -1.34555778e-012
      -1.34555778e-012 -1.34555778e-012 -1.34555778e-012
      -1.34555778e-012 -1.34555778e-012 -1.34555778e-012
      -1.34429880e-012 -3.42928789e-012 -3.43918167e-012
      -8.72869398e-012 -8.72869398e-012 -8.72945292e-012
      -7.57887329e-012 -6.12751039e-012 0. 0. 0. 0. 0. 0. 0. 0. 0. 0. 0.
      0. 0. 0. 0. 0. 0. 0. 0. 0. 0. 0. 0. 0. 0. 0. 0. 0. 0. 0. 0. 0. 0.
      0. 0. 0. 0. 0. 0. 0. 0. 0. 0. 0. 0. 0. 0. 0. 0. 0. 0. 0. 0. 0. 0.
      0. 0. 0. 0. 0. 0. 0. 0. 0. 0. 0. 0. 0. 0. 0. 0. 0. 0. 0. 0. 0. 0.
      0. 0. 0. 0. 0. 0. 0. 0. 0. 0. 0. 0. 0. 0. 0. 0. 0. 0. 0. 0. 0.
      -8.45968871e-014 -7.42619779e-013 -2.02024985e-012
      -2.01940721e-012 -1.07288982e-012 -1.34612362e-012
      -1.34520054e-012 -1.34520054e-012 -1.34520054e-012
      -1.34520054e-012 -1.34520054e-012 -1.34520054e-012
      -1.34520054e-012 -1.34520054e-012 -1.34520054e-012
      -1.34520054e-012 -1.16725000e-012 -1.10742763e-012
      -1.34504137e-012 -1.34504137e-012 -1.34504137e-012
      -1.33196839e-012 -1.34503639e-012 -1.34503639e-012
      -1.34503639e-012 -1.34503639e-012 -1.34503639e-012
      -1.34503639e-012 -1.34503639e-012 -1.34503639e-012
      -1.34503639e-012 -1.34503639e-012 -1.34503639e-012
      -1.33196839e-012 -1.33070941e-012 -3.44183948e-012
      -3.42876639e-012 -8.73134724e-012 -8.73134724e-012
      -8.73210618e-012 -7.58152569e-012 -2.10354911e-012 0. 0. 0. 0. 0.
      0. 0. 0. 0. 0. 0. 0. 0. 0. 0. 0. 0. 0. 0. 0. 0. 0. 0. 0. 0. 0. 0.
      0. 0. 0. 0. 0. 0. 0. 0. 0. 0. 0. 0. 0. 0. 0. 0. 0. 0. 0. 0. 0. 0.
      0. 0. 0. 0. 0. 0. 0. 0. 0. 0. 0. 0. 0. 0. 0. 0. 0. 0. 0. 0. 0. 0.
      0. 0. 0. 0. 0. 0. 0. 0. 0. 0. 0. 0. 0. 0. 0. 0. 0. 0. 0. 0. 0. 0.
      0. 0. 0. 0. 0. 0. -8.45968871e-014 -7.42619779e-013
      -2.02024985e-012 -1.07288982e-012 -2.61041579e-012
      -2.61041579e-012 -2.61041579e-012 -2.61041579e-012
