<?xml version="1.0"?>
<opencv_storage>
<my_svm type_id="opencv-ml-svm">
  <svm_type>C_SVC</svm_type>
  <kernel><type>LINEAR</type></kernel>
  <C>1.</C>
  <term_criteria><epsilon>2.2204460492503131e-016</epsilon>
    <iterations>100</iterations></term_criteria>
  <var_all>19600</var_all>
  <var_count>19600</var_count>
  <class_count>3</class_count>
  <class_labels type_id="opencv-matrix">
    <rows>1</rows>
    <cols>3</cols>
    <dt>i</dt>
    <data>
      -1 1 2</data></class_labels>
  <sv_total>3</sv_total>
  <support_vectors>
    <_>
      0. 0. 0. 0. 0. 0. 0. 0. 0. 0. 0. 0. 0. 0. 0. 0. 0. 0. 0. 0. 0. 0.
      0. 0. 0. 0. 0. 0. 0. 0. 8.67921813e-007 8.67921813e-007
      8.67921813e-007 0. 0. 0. 0. 0. 0. 0. 0. 0. 0. 8.67921813e-007
      8.67921813e-007 0. 0. 0. 0. 0. 0. 0. 0. 0. 0. 0. 0. 0. 0. 0. 0. 0.
      0. 0. 0. 0. 0. 0. 0. 0. 0. 0. 0. 0. 0. 0. 0. 0. 0. 0. 0. 0. 0. 0.
      0. 0. 0. 0. 0. 0. 0. 0. 0. 0. 0. 0. 0. 0. 0. 0. 0. 0. 0. 0. 0. 0.
      0. 0. 0. 0. 0. 0. 0. 0. 0. 0. 0. 0. 0. 0. 0. 0. 0. 0. 0. 0. 0. 0.
      0. 0. 0. 0. 0. 0. 0. 0. 0. 0. 0. 0. 0. 0. 0. 0. 0. 0. 0. 0. 0. 0.
      0. 0. 0. 0. 0. 0. 0. 0. 0. 0. 0. 0. 0. 0. 0. 0. 0. 0. 0. 0.
      8.67921813e-007 8.67921813e-007 8.67921813e-007 8.67921813e-007
      8.67921813e-007 8.67921813e-007 0. 0. 0. 0. 0. 0. 0. 0. 0. 0. 0.
      0. 0. 0. 0. 0. 0. 0. 0. 0. 0. 0. 0. 0. 0. 0. 0. 0. 0. 0. 0. 0. 0.
      0. 0. 0. 0. 0. 0. 0. 0. 0. 0. 0. 0. 0. 0. 0. 0. 0. 0. 0. 0. 0. 0.
      0. 0. 0. 0. 0. 0. 0. 0. 0. 0. 0. 0. 0. 0. 0. 0. 0. 0. 0. 0. 0. 0.
      0. 0. 0. 0. 0. 0. 0. 0. 0. 0. 0. 0. 0. 0. 0. 0. 0. 0. 0. 0. 0. 0.
      0. 0. 0. 0. 0. 0. 0. 0. 0. 0. 0. 0. 0. 0. 0. 0. 0. 0. 0. 0. 0. 0.
      0. 0. 0. 0. 0. 0. 0. 0. 0. 0. 0. 0. 8.67921813e-007
      8.67921813e-007 8.67921813e-007 8.67921813e-007 8.67921813e-007
      8.67921813e-007 8.67921813e-007 8.67921813e-007 0. 0. 0. 0. 0.
      8.67921813e-007 8.67921813e-007 8.67921813e-007 8.67921813e-007
      8.67921813e-007 8.67921813e-007 0. 0. 0. 0. 0. 0. 0. 0. 0. 0. 0.
      0. 0. 0. 0. 0. 0. 0. 0. 0. 0. 0. 0. 0. 0. 0. 0. 0. 0. 0. 0. 0. 0.
      0. 0. 0. 0. 0. 0. 0. 0. 0. 0. 0. 0. 0. 0. 0. 0. 0. 0. 0. 0. 0. 0.
      0. 0. 0. 0. 0. 0. 0. 0. 0. 0. 0. 0. 0. 0. 0. 0. 0. 0. 0. 0. 0. 0.
      0. 0. 0. 0. 0. 0. 0. 0. 0. 0. 0. 0. 0. 0. 0. 0. 0. 0. 0. 0. 0. 0.
      0. 0. 0. 0. 0. 0. 0. 0. 0. 0. 0. 0. 0. 0. 0. 0. 0. 0. 0. 0. 0. 0.
      8.67921813e-007 8.67921813e-007 8.67921813e-007 8.67921813e-007
      8.67921813e-007 8.67921813e-007 8.67921813e-007 0. 0. 0. 0. 0.
      8.67921813e-007 8.67921813e-007 8.67921813e-007 8.67921813e-007
      8.67921813e-007 8.67921813e-007 8.67921813e-007 8.67921813e-007 0.
      0. 0. 0. 0. 0. 0. 0. 0. 0. 0. 0. 0. 0. 0. 0. 0. 0. 0. 0. 0. 0. 0.
      0. 0. 0. 0. 0. 0. 0. 0. 0. 0. 0. 0. 0. 0. 0. 0. 0. 0. 0. 0. 0. 0.
      0. 0. 0. 0. 0. 0. 0. 0. 0. 0. 0. 0. 0. 0. 0. 0. 0. 0. 0. 0. 0. 0.
      0. 0. 0. 0. 0. 0. 0. 0. 0. 0. 0. 0. 0. 0. 0. 0. 0. 0. 0. 0. 0. 0.
      0. 0. 0. 0. 0. 0. 0. 0. 0. 0. 0. 0. 0. 0. 0. 0. 0. 0. 0. 0. 0. 0.
      0. 0. 0. 0. 0. 0. 0. 0. 0. 8.67921813e-007 8.67921813e-007
      8.67921813e-007 8.67921813e-007 8.67921813e-007 8.67921813e-007
      8.67921813e-007 8.67921813e-007 8.67921813e-007 0. 8.67921813e-007
      8.67921813e-007 8.67921813e-007 8.67921813e-007 8.67921813e-007
      8.67921813e-007 8.67921813e-007 8.67921813e-007 8.67921813e-007
      8.67921813e-007 0. 0. 0. 0. 0. 0. 0. 0. 0. 0. 0. 0. 0. 0. 0. 0. 0.
      0. 0. 0. 0. 0. 0. 0. 0. 0. 0. 0. 0. 0. 0. 0. 0. 0. 0. 0. 0. 0. 0.
      0. 0. 0. 0. 0. 0. 0. 0. 0. 0. 0. 0. 0. 0. 0. 0. 0. 0. 0. 0. 0. 0.
      0. 0. 0. 0. 0. 0. 0. 0. 0. 0. 0. 0. 0. 0. 0. 0. 0. 0. 0. 0. 0. 0.
      0. 0. 0. 0. 0. 0. 0. 0. 0. 0. 0. 0. 0. 0. 0. 0. 0. 0. 0. 0. 0. 0.
      0. 0. 0. 0. 0. 0. 0. 0. 0. 0. 0. 8.11762163e-007 8.67921813e-007
      8.67921813e-007 8.67921813e-007 8.67921813e-007 8.67921813e-007
      8.67921813e-007 8.67921813e-007 8.67921813e-007 8.67921813e-007
      8.67921813e-007 8.67921813e-007 8.67921813e-007 8.67921813e-007
      8.67921813e-007 8.67921813e-007 8.67921813e-007 8.67921813e-007
      8.67921813e-007 8.67921813e-007 8.67921813e-007 8.67921813e-007
      8.67921813e-007 8.67921813e-007 8.67921813e-007 8.67921813e-007
      8.67921813e-007 8.67921813e-007 0. 0. 0. 0. 0. 0. 0. 0. 0. 0. 0.
      0. 0. 0. 0. 0. 0. 0. 0. 0. 0. 0. 0. 0. 0. 0. 0. 0. 0. 0. 0. 0. 0.
      0. 0. 0. 0. 0. 0. 0. 0. 0. 0. 0. 0. 0. 0. 0. 0. 0. 0. 0. 0. 0. 0.
      0. 0. 0. 0. 0. 0. 0. 0. 0. 0. 0. 0. 0. 0. 0. 0. 0. 0. 0. 0. 0. 0.
      0. 0. 0. 0. 0. 0. 0. 0. 0. 0. 0. 0. 0. 0. 0. 0. 0. 0. 0. 0. 0. 0.
      0. 0. 0. 0. 0. 0. 0. 0. 0. 0. 0. 8.67921813e-007 8.67921813e-007
      8.11762163e-007 8.67921813e-007 8.67921813e-007 8.67921813e-007
      8.67921813e-007 8.67921813e-007 8.67921813e-007 8.67921813e-007
      8.67921813e-007 8.67921813e-007 8.67921813e-007 8.67921813e-007
      8.67921813e-007 8.67921813e-007 8.67921813e-007 8.67921813e-007
      8.67921813e-007 8.67921813e-007 8.67921813e-007 8.67921813e-007
      8.67921813e-007 8.67921813e-007 8.67921813e-007 8.67921813e-007
      8.67921813e-007 8.67921813e-007 8.67921813e-007 8.67921813e-007
      8.11762163e-007 8.11762163e-007 0. 0. 0. 0. 0. 0. 0. 0. 0. 0. 0.
      0. 0. 0. 0. 0. 0. 0. 0. 0. 0. 0. 0. 0. 0. 0. 0. 0. 0. 0. 0. 0. 0.
      0. 0. 0. 0. 0. 0. 0. 0. 0. 0. 0. 0. 0. 0. 0. 0. 0. 0. 0. 0. 0. 0.
      0. 0. 0. 0. 0. 0. 0. 0. 0. 0. 0. 0. 0. 0. 0. 0. 0. 0. 0. 0. 0. 0.
      0. 0. 0. 0. 0. 0. 0. 0. 0. 0. 0. 0. 0. 0. 0. 0. 0. 0. 0. 0. 0. 0.
      0. 0. 0. 0. 0. 0. 8.67921813e-007 8.67921813e-007 8.67921813e-007
      8.67921813e-007 8.67921813e-007 8.67921813e-007 8.67921813e-007
      8.67921813e-007 8.67921813e-007 8.67921813e-007 8.67921813e-007
      8.67921813e-007 8.67921813e-007 8.67921813e-007 8.67921813e-007
      8.67921813e-007 8.67921813e-007 8.67921813e-007 8.67921813e-007
      8.67921813e-007 8.67921813e-007 8.67921813e-007 8.67921813e-007
      8.67921813e-007 8.11762163e-007 8.67921813e-007 8.67921813e-007
      8.67921813e-007 8.67921813e-007 8.67921813e-007 8.67921813e-007
      8.67921813e-007 8.67921813e-007 8.11762163e-007 8.11762163e-007
      8.67921813e-007 8.67921813e-007 0. 0. 0. 0. 0. 0. 0. 0. 0. 0. 0.
      0. 0. 0. 0. 0. 0. 0. 0. 0. 0. 0. 0. 0. 0. 0. 0. 0. 0. 0. 0. 0. 0.
      0. 0. 0. 0. 0. 0. 0. 0. 0. 0. 0. 0. 0. 0. 0. 0. 0. 0. 0. 0. 0. 0.
      0. 0. 0. 0. 0. 0. 0. 0. 0. 0. 0. 0. 0. 0. 0. 0. 0. 0. 0. 0. 0. 0.
      0. 0. 0. 0. 0. 0. 0. 0. 0. 0. 0. 0. 0. 0. 0. 0. 0. 0. 0. 0. 0. 0.
      0. 0. 8.67921813e-007 8.67921813e-007 8.67921813e-007
      8.67921813e-007 8.67921813e-007 8.67921813e-007 8.67921813e-007
      8.67921813e-007 8.67921813e-007 8.67921813e-007 8.67921813e-007
      8.67921813e-007 8.67921813e-007 8.67921813e-007 8.67921813e-007
      8.67921813e-007 8.67921813e-007 8.67921813e-007 8.67921813e-007
      8.67921813e-007 8.67921813e-007 8.67921813e-007 8.11762163e-007
      8.67921813e-007 8.67921813e-007 8.67921813e-007 8.11762163e-007
      8.11762163e-007 8.67921813e-007 8.67921813e-007 8.67921813e-007
      8.67921813e-007 8.67921813e-007 8.67921813e-007 8.67921813e-007
      8.67921813e-007 8.67921813e-007 8.67921813e-007 8.67921813e-007
      8.67921813e-007 0. 0. 0. 0. 0. 0. 0. 0. 0. 0. 0. 0. 0. 0. 0. 0. 0.
      0. 0. 0. 0. 0. 0. 0. 0. 0. 0. 0. 0. 0. 0. 0. 0. 0. 0. 0. 0. 0. 0.
      0. 0. 0. 0. 0. 0. 0. 0. 0. 0. 0. 0. 0. 0. 0. 0. 0. 0. 0. 0. 0. 0.
      0. 0. 0. 0. 0. 0. 0. 0. 0. 0. 0. 0. 0. 0. 0. 0. 0. 0. 0. 0. 0. 0.
      0. 0. 0. 0. 0. 0. 0. 0. 0. 0. 0. 0. 0. 0. 0. 0. 0. 8.67921813e-007
      8.67921813e-007 8.67921813e-007 8.67921813e-007 8.67921813e-007
      8.67921813e-007 8.67921813e-007 8.67921813e-007 8.67921813e-007
      8.67921813e-007 8.67921813e-007 8.67921813e-007 8.67921813e-007
      8.67921813e-007 8.67921813e-007 8.67921813e-007 8.67921813e-007
      8.11762163e-007 8.11762163e-007 8.11762163e-007 8.11762163e-007
      8.11762163e-007 8.11762163e-007 8.11762163e-007 8.11762163e-007
      8.11762163e-007 8.11762163e-007 8.11762163e-007 8.11762163e-007
      8.11762163e-007 8.11762163e-007 8.67921813e-007 8.67921813e-007
      8.67921813e-007 8.11762163e-007 8.11762163e-007 8.11762163e-007
      8.11762163e-007 8.11762163e-007 8.11762163e-007 0. 0. 0. 0. 0. 0.
      0. 0. 0. 0. 0. 0. 0. 0. 0. 0. 0. 0. 0. 0. 0. 0. 0. 0. 0. 0. 0. 0.
      0. 0. 0. 0. 0. 0. 0. 0. 0. 0. 0. 0. 0. 0. 0. 0. 0. 0. 0. 0. 0. 0.
      0. 0. 0. 0. 0. 0. 0. 0. 0. 0. 0. 0. 0. 0. 0. 0. 0. 0. 0. 0. 0. 0.
      0. 0. 0. 0. 0. 0. 0. 0. 0. 0. 0. 0. 0. 0. 0. 0. 0. 0. 0. 0. 0. 0.
      0. 0. 0. 0. 0. 8.67921813e-007 8.67921813e-007 8.67921813e-007
      8.67921813e-007 8.67921813e-007 8.67921813e-007 8.67921813e-007
      8.67921813e-007 8.67921813e-007 8.67921813e-007 8.11762163e-007
      8.67921813e-007 8.67921813e-007 8.67921813e-007 8.67921813e-007
      8.67921813e-007 8.67921813e-007 8.11762163e-007 8.11762163e-007
      8.11762163e-007 8.11762163e-007 8.11762163e-007 8.11762163e-007
      8.11762163e-007 8.11762163e-007 8.11762163e-007 8.11762163e-007
      8.11762163e-007 8.11762163e-007 8.11762163e-007 8.11762163e-007
      8.11762163e-007 8.11762163e-007 8.11762163e-007 8.11762163e-007
      8.11762163e-007 8.11762163e-007 8.11762163e-007 8.11762163e-007
      8.11762163e-007 8.11762163e-007 8.11762163e-007 8.11762163e-007 0.
      0. 0. 0. 0. 0. 0. 0. 0. 0. 0. 0. 0. 0. 0. 0. 0. 0. 0. 0. 0. 0. 0.
      0. 0. 0. 0. 0. 0. 0. 0. 0. 0. 0. 0. 0. 0. 0. 0. 0. 0. 0. 0. 0. 0.
      0. 0. 0. 0. 0. 0. 0. 0. 0. 0. 0. 0. 0. 0. 0. 0. 0. 0. 0. 0. 0. 0.
      0. 0. 0. 0. 0. 0. 0. 0. 0. 0. 0. 0. 0. 0. 0. 0. 0. 0. 0. 0. 0. 0.
      0. 0. 0. 0. 0. 0. 0. 8.67921813e-007 8.67921813e-007
      8.67921813e-007 8.67921813e-007 8.67921813e-007 8.67921813e-007
      8.67921813e-007 8.11762163e-007 8.11762163e-007 8.11762163e-007
      8.67921813e-007 8.11762163e-007 8.11762163e-007 8.67921813e-007
      8.67921813e-007 8.67921813e-007 8.67921813e-007 8.67921813e-007
      8.11762163e-007 8.11762163e-007 8.11762163e-007 8.11762163e-007
      8.11762163e-007 8.11762163e-007 8.11762163e-007 8.11762163e-007
      8.11762163e-007 8.11762163e-007 8.11762163e-007 8.11762163e-007
      8.11762163e-007 8.11762163e-007 8.11762163e-007 8.11762163e-007
      8.11762163e-007 8.11762163e-007 8.11762163e-007 8.11762163e-007
      8.11762163e-007 8.11762163e-007 8.11762163e-007 8.11762163e-007
      8.11762163e-007 8.11762163e-007 0. 0. 0. 0. 0. 0. 0. 0. 0. 0. 0.
      0. 0. 0. 0. 0. -2.22176340e-007 -2.22176340e-007 -2.22176340e-007
      0. 0. 0. 0. 0. 0. 0. 0. 0. 0. 0. 0. 0. 0. 0. 0. 0. 0. 0. 0. 0. 0.
      0. 0. 0. 0. 0. 0. 0. 0. 0. 0. 0. 0. 0. 0. 0. 0. 0. 0. 0. 0. 0. 0.
      0. 0. 0. 0. 0. 0. 0. 0. 0. 0. 0. 0. 0. 0. 0. 0. 0. 0. 0. 0. 0. 0.
      0. 0. 0. 0. 0. 0. 0. 0. 0. 0. 8.67921813e-007 8.67921813e-007
      8.67921813e-007 8.67921813e-007 8.67921813e-007 8.67921813e-007
      8.67921813e-007 8.67921813e-007 8.11762163e-007 8.11762163e-007
      8.11762163e-007 8.11762163e-007 8.11762163e-007 8.67921813e-007
      8.67921813e-007 8.67921813e-007 8.67921813e-007 8.67921813e-007
      8.11762163e-007 8.11762163e-007 8.11762163e-007 8.11762163e-007
      8.11762163e-007 8.11762163e-007 8.11762163e-007 8.11762163e-007
      8.11762163e-007 8.11762163e-007 8.11762163e-007 8.11762163e-007
      8.11762163e-007 8.11762163e-007 8.11762163e-007 8.11762163e-007
      8.11762163e-007 8.11762163e-007 8.11762163e-007 8.11762163e-007
      8.11762163e-007 8.11762163e-007 8.11762163e-007 8.11762163e-007
      8.11762163e-007 8.11762163e-007 8.11762163e-007 8.11762163e-007 0.
      0. 0. 0. 0. -2.14824263e-006 -2.14824263e-006 -2.14824263e-006
      -2.14824263e-006 0. 0. 0. 0. 0. -2.22176340e-007 -2.22176340e-007
      -2.22176340e-007 -8.46607577e-007 -8.46607577e-007
      -8.46607577e-007 -6.24431266e-007 -6.24431266e-007
      -6.24431266e-007 0. 0. 0. 0. 0. 0. 0. 0. 0. 0. 0. 0. 0. 0. 0. 0.
      0. 0. 0. 0. 0. 0. 0. 0. 0. 0. 0. 0. 0. 0. 0. 0. 0. 0. 0. 0. 0. 0.
      0. 0. 0. 0. 0. 0. 0. 0. 0. 0. 0. 0. 0. 0. 0. 0. 0. 0. 0. 0. 0. 0.
      0. 0. 0. 0. 0. 0. 0. 0. 0. 0. 8.67921813e-007 8.67921813e-007
      8.67921813e-007 8.67921813e-007 8.67921813e-007 8.67921813e-007
      8.67921813e-007 8.11762163e-007 8.11762163e-007 8.11762163e-007
      8.11762163e-007 8.11762163e-007 8.11762163e-007 8.11762163e-007
      8.67921813e-007 8.11762163e-007 8.11762163e-007 8.11762163e-007
      8.11762163e-007 8.11762163e-007 8.11762163e-007 8.11762163e-007
      8.11762163e-007 8.11762163e-007 8.11762163e-007 8.11762163e-007
      8.11762163e-007 8.11762163e-007 8.11762163e-007 8.11762163e-007
      8.11762163e-007 8.11762163e-007 8.11762163e-007 8.11762163e-007
      8.11762163e-007 8.11762163e-007 8.11762163e-007 8.11762163e-007
      8.11762163e-007 8.11762163e-007 8.11762163e-007 8.11762163e-007
      8.11762163e-007 8.11762163e-007 8.11762163e-007 8.11762163e-007
      8.11762163e-007 0. 0. 0. -2.14824263e-006 -2.14824263e-006
      -2.14824263e-006 -2.14824263e-006 -2.14824263e-006
      -2.14824263e-006 -2.14824263e-006 -2.14824263e-006
      -2.14824263e-006 -2.22176340e-007 -2.22176340e-007
      -2.22176340e-007 -2.22176340e-007 -8.46607577e-007
      -1.38762744e-006 -1.38762744e-006 -1.38762744e-006
      -8.46607577e-007 -8.46607577e-007 -6.24431266e-007 0. 0. 0. 0. 0.
      0. 0. 0. 0. 0. 0. 0. 0. 0. 0. 0. 0. 0. 0. 0. 0. 0. 0. 0. 0. 0. 0.
      0. 0. 0. 0. 0. 0. 0. 0. 0. 0. 0. 0. 0. 0. 0. 0. 0. 0. 0. 0. 0. 0.
      0. 0. 0. 0. 0. 0. 0. 0. 0. 0. 0. 0. 0. 0. 0. 0. 0. 0. 0. 0. 0.
      8.67921813e-007 8.67921813e-007 8.67921813e-007 8.67921813e-007
      8.67921813e-007 8.67921813e-007 8.11762163e-007 8.11762163e-007
      8.11762163e-007 8.11762163e-007 8.11762163e-007 8.11762163e-007
      8.11762163e-007 8.11762163e-007 8.11762163e-007 8.11762163e-007
      8.11762163e-007 8.11762163e-007 8.11762163e-007 8.11762163e-007
      8.11762163e-007 8.11762163e-007 8.11762163e-007 8.11762163e-007
      8.11762163e-007 8.11762163e-007 8.11762163e-007 8.11762163e-007
      8.11762163e-007 8.11762163e-007 8.11762163e-007 8.11762163e-007
      8.11762163e-007 8.11762163e-007 8.11762163e-007 8.11762163e-007
      8.11762163e-007 8.11762163e-007 8.11762163e-007 8.11762163e-007
      8.11762163e-007 8.11762163e-007 8.11762163e-007 8.11762163e-007
      8.11762163e-007 8.11762163e-007 8.11762163e-007 8.11762163e-007 0.
      -2.14824263e-006 -2.14824263e-006 -2.14824263e-006
      -2.14824263e-006 -2.14824263e-006 -2.14824263e-006
      -2.14824263e-006 -2.14824263e-006 -2.14824263e-006
      -2.37041900e-006 -2.22176340e-007 -2.22176340e-007
      -2.22176340e-007 -7.63196169e-007 -1.38762744e-006
      -1.38762744e-006 -1.38762744e-006 -1.38762744e-006
      -1.38762744e-006 -8.46607577e-007 -1.98402881e-006
      -3.78260165e-006 -2.02074921e-006 -2.02074921e-006
      -2.02074921e-006 -2.02074921e-006 0. 0. 0. 0. 0. 0. 0. 0. 0. 0. 0.
      0. 0. 0. 0. 0. 0. 0. 0. 0. 0. 0. 0. 0. 0. 0. 0. 0. 0. 0. 0. 0. 0.
      0. 0. 0. 0. 0. 0. 0. 0. 0. 0. 0. 0. 0. 0. 0. 0. 0. 0. 0. 0. 0. 0.
      0. 0. 0. 0. 0. 0. 0. 0. 0. 0. 8.67921813e-007 8.67921813e-007
      8.67921813e-007 8.67921813e-007 8.67921813e-007 8.67921813e-007
      8.11762163e-007 8.11762163e-007 8.11762163e-007 8.11762163e-007
      8.11762163e-007 8.11762163e-007 8.11762163e-007 8.11762163e-007
      8.11762163e-007 8.11762163e-007 8.11762163e-007 8.11762163e-007
      8.11762163e-007 8.11762163e-007 8.11762163e-007 8.11762163e-007
      8.11762163e-007 8.11762163e-007 8.11762163e-007 8.11762163e-007
      8.11762163e-007 8.11762163e-007 8.11762163e-007 8.11762163e-007
      8.11762163e-007 8.11762163e-007 8.11762163e-007 8.11762163e-007
      8.11762163e-007 8.11762163e-007 8.11762163e-007 8.11762163e-007
      8.11762163e-007 8.11762163e-007 8.11762163e-007 8.11762163e-007
      8.11762163e-007 8.11762163e-007 8.11762163e-007 8.11762163e-007
      8.11762163e-007 8.11762163e-007 -1.33648041e-006 -1.33648041e-006
      -2.14824263e-006 -2.14824263e-006 -2.14824263e-006
      -2.14824263e-006 -2.14824263e-006 -2.91143874e-006
      -2.91143874e-006 -2.91143874e-006 -2.91143874e-006
      -2.91143874e-006 -7.63196169e-007 -7.63196169e-007
      -1.38762744e-006 -1.38762744e-006 -1.38762744e-006
      -1.38762744e-006 -1.38762744e-006 -1.38762744e-006
      -2.52504856e-006 -4.54579776e-006 -4.00477802e-006
      -3.78260165e-006 -2.64518053e-006 -2.02074921e-006
      -2.02074921e-006 -2.02074921e-006 0. 0. 0. 0. 0. 0. 0. 0. 0. 0. 0.
      0. 0. 0. 0. 0. 0. 0. 0. 0. 0. 0. 0. 0. 0. 0. 0. 0. 0. 0. 0. 0. 0.
      0. 0. 0. 0. 0. 0. 0. 0. 0. 0. 0. 0. 0. 0. 0. 0. 0. 0. 0. 0. 0. 0.
      0. 0. 0. 0. 0. 0. 0. 0. 8.67921813e-007 8.67921813e-007
      8.67921813e-007 8.67921813e-007 8.67921813e-007 8.11762163e-007
      8.11762163e-007 8.11762163e-007 8.11762163e-007 8.11762163e-007
      8.11762163e-007 8.11762163e-007 8.11762163e-007 8.11762163e-007
      8.67921813e-007 8.11762163e-007 8.11762163e-007 8.11762163e-007
      8.11762163e-007 8.11762163e-007 8.11762163e-007 8.11762163e-007
      8.11762163e-007 8.11762163e-007 8.11762163e-007 8.11762163e-007
      8.11762163e-007 8.11762163e-007 8.11762163e-007 8.11762163e-007
      8.11762163e-007 8.11762163e-007 8.11762163e-007 8.11762163e-007
      8.11762163e-007 8.11762163e-007 8.11762163e-007 8.11762163e-007
      8.11762163e-007 8.11762163e-007 8.11762163e-007 8.11762163e-007
      8.11762163e-007 8.11762163e-007 8.11762163e-007 8.11762163e-007
      8.11762163e-007 8.11762163e-007 8.11762163e-007 -1.33648041e-006
      -1.33648041e-006 -1.33648041e-006 -2.14824263e-006
      -2.14824263e-006 -2.14824263e-006 -2.68926237e-006
      -2.91143874e-006 -2.91143874e-006 -1.06209052e-006
      -1.06209052e-006 -1.06209052e-006 4.61720902e-007 4.61720902e-007
      -1.38762744e-006 -1.38762744e-006 -1.38762744e-006
      -1.38762744e-006 -1.38762744e-006 -2.52504856e-006
      -4.54579776e-006 -4.54579776e-006 -4.54579776e-006
      -4.00477802e-006 -3.78260165e-006 -2.64518053e-006
      -2.02074921e-006 -2.02074921e-006 -2.02074921e-006 0. 0. 0. 0. 0.
      0. 0. 0. 0. 0. 0. 0. 0. 0. 0. 0. 0. 0. 0. 0. 0. 0. 0. 0. 0. 0. 0.
      0. 0. 0. 0. 0. 0. 0. 0. 0. 0. 0. 0. 0. 0. 0. 0. 0. 0. 0. 0. 0. 0.
      0. 0. 0. 0. 0. 0. 0. 0. 0. 0. 0. 8.67921813e-007 8.67921813e-007
      8.67921813e-007 8.67921813e-007 8.67921813e-007 8.67921813e-007
      8.67921813e-007 8.11762163e-007 8.11762163e-007 8.11762163e-007
      8.11762163e-007 8.11762163e-007 8.11762163e-007 8.11762163e-007
      8.11762163e-007 8.67921813e-007 8.67921813e-007 8.11762163e-007
      8.11762163e-007 8.11762163e-007 8.11762163e-007 8.11762163e-007
      8.11762163e-007 8.11762163e-007 8.11762163e-007 8.11762163e-007
      8.11762163e-007 8.11762163e-007 8.11762163e-007 8.11762163e-007
      8.11762163e-007 8.11762163e-007 8.11762163e-007 8.11762163e-007
      8.11762163e-007 8.11762163e-007 8.11762163e-007 8.11762163e-007
      8.11762163e-007 8.11762163e-007 8.11762163e-007 8.11762163e-007
      8.11762163e-007 8.11762163e-007 8.11762163e-007 8.11762163e-007
      8.11762163e-007 8.11762163e-007 8.11762163e-007 8.11762163e-007
      -1.33648041e-006 -1.33648041e-006 -1.33648041e-006
      -1.33648041e-006 -1.33648041e-006 -1.33648041e-006
      -2.14824263e-006 -2.91143874e-006 -2.91143874e-006 1.75876007e-008
      1.75876007e-008 1.75876007e-008 -6.06843628e-007 -6.06843628e-007
      -6.06843628e-007 4.61720902e-007 -1.38762744e-006 -1.38762744e-006
      -1.38762744e-006 -4.54579776e-006 -4.54579776e-006
      -4.54579776e-006 -4.54579776e-006 -4.54579776e-006
      -4.54579776e-006 -4.54579776e-006 -3.78260165e-006
      -2.02074921e-006 -2.02074921e-006 -2.02074921e-006
      -2.02074921e-006 0. 0. 0. 0. 0. 0. 0. 0. 0. 0. 0. 0. 0. 0. 0. 0.
      0. 0. 0. 0. 0. 0. 0. 0. 0. 0. 0. 0. 0. 0. 0. 0. 0. 0. 0. 0. 0. 0.
      0. 0. 0. 0. 0. 0. 0. 0. 0. 0. 0. 0. 0. 0. 0. 0. 0. 0. 0. 0. 0.
      8.67921813e-007 8.67921813e-007 8.67921813e-007 8.67921813e-007
      8.67921813e-007 8.67921813e-007 8.11762163e-007 8.11762163e-007
      8.11762163e-007 8.11762163e-007 8.11762163e-007 8.11762163e-007
      8.11762163e-007 8.11762163e-007 8.67921813e-007 8.67921813e-007
      8.67921813e-007 8.67921813e-007 8.11762163e-007 8.11762163e-007
      8.11762163e-007 8.11762163e-007 8.11762163e-007 8.11762163e-007
      8.11762163e-007 8.11762163e-007 8.11762163e-007 8.11762163e-007
      8.11762163e-007 8.11762163e-007 8.11762163e-007 8.11762163e-007
      8.11762163e-007 8.11762163e-007 8.11762163e-007 8.11762163e-007
      8.11762163e-007 8.11762163e-007 8.11762163e-007 8.11762163e-007
      8.11762163e-007 8.11762163e-007 8.11762163e-007 8.11762163e-007
      8.11762163e-007 8.11762163e-007 8.11762163e-007 8.11762163e-007
      8.11762163e-007 -1.33648041e-006 -1.33648041e-006 -1.33648041e-006
      -1.33648041e-006 -1.33648041e-006 -1.33648041e-006
      -1.33648041e-006 -2.68926237e-006 -2.91143874e-006
      -2.96918188e-006 -1.74426486e-006 -1.74426486e-006
      -6.06843628e-007 -6.06843628e-007 -6.06843628e-007
      -2.62759295e-006 -1.67034571e-007 -1.24671260e-006
      -3.40837664e-006 -4.54579776e-006 -4.54579776e-006
      -4.54579776e-006 -4.54579776e-006 -4.53008852e-006
      -4.54579776e-006 -4.53008852e-006 -4.53008852e-006
      -4.53008852e-006 -2.02074921e-006 -2.02074921e-006
      -2.02074921e-006 -2.02074921e-006 0. 0. 0. 0. 0. 0. 0. 0. 0. 0. 0.
      0. 0. 0. 0. 0. 0. 0. 0. 0. 0. 0. 0. 0. 0. 0. 0. 0. 0. 0. 0. 0. 0.
      0. 0. 0. 0. 0. 0. 0. 0. 0. 0. 0. 0. 0. 0. 0. 0. 0. 0. 0. 0. 0. 0.
      0. 0. 0. 8.67921813e-007 8.67921813e-007 8.67921813e-007
      8.67921813e-007 8.67921813e-007 8.67921813e-007 8.67921813e-007
      8.11762163e-007 8.11762163e-007 8.11762163e-007 8.11762163e-007
      8.11762163e-007 8.11762163e-007 8.11762163e-007 8.11762163e-007
      8.67921813e-007 8.67921813e-007 8.67921813e-007 8.11762163e-007
      8.11762163e-007 8.11762163e-007 8.11762163e-007 8.11762163e-007
      8.11762163e-007 8.11762163e-007 8.11762163e-007 8.11762163e-007
      8.11762163e-007 8.11762163e-007 8.11762163e-007 8.11762163e-007
      8.11762163e-007 8.11762163e-007 8.11762163e-007 8.11762163e-007
      3.53368569e-006 3.53368569e-006 2.53034841e-006 2.53034841e-006
      2.53034841e-006 8.11762163e-007 8.11762163e-007 8.11762163e-007
      8.11762163e-007 8.11762163e-007 8.11762163e-007 8.11762163e-007
      8.11762163e-007 8.11762163e-007 -1.33648041e-006 -1.33648041e-006
      -1.33648041e-006 -1.33648041e-006 -1.33648041e-006
      -1.33648041e-006 -1.33648041e-006 -1.28032082e-006
      -1.82134067e-006 -3.80536949e-006 -9.32502644e-007
      -9.32502644e-007 -1.74426486e-006 -1.74426486e-006
      -6.06843628e-007 1.85371459e-006 -1.67034571e-007 -1.67034571e-007
      -1.24671260e-006 -3.09606094e-006 -4.54579776e-006
      -4.54579776e-006 -4.54579776e-006 -4.54579776e-006
      -4.54579776e-006 -4.54579776e-006 -4.54579776e-006
      -4.54579776e-006 -4.54579776e-006 -4.00477802e-006
      -3.15817033e-006 -2.02074921e-006 -2.02074921e-006
      -2.02074921e-006 0. 0. 0. 0. 0. 0. 0. 0. 0. 0. 0. 0. 0. 0. 0. 0.
      0. 0. 0. 0. 0. 0. 0. 0. 0. 0. 0. 0. 0. 0. 0. 0. 0. 0. 0. 0. 0. 0.
      0. 0. 0. 0. 0. 0. 0. 0. 0. 0. 0. 0. 0. 0. 0. 0. 0. 0. 0.
      8.67921813e-007 8.67921813e-007 8.67921813e-007 8.67921813e-007
      8.67921813e-007 8.67921813e-007 8.67921813e-007 8.11762163e-007
      8.11762163e-007 8.11762163e-007 8.11762163e-007 8.11762163e-007
      8.11762163e-007 8.11762163e-007 8.11762163e-007 8.67921813e-007
      8.67921813e-007 8.67921813e-007 8.11762163e-007 8.11762163e-007
      8.11762163e-007 8.11762163e-007 8.11762163e-007 8.11762163e-007
      8.11762163e-007 8.11762163e-007 8.11762163e-007 8.11762163e-007
      8.11762163e-007 8.11762163e-007 8.11762163e-007 8.11762163e-007
      8.11762163e-007 8.11762163e-007 8.11762163e-007 2.53034841e-006
      2.53034841e-006 2.53034841e-006 2.53034841e-006 2.53034841e-006
      2.53034841e-006 2.53034841e-006 8.11762163e-007 8.11762163e-007
      8.11762163e-007 8.11762163e-007 8.11762163e-007 -1.49993366e-006
      -1.33648041e-006 -1.33648041e-006 -1.33648041e-006
      -1.33648041e-006 -1.33648041e-006 -1.33648041e-006
      -1.33648041e-006 -1.33648041e-006 -2.47390153e-006
      -3.23709787e-006 -3.86152897e-006 -9.32502644e-007
      -9.32502644e-007 -9.32502644e-007 -1.74426486e-006
      -1.74426486e-006 -1.30445574e-006 -1.67034571e-007
      -1.67034571e-007 -1.30445574e-006 -2.38413372e-006
      -2.08523943e-006 -4.54579776e-006 -4.54579776e-006
      -4.54579776e-006 -4.54579776e-006 -4.54579776e-006
      -4.54579776e-006 -4.54579776e-006 -4.54579776e-006
      -4.54579776e-006 -4.54579776e-006 -2.02074921e-006
      -2.02074921e-006 -2.02074921e-006 0. 0. 0. 0. 0. 0. 0. 0. 0. 0. 0.
      0. 0. 0. 0. 0. 0. 0. 0. 0. 0. 0. 0. 0. 0. 0. 0. 0. 0. 0. 0. 0. 0.
      0. 0. 0. 0. 0. 0. 0. 0. 0. 0. 0. 0. 0. 0. 0. 0. 0. 0. 0. 0. 0. 0.
      0. 0. 8.67921813e-007 8.67921813e-007 8.67921813e-007
      8.67921813e-007 8.67921813e-007 8.67921813e-007 8.11762163e-007
      8.11762163e-007 8.11762163e-007 8.11762163e-007 8.11762163e-007
      8.11762163e-007 8.11762163e-007 8.11762163e-007 8.67921813e-007
      8.67921813e-007 8.67921813e-007 8.67921813e-007 8.67921813e-007
      8.11762163e-007 8.11762163e-007 8.11762163e-007 8.11762163e-007
      8.11762163e-007 8.11762163e-007 8.11762163e-007 8.11762163e-007
      8.11762163e-007 8.11762163e-007 8.11762163e-007 8.11762163e-007
      8.11762163e-007 1.81509938e-006 1.81509938e-006 1.81509938e-006
      3.53368569e-006 3.53368569e-006 3.53368569e-006 3.53368569e-006
      3.48007870e-006 2.53034841e-006 2.53034841e-006 8.11762163e-007
      3.09834149e-006 3.09834149e-006 8.11762163e-007 8.11762163e-007
      -1.49993366e-006 -1.49993366e-006 -1.33648041e-006
      -1.33648041e-006 -1.33648041e-006 -1.33648041e-006
      -1.33648041e-006 -2.47390153e-006 -2.47390153e-006
      -3.23709787e-006 -3.23709787e-006 -2.78185098e-006
      -9.32502644e-007 -9.32502644e-007 -9.32502644e-007
      -9.32502644e-007 -1.30445574e-006 -1.30445574e-006
      -1.30445574e-006 -1.30445574e-006 -1.30445574e-006
      -4.23348229e-006 -4.23348229e-006 -2.08523943e-006
      -4.54579776e-006 -4.54579776e-006 -4.54579776e-006
      -4.54579776e-006 -4.54579776e-006 -4.54579776e-006
      -4.54579776e-006 -4.54579776e-006 -4.54579776e-006
      -4.32362140e-006 -3.18620027e-006 -2.02074921e-006
      -2.02074921e-006 -2.02074921e-006 0. 0. 0. 0. 0. 0. 0. 0. 0. 0. 0.
      0. 0. 0. 0. 0. 0. 0. 0. 0. 0. 0. 0. 0. 0. 0. 0. 0. 0. 0. 0. 0. 0.
      0. 0. 0. 0. 0. 0. 0. 0. 0. 0. 0. 0. 0. 0. 0. 0. 0. 0. 0. 0. 0.
      8.67921813e-007 8.67921813e-007 8.67921813e-007 8.67921813e-007
      8.67921813e-007 8.67921813e-007 8.67921813e-007 8.11762163e-007
      8.11762163e-007 8.11762163e-007 8.11762163e-007 8.11762163e-007
      8.11762163e-007 8.11762163e-007 8.11762163e-007 8.11762163e-007
      8.67921813e-007 8.67921813e-007 8.67921813e-007 8.67921813e-007
      8.11762163e-007 8.11762163e-007 8.11762163e-007 8.11762163e-007
      8.11762163e-007 8.11762163e-007 8.11762163e-007 8.11762163e-007
      8.11762163e-007 8.11762163e-007 8.11762163e-007 8.11762163e-007
      8.11762163e-007 1.81509938e-006 1.81509938e-006 3.53368569e-006
      3.48007870e-006 3.48007870e-006 3.53368569e-006 3.53368569e-006
      3.53368569e-006 3.53368569e-006 2.53034841e-006 3.09834149e-006
      3.09834149e-006 3.09834149e-006 3.09834149e-006 3.09834149e-006
      -1.49993366e-006 -1.33648041e-006 -1.33648041e-006
      -1.33648041e-006 -1.33648041e-006 -1.33648041e-006
      -1.33648041e-006 -2.47390153e-006 -2.47390153e-006
      -3.23709787e-006 -3.86152897e-006 -3.86152897e-006
      -9.32502644e-007 -9.32502644e-007 -9.32502644e-007
      -9.32502644e-007 -4.92693573e-007 -1.30445574e-006
      -1.30445574e-006 -1.30445574e-006 -1.30445574e-006
      -4.40746089e-006 -4.23348229e-006 -4.23348229e-006
      -4.54579776e-006 -4.54579776e-006 -4.54579776e-006
      -4.54579776e-006 -4.54579776e-006 -4.54579776e-006
      -4.54579776e-006 -4.54579776e-006 -4.54579776e-006
      -4.32362140e-006 -3.32028412e-006 -1.64184326e-006
      -1.01741205e-006 -2.02074921e-006 0. 0. 0. 0. 0. 0. 0. 0. 0. 0. 0.
      0. 0. 0. 0. 0. 0. 0. 0. 0. 0. 0. 0. 0. 0. 0. 0. 0. 0. 0. 0. 0. 0.
      0. 0. 0. 0. 0. 0. 0. 0. 0. 0. 0. 0. 0. 0. 0. 0. 0. 0. 0. 0. 0.
      8.67921813e-007 8.67921813e-007 8.67921813e-007 8.67921813e-007
      8.67921813e-007 8.67921813e-007 8.67921813e-007 8.11762163e-007
      8.11762163e-007 8.11762163e-007 8.11762163e-007 8.11762163e-007
      8.11762163e-007 8.11762163e-007 8.11762163e-007 8.67921813e-007
      8.67921813e-007 8.67921813e-007 8.67921813e-007 8.67921813e-007
      8.67921813e-007 8.11762163e-007 8.11762163e-007 8.11762163e-007
      8.11762163e-007 8.11762163e-007 8.11762163e-007 8.11762163e-007
      8.11762163e-007 8.11762163e-007 8.11762163e-007 8.11762163e-007
      8.11762163e-007 1.81509938e-006 3.53368569e-006 3.53368569e-006
      3.48007870e-006 3.48007870e-006 3.48007870e-006 3.48007870e-006
      3.48007870e-006 3.48007870e-006 5.82026496e-006 3.09834149e-006
      3.09834149e-006 3.09834149e-006 3.09834149e-006 3.09834149e-006
      7.86645728e-007 -1.33648041e-006 -1.33648041e-006 -1.33648041e-006
      -1.33648041e-006 -1.33648041e-006 -1.33648041e-006
      -2.47390153e-006 -2.47390153e-006 -3.23709787e-006
      -3.86152897e-006 -3.86152897e-006 -9.32502644e-007
      -9.32502644e-007 -9.32502644e-007 -9.32502644e-007
      -4.92693573e-007 -4.92693573e-007 -1.30445574e-006
      -1.30445574e-006 -1.30445574e-006 -4.40746089e-006
      -4.23348229e-006 -4.23348229e-006 -4.54579776e-006
      -4.54579776e-006 -4.54579776e-006 -4.54579776e-006
      -4.54579776e-006 -4.54579776e-006 -2.69644943e-006
      -2.69644943e-006 -2.69644943e-006 -2.47427306e-006
      -3.32028412e-006 -2.77926438e-006 -1.01741205e-006
      -2.02074921e-006 -2.02074921e-006 -2.02074921e-006 0. 0. 0. 0. 0.
      0. 0. 0. 0. 0. 0. 0. 0. 0. 0. 0. 0. 0. 0. 0. 0. 0. 0. 0. 0. 0. 0.
      0. 0. 0. 0. 0. 0. 0. 0. 0. 0. 0. 0. 0. 0. 0. 0. 0. 0. 0. 0. 0. 0.
      0. 0. 0. 8.67921813e-007 8.67921813e-007 8.67921813e-007
      8.67921813e-007 8.67921813e-007 8.67921813e-007 8.11762163e-007
      8.11762163e-007 8.11762163e-007 8.11762163e-007 8.11762163e-007
      8.11762163e-007 8.11762163e-007 8.11762163e-007 8.11762163e-007
      8.67921813e-007 8.67921813e-007 8.67921813e-007 8.67921813e-007
      8.67921813e-007 8.67921813e-007 8.11762163e-007 8.11762163e-007
      8.11762163e-007 8.11762163e-007 8.11762163e-007 8.11762163e-007
      8.11762163e-007 8.11762163e-007 8.11762163e-007 8.11762163e-007
      8.11762163e-007 8.11762163e-007 1.81509938e-006 3.48007870e-006
      3.48007870e-006 3.48007870e-006 3.48007870e-006 3.48007870e-006
      3.48007870e-006 3.48007870e-006 5.76665798e-006 5.76665798e-006
      5.76665798e-006 3.04473474e-006 3.04473474e-006 3.04473474e-006
      3.04473474e-006 7.33038803e-007 -1.39008739e-006 -1.39008739e-006
      -1.33648041e-006 -1.33648041e-006 -1.33648041e-006
      -1.33648041e-006 -2.47390153e-006 -3.01492150e-006
      -3.01492150e-006 -3.86152897e-006 -3.86152897e-006
      -2.01218063e-006 -9.32502644e-007 -9.32502644e-007
      -2.95325185e-006 -4.92693573e-007 -4.92693573e-007
      -4.92693573e-007 -4.92693573e-007 -1.47843457e-006
      -3.32778291e-006 -4.23348229e-006 -4.23348229e-006
      -4.23348229e-006 -4.54579776e-006 -4.54579776e-006
      -4.54579776e-006 -4.54579776e-006 -2.68073995e-006
      -2.68073995e-006 -2.68073995e-006 -2.68073995e-006
      -1.39459507e-006 -8.53575216e-007 -9.29916098e-007
      -3.05484861e-007 -1.01741205e-006 -2.02074921e-006
      -2.02074921e-006 0. 0. 0. 0. 0. 0. 0. 0. 0. 0. 0. 0. 0. 0. 0. 0.
      0. 0. 0. 0. 0. 0. 0. 0. 0. 0. 0. 0. 0. 0. 0. 0. 0. 0. 0. 0. 0. 0.
      0. 0. 0. 0. 0. 0. 0. 0. 0. 0. 0. 0. 0. 0. 8.67921813e-007
      8.67921813e-007 8.67921813e-007 8.67921813e-007 8.67921813e-007
      8.67921813e-007 8.11762163e-007 8.11762163e-007 8.11762163e-007
      8.11762163e-007 8.11762163e-007 8.11762163e-007 8.11762163e-007
      8.11762163e-007 8.11762163e-007 8.11762163e-007 8.67921813e-007
      8.67921813e-007 8.67921813e-007 8.67921813e-007 8.67921813e-007
      8.11762163e-007 8.11762163e-007 8.11762163e-007 8.11762163e-007
      8.11762163e-007 8.11762163e-007 8.11762163e-007 8.11762163e-007
      8.11762163e-007 8.11762163e-007 8.11762163e-007 8.11762163e-007
      1.81509938e-006 3.48007870e-006 3.48007870e-006 3.48007870e-006
      3.48007870e-006 3.48007870e-006 3.48007870e-006 3.48007870e-006
      5.76665798e-006 5.76665798e-006 5.76665798e-006 3.04473474e-006
      3.04473474e-006 3.04473474e-006 3.04473474e-006 7.33038803e-007
      -1.39008739e-006 -1.39008739e-006 -1.39008739e-006
      -1.33648041e-006 -1.33648041e-006 -2.47390153e-006
      -2.47390153e-006 -3.01492150e-006 -3.86152897e-006
      -3.86152897e-006 -3.86152897e-006 -9.32502644e-007
      -2.95325185e-006 -2.95325185e-006 -2.95325185e-006
      -4.92693573e-007 -6.66672463e-007 -4.92693573e-007
      -6.66672463e-007 -1.55477551e-006 -3.40412385e-006
      -4.40746089e-006 -4.40746089e-006 -4.40746089e-006
      -4.40746089e-006 -4.54579776e-006 -4.54579776e-006
      -4.54579776e-006 -2.68073995e-006 -2.68073995e-006
      -2.68073995e-006 -1.60106197e-006 -1.47093590e-006 1.35666335e-006
      1.35666335e-006 1.98109456e-006 1.26916746e-006 -1.01741205e-006
      -2.02074921e-006 0. 0. 0. 0. 0. 0. 0. 0. 0. 0. 0. 0. 0. 0. 0. 0.
      0. 0. 0. 0. 0. 0. 0. 0. 0. 0. 0. 0. 0. 0. 0. 0. 0. 0. 0. 0. 0. 0.
      0. 0. 0. 0. 0. 0. 0. 0. 0. 0. 0. 0. 0. 8.67921813e-007
      8.67921813e-007 8.67921813e-007 8.67921813e-007 8.67921813e-007
      8.67921813e-007 8.67921813e-007 8.11762163e-007 8.11762163e-007
      8.11762163e-007 8.11762163e-007 8.11762163e-007 8.11762163e-007
      8.11762163e-007 8.11762163e-007 8.11762163e-007 8.11762163e-007
      8.67921813e-007 8.67921813e-007 8.67921813e-007 8.67921813e-007
      8.67921813e-007 8.67921813e-007 8.67921813e-007 8.11762163e-007
      8.11762163e-007 8.11762163e-007 8.11762163e-007 8.11762163e-007
      8.11762163e-007 8.11762163e-007 8.11762163e-007 8.11762163e-007
      8.11762163e-007 1.76149240e-006 3.48007870e-006 3.48007870e-006
      3.48007870e-006 3.48007870e-006 3.48007870e-006 3.48007870e-006
      3.48007870e-006 5.76665798e-006 5.76665798e-006 5.76665798e-006
      4.76332116e-006 3.04473474e-006 3.04473474e-006 3.04473474e-006
      7.33038803e-007 -1.39008739e-006 -1.39008739e-006 -1.39008739e-006
      -1.39008739e-006 -1.39008739e-006 -3.01492150e-006
      -3.63935260e-006 -3.86152897e-006 -5.88227840e-006
      -5.88227840e-006 -5.88227840e-006 -2.95325185e-006
      -2.95325185e-006 -2.95325185e-006 -2.95325185e-006
      -2.95325185e-006 -6.66672463e-007 -6.66672463e-007
      -6.66672463e-007 -1.55477551e-006 -1.55477551e-006
      -4.40746089e-006 -4.40746089e-006 -4.40746089e-006
      -6.69404062e-006 -6.69404062e-006 -4.54579776e-006
      -4.54579776e-006 -2.68073995e-006 -2.68073995e-006
      -2.68073995e-006 6.85517477e-007 6.09176595e-007 1.35666335e-006
      1.35666335e-006 1.98109456e-006 3.11851568e-006 1.26916746e-006
      -2.02074921e-006 0. 0. 0. 0. 0. 0. 0. 0. 0. 0. 0. 0. 0. 0. 0. 0.
      0. 0. 0. 0. 0. 0. 0. 0. 0. 0. 0. 0. 0. 0. 0. 0. 0. 0. 0. 0. 0. 0.
      0. 0. 0. 0. 0. 0. 0. 0. 0. 0. 0. 0. 8.67921813e-007
      8.67921813e-007 8.67921813e-007 8.67921813e-007 8.67921813e-007
      8.67921813e-007 8.67921813e-007 8.11762163e-007 8.11762163e-007
      8.11762163e-007 8.11762163e-007 8.11762163e-007 8.11762163e-007
      8.11762163e-007 8.11762163e-007 8.11762163e-007 8.11762163e-007
      8.11762163e-007 8.11762163e-007 8.67921813e-007 8.67921813e-007
      8.67921813e-007 8.67921813e-007 8.67921813e-007 8.67921813e-007
      8.11762163e-007 8.11762163e-007 8.11762163e-007 8.11762163e-007
      8.11762163e-007 8.11762163e-007 8.11762163e-007 8.11762163e-007
      8.11762163e-007 8.11762163e-007 1.81509938e-006 3.48007870e-006
      3.48007870e-006 3.48007870e-006 3.48007870e-006 3.48007870e-006
      3.48007870e-006 3.48007870e-006 5.76665798e-006 5.76665798e-006
      5.76665798e-006 4.76332116e-006 3.04473474e-006 3.04473474e-006
      7.33038803e-007 8.96491997e-007 -1.39008739e-006 -1.39008739e-006
      -1.39008739e-006 -1.39008739e-006 -2.15328350e-006
      -3.86152897e-006 -3.86152897e-006 -3.86152897e-006
      -5.88227840e-006 -5.88227840e-006 -5.88227840e-006
      -2.95325185e-006 -2.95325185e-006 -2.95325185e-006
      -2.95325185e-006 -2.95325185e-006 -6.66672463e-007
      -5.79236485e-007 -6.66672463e-007 -6.66672463e-007
      -4.40746089e-006 -4.40746089e-006 -4.40746089e-006
      -4.40746089e-006 -6.69404062e-006 -6.69404062e-006
      -4.54579776e-006 -4.54579776e-006 -2.68073995e-006
      -2.68073995e-006 -3.94160622e-007 6.85517477e-007 6.09176595e-007
      8.15643489e-007 1.35666335e-006 1.98109456e-006 3.11851568e-006
      1.26916746e-006 2.65830209e-007 2.65830209e-007 0. 0. 0. 0. 0. 0.
      0. 0. 0. 0. 0. 0. 0. 0. 0. 0. 0. 0. 0. 0. 0. 0. 0. 0. 0. 0. 0. 0.
      0. 0. 0. 0. 0. 0. 0. 0. 0. 0. 0. 0. 0. 0. 0. 0. 0. 0. 0. 0. 0.
      8.67921813e-007 8.67921813e-007 8.67921813e-007 8.67921813e-007
      8.67921813e-007 8.67921813e-007 8.67921813e-007 8.11762163e-007
      8.11762163e-007 8.11762163e-007 8.11762163e-007 8.11762163e-007
      8.11762163e-007 8.11762163e-007 8.11762163e-007 8.11762163e-007
      8.11762163e-007 8.11762163e-007 8.11762163e-007 8.67921813e-007
      8.67921813e-007 8.67921813e-007 8.67921813e-007 8.67921813e-007
      8.11762163e-007 8.11762163e-007 8.11762163e-007 8.11762163e-007
      8.11762163e-007 8.11762163e-007 8.11762163e-007 8.11762163e-007
      8.11762163e-007 8.11762163e-007 8.11762163e-007 7.58155238e-007
      3.48007870e-006 3.48007870e-006 3.48007870e-006 3.48007870e-006
      3.48007870e-006 3.48007870e-006 3.48007870e-006 5.76665798e-006
      5.76665798e-006 5.76665798e-006 3.04473474e-006 3.04473474e-006
      3.04473474e-006 7.33038803e-007 7.33038803e-007 -1.55354064e-006
      -1.55354064e-006 -1.55354064e-006 -2.15328350e-006
      -2.15328350e-006 -3.91513595e-006 -3.86152897e-006
      -5.88227840e-006 -5.88227840e-006 -5.88227840e-006
      -4.80259996e-006 -2.95325185e-006 -2.95325185e-006
      -2.95325185e-006 -2.95325185e-006 -2.95325185e-006
      -7.53215375e-007 -7.53215375e-007 -6.66672463e-007
      -6.66672463e-007 -3.59569890e-006 -4.40746089e-006
      -4.40746089e-006 -4.40746089e-006 -6.69404062e-006
      -6.69404062e-006 -4.54579776e-006 -4.54579776e-006
      -2.68073995e-006 -2.68073995e-006 6.85517477e-007 7.83155429e-007
      6.09176595e-007 8.15643489e-007 1.35666335e-006 1.98109456e-006
      3.11851568e-006 3.11851568e-006 2.65830209e-007 2.65830209e-007
      2.28657950e-006 0. 0. 0. 0. 0. 0. 0. 0. 0. 0. 0. 0. 0. 0. 0. 0. 0.
      0. 0. 0. 0. 0. 0. 0. 0. 0. 0. 0. 0. 0. 0. 0. 0. 0. 0. 0. 0. 0. 0.
      0. 0. 0. 0. 0. 0. 0. 0. 0. 8.67921813e-007 8.67921813e-007
      8.67921813e-007 8.67921813e-007 8.67921813e-007 8.67921813e-007
      8.67921813e-007 8.11762163e-007 8.11762163e-007 8.11762163e-007
      8.11762163e-007 8.11762163e-007 8.11762163e-007 8.11762163e-007
      8.11762163e-007 8.11762163e-007 7.58155238e-007 7.58155238e-007
      7.58155238e-007 8.67921813e-007 8.67921813e-007 8.67921813e-007
      8.67921813e-007 8.67921813e-007 8.11762163e-007 8.11762163e-007
      8.11762163e-007 8.11762163e-007 8.11762163e-007 8.11762163e-007
      8.11762163e-007 8.11762163e-007 8.11762163e-007 7.58155238e-007
      7.58155238e-007 7.58155238e-007 2.47674166e-006 3.48007870e-006
      3.48007870e-006 3.48007870e-006 3.48007870e-006 3.48007870e-006
      3.48007870e-006 3.48007870e-006 5.76665798e-006 5.76665798e-006
      5.76665798e-006 3.04473474e-006 3.04473474e-006 7.33038803e-007
      -1.55354064e-006 -1.55354064e-006 -2.31673675e-006
      -2.15328350e-006 -2.15328350e-006 -4.07858943e-006
      -4.07858943e-006 -5.93588538e-006 -5.93588538e-006
      -5.88227840e-006 -5.88227840e-006 -4.80259996e-006
      -2.95325185e-006 -2.95325185e-006 -2.95325185e-006
      -2.95325185e-006 -2.95325185e-006 -6.66672463e-007
      -6.66672463e-007 -6.66672463e-007 -6.66672463e-007
      -3.59569890e-006 -4.40746089e-006 -4.40746089e-006
      -4.40746089e-006 -4.40746089e-006 -6.69404062e-006
      -6.69404062e-006 -4.54579776e-006 -2.81150210e-006
      -2.68073995e-006 4.78414563e-007 6.09176595e-007 6.09176595e-007
      8.15643489e-007 1.35666335e-006 1.35666335e-006 3.11851568e-006
      3.11851568e-006 2.65830209e-007 2.28657950e-006 2.28657950e-006 0.
      0. 0. 0. 0. 0. 0. 0. 0. 0. 0. 0. 0. 0. 0. 0. 0. 0. 0. 0. 0. 0. 0.
      0. 0. 0. 0. 0. 0. 0. 0. 0. 0. 0. 0. 0. 0. 0. 0. 0. 0. 0. 0. 0. 0.
      0. 0. 0. 8.67921813e-007 8.67921813e-007 8.67921813e-007
      8.67921813e-007 8.67921813e-007 8.67921813e-007 8.67921813e-007
      8.11762163e-007 8.11762163e-007 8.11762163e-007 8.11762163e-007
      8.11762163e-007 8.11762163e-007 8.11762163e-007 8.11762163e-007
      8.11762163e-007 7.58155238e-007 7.58155238e-007 7.58155238e-007 0.
      0. 0. 8.67921813e-007 8.67921813e-007 8.67921813e-007
      8.11762163e-007 8.11762163e-007 8.11762163e-007 8.11762163e-007
      8.11762163e-007 8.11762163e-007 8.11762163e-007 7.58155238e-007
      7.58155238e-007 7.58155238e-007 7.58155238e-007 3.48007870e-006
      3.48007870e-006 3.48007870e-006 3.48007870e-006 3.48007870e-006
      3.48007870e-006 3.48007870e-006 3.48007870e-006 3.48007870e-006
      5.76665798e-006 5.76665798e-006 4.04807179e-006 7.33038803e-007
      7.33038803e-007 7.33038803e-007 -1.55354064e-006 -3.45415788e-006
      -3.91513595e-006 -3.91513595e-006 -4.07858943e-006
      -4.07858943e-006 -5.93588538e-006 -5.93588538e-006
      -5.88227840e-006 -4.80259996e-006 -4.80259996e-006
      -4.80259996e-006 -2.95325185e-006 -2.95325185e-006
      -2.95325185e-006 -2.95325185e-006 -4.92693573e-007
      -4.92693573e-007 -6.66672463e-007 -6.66672463e-007
      -3.59569890e-006 -3.59569890e-006 -4.40746089e-006
      -4.40746089e-006 -4.40746089e-006 -6.69404062e-006
      -6.69404062e-006 -2.82721157e-006 -2.82721157e-006
      -1.74753336e-006 4.78414563e-007 4.62705145e-007 6.09176595e-007
      4.78414563e-007 1.22590131e-006 1.35666335e-006 3.11851568e-006
      3.11851568e-006 2.65830209e-007 2.46055833e-006 2.46055833e-006 0.
      0. 0. 0. 0. 0. 0. 0. 0. 0. 0. 0. 0. 0. 0. 0. 0. 0. 0. 0. 0. 0. 0.
      0. 0. 0. 0. 0. 0. 0. 0. 0. 0. 0. 0. 0. 0. 0. 0. 0. 0. 0. 0. 0. 0.
      0. 0. 0. 8.67921813e-007 8.67921813e-007 8.67921813e-007
      8.67921813e-007 8.67921813e-007 8.67921813e-007 8.67921813e-007
      8.11762163e-007 8.11762163e-007 8.11762163e-007 8.11762163e-007
      8.11762163e-007 8.11762163e-007 8.11762163e-007 8.11762163e-007
      8.11762163e-007 7.58155238e-007 7.58155238e-007 7.58155238e-007 0.
      0. 0. 8.67921813e-007 8.67921813e-007 8.67921813e-007
      8.11762163e-007 8.11762163e-007 8.11762163e-007 8.11762163e-007
      8.11762163e-007 8.11762163e-007 8.11762163e-007 7.58155238e-007
      7.58155238e-007 7.58155238e-007 7.58155238e-007 2.47674166e-006
      2.47674166e-006 3.48007870e-006 3.48007870e-006 3.48007870e-006
      3.48007870e-006 3.48007870e-006 3.48007870e-006 3.48007870e-006
      5.76665798e-006 5.76665798e-006 5.76665798e-006 1.73637602e-006
      8.96491997e-007 8.96491997e-007 1.33295856e-007 -1.00412535e-006
      -3.91513595e-006 -3.91513595e-006 -3.91513595e-006
      -6.09933841e-006 -5.93588538e-006 -5.93588538e-006
      -5.93588538e-006 -4.85620694e-006 -4.85620694e-006
      -2.95325185e-006 -2.95325185e-006 -2.95325185e-006
      -2.95325185e-006 -6.66672463e-007 -6.66672463e-007
      -6.66672463e-007 -6.66672463e-007 -6.66672463e-007
      -3.59569890e-006 -3.59569890e-006 -3.59569890e-006
      -4.40746089e-006 -6.69404062e-006 -6.69404062e-006
      -6.69404062e-006 -2.82721157e-006 -2.82721157e-006
      -1.82387430e-006 4.78414563e-007 4.78414563e-007 4.78414563e-007
      4.78414563e-007 1.22590131e-006 1.35666335e-006 3.11851568e-006
      1.26916746e-006 2.65830209e-007 2.28657950e-006 2.28657950e-006 0.
      0. 0. 0. 0. 0. 0. 0. 0. 0. 0. 0. 0. 0. 0. 0. 0. 0. 0. 0. 0. 0. 0.
      0. 0. 0. 0. 0. 0. 0. 0. 0. 0. 0. 0. 0. 0. 0. 0. 0. 0. 0. 0. 0. 0.
      0. 0. 0. 8.67921813e-007 8.67921813e-007 8.67921813e-007
      8.67921813e-007 8.67921813e-007 8.67921813e-007 8.67921813e-007
      8.11762163e-007 8.11762163e-007 8.11762163e-007 8.11762163e-007
      8.11762163e-007 8.11762163e-007 8.11762163e-007 8.11762163e-007
      8.11762163e-007 7.58155238e-007 7.58155238e-007 7.58155238e-007
      7.58155238e-007 7.58155238e-007 0. 0. 0. 8.67921813e-007
      8.11762163e-007 8.11762163e-007 8.11762163e-007 8.11762163e-007
      8.11762163e-007 7.58155238e-007 7.58155238e-007 7.58155238e-007
      7.58155238e-007 7.58155238e-007 7.58155238e-007 2.47674166e-006
      2.47674166e-006 3.48007870e-006 3.48007870e-006 3.48007870e-006
      3.48007870e-006 3.48007870e-006 3.48007870e-006 3.48007870e-006
      5.76665798e-006 5.76665798e-006 5.76665798e-006 5.76665798e-006
      1.89982927e-006 6.74315686e-007 -9.17582383e-007 -1.00412535e-006
      -1.62855656e-006 -3.91513595e-006 -3.91513595e-006
      -5.93588538e-006 -5.93588538e-006 -5.93588538e-006
      -5.93588538e-006 -5.93588538e-006 -4.85620694e-006
      -3.00685883e-006 -3.00685883e-006 -2.95325185e-006
      -2.95325185e-006 -6.66672463e-007 -6.66672463e-007
      -6.66672463e-007 -6.66672463e-007 -6.66672463e-007
      -3.59569890e-006 -3.59569890e-006 -3.42172007e-006
      -3.42172007e-006 -6.69404062e-006 -6.69404062e-006
      -6.69404062e-006 -2.82721157e-006 -2.81150210e-006
      -1.80816482e-006 4.78414563e-007 4.78414563e-007 4.78414563e-007
      4.78414563e-007 1.22590131e-006 1.30224214e-006 1.92667335e-006
      1.34550828e-006 2.65830209e-007 2.28657950e-006 2.28657950e-006 0.
      0. 0. 0. 0. 0. 0. 0. 0. 0. 0. 0. 0. 0. 0. 0. 0. 0. 0. 0. 0. 0. 0.
      0. 0. 0. 0. 0. 0. 0. 0. 0. 0. 0. 0. 0. 0. 0. 0. 0. 0. 0. 0. 0. 0.
      0. 0. 0. 8.67921813e-007 8.67921813e-007 8.67921813e-007
      8.67921813e-007 8.67921813e-007 8.67921813e-007 8.67921813e-007
      8.67921813e-007 8.11762163e-007 8.11762163e-007 8.11762163e-007
      8.11762163e-007 8.11762163e-007 8.11762163e-007 8.11762163e-007
      8.11762163e-007 7.58155238e-007 7.58155238e-007 7.58155238e-007
      7.58155238e-007 7.58155238e-007 0. 0. 0. 0. 0. 7.58155238e-007
      8.11762163e-007 8.11762163e-007 8.11762163e-007 7.58155238e-007
      7.58155238e-007 7.58155238e-007 7.58155238e-007 7.58155238e-007
      7.58155238e-007 2.47674166e-006 2.47674166e-006 2.47674166e-006
      3.48007870e-006 3.48007870e-006 3.48007870e-006 3.48007870e-006
      3.48007870e-006 3.48007870e-006 5.76665798e-006 5.76665798e-006
      3.61841558e-006 3.61841558e-006 1.67765290e-006 6.74315686e-007
      -1.00412535e-006 -1.62855656e-006 -1.62855656e-006
      -3.91513595e-006 -3.91513595e-006 -5.93588538e-006
      -5.93588538e-006 -5.93588538e-006 -5.93588538e-006
      -5.93588538e-006 -3.00685883e-006 -3.00685883e-006
      -3.00685883e-006 -3.00685883e-006 -3.00685883e-006
      -6.66672463e-007 -6.66672463e-007 -6.66672463e-007
      -6.66672463e-007 -6.66672463e-007 -3.59569890e-006
      -3.59569890e-006 -3.42172007e-006 -3.42172007e-006
      -5.88227840e-006 -6.67833092e-006 -6.69404062e-006
      -5.04628770e-006 -1.80816482e-006 -1.80816482e-006 4.78414563e-007
      4.78414563e-007 4.78414563e-007 4.78414563e-007 1.30224214e-006
      1.30224214e-006 2.08087116e-007 1.34550828e-006 2.65830209e-007
      2.28657950e-006 2.28657950e-006 0. 0. 0. 0. 0. 0. 0. 0. 0. 0. 0.
      0. 0. 0. 0. 0. 0. 0. 0. 0. 0. 0. 0. 0. 0. 0. 0. 0. 0. 0. 0. 0. 0.
      0. 0. 0. 0. 0. 0. 0. 0. 0. 0. 0. 0. 0. 0. 0. 8.67921813e-007
      8.67921813e-007 8.67921813e-007 8.67921813e-007 8.67921813e-007
      8.67921813e-007 8.67921813e-007 8.67921813e-007 8.11762163e-007
      8.11762163e-007 8.11762163e-007 8.11762163e-007 8.11762163e-007
      8.11762163e-007 8.11762163e-007 8.11762163e-007 7.58155238e-007
      7.58155238e-007 7.58155238e-007 7.58155238e-007 7.58155238e-007 0.
      0. 0. 0. 0. 7.58155238e-007 8.11762163e-007 8.11762163e-007
      7.58155238e-007 7.58155238e-007 7.58155238e-007 7.58155238e-007
      7.58155238e-007 7.58155238e-007 7.58155238e-007 7.58155238e-007
      7.58155238e-007 3.48007870e-006 3.48007870e-006 3.48007870e-006
      3.48007870e-006 3.48007870e-006 3.48007870e-006 3.48007870e-006
      5.76665798e-006 5.76665798e-006 3.61841558e-006 3.61841558e-006
      3.39623921e-006 1.67765290e-006 -1.00412535e-006 -1.62855656e-006
      -1.62855656e-006 -3.91513595e-006 -5.93588538e-006
      -5.93588538e-006 -5.93588538e-006 -5.93588538e-006
      -5.93588538e-006 -5.93588538e-006 -3.17031208e-006
      -3.00685883e-006 -3.17031208e-006 -3.00685883e-006
      -8.83732639e-007 -8.83732639e-007 -7.20279388e-007
      -7.20279388e-007 -8.30125657e-007 -6.66672463e-007
      -3.59569890e-006 -3.59569890e-006 -3.64930588e-006
      -3.64930588e-006 -5.93588538e-006 -5.93588538e-006
      -6.78058313e-006 -5.06199694e-006 -1.82387430e-006
      -1.91041727e-006 3.91871652e-007 3.91871652e-007 3.91871652e-007
      3.91871652e-007 1.13935835e-006 1.13935835e-006 1.26916746e-006
      2.65830209e-007 2.65830209e-007 2.28657950e-006 0. 0. 0. 0. 0. 0.
      0. 0. 0. 0. 0. 0. 0. 0. 0. 0. 0. 0. 0. 0. 0. 0. 0. 0. 0. 0. 0. 0.
      0. 0. 0. 0. 0. 0. 0. 0. 0. 0. 0. 0. 0. 0. 0. 0. 0. 0. 0. 0. 0.
      8.67921813e-007 8.67921813e-007 8.67921813e-007 8.67921813e-007
      8.67921813e-007 8.67921813e-007 8.67921813e-007 8.67921813e-007
      8.11762163e-007 8.11762163e-007 8.11762163e-007 8.11762163e-007
      8.11762163e-007 8.11762163e-007 8.11762163e-007 8.11762163e-007
      8.11762163e-007 7.58155238e-007 7.58155238e-007 7.58155238e-007
      7.58155238e-007 0. 0. 0. 0. 0. 0. 7.58155238e-007 7.58155238e-007
      7.58155238e-007 7.58155238e-007 7.58155238e-007 7.58155238e-007
      7.58155238e-007 1.72343493e-006 1.72343493e-006 1.72343493e-006
      1.72343493e-006 2.72677221e-006 4.44535863e-006 4.44535863e-006
      4.44535863e-006 4.44535863e-006 4.44535863e-006 4.44535863e-006
      5.76665798e-006 5.76665798e-006 3.61841558e-006 3.61841558e-006
      3.39623921e-006 1.13663305e-006 -7.88111854e-010 -1.62855656e-006
      -1.62855656e-006 -3.91513595e-006 -5.93588538e-006
      -5.93588538e-006 -5.93588538e-006 -5.93588538e-006
      -6.09933841e-006 -4.85620694e-006 -3.17031208e-006
      -3.17031208e-006 -3.17031208e-006 -3.17031208e-006
      -8.83732639e-007 -8.83732639e-007 -8.83732639e-007
      -7.20279388e-007 -8.83732639e-007 -8.30125657e-007
      -1.74635056e-006 -3.59569890e-006 -3.59569890e-006
      -3.64930588e-006 -5.93588538e-006 -5.93588538e-006
      -6.06993899e-006 -5.10950804e-006 -1.95792836e-006
      -1.91041727e-006 3.76162234e-007 3.91871652e-007 3.76162234e-007
      3.28651140e-007 1.09184737e-006 1.29895022e-006 3.19485662e-006
      2.65830209e-007 2.65830209e-007 2.28657950e-006 0. 0. 0. 0. 0. 0.
      0. 0. 0. 0. 0. 0. 0. 0. 0. 0. 0. 0. 0. 0. 0. 0. 0. 0. 0. 0. 0. 0.
      0. 0. 0. 0. 0. 0. 0. 0. 0. 0. 0. 0. 0. 0. 0. 0. 0. 0. 0. 0. 0.
      8.67921813e-007 8.67921813e-007 8.67921813e-007 8.67921813e-007
      8.67921813e-007 8.67921813e-007 8.67921813e-007 8.67921813e-007
      8.11762163e-007 8.11762163e-007 8.11762163e-007 8.11762163e-007
      8.11762163e-007 8.11762163e-007 8.11762163e-007 8.11762163e-007
      8.11762163e-007 8.11762163e-007 8.11762163e-007 8.11762163e-007
      8.11762163e-007 8.11762163e-007 0. 0. 0. 0. 0. 7.58155238e-007
      7.58155238e-007 7.58155238e-007 7.58155238e-007 7.58155238e-007
      7.58155238e-007 1.72343493e-006 1.72343493e-006 1.72343493e-006
      1.72343493e-006 1.72343493e-006 2.72677221e-006 4.44535863e-006
      4.44535863e-006 4.44535863e-006 4.44535863e-006 4.44535863e-006
      6.73193790e-006 6.73193790e-006 5.76665798e-006 3.61841558e-006
      3.61841558e-006 3.39623921e-006 -7.88111854e-010 -6.25219343e-007
      -1.62855656e-006 -1.62855656e-006 -3.64930588e-006
      -5.93588538e-006 -6.09933841e-006 -5.93588538e-006
      -5.93588538e-006 -6.09933841e-006 -5.01966042e-006
      -3.17031208e-006 -3.17031208e-006 -3.17031208e-006
      -3.17031208e-006 -8.83732639e-007 -8.83732639e-007
      -8.83732639e-007 -9.70275551e-007 -9.70275551e-007
      -9.70275551e-007 -1.79995743e-006 -3.59569890e-006
      -3.59569890e-006 -3.73584862e-006 -6.02242790e-006
      -6.02242790e-006 -6.06993899e-006 -4.24158634e-006
      -4.19407525e-006 -1.04249534e-006 1.24408405e-006 3.76162234e-007
      3.28651140e-007 3.28651140e-007 1.13935835e-006 1.34646132e-006
      1.97089253e-006 2.65830209e-007 2.65830209e-007 0. 0. 0. 0. 0. 0.
      0. 0. 0. 0. 0. 0. 0. 0. 0. 0. 0. 0. 0. 0. 0. 0. 0. 0. 0. 0. 0. 0.
      0. 0. 0. 0. 0. 0. 0. 0. 0. 0. 0. 0. 0. 0. 0. 0. 0. 0. 0. 0.
      8.67921813e-007 8.67921813e-007 8.67921813e-007 8.67921813e-007
      8.67921813e-007 8.67921813e-007 8.67921813e-007 8.67921813e-007
      8.67921813e-007 8.67921813e-007 8.11762163e-007 8.11762163e-007
      8.11762163e-007 8.11762163e-007 8.11762163e-007 8.11762163e-007
      8.11762163e-007 8.11762163e-007 8.11762163e-007 8.11762163e-007
      8.11762163e-007 8.11762163e-007 8.11762163e-007 8.11762163e-007
      8.11762163e-007 0. 0. 0. 0. 0. 7.58155238e-007 7.58155238e-007
      7.58155238e-007 7.58155238e-007 1.72343493e-006 1.72343493e-006
      1.72343493e-006 1.72343493e-006 1.72343493e-006 1.72343493e-006
      1.72343493e-006 4.44535863e-006 4.44535863e-006 4.44535863e-006
      4.44535863e-006 4.44535863e-006 6.73193790e-006 6.73193790e-006
      6.73193790e-006 4.58369550e-006 4.36151913e-006 3.22409778e-006
      -7.88111854e-010 -6.25219343e-007 -6.25219343e-007
      -3.64930588e-006 -3.81275891e-006 -5.93588538e-006
      -5.93588538e-006 -5.93588538e-006 -6.09933841e-006
      -6.09933841e-006 -5.01966042e-006 -3.17031208e-006
      -3.17031208e-006 -3.17031208e-006 -3.17031208e-006
      -8.83732639e-007 -8.83732639e-007 -9.70275551e-007
      -9.70275551e-007 -9.70275551e-007 -9.70275551e-007
      -9.70275551e-007 -3.73584862e-006 -3.68224164e-006
      -3.68224164e-006 -6.18588138e-006 -6.18588138e-006
      -6.02242790e-006 -4.19407525e-006 -3.19073797e-006
      -3.19073797e-006 1.24408405e-006 3.28651140e-007 3.28651140e-007
      3.28651140e-007 5.50827508e-007 1.09184737e-006 -9.58133910e-007
      2.65830209e-007 2.65830209e-007 0. 0. 0. 0. 0. 0. 0. 0. 0. 0. 0.
      0. 0. 0. 0. 0. 0. 0. 0. 0. 0. 0. 0. 0. 0. 0. 0. 0. 0. 0. 0. 0. 0.
      0. 0. 0. 0. 0. 0. 0. 0. 0. 0. 0. 0. 0. 0. 0. 8.67921813e-007
      8.67921813e-007 8.67921813e-007 8.67921813e-007 8.67921813e-007
      8.67921813e-007 8.67921813e-007 8.67921813e-007 8.67921813e-007
      8.67921813e-007 8.11762163e-007 8.11762163e-007 8.11762163e-007
      8.11762163e-007 8.11762163e-007 8.11762163e-007 1.73875856e-006
      1.73875856e-006 1.73875856e-006 1.73875856e-006 1.73875856e-006
      1.73875856e-006 3.32658283e-006 2.39958649e-006 8.11762163e-007 0.
      0. 0. 0. 0. 7.58155238e-007 7.58155238e-007 7.58155238e-007
      1.72343493e-006 1.72343493e-006 1.72343493e-006 1.72343493e-006
      1.72343493e-006 1.72343493e-006 1.72343493e-006 1.72343493e-006
      2.72677221e-006 4.44535863e-006 4.44535863e-006 4.44535863e-006
      4.44535863e-006 4.44535863e-006 6.73193790e-006 4.58369550e-006
      4.58369550e-006 4.36151913e-006 2.68307804e-006 9.64491619e-007
      -6.25219343e-007 -6.25219343e-007 -3.64930588e-006
      -3.81275891e-006 -5.93588538e-006 -5.93588538e-006
      -5.93588538e-006 -6.09933841e-006 -5.01966042e-006
      -5.01966042e-006 -3.17031208e-006 -3.17031208e-006
      -3.17031208e-006 -3.17031208e-006 -8.83732639e-007
      -8.83732639e-007 -9.70275551e-007 -9.70275551e-007
      -9.70275551e-007 -9.70275551e-007 -9.70275551e-007
      -3.89930210e-006 -3.84569512e-006 -3.89930210e-006
      -6.22704601e-006 -6.18588138e-006 -6.02242790e-006
      -3.23824906e-006 -3.23824906e-006 -3.11439703e-006 1.19657295e-006
      1.19657295e-006 1.19657295e-006 1.19657295e-006 6.81589484e-007
      1.22260928e-006 -9.58133910e-007 2.65830209e-007 2.65830209e-007
      0. 0. 0. 0. 0. 0. 0. 0. 0. 0. 0. 0. 0. 0. 0. 0. 0. 0. 0. 0. 0. 0.
      0. 0. 0. 0. 0. 0. 0. 0. 0. 0. 0. 0. 0. 0. 0. 0. 0. 0. 0. 0. 0. 0.
      0. 0. 0. 0. 0. 8.67921813e-007 8.67921813e-007 8.67921813e-007
      8.67921813e-007 8.67921813e-007 8.67921813e-007 8.67921813e-007
      8.67921813e-007 8.67921813e-007 8.67921813e-007 8.11762163e-007
      8.11762163e-007 8.11762163e-007 8.11762163e-007 8.11762163e-007
      8.11762163e-007 1.73875856e-006 1.73875856e-006 1.73875856e-006
      3.32658283e-006 3.32658283e-006 3.32658283e-006 3.32658283e-006
      2.39958649e-006 2.39958649e-006 0. 2.11260044e-006 2.11260044e-006
      0. 7.58155238e-007 7.58155238e-007 1.72343493e-006 1.72343493e-006
      1.72343493e-006 1.72343493e-006 1.72343493e-006 1.72343493e-006
      1.72343493e-006 1.72343493e-006 1.72343493e-006 4.44535863e-006
      4.44535863e-006 4.44535863e-006 4.44535863e-006 4.44535863e-006
      4.44535863e-006 4.58369550e-006 4.58369550e-006 4.58369550e-006
      3.22409778e-006 2.68307804e-006 2.68307804e-006 -1.62855656e-006
      -1.62855656e-006 -3.64930588e-006 -3.81275891e-006
      -5.93588538e-006 -5.93588538e-006 -6.09933841e-006
      -6.09933841e-006 -3.17031208e-006 -3.17031208e-006
      -3.17031208e-006 -3.17031208e-006 -3.17031208e-006
      -3.17031208e-006 -9.70275551e-007 -9.70275551e-007
      -9.70275551e-007 -9.70275551e-007 -9.70275551e-007
      -9.70275551e-007 -9.70275551e-007 -3.89930210e-006
      -3.89930210e-006 -3.84569512e-006 -6.13227439e-006
      -6.13227439e-006 -4.25023472e-006 -3.19073797e-006
      -3.19073797e-006 -3.27785028e-006 -9.91271008e-007 1.19657295e-006
      1.19657295e-006 1.19657295e-006 1.59702245e-006 2.13804219e-006
      -9.02120689e-008 2.65830209e-007 2.65830209e-007 8.67921813e-007
      8.67921813e-007 8.67921813e-007 8.67921813e-007 8.67921813e-007 0.
      0. 0. 0. 0. 0. 0. 0. 0. 0. 0. 0. 0. 0. 0. 0. 0. 0. 0. 0. 0. 0. 0.
      0. 0. 0. 0. 0. 0. 0. 0. 0. 0. 0. 0. 0. 0. 0. 0. 0. 0. 0. 0. 0.
      8.67921813e-007 8.67921813e-007 8.67921813e-007 8.67921813e-007
      8.67921813e-007 8.67921813e-007 8.67921813e-007 8.67921813e-007
      8.67921813e-007 8.67921813e-007 8.67921813e-007 8.11762163e-007
      8.11762163e-007 8.11762163e-007 8.11762163e-007 1.73875856e-006
      1.73875856e-006 1.73875856e-006 3.32658283e-006 3.32658283e-006
      3.32658283e-006 3.32658283e-006 3.32658283e-006 3.32658283e-006
      4.51218693e-006 2.92436266e-006 2.92436266e-006 2.11260044e-006
      2.11260044e-006 7.58155238e-007 7.58155238e-007 1.72343493e-006
      1.72343493e-006 1.72343493e-006 1.72343493e-006 1.72343493e-006
      1.72343493e-006 1.72343493e-006 1.72343493e-006 1.72343493e-006
      4.44535863e-006 4.44535863e-006 4.44535863e-006 4.44535863e-006
      4.44535863e-006 4.44535863e-006 4.58369550e-006 4.58369550e-006
      4.58369550e-006 2.68307804e-006 2.68307804e-006 2.05864671e-006
      -6.63276808e-007 -2.68402596e-006 -3.81275891e-006
      -3.81275891e-006 -5.93588538e-006 -5.93588538e-006
      -6.09933841e-006 -6.09933841e-006 -3.17031208e-006
      -3.17031208e-006 -3.17031208e-006 -3.17031208e-006
      -3.17031208e-006 -3.25685505e-006 -7.96296661e-007
      -7.96296661e-007 -9.70275551e-007 -9.70275551e-007
      -9.70275551e-007 -9.70275551e-007 -2.04995354e-006
      -3.89930210e-006 -3.89930210e-006 -3.84569512e-006
      -6.13227439e-006 -6.13227439e-006 -4.16063722e-006
      -3.24689768e-006 -3.23824906e-006 -3.11439703e-006
      -1.11512293e-006 1.27291389e-006 1.19657295e-006 1.19657295e-006
      1.54951135e-006 2.09053110e-006 2.98310033e-006 1.13375199e-006
      -1.15282739e-006 8.67921813e-007 8.67921813e-007 8.67921813e-007
      8.67921813e-007 8.67921813e-007 8.67921813e-007 8.67921813e-007
      8.67921813e-007 0. 0. 0. 0. 0. 0. 0. 0. 0. 0. 0. 0. 0. 0. 0. 0. 0.
      0. 0. 0. 0. 0. 0. 0. 0. 0. 0. 0. 0. 0. 0. 0. 0. 0. 0. 0. 0. 0. 0.
      0. 0. 8.67921813e-007 8.67921813e-007 8.67921813e-007
      8.67921813e-007 8.67921813e-007 8.67921813e-007 8.67921813e-007
      8.67921813e-007 8.67921813e-007 8.67921813e-007 8.67921813e-007
      8.11762163e-007 8.11762163e-007 8.11762163e-007 8.11762163e-007
      8.11762163e-007 1.73875856e-006 3.32658283e-006 3.32658283e-006
      3.32658283e-006 3.32658283e-006 3.32658283e-006 3.32658283e-006
      3.32658283e-006 5.43918350e-006 4.51218693e-006 2.92436266e-006
      2.11260044e-006 2.11260044e-006 2.11260044e-006 3.83603538e-006
      1.72343493e-006 1.72343493e-006 1.72343493e-006 1.72343493e-006
      1.72343493e-006 1.72343493e-006 1.72343493e-006 1.72343493e-006
      1.72343493e-006 4.44535863e-006 4.44535863e-006 4.44535863e-006
      4.44535863e-006 4.44535863e-006 2.13366252e-006 4.42024202e-006
      4.58369550e-006 4.58369550e-006 2.68307804e-006 2.68307804e-006
      2.05864671e-006 -2.68402596e-006 -2.68402596e-006 -2.61058085e-006
      -2.61058085e-006 -5.93588538e-006 -5.93588538e-006
      -6.09933841e-006 -6.09933841e-006 -3.30107400e-006
      -3.30107400e-006 -3.30107400e-006 -3.30107400e-006
      -3.17031208e-006 -3.25685505e-006 -7.96296661e-007
      -7.96296661e-007 -9.70275551e-007 -9.70275551e-007
      -1.10103758e-006 -1.10103758e-006 -2.04995354e-006
      -3.89930210e-006 -3.89930210e-006 -3.89930210e-006
      -6.18588138e-006 -6.13227439e-006 -3.15730017e-006
      -3.17055674e-006 -3.11439703e-006 -3.11439703e-006 1.27291389e-006
      1.27291389e-006 1.27291389e-006 1.24408405e-006 1.32733499e-006
      2.09053110e-006 3.98643760e-006 1.13375199e-006 3.15450120e-006
      8.67921813e-007 8.67921813e-007 8.67921813e-007 8.67921813e-007
      8.67921813e-007 8.67921813e-007 8.67921813e-007 8.67921813e-007
      8.67921813e-007 0. 0. 0. 0. 0. 0. 0. 0. 0. 0. 0. 0. 0. 0. 0. 0. 0.
      0. 0. 0. 0. 0. 0. 0. 0. 0. 0. 0. 0. 0. 0. 0. 0. 0. 0. 0. 0. 0. 0.
      8.67921813e-007 8.67921813e-007 8.67921813e-007 8.67921813e-007
      8.67921813e-007 8.67921813e-007 8.67921813e-007 8.67921813e-007
      8.67921813e-007 8.67921813e-007 8.67921813e-007 8.67921813e-007
      8.11762163e-007 8.11762163e-007 8.11762163e-007 8.11762163e-007
      8.11762163e-007 3.32658283e-006 3.32658283e-006 3.32658283e-006
      3.32658283e-006 3.32658283e-006 3.32658283e-006 3.32658283e-006
      5.43918350e-006 5.43918350e-006 4.51218693e-006 2.92436266e-006
      2.11260044e-006 2.11260044e-006 2.11260044e-006 3.83603538e-006
      3.83603538e-006 1.72343493e-006 1.72343493e-006 1.72343493e-006
      1.72343493e-006 1.72343493e-006 1.72343493e-006 1.72343493e-006
      1.72343493e-006 4.44535863e-006 4.44535863e-006 4.44535863e-006
      4.44535863e-006 4.44535863e-006 2.13366252e-006 2.13366252e-006
      3.44627415e-006 3.44627415e-006 2.68307804e-006 2.05864671e-006
      3.78974967e-008 -2.61058085e-006 -2.61058085e-006 -2.61058085e-006
      -2.77403410e-006 -5.06061360e-006 -5.06061360e-006
      -6.09933841e-006 -4.38075222e-006 -3.30107400e-006
      -3.30107400e-006 -3.30107400e-006 -3.17031208e-006
      -3.17031208e-006 -3.25685505e-006 -7.96296661e-007
      -9.70275551e-007 -1.10103758e-006 -9.70275551e-007
      -1.10103758e-006 -9.70275551e-007 -2.04995354e-006
      -3.89930210e-006 -3.89930210e-006 -3.89930210e-006
      -4.33653304e-006 -4.37769768e-006 -3.21090715e-006
      -3.34166907e-006 -3.30050466e-006 -5.99417717e-007 1.45118690e-006
      1.40367581e-006 1.32042487e-006 1.32042487e-006 1.37484608e-006
      2.13804219e-006 2.98310033e-006 1.13375199e-006 3.15450120e-006
      8.67921813e-007 8.67921813e-007 8.67921813e-007 8.67921813e-007
      8.67921813e-007 8.67921813e-007 8.67921813e-007 8.67921813e-007
      8.67921813e-007 0. 0. 0. 0. 0. 0. 0. 0. 0. 0. 0. 0. 0. 0. 0. 0. 0.
      0. 0. 0. 0. 0. 0. 0. 0. 0. 0. 0. 0. 0. 0. 0. 0. 0. 0. 0. 0. 0. 0.
      0. 8.67921813e-007 8.67921813e-007 8.67921813e-007 8.67921813e-007
      8.67921813e-007 8.67921813e-007 8.67921813e-007 8.67921813e-007
      8.67921813e-007 8.67921813e-007 8.67921813e-007 8.67921813e-007
      8.67921813e-007 8.11762163e-007 8.11762163e-007 8.11762163e-007
      3.32658283e-006 3.32658283e-006 3.32658283e-006 3.32658283e-006
      3.32658283e-006 5.43918350e-006 5.43918350e-006 5.43918350e-006
      5.43918350e-006 4.62742128e-006 3.70042494e-006 2.11260044e-006
      2.11260044e-006 2.11260044e-006 3.83603538e-006 3.83603538e-006
      1.72343493e-006 1.72343493e-006 1.72343493e-006 1.72343493e-006
      1.72343493e-006 1.72343493e-006 1.72343493e-006 1.72343493e-006
      1.72343493e-006 4.44535863e-006 4.44535863e-006 4.44535863e-006
      4.44535863e-006 2.13366252e-006 2.13366252e-006 3.44627415e-006
      3.44627415e-006 2.68307804e-006 2.05864671e-006 1.11342693e-007
      -2.61058085e-006 -2.61058085e-006 -2.61058085e-006
      -2.61058085e-006 -5.06061360e-006 -5.06061360e-006
      -3.34202718e-006 -3.34202718e-006 -2.26234920e-006
      -2.26234920e-006 -3.30107400e-006 -3.30107400e-006
      -3.30107400e-006 -3.38761697e-006 -1.10103758e-006
      -1.10103758e-006 -1.10103758e-006 -1.10103758e-006
      -1.10103758e-006 -1.10103758e-006 -2.04995354e-006
      -3.89930210e-006 -3.89930210e-006 -3.94681319e-006
      -2.09111818e-006 -4.42520877e-006 -3.21090715e-006
      -3.34166907e-006 -3.21090715e-006 -8.81110850e-007 1.09315295e-006
      1.32733499e-006 1.24408405e-006 1.24408405e-006 2.09053110e-006
      2.16687204e-006 2.21343021e-006 1.13375199e-006 3.15450120e-006
      8.67921813e-007 8.67921813e-007 8.67921813e-007 8.67921813e-007
      8.67921813e-007 8.67921813e-007 8.67921813e-007 8.67921813e-007 0.
      0. 0. 0. 0. 0. 0. 0. 0. 0. 0. 0. 0. 0. 0. 0. 0. 0. 0. 0. 0. 0. 0.
      0. 0. 0. 0. 0. 0. 0. 0. 0. 0. 0. 0. 0. 0. 0. 0. 0. 0. 0.
      8.67921813e-007 8.67921813e-007 8.67921813e-007 8.67921813e-007
      8.67921813e-007 8.67921813e-007 8.67921813e-007 8.67921813e-007
      8.67921813e-007 8.67921813e-007 8.67921813e-007 8.67921813e-007
      8.67921813e-007 8.67921813e-007 8.11762163e-007 2.39958649e-006
      3.32658283e-006 3.32658283e-006 3.32658283e-006 3.32658283e-006
      3.32658283e-006 5.43918350e-006 5.43918350e-006 4.62742128e-006
      4.62742128e-006 3.70042494e-006 3.70042494e-006 2.11260044e-006
      2.11260044e-006 2.11260044e-006 3.83603538e-006 3.83603538e-006
      1.72343493e-006 1.72343493e-006 1.72343493e-006 1.72343493e-006
      1.72343493e-006 1.72343493e-006 1.72343493e-006 1.72343493e-006
      4.44535863e-006 4.44535863e-006 4.44535863e-006 4.44535863e-006
      2.13366252e-006 1.15969465e-006 3.44627415e-006 3.44627415e-006
      2.05864671e-006 3.78974967e-008 3.78974967e-008 -2.61058085e-006
      -2.61058085e-006 -2.77403410e-006 -2.77403410e-006
      -4.89716012e-006 -5.06061360e-006 -3.34202718e-006
      -3.34202718e-006 -2.26234920e-006 -2.26234920e-006
      -2.26234920e-006 -3.30107400e-006 -3.30107400e-006
      -3.38761697e-006 -1.10103758e-006 -1.10103758e-006
      -1.10103758e-006 -1.10103758e-006 -9.70275551e-007
      -2.04995354e-006 -3.89930210e-006 -3.89930210e-006
      -3.94681319e-006 -3.94681319e-006 -4.42520877e-006
      -3.47629248e-006 -3.38918016e-006 -3.38918016e-006
      -3.38918016e-006 -9.28621944e-007 1.04564185e-006 1.19657295e-006
      1.24408405e-006 1.32042487e-006 2.13804219e-006 2.13804219e-006
      2.13708927e-006 1.13375199e-006 3.15450120e-006 8.67921813e-007
      8.67921813e-007 8.67921813e-007 8.67921813e-007 8.67921813e-007 0.
      0. 0. 0. 0. 0. 0. 0. 0. 0. 0. 0. 0. 0. 0. 0. 0. 0. 0. 0. 0. 0. 0.
      0. 0. 0. 0. 0. 0. 0. 0. 0. 0. 0. 0. 0. 0. 0. 0. 0. 0. 0. 0. 0. 0.
      8.67921813e-007 8.67921813e-007 8.67921813e-007 8.67921813e-007
      8.67921813e-007 8.67921813e-007 8.67921813e-007 8.67921813e-007
      8.67921813e-007 8.67921813e-007 8.67921813e-007 8.67921813e-007
      8.67921813e-007 8.67921813e-007 8.67921813e-007 8.67921813e-007
      3.32658283e-006 3.32658283e-006 3.32658283e-006 3.32658283e-006
      3.32658283e-006 4.62742128e-006 4.62742128e-006 4.62742128e-006
      4.62742128e-006 4.62742128e-006 3.70042494e-006 3.70042494e-006
      2.11260044e-006 2.11260044e-006 2.87075568e-006 2.87075568e-006
      2.87075568e-006 1.72343493e-006 1.72343493e-006 1.72343493e-006
      1.72343493e-006 1.72343493e-006 1.72343493e-006 1.72343493e-006
      4.44535863e-006 4.44535863e-006 4.44535863e-006 4.44535863e-006
      2.13366252e-006 9.96241511e-007 3.28282090e-006 2.74180115e-006
      2.05864671e-006 3.78974967e-008 3.78974967e-008 -2.61058085e-006
      -2.61058085e-006 -2.77403410e-006 -2.77403410e-006
      -2.77403410e-006 -5.06061360e-006 -3.34202718e-006
      -3.34202718e-006 -2.26234920e-006 -2.26234920e-006
      -2.18890386e-006 -2.18890386e-006 -2.18890386e-006
      -2.27544683e-006 1.11326095e-008 1.11326095e-008 -1.10103758e-006
      -1.10103758e-006 -9.70275551e-007 -2.04995354e-006
      -3.89930210e-006 -3.89930210e-006 -3.94681319e-006
      -3.94681319e-006 -4.38404413e-006 -9.74569730e-007
      -9.28621944e-007 -9.28621944e-007 -8.52281062e-007
      -8.52281062e-007 1.12198268e-006 1.16314732e-006 1.27291389e-006
      1.27291389e-006 1.94469567e-006 2.21438313e-006 2.21343021e-006
      1.13375199e-006 3.15450120e-006 3.15450120e-006 3.15450120e-006
      8.67921813e-007 0. 0. 0. 0. 0. 0. 0. 0. 0. 0. 0. 0. 0. 0. 0. 0. 0.
      0. 0. 0. 0. 0. 0. 0. 0. 0. 0. 0. 0. 0. 0. 0. 0. 0. 0. 0. 0. 0. 0.
      0. 0. 0. 0. 0. 0. 0. 0. 8.67921813e-007 0. 0. 8.67921813e-007
      8.67921813e-007 8.67921813e-007 8.67921813e-007 8.67921813e-007
      8.67921813e-007 8.67921813e-007 8.67921813e-007 8.67921813e-007
      8.67921813e-007 8.67921813e-007 8.67921813e-007 8.67921813e-007
      1.79491815e-006 1.79491815e-006 3.38274253e-006 3.32658283e-006
      3.32658283e-006 4.62742128e-006 4.62742128e-006 4.62742128e-006
      4.62742128e-006 4.62742128e-006 4.62742128e-006 3.70042494e-006
      3.70042494e-006 3.70042494e-006 2.11260044e-006 2.87075568e-006
      2.87075568e-006 2.87075568e-006 1.72343493e-006 1.72343493e-006
      1.72343493e-006 1.72343493e-006 1.72343493e-006 1.72343493e-006
      3.44202135e-006 4.44535863e-006 4.44535863e-006 4.44535863e-006
      2.13366252e-006 9.96241511e-007 9.96241511e-007 2.74180115e-006
      2.05864671e-006 -1.25555744e-007 1.11342693e-007 -2.61058085e-006
      -2.77403410e-006 -2.77403410e-006 -2.77403410e-006
      -2.77403410e-006 -2.77403410e-006 -3.34202718e-006
      -3.34202718e-006 -2.26234920e-006 -2.26234920e-006
      -2.26234920e-006 -2.18890386e-006 -2.27544683e-006
      -2.35178777e-006 -2.27544683e-006 1.11326095e-008 -1.10103758e-006
      -1.10103758e-006 -1.10103758e-006 -2.04995354e-006
      -3.94681319e-006 -3.94681319e-006 -3.94681319e-006
      -3.94681319e-006 -4.42520877e-006 -3.47629248e-006
      -9.28621944e-007 -9.28621944e-007 -8.52281062e-007
      -1.02625995e-006 1.12198268e-006 1.16314732e-006 1.21065830e-006
      1.32042487e-006 1.86144473e-006 3.93201663e-006 2.21343021e-006
      1.13375199e-006 3.15450120e-006 3.15450120e-006 3.15450120e-006 0.
      0. 0. 0. 0. 0. 0. 0. 0. 0. 0. 0. 0. 0. 0. 0. 0. 0. 0. 0. 0. 0. 0.
      0. 0. 0. 0. 0. 0. 0. 0. 0. 0. 0. 0. 0. 0. 0. 0. 0. 0. 0. 0. 0. 0.
      0. 0. 0. 0. 0. 0. 8.67921813e-007 8.67921813e-007 8.67921813e-007
      8.67921813e-007 8.67921813e-007 8.67921813e-007 8.67921813e-007
      8.67921813e-007 8.67921813e-007 8.67921813e-007 8.67921813e-007
      8.67921813e-007 8.67921813e-007 9.26996336e-007 9.26996336e-007
      9.26996336e-007 2.51482061e-006 2.51482061e-006 4.62742128e-006
      4.62742128e-006 4.62742128e-006 4.62742128e-006 4.62742128e-006
      4.62742128e-006 4.62742128e-006 4.62742128e-006 3.70042494e-006
      2.11260044e-006 2.87075568e-006 2.87075568e-006 2.87075568e-006
      7.58155238e-007 7.58155238e-007 7.58155238e-007 7.58155238e-007
      1.72343493e-006 1.72343493e-006 3.44202135e-006 4.44535863e-006
      4.44535863e-006 4.44535863e-006 9.96241511e-007 9.96241511e-007
      9.96241511e-007 1.89519346e-006 2.05864671e-006 -1.25555744e-007
      -5.21105470e-008 -5.21105470e-008 -1.77069683e-006
      -2.77403410e-006 -2.77403410e-006 -2.77403410e-006
      -2.77403410e-006 -3.34202718e-006 -3.34202718e-006
      -2.18890386e-006 -2.26234920e-006 -2.18890386e-006
      -2.18890386e-006 -2.27544683e-006 -2.35178777e-006 1.11326095e-008
      1.11326095e-008 1.11326095e-008 -1.10103758e-006 -1.10103758e-006
      -2.81962389e-006 -3.89930210e-006 -3.89930210e-006
      -3.94681319e-006 -3.94681319e-006 -4.42520877e-006
      -1.01573426e-006 -9.28621944e-007 -9.28621944e-007
      -1.10260078e-006 -1.02625995e-006 -1.02625995e-006 1.08680638e-006
      1.08680638e-006 1.27291389e-006 1.86144473e-006 2.70805231e-006
      2.21343021e-006 1.13375199e-006 3.15450120e-006 0. 0. 0. 0. 0. 0.
      0. 0. 0. 0. 0. 0. 0. 0. 0. 0. 0. 0. 0. 0. 0. 0. 0. 0. 0. 0. 0. 0.
      0. 0. 0. 0. 0. 0. 0. 0. 0. 0. 0. 0. 0. 0. 0. 0. 0. 0. 0. 0. 0. 0.
      0. 0. 0. 0. 0. 8.67921813e-007 8.67921813e-007 8.67921813e-007
      8.67921813e-007 8.67921813e-007 8.67921813e-007 8.67921813e-007
      8.67921813e-007 8.67921813e-007 8.67921813e-007 0. 9.26996336e-007
      9.26996336e-007 9.26996336e-007 2.51482061e-006 2.51482061e-006
      2.51482061e-006 4.62742128e-006 4.62742128e-006 4.62742128e-006
      4.62742128e-006 4.62742128e-006 4.62742128e-006 4.62742128e-006
      3.70042494e-006 3.70042494e-006 2.11260044e-006 2.87075568e-006
      2.87075568e-006 7.58155238e-007 7.58155238e-007 7.58155238e-007
      7.58155238e-007 7.58155238e-007 1.72343493e-006 3.44202135e-006
      4.44535863e-006 4.44535863e-006 4.44535863e-006 9.96241511e-007
      9.96241511e-007 9.96241511e-007 1.89519346e-006 -1.25555744e-007
      -5.21105470e-008 -5.21105470e-008 -5.21105470e-008
      -5.21105470e-008 -2.77403410e-006 -2.77403410e-006
      -2.77403410e-006 -5.06061360e-006 -3.34202718e-006
      -3.34202718e-006 -2.26234920e-006 -2.26234920e-006
      -2.27544683e-006 -2.27544683e-006 -2.27544683e-006
      -2.27544683e-006 1.11326095e-008 1.11326095e-008 1.11326095e-008
      -1.10103758e-006 -1.10103758e-006 -1.10103758e-006
      -9.70275551e-007 -2.09746463e-006 -2.13862927e-006
      -2.09541236e-006 -1.96465044e-006 -8.84972280e-007
      -7.56695385e-007 -9.28621944e-007 -1.10260078e-006
      -1.10260078e-006 -1.10260078e-006 1.08680638e-006 1.16314732e-006
      1.16314732e-006 2.50687140e-006 2.61663808e-006 2.21343021e-006
      1.13375199e-006 3.15450120e-006 0. 0. 0. 0. 0. 0. 0. 0. 0. 0. 0.
      0. 0. 0. 0. 0. 0. 0. 0. 0. 0. 0. 0. 0. 0. 0. 0. 0. 0. 0. 0. 0. 0.
      0. 0. 0. 0. 0. 0. 0. 0. 0. 0. 0. 0. 0. 0. 0. 0. 0. 0. 0. 0. 0. 0.
      0. 0. 0. 0. 0. 0. 0. 0. 0. 0. 0. 0. 0. 0. 9.26996336e-007
      2.51482061e-006 2.51482061e-006 2.51482061e-006 4.62742128e-006
      4.62742128e-006 4.62742128e-006 4.62742128e-006 4.62742128e-006
      4.62742128e-006 3.70042494e-006 3.70042494e-006 2.11260044e-006
      2.87075568e-006 2.87075568e-006 7.58155238e-007 7.58155238e-007
      7.58155238e-007 7.58155238e-007 7.58155238e-007 7.58155238e-007
      7.58155238e-007 3.48007870e-006 4.44535863e-006 4.44535863e-006
      9.96241511e-007 9.96241511e-007 9.96241511e-007 2.11736983e-006
      -1.25555744e-007 -5.21105470e-008 -5.21105470e-008
      -5.21105470e-008 -5.21105470e-008 -1.77069683e-006
      -2.77403410e-006 -2.77403410e-006 -2.77403410e-006
      -1.05544780e-006 -2.26234920e-006 -2.26234920e-006
      -2.26234920e-006 -2.26234920e-006 -2.27544683e-006
      -2.27544683e-006 -2.27544683e-006 1.11326095e-008 1.11326095e-008
      -3.00319414e-008 1.11326095e-008 1.11326095e-008 -9.70275551e-007
      -9.70275551e-007 -1.01778664e-006 -1.18971320e-006
      -3.43512806e-006 -3.47629248e-006 -1.01573426e-006
      -8.11116479e-007 -1.09207519e-006 -1.10260078e-006
      -1.18971320e-006 -1.18971320e-006 -1.14854856e-006 1.16314732e-006
      1.29390924e-006 2.50687140e-006 2.61663808e-006 2.21343021e-006
      1.34550828e-006 2.65830209e-007 0. 0. 0. 0. 0. 0. 0. 0. 0. 0. 0.
      0. 0. 0. 0. 0. 0. 0. 0. 0. 0. 0. 0. 0. 0. 0. 0. 0. 0. 0. 0. 0. 0.
      0. 0. 0. 0. 0. 0. 0. 0. 0. 0. 0. 0. 0. 0. 0. 0. 0. 0. 0. 0. 0. 0.
      0. 0. 0. 0. 0. 0. 0. 0. 0. 0. 0. 0. 0. 0. 9.26996336e-007
      9.26996336e-007 2.51482061e-006 2.51482061e-006 2.51482061e-006
      4.62742128e-006 4.62742128e-006 4.62742128e-006 4.62742128e-006
      4.62742128e-006 3.70042494e-006 3.70042494e-006 3.70042494e-006
      2.11260044e-006 2.87075568e-006 2.87075568e-006 7.58155238e-007
      7.58155238e-007 7.58155238e-007 7.58155238e-007 7.58155238e-007
      7.58155238e-007 1.76149240e-006 3.48007870e-006 4.44535863e-006
      9.96241511e-007 3.09617079e-008 2.31754120e-006 1.89519346e-006
      -1.25555744e-007 -5.21105470e-008 -5.21105470e-008
      -5.21105470e-008 -5.21105470e-008 -5.21105470e-008
      -1.77069683e-006 -2.77403410e-006 -2.77403410e-006 2.42303262e-008
      -2.26234920e-006 -2.26234920e-006 -2.34889194e-006
      -2.34889194e-006 -2.27544683e-006 -2.27544683e-006
      -2.27544683e-006 1.11326095e-008 -3.63784629e-008 -3.00319414e-008
      1.11326095e-008 9.43835374e-008 9.43835374e-008 9.43835374e-008
      5.32189866e-008 -7.75430138e-008 -3.34553056e-006 -3.34553056e-006
      -8.84972280e-007 -8.43807754e-007 -1.18971320e-006
      -1.10260078e-006 -1.18971320e-006 -1.14854856e-006
      -1.14854856e-006 1.21065830e-006 1.34142033e-006 1.88244019e-006
      1.74871616e-006 1.34550828e-006 1.34550828e-006 2.65830209e-007 0.
      0. 0. 0. 0. 0. 0. 0. 0. 0. 0. 0. 0. 0. 0. 0. 0. 0. 0. 0. 0. 0. 0.
      0. 0. 0. 0. 0. 0. 0. 0. 0. 0. 0. 0. 0. 0. 0. 0. 0. 0. 0. 0. 0. 0.
      0. 0. 0. 0. 0. 0. 0. 0. 0. 0. 0. 0. 0. 0. 0. 0. 0. 0. 0. 0. 0. 0.
      0. 0. 0. 9.26996336e-007 2.51482061e-006 2.51482061e-006
      2.51482061e-006 4.62742128e-006 4.62742128e-006 4.62742128e-006
      4.62742128e-006 4.62742128e-006 4.62742128e-006 3.70042494e-006
      3.70042494e-006 2.11260044e-006 2.87075568e-006 2.87075568e-006
      2.87075568e-006 7.58155238e-007 7.58155238e-007 7.58155238e-007
      7.58155238e-007 7.58155238e-007 1.76149240e-006 3.48007870e-006
      1.16838294e-006 3.09617079e-008 3.09617079e-008 1.69310988e-006
      9.29913710e-007 -1.25555744e-007 -5.21105470e-008 -5.21105470e-008
      -5.21105470e-008 -5.21105470e-008 -5.21105470e-008
      -1.77069683e-006 -2.92778668e-006 -2.77403410e-006
      -1.84810858e-006 -1.69435600e-006 -2.26234920e-006
      -2.34889194e-006 -2.34889194e-006 -2.34889194e-006
      -2.34889194e-006 -6.23125871e-008 1.11326095e-008 -3.63784629e-008
      -3.00319414e-008 -1.83784593e-007 9.43835374e-008 9.43835374e-008
      -9.85294491e-007 5.32189866e-008 5.32189866e-008 -2.23336042e-006
      -3.34553056e-006 -1.05895117e-006 -8.84972280e-007
      -1.09207519e-006 -1.26605403e-006 -1.26605403e-006
      -1.18971320e-006 -1.09412747e-006 1.34142033e-006 1.34142033e-006
      1.88244019e-006 2.97268025e-006 1.12333191e-006 2.28657950e-006
      2.28657950e-006 0. 0. 0. 0. 0. 0. 0. 0. 0. 0. 0. 0. 0. 0. 0. 0. 0.
      0. 0. 0. 0. 0. 0. 0. 0. 0. 0. 0. 0. 0. 0. 0. 0. 0. 0. 0. 0. 0. 0.
      0. 0. 0. 0. 0. 0. 0. 0. 0. 0. 0. 0. 0. 0. 0. 0. 0. 0. 0. 0. 0. 0.
      0. 0. 0. 0. 0. 0. 0. 0. 0. 9.26996336e-007 9.26996336e-007
      2.51482061e-006 2.51482061e-006 2.51482061e-006 4.62742128e-006
      4.62742128e-006 4.62742128e-006 4.62742128e-006 4.62742128e-006
      4.62742128e-006 3.70042494e-006 3.70042494e-006 3.70042494e-006
      2.87075568e-006 2.87075568e-006 7.58155238e-007 7.58155238e-007
      7.58155238e-007 7.58155238e-007 7.58155238e-007 1.76149240e-006
      3.48007870e-006 1.16838294e-006 3.09617079e-008 3.09617079e-008
      1.15209002e-006 -1.09083544e-006 -1.09083544e-006 -5.21105470e-008
      -5.21105470e-008 -5.21105470e-008 -5.21105470e-008
      -5.21105470e-008 -1.05717483e-007 -2.06459936e-006
      -1.15919526e-007 2.42303262e-008 -5.21105470e-008 -2.42523288e-006
      -2.34889194e-006 -2.34889194e-006 -2.34889194e-006
      -2.32295793e-006 -6.23125871e-008 -3.63784629e-008
      -3.63784629e-008 -7.75430138e-008 -2.31295672e-007 9.43835374e-008
      5.32189866e-008 9.43835374e-008 5.32189866e-008 2.27197859e-007
      9.64358549e-008 -8.84972280e-007 -8.84972280e-007 -9.61313162e-007
      -1.26605403e-006 -1.26605403e-006 -1.18971320e-006
      -1.18971320e-006 -1.05895117e-006 -1.05895117e-006 1.34142033e-006
      1.88244019e-006 2.97268025e-006 2.06440313e-006 2.28657950e-006
      2.28657950e-006 2.28657950e-006 0. 0. 0. 0. 0. 0. 0. 0. 0. 0. 0.
      0. 0. 0. 0. 0. 0. 0. 0. 0. 0. 0. 0. 0. 0. 0. 0. 0. 0. 0. 0. 0. 0.
      0. 0. 0. 0. 0. 0. 0. 0. 0. 0. 0. 0. 0. 0. 0. 0. 0. 0. 0. 0. 0. 0.
      0. 0. 0. 0. 0. 0. 0. 0. 0. 0. 0. 0. 0. 0. 9.26996336e-007
      9.26996336e-007 2.51482061e-006 2.51482061e-006 2.51482061e-006
      2.51482061e-006 4.62742128e-006 4.62742128e-006 4.62742128e-006
      4.62742128e-006 4.62742128e-006 3.70042494e-006 3.70042494e-006
      3.70042494e-006 2.11260044e-006 2.87075568e-006 7.58155238e-007
      7.58155238e-007 7.58155238e-007 7.58155238e-007 7.58155238e-007
      1.70788553e-006 3.48007870e-006 2.34265758e-006 3.09617079e-008
      3.09617079e-008 9.29913710e-007 -1.09083544e-006 -1.09083544e-006
      -1.09083544e-006 -1.09083544e-006 -1.09083544e-006
      -1.05717483e-007 -1.05717483e-007 -1.92260401e-007
      -3.46013053e-007 -1.92260401e-007 -1.92260401e-007
      -2.93766096e-008 -2.34889194e-006 -2.34889194e-006
      -2.34889194e-006 -2.34889194e-006 -2.39640303e-006
      -1.09823659e-007 -1.09823659e-007 -3.63784629e-008
      -7.75430138e-008 5.32189866e-008 -5.93691176e-008 5.32189866e-008
      5.32189866e-008 5.32189866e-008 2.27197859e-007 9.64358549e-008
      9.64358549e-008 -1.01573426e-006 -1.09207519e-006 -1.26605403e-006
      -1.26605403e-006 -1.18971320e-006 -1.18971320e-006
      -1.05895117e-006 -1.05895117e-006 1.83492909e-006 1.88244019e-006
      3.73083549e-006 2.82255837e-006 2.28657950e-006 2.28657950e-006
      2.28657950e-006 0. 0. 0. 0. 0. 0. 0. 0. 0. 0. 0. 0. 0. 0. 0. 0. 0.
      0. 0. 0. 0. 0. 0. 0. 0. 0. 0. 0. 0. 0. 0. 0. 0. 0. 0. 0. 0. 0. 0.
      0. 0. 0. 0. 0. 0. 0. 0. 0. 0. 0. 0. 0. 0. 0. 0. 0. 0. 0. 0. 0. 0.
      0. 0. 0. 0. 0. 0. 0. 0. 0. 9.26996336e-007 9.26996336e-007
      2.51482061e-006 2.51482061e-006 2.51482061e-006 4.62742128e-006
      4.62742128e-006 4.62742128e-006 4.62742128e-006 4.62742128e-006
      3.70042494e-006 3.70042494e-006 3.70042494e-006 3.70042494e-006
      2.11260044e-006 2.81714892e-006 7.04548313e-007 7.58155238e-007
      7.04548313e-007 7.04548313e-007 1.70788553e-006 3.42647172e-006
      2.28905060e-006 -2.26452297e-008 3.09617079e-008 9.29913710e-007
      -1.09083544e-006 -1.09083544e-006 -1.09083544e-006
      -1.09083544e-006 -1.09083544e-006 -1.05717483e-007
      -1.05717483e-007 -1.92260401e-007 -1.92260401e-007
      -1.92260401e-007 -2.39771481e-007 -3.06981207e-007
      -1.63430599e-007 -2.34889194e-006 -2.34889194e-006
      -2.39640303e-006 -1.09823659e-007 -1.50988214e-007
      -1.50988214e-007 -1.50988214e-007 -7.75430138e-008
      -3.63784629e-008 -1.00533669e-007 5.32189866e-008 9.43835374e-008
      2.27197859e-007 2.27197859e-007 9.64358549e-008 9.64358549e-008
      9.64358549e-008 2.00949781e-008 -1.26605403e-006 -1.26605403e-006
      -1.18971320e-006 -1.18971320e-006 -1.05895117e-006
      -1.05895117e-006 1.83492909e-006 2.50687140e-006 3.90223659e-006
      2.82255837e-006 2.28657950e-006 2.28657950e-006 2.28657950e-006 0.
      0. 0. 0. 0. 0. 0. 0. 0. 0. 0. 0. 0. 0. 0. 0. 0. 0. 0. 0. 0. 0. 0.
      0. 0. 0. 0. 0. 0. 0. 0. 0. 0. 0. 0. 0. 0. 0. 0. 0. 0. 0. 0. 0. 0.
      0. 0. 0. 0. 0. 0. 0. 0. 0. 0. 0. 0. 0. 0. 0. 0. 0. 0. 0. 0. 0. 0.
      0. 0. 0. 0. 9.26996336e-007 9.26996336e-007 2.51482061e-006
      2.51482061e-006 4.62742128e-006 4.62742128e-006 4.62742128e-006
      4.62742128e-006 4.62742128e-006 4.62742128e-006 4.62742128e-006
      3.70042494e-006 3.70042494e-006 2.11260044e-006 2.81714892e-006
      2.81714892e-006 7.58155238e-007 7.58155238e-007 7.04548313e-007
      1.70788553e-006 1.70788553e-006 2.28905060e-006 -2.26452297e-008
      -5.63665026e-007 9.29913710e-007 -1.09083544e-006 -1.09083544e-006
      -1.09083544e-006 -1.09083544e-006 -1.14444242e-006
      -1.05717483e-007 -1.05717483e-007 -1.92260401e-007
      -1.92260401e-007 -1.92260401e-007 -3.06981207e-007
      -3.06981207e-007 -1.63430599e-007 -2.42233727e-006
      -2.42233727e-006 -2.46984837e-006 -1.83268867e-007
      -1.83268867e-007 -1.09823659e-007 -1.09823659e-007 6.32621706e-008
      -9.04904880e-008 -2.02262118e-008 5.32189866e-008 5.32189866e-008
      2.27197859e-007 9.64358549e-008 9.64358549e-008 9.64358549e-008
      9.64358549e-008 -7.69412978e-008 -7.69412978e-008 -7.69412978e-008
      -1.18971320e-006 -1.18971320e-006 -1.05895117e-006
      -1.05895117e-006 -1.05895117e-006 2.50687140e-006 2.99653721e-006
      2.99653721e-006 3.21871357e-006 3.21871357e-006 0. 0. 0. 0. 0. 0.
      0. 0. 0. 0. 0. 0. 0. 0. 0. 0. 0. 0. 0. 0. 0. 0. 0. 0. 0. 0. 0. 0.
      0. 0. 0. 0. 0. 0. 0. 0. 0. 0. 0. 0. 0. 0. 0. 0. 0. 0. 0. 0. 0. 0.
      0. 0. 0. 0. 0. 0. 0. 0. 0. 0. 0. 0. 0. 0. 0. 0. 0. 0. 0. 0. 0. 0.
      0. 9.26996336e-007 2.51482061e-006 2.51482061e-006 2.51482061e-006
      4.62742128e-006 4.62742128e-006 4.62742128e-006 4.62742128e-006
      4.62742128e-006 4.62742128e-006 3.70042494e-006 3.70042494e-006
      3.70042494e-006 2.11260044e-006 2.11260044e-006 2.87075568e-006
      7.04548313e-007 7.04548313e-007 1.70788553e-006 1.70788553e-006
      -2.26452297e-008 -5.63665026e-007 -7.85841394e-007
      -1.14444242e-006 -1.14444242e-006 -1.09083544e-006
      -1.09083544e-006 -1.09083544e-006 -1.14444242e-006
      -1.14444242e-006 -1.05717483e-007 -1.92260401e-007
      -1.92260401e-007 -2.33424956e-007 -1.14444242e-006
      -1.23311804e-006 -2.64942628e-007 -2.51710867e-006
      -2.47594403e-006 -2.42233727e-006 -1.35757787e-007
      -1.35757787e-007 -1.35757787e-007 -1.35757787e-007
      -1.83268867e-007 -1.01830286e-008 5.32189866e-008 5.32189866e-008
      -7.75430138e-008 9.64358549e-008 9.64358549e-008 9.64358549e-008
      9.64358549e-008 -7.75430138e-008 -7.69412978e-008 -7.69412978e-008
      -7.69412978e-008 -6.00426153e-010 -1.18971320e-006
      -1.05895117e-006 -1.05895117e-006 -1.05895117e-006
      -4.22154983e-007 2.82255837e-006 3.21871357e-006 3.21871357e-006
      3.21871357e-006 0. 0. 0. 0. 0. 0. 0. 0. 0. 0. 0. 0. 0. 0. 0. 0. 0.
      0. 0. 0. 0. 0. 0. 0. 0. 0. 0. 0. 0. 0. 0. 0. 0. 0. 0. 0. 0. 0. 0.
      0. 0. 0. 0. 0. 0. 0. 0. 0. 0. 0. 0. 0. 0. 0. 0. 0. 0. 0. 0. 0. 0.
      0. 0. 0. 0. 0. 0. 0. 0. 0. 0. 0. 0. 9.26996336e-007
      9.26996336e-007 2.51482061e-006 2.51482061e-006 4.62742128e-006
      4.62742128e-006 4.62742128e-006 4.62742128e-006 4.62742128e-006
      4.70376199e-006 4.70376199e-006 4.70376199e-006 4.70376199e-006
      4.70376199e-006 2.11260044e-006 2.11260044e-006 2.81714892e-006
      7.04548313e-007 1.70788553e-006 1.70788553e-006 -2.28225144e-006
      -7.85841394e-007 -3.43102192e-006 -3.43102192e-006
      -1.14444242e-006 -1.14444242e-006 -1.14444242e-006
      -1.09083544e-006 -1.14444242e-006 -1.14444242e-006
      -1.14444242e-006 -1.23098539e-006 -1.23098539e-006
      -1.27214992e-006 -1.18560695e-006 -3.41283510e-007
      -2.93772445e-007 -3.06870163e-007 -2.54938936e-006
      -4.19318891e-009 -4.19318891e-009 4.94137460e-008 -6.31743617e-008
      -1.04338909e-007 -1.35757787e-007 -1.01830286e-008 7.94144199e-008
      9.55428163e-008 -7.75430138e-008 9.64358549e-008 1.43946920e-007
      9.64358549e-008 9.64358549e-008 9.64358549e-008 -7.69412978e-008
      -7.69412978e-008 -7.69412978e-008 -7.69412978e-008
      -7.69412978e-008 -1.13529200e-006 -1.13529200e-006
      -3.31603519e-006 -4.22154983e-007 1.77257311e-006 3.21871357e-006
      3.21871357e-006 3.21871357e-006 0. 0. 0. 0. 0. 0. 0. 0. 0. 0. 0.
      0. 0. 0. 0. 0. 0. 0. 0. 0. 0. 0. 0. 0. 0. 0. 0. 0. 0. 0. 0. 0. 0.
      0. 0. 0. 0. 0. 0. 0. 0. 0. 0. 0. 0. 0. 0. 0. 0. 0. 0. 0. 0. 0. 0.
      0. 0. 0. 0. 0. 0. 0. 0. 0. 0. 0. 0. 0. 0. 0. 0. 0. 0. 0.
      9.26996336e-007 2.51482061e-006 2.51482061e-006 2.51482061e-006
      2.51482061e-006 4.62742128e-006 4.62742128e-006 4.70376199e-006
      4.70376199e-006 4.70376199e-006 4.70376199e-006 4.70376199e-006
      4.70376199e-006 3.70042494e-006 3.70042494e-006 2.11260044e-006
      2.81714892e-006 1.70788553e-006 1.70788553e-006 -4.30300042e-006
      -2.80659060e-006 -3.43102192e-006 -3.43102192e-006
      -3.43102192e-006 -1.14444242e-006 -1.14444242e-006
      -1.14444242e-006 -1.14444242e-006 -1.14444242e-006
      -1.14444242e-006 -1.14444242e-006 -1.14444242e-006
      -1.23098539e-006 -2.52607890e-007 -2.52607890e-007
      -3.39150802e-007 -3.39150802e-007 -1.85398136e-007
      -7.76383899e-008 -4.19318891e-009 9.05782969e-008 1.38089376e-007
      3.11175199e-007 3.11175199e-007 1.09911475e-007 2.75823702e-008
      -3.83650756e-009 1.99927882e-007 2.00820921e-007 2.00820921e-007
      -6.18335747e-008 -1.38174457e-007 -7.75430138e-008
      -7.69412978e-008 -7.69412978e-008 -7.69412978e-008
      -7.69412978e-008 -7.69412978e-008 -1.26605403e-006
      -1.13529200e-006 -2.31269792e-006 -2.73385081e-006
      -2.48176121e-007 1.19796437e-006 3.21871357e-006 0. 0. 0. 0. 0. 0.
      0. 0. 0. 0. 0. 0. 0. 0. 0. 0. 0. 0. 0. 0. 0. 0. 0. 0. 0. 0. 0. 0.
      0. 0. 0. 0. 0. 0. 0. 0. 0. 0. 0. 0. 0. 0. 0. 0. 0. 0. 0. 0. 0. 0.
      0. 0. 0. 0. 0. 0. 0. 0. 0. 0. 0. 0. 0. 0. 0. 0. 0. 0. 0. 0. 0. 0.
      0. 0. 0. 9.26996336e-007 9.26996336e-007 9.26996336e-007
      2.51482061e-006 2.51482061e-006 2.51482061e-006 4.62742128e-006
      4.70376199e-006 4.70376199e-006 4.70376199e-006 4.70376199e-006
      4.70376199e-006 4.70376199e-006 3.70042494e-006 3.70042494e-006
      2.11260044e-006 2.11260044e-006 2.81714892e-006 -1.45028491e-006
      -1.99130477e-006 -3.43102192e-006 -3.43102192e-006
      -3.43102192e-006 -3.43102192e-006 -3.43102192e-006
      -1.14444242e-006 -1.14444242e-006 -1.14444242e-006
      -1.14444242e-006 -1.14444242e-006 -1.14444242e-006
      -1.14444242e-006 -1.14444242e-006 -2.52607890e-007
      -2.52607890e-007 -2.52607890e-007 -9.88552245e-008
      -9.88552245e-008 -6.74363463e-008 -3.64738355e-008 9.05782969e-008
      4.64995850e-007 6.38081701e-007 6.38081701e-007 3.11175199e-007
      1.57422548e-007 9.42020364e-008 5.30374820e-008 1.00548554e-007
      1.58763328e-007 1.99927882e-007 -9.06633773e-008 -1.43225032e-008
      -2.94302289e-008 -2.94302289e-008 -2.94302289e-008
      -7.69412978e-008 -7.69412978e-008 -1.26605403e-006
      -2.98464033e-006 -2.98464033e-006 -3.31603519e-006
      -2.48176121e-007 1.19796437e-006 3.21871357e-006 0. 0. 0. 0. 0. 0.
      0. 0. 0. 0. 0. 0. 0. 0. 0. 0. 0. 0. 0. 0. 0. 0. 0. 0. 0. 0. 0. 0.
      0. 0. 0. 0. 0. 0. 0. 0. 0. 0. 0. 0. 0. 0. 0. 0. 0. 0. 0. 0. 0. 0.
      0. 0. 0. 0. 0. 0. 0. 0. 0. 0. 0. 0. 0. 0. 0. 0. 0. 0. 0. 0. 0. 0.
      0. 0. 0. 0. 9.26996336e-007 9.26996336e-007 2.51482061e-006
      2.51482061e-006 2.59116155e-006 4.70376199e-006 4.70376199e-006
      4.70376199e-006 4.70376199e-006 4.70376199e-006 4.70376199e-006
      4.70376199e-006 4.70376199e-006 3.70042494e-006 4.70376199e-006
      1.09518851e-006 7.96399661e-007 -1.99130477e-006 -2.21348114e-006
      -3.43102192e-006 -3.43102192e-006 -3.43102192e-006
      -3.43102192e-006 -1.14444242e-006 -1.14444242e-006
      -1.14444242e-006 -1.14444242e-006 -1.14444242e-006
      -1.14444242e-006 -1.14444242e-006 -1.14444242e-006
      -1.14444242e-006 -2.52607890e-007 -3.00118955e-007
      -3.00118955e-007 -3.39150802e-007 -9.88552245e-008
      -1.53979258e-007 -3.64738355e-008 -3.64738355e-008 4.64995850e-007
      6.38081701e-007 5.61740819e-007 6.38081701e-007 6.38081701e-007
      6.38081701e-007 5.81207701e-007 5.81207701e-007 7.28098087e-007
      6.80587050e-007 5.26834356e-007 3.31885701e-008 -4.31523048e-008
      1.80808453e-008 1.80808453e-008 -7.69412978e-008 -7.69412978e-008
      -1.26605403e-006 -2.98464033e-006 -3.98797738e-006
      -1.00433942e-006 9.75787998e-007 3.21871357e-006 7.58155238e-007
      7.58155238e-007 0. 0. 0. 0. 0. 0. 0. 0. 0. 0. 0. 0. 0. 0. 0. 0. 0.
      0. 0. 0. 0. 0. 0. 0. 0. 0. 0. 0. 0. 0. 0. 0. 0. 0. 0. 0. 0. 0. 0.
      0. 0. 0. 0. 0. 0. 0. 0. 0. 0. 0. 0. 0. 0. 0. 0. 0. 0. 0. 0. 0. 0.
      0. 0. 0. 0. 0. 0. 0. 0. 0. 0. 0. 0. 0. 0. 0. 9.26996336e-007
      9.26996336e-007 2.59116155e-006 2.59116155e-006 2.59116155e-006
      4.70376199e-006 4.70376199e-006 4.70376199e-006 4.70376199e-006
      4.70376199e-006 4.70376199e-006 4.70376199e-006 4.70376199e-006
      4.70376199e-006 2.81377493e-006 3.51832318e-006 1.83988220e-006
      -1.11932593e-006 -3.43102192e-006 -3.43102192e-006
      -3.43102192e-006 -3.43102192e-006 -1.14444242e-006
      -1.14444242e-006 -1.14444242e-006 -1.14444242e-006
      -1.14444242e-006 -1.14444242e-006 -1.14444242e-006
      -1.14444242e-006 -1.14444242e-006 -1.14444242e-006
      -3.00118955e-007 -3.00118955e-007 -3.39150802e-007
      -1.85398136e-007 -1.53979258e-007 -1.12814710e-007 2.90432638e-007
      3.35048043e-007 5.61740819e-007 5.61740819e-007 5.61740819e-007
      5.61740819e-007 6.38081701e-007 6.38081701e-007 6.22372227e-007
      -3.42907498e-007 7.69262670e-007 7.69262670e-007 5.74345449e-007
      3.24918744e-007 7.49548335e-008 1.80808453e-008 -7.69412978e-008
      -7.69412978e-008 -7.69412978e-008 -2.98464033e-006
      -3.98797738e-006 -1.67628173e-006 2.46255036e-006 3.21871357e-006
      7.58155238e-007 7.58155238e-007 0. 0. 0. 0. 0. 0. 0. 0. 0. 0. 0.
      0. 0. 0. 0. 0. 0. 0. 0. 0. 0. 0. 0. 0. 0. 0. 0. 0. 0. 0. 0. 0. 0.
      0. 0. 0. 0. 0. 0. 0. 0. 0. 0. 0. 0. 0. 0. 0. 0. 0. 0. 0. 0. 0. 0.
      0. 0. 0. 0. 0. 0. 0. 0. 0. 0. 0. 0. 0. 0. 0. 0. 0. 0. 0. 0. 0. 0.
      9.26996336e-007 1.00333716e-006 2.59116155e-006 2.59116155e-006
      4.70376199e-006 4.70376199e-006 4.70376199e-006 4.70376199e-006
      4.70376199e-006 4.70376199e-006 4.70376199e-006 4.70376199e-006
      4.70376199e-006 2.81377493e-006 3.51832318e-006 9.93274625e-007
      9.93274625e-007 -1.31842125e-006 -1.31842125e-006 -3.43102192e-006
      -1.14444242e-006 -1.14444242e-006 -1.14444242e-006
      -1.14444242e-006 -1.14444242e-006 -1.14444242e-006
      -1.14444242e-006 -1.14444242e-006 -1.14444242e-006
      -1.14444242e-006 -1.14444242e-006 -2.52607890e-007
      -2.52607890e-007 -3.39150802e-007 -1.85398136e-007
      -1.85398136e-007 -1.12814710e-007 2.14091770e-007 2.14091770e-007
      5.61740819e-007 5.61740819e-007 5.61740819e-007 5.61740819e-007
      5.61740819e-007 6.38081701e-007 6.38081701e-007 -3.27198052e-007
      7.31365162e-007 6.55024280e-007 7.31365162e-007 4.25064457e-007
      4.01861314e-007 1.16119388e-007 1.16119388e-007 -6.12318658e-008
      -6.12318658e-008 -2.98464033e-006 -3.98797738e-006
      -1.74505203e-006 2.46255036e-006 7.58155238e-007 7.58155238e-007
      7.58155238e-007 0. 0. 0. 0. 0. 0. 0. 0. 0. 0. 0. 0. 0. 0. 0. 0. 0.
      0. 0. 0. 0. 0. 0. 0. 0. 0. 0. 0. 0. 0. 0. 0. 0. 0. 0. 0. 0. 0. 0.
      0. 0. 0. 0. 0. 0. 0. 0. 0. 0. 0. 0. 0. 0. 0. 0. 0. 0. 0. 0. 0. 0.
      0. 0. 0. 0. 0. 0. 0. 0. 0. 0. 0. 0. 0. 0. 0. 0. 0. 1.00333716e-006
      1.00333716e-006 2.59116155e-006 2.59116155e-006 2.59116155e-006
      4.70376199e-006 4.70376199e-006 4.70376199e-006 4.70376199e-006
      4.70376199e-006 4.70376199e-006 4.70376199e-006 2.81377493e-006
      3.29614682e-006 9.93274625e-007 9.93274625e-007 -1.31842125e-006
      -1.31842125e-006 -1.14444242e-006 -1.14444242e-006
      -1.14444242e-006 -1.14444242e-006 -1.14444242e-006
      -1.14444242e-006 -1.14444242e-006 -1.14444242e-006
      -1.14444242e-006 -1.14444242e-006 -1.14444242e-006
      -1.14444242e-006 -1.14444242e-006 -3.86661867e-007
      -3.39150802e-007 -1.23098539e-006 -1.85398136e-007
      -1.85398136e-007 2.14091770e-007 2.14091770e-007 5.08133894e-007
      5.61740819e-007 5.61740819e-007 5.61740819e-007 5.08133894e-007
      5.08133894e-007 5.08133894e-007 5.84474776e-007 7.31365162e-007
      7.31365162e-007 7.31365162e-007 6.39314862e-007 3.12476345e-007
      3.41907878e-007 3.95514803e-007 2.32061552e-007 1.49732458e-007
      -2.59901071e-006 -3.60234799e-006 -1.58159878e-006 1.79060794e-006
      8.62129212e-008 8.62129212e-008 7.58155238e-007 7.58155238e-007 0.
      0. 0. 0. 0. 0. 0. 0. 0. 0. 0. 0. 0. 0. 0. 0. 0. 0. 0. 0. 0. 0. 0.
      0. 0. 0. 0. 0. 0. 0. 0. 0. 0. 0. 0. 0. 0. 0. 0. 0. 0. 0. 0. 0. 0.
      0. 0. 0. 0. 0. 0. 0. 0. 0. 0. 0. 0. 0. 0. 0. 0. 0. 0. 0. 0. 0. 0.
      0. 0. 0. 0. 0. 0. 0. 0. 0. 0. 1.00333716e-006 1.00333716e-006
      2.59116155e-006 2.59116155e-006 2.59116155e-006 4.70376199e-006
      4.70376199e-006 4.70376199e-006 4.70376199e-006 4.70376199e-006
      4.70376199e-006 4.70376199e-006 2.81377493e-006 2.67171549e-006
      9.93274625e-007 9.93274625e-007 -1.31842125e-006 -1.31842125e-006
      -1.31842125e-006 -1.14444242e-006 -1.14444242e-006
      -1.14444242e-006 -1.14444242e-006 -1.14444242e-006
      -1.14444242e-006 -1.14444242e-006 -1.14444242e-006
      -1.14444242e-006 -1.14444242e-006 -1.14444242e-006
      -1.23098539e-006 -1.23098539e-006 -1.23098539e-006
      -1.23098539e-006 -1.85398136e-007 -1.85398136e-007
      -1.85398136e-007 2.87536977e-007 2.87536977e-007 5.14229725e-007
      5.61740819e-007 5.61740819e-007 5.08133894e-007 5.08133894e-007
      5.08133894e-007 5.08133894e-007 5.08133894e-007 7.31365162e-007
      7.31365162e-007 6.39314862e-007 4.85562168e-007 5.68600626e-007
      1.90897012e-007 1.90897012e-007 2.38408077e-007 -2.76431319e-006
      -3.60234799e-006 -3.57634661e-007 2.24549709e-007 8.62129212e-008
      8.62129212e-008 7.58155238e-007 7.58155238e-007 0. 0. 0. 0. 0. 0.
      0. 0. 0. 0. 0. 0. 0. 0. 0. 0. 0. 0. 0. 0. 0. 0. 0. 0. 0. 0. 0. 0.
      0. 0. 0. 0. 0. 0. 0. 0. 0. 0. 0. 0. 0. 0. 0. 0. 0. 0. 0. 0. 0. 0.
      0. 0. 0. 0. 0. 0. 0. 0. 0. 0. 0. 0. 0. 0. 0. 0. 0. 0. 0. 0. 0. 0.
      0. 0. 0. 0. 0. 0. 1.00333716e-006 1.00333716e-006 2.59116155e-006
      2.59116155e-006 2.59116155e-006 4.70376199e-006 4.70376199e-006
      4.70376199e-006 4.70376199e-006 4.70376199e-006 2.68301278e-006
      2.68301278e-006 2.13069575e-006 9.93274625e-007 9.93274625e-007
      -1.31842125e-006 -1.31842125e-006 -1.31842125e-006
      -1.14444242e-006 -1.14444242e-006 -1.14444242e-006
      -1.14444242e-006 -1.14444242e-006 -1.14444242e-006
      -1.14444242e-006 -1.14444242e-006 -1.14444242e-006
      -1.14444242e-006 -1.14444242e-006 -1.14444242e-006
      -1.27849637e-006 -1.23098539e-006 -1.23098539e-006
      -1.23098539e-006 -1.12474379e-006 -2.32909215e-007 1.35161827e-007
      2.40025912e-007 2.40025912e-007 4.13111735e-007 5.08133894e-007
      5.08133894e-007 5.08133894e-007 5.08133894e-007 5.08133894e-007
      5.84474776e-007 5.08133894e-007 7.31365162e-007 6.39314862e-007
      6.39314862e-007 4.08752101e-007 4.14847989e-007 8.46554187e-008
      -1.63393088e-006 -1.72895307e-006 -7.60839441e-007 2.24549709e-007
      2.24549709e-007 -2.06202981e-006 8.62129212e-008 7.58155238e-007
      7.58155238e-007 7.58155238e-007 0. 0. 0. 0. 0. 0. 0. 0. 0. 0. 0.
      0. 0. 0. 0. 0. 0. 0. 0. 0. 0. 0. 0. 0. 0. 0. 0. 0. 0. 0. 0. 0. 0.
      0. 0. 0. 0. 0. 0. 0. 0. 0. 0. 0. 0. 0. 0. 0. 0. 0. 0. 0. 0. 0. 0.
      0. 0. 0. 0. 0. 0. 0. 0. 0. 0. 0. 0. 0. 0. 0. 0. 0. 0. 0. 0. 0. 0.
      1.00333716e-006 1.00333716e-006 2.59116155e-006 2.59116155e-006
      2.59116155e-006 4.70376199e-006 4.70376199e-006 4.70376199e-006
      4.70376199e-006 4.70376199e-006 2.14199304e-006 2.14199304e-006
      2.88726284e-007 9.93274625e-007 -1.31842125e-006 -1.31842125e-006
