<?xml version="1.0"?>
<opencv_storage>
<my_svm type_id="opencv-ml-svm">
  <svm_type>C_SVC</svm_type>
  <kernel><type>LINEAR</type></kernel>
  <C>1.</C>
  <term_criteria><epsilon>2.2204460492503131e-016</epsilon>
    <iterations>100</iterations></term_criteria>
  <var_all>19600</var_all>
  <var_count>19600</var_count>
  <class_count>2</class_count>
  <class_labels type_id="opencv-matrix">
    <rows>1</rows>
    <cols>2</cols>
    <dt>i</dt>
    <data>
      -1 1</data></class_labels>
  <sv_total>1</sv_total>
  <support_vectors>
    <_>
      0. 0. 0. 0. 0. 0. 0. 0. 0. 0. 0. 0. 0. 0. 0. 0. 0. 0. 0. 0. 0. 0.
      0. 0. 0. 0. 0. 0. 0. 0. 0. 0. 0. 0. 0. 0. 0. 0. 0. 0. 0. 0. 0. 0.
      0. 0. 0. 0. 0. 0. 0. 0. 0. 0. 0. 0. 0. 0. 0. 0. 0. 0. 0. 0. 0. 0.
      0. 0. 0. 0. 0. 0. 0. 0. 0. 0. 0. 0. 0. 0. 0. 0. 0. 0. 0. 0. 0. 0.
      0. 0. 0. 0. 0. 0. 0. 0. 0. 0. 0. 0. 0. 0. 0. 0. 0. 0. 0. 0. 0. 0.
      0. 0. 0. 0. 0. 0. 0. 0. 0. 0. 0. 0. 0. 0. 0. 0. 0. 0. 0. 0. 0. 0.
      0. 0. 0. 0. 0. 0. 0. 0. 0. 0. 0. 0. 0. 0. 0. 0. 0. 0. 0. 0. 0. 0.
      0. 0. 0. 0. 0. 0. 0. 0. 0. 0. 0. 0. 0. 0. 0. 0. 0. 0. 0. 0. 0. 0.
      0. 0. 0. 0. 0. 0. 0. 0. 0. 0. 0. 0. 0. 0. 0. 0. 0. 0. 0. 0. 0. 0.
      0. 0. 0. 0. 0. 0. 0. 0. 0. 0. 0. 0. 0. 0. 0. 0. 0. 0. 0. 0. 0. 0.
      0. 0. 0. 0. 0. 0. 0. 0. 0. 0. 0. 0. 0. 0. 0. 0. 0. 0. 0. 0. 0. 0.
      0. 0. 0. 0. 0. 0. 0. 0. 0. 0. 0. 0. 0. 0. 0. 0. 0. 0. 0. 0. 0. 0.
      0. 0. 0. 0. 0. 0. 0. 0. 0. 0. 0. 0. 0. 0. 0. 0. 0. 0. 0. 0. 0. 0.
      0. 0. 0. 0. 0. 0. 0. 0. 0. 0. 0. 0. 0. 0. 0. 0. 0. 0. 0. 0. 0. 0.
      0. 0. 0. 0. 0. 0. 0. 0. 0. 0. 0. 0. 0. 0. 0. 0. 0. 0. 0. 0. 0. 0.
      0. 0. 0. 0. 0. 0. 0. 0. 0. 0. 0. 0. 0. 0. 0. 0. 0. 0. 0. 0. 0. 0.
      0. 0. 0. 0. 0. 0. 0. 0. 0. 0. 0. 0. 0. 0. 0. 0. 0. 0. 0. 0. 0. 0.
      0. 0. 0. 0. 0. 0. 0. 0. 0. 0. 0. 0. 0. 0. 0. 0. 0. 0. 0. 0. 0. 0.
      0. 0. 0. 0. 0. 0. 0. 0. 0. 0. 0. 0. 0. 0. 0. 0. 0. 0. 0. 0. 0. 0.
      0. 0. 0. 0. 0. 0. 0. 0. 0. 0. 0. 0. 0. 0. 0. 0. 0. 0. 0. 0. 0. 0.
      0. 0. 0. 0. 0. 0. 0. 0. 0. 0. 0. 0. 0. 0. 0. 0. 0. 0. 0. 0. 0. 0.
      0. 0. 0. 0. 0. 0. 0. 0. 0. 0. 0. 0. 0. 0. 0. 0. 0. 0. 0. 0. 0. 0.
      0. 0. 0. 0. 0. 0. 0. 0. 0. 0. 0. 0. 0. 0. 0. 0. 0. 0. 0. 0. 0. 0.
      0. 0. 0. 0. 0. 0. 0. 0. 0. 0. 0. 0. 0. 0. 0. 0. 0. 0. 0. 0. 0. 0.
      0. 0. 0. 0. 0. 0. 0. 0. 0. 0. 0. 0. 0. 0. 0. 0. 0. 0. 0. 0. 0. 0.
      0. 0. 0. 0. 0. 0. 0. 0. 0. 0. 0. 0. 0. 0. 0. 0. 0. 0. 0. 0. 0. 0.
      0. 0. 0. 0. 0. 0. 0. 0. 0. 0. 0. 0. 0. 0. 0. 0. 0. 0. 0. 0. 0. 0.
      0. 0. 0. 0. 0. 0. 0. 0. 0. 0. 0. 0. 0. 0. 0. 0. 0. 0. 0. 0. 0. 0.
      0. 0. 0. 0. 0. 0. 0. 0. 0. 0. 0. 0. 0. 0. 0. 0. 0. 0. 0. 0. 0. 0.
      0. 0. 0. 0. 0. 0. 0. 0. 0. 0. 0. 0. 0. 0. 0. 0. 0. 0. 0. 0. 0. 0.
      0. 0. 0. 0. 0. 0. 0. 0. 0. 0. 0. 0. 0. 0. 0. 0. 0. 0. 0. 0. 0. 0.
      0. 0. 0. 0. 0. 0. 0. 0. 0. 0. 0. 0. 0. 0. 0. 0. 0. 0. 0. 0. 0. 0.
      0. 0. 0. 0. 0. 0. 0. 0. 0. 0. 0. 0. 0. 0. 0. 0. 0. 0. 0. 0. 0. 0.
      0. 0. 0. 0. 0. 0. 0. 0. 0. 0. 0. 0. 0. 0. 0. 0. 0. 0. 0. 0. 0. 0.
      0. 0. 0. 0. 0. 0. 0. 0. 0. 0. 0. 0. 0. 0. 0. 0. 0. 0. 0. 0. 0. 0.
      0. 0. 0. 0. 0. 0. 0. 0. 0. 0. 0. 0. 0. 0. 0. 0. 0. 0. 0. 0. 0. 0.
      0. 0. 0. 0. 0. 0. 0. 0. 0. 0. 0. 0. 0. 0. 0. 0. 0. 0. 0. 0. 0. 0.
      0. 0. 0. 0. 0. 0. 0. 0. 0. 0. 0. 0. 0. 0. 0. 0. 0. 0. 0. 0. 0. 0.
      0. 0. 0. 0. 0. 0. 0. 0. 0. 0. 0. 0. 0. 0. 0. 0. 0. 0. 0. 0. 0. 0.
      0. 0. 0. 0. 0. 0. 0. 0. 0. 0. 0. 0. 0. 0. 0. 0. 0. 0. 0. 0. 0. 0.
      0. 0. 0. 0. 0. 0. 0. 0. 0. 0. 0. 0. 0. 0. 0. 0. 0. 0. 0. 0. 0. 0.
      0. 0. 0. 0. 0. 0. 0. 0. 0. 0. 0. 0. 0. 0. 0. 0. 0. 0. 0. 0. 0. 0.
      0. 0. 0. 0. 0. 0. 0. 0. 0. 0. 0. 0. 0. 0. 0. 0. 0. 0. 0. 0. 0. 0.
      0. 0. 0. 0. 0. 0. 0. 0. 0. 0. 0. 0. 0. 0. 0. 0. 0. 0. 0. 0. 0. 0.
      0. 0. 0. 0. 0. 0. 0. 0. 0. 0. 0. 0. 0. 0. 0. 0. 0. 0. 0. 0. 0. 0.
      0. 0. 0. 0. 0. 0. 0. 0. 0. 0. 0. 0. 0. 0. 0. 0. 0. 0. 0. 0. 0. 0.
      0. 0. 0. 0. 0. 0. 0. 0. 0. 0. 0. 0. 0. 0. 0. 0. 0. 0. 0. 0. 0. 0.
      0. 0. 0. 0. 0. 0. 0. 0. 0. 0. 0. 0. 0. 0. 0. 0. 0. 0. 0. 0. 0. 0.
      0. 0. 0. -2.62513072e-006 -2.82780616e-006 -2.82780616e-006
      -2.82780616e-006 -2.82780616e-006 0. 0. 0. 0. 0. 0. 0. 0. 0. 0. 0.
      0. 0. 0. 0. 0. 0. 0. 0. 0. 0. 0. 0. 0. 0. 0. 0. 0. 0. 0. 0. 0. 0.
      0. 0. 0. 0. 0. 0. 0. 0. 0. 0. 0. 0. 0. 0. 0. 0. 0. 0. 0. 0. 0. 0.
      0. 0. 0. 0. 0. 0. 0. 0. 0. 0. 0. 0. 0. 0. 0. 0. 0. 0. 0. 0. 0. 0.
      0. 0. 0. 0. 0. 0. 0. 0. 0. 0. 0. 0. 0. 0. 0. 0. 0. 0. 0. 0. 0. 0.
      0. 0. 0. 0. 0. 0. 0. 0. 0. 0. 0. 0. 0. 0. 0. 0. 0. 0. 0. 0. 0. 0.
      0. 0. 0. 0. 0. 0. 0. 0. 0. 0. 0. 0. -2.82780616e-006
      -2.62513072e-006 -2.62513072e-006 -2.62513072e-006
      -2.62513072e-006 -2.62513072e-006 -2.62513072e-006
      -2.62513072e-006 0. 0. 0. 0. 0. 0. 0. 0. 0. 0. 0. 0. 0. 0. 0. 0.
      0. 0. 0. 0. 0. 0. 0. 0. 0. 0. 0. 0. 0. 0. 0. 0. 0. 0. 0. 0. 0. 0.
      0. 0. 0. 0. 0. 0. 0. 0. 0. 0. 0. 0. 0. 0. 0. 0. 0. 0. 0. 0. 0. 0.
      0. 0. 0. 0. 0. 0. 0. 0. 0. 0. 0. 0. 0. 0. 0. 0. 0. 0. 0. 0. 0. 0.
      0. 0. 0. 0. 0. 0. 0. 0. 0. 0. 0. 0. 0. 0. 0. 0. 0. 0. 0. 0. 0. 0.
      0. 0. 0. 0. 0. 0. 0. 0. 0. 0. 0. 0. 0. 0. 0. 0. 0. 0. 0. 0. 0. 0.
      0. 0. 0. 0. -2.62513072e-006 -2.62513072e-006 -2.82780616e-006
      -2.82780616e-006 -2.62513072e-006 -2.62513072e-006
      -2.62513072e-006 -2.62513072e-006 -2.62513072e-006
      -2.62513072e-006 -2.62513072e-006 0. 0. 0. 0. 0. 0. 0. 0. 0. 0. 0.
      0. 0. 0. 0. 0. 0. 0. 0. 0. 0. 0. 0. 0. 0. 0. 0. 0. 0. 0. 0. 0. 0.
      0. 0. 0. 0. 0. 0. 0. 0. 0. 0. 0. 0. 0. 0. 0. 0. 0. 0. 0. 0. 0. 0.
      0. 0. 0. 0. 0. 0. 0. 0. 0. 0. 0. 0. 0. 0. 0. 0. 0. 0. 0. 0. 0. 0.
      0. 0. 0. 0. 0. 0. 0. 0. 0. 0. 0. 0. 0. 0. 0. 0. 0. 0. 0. 0. 0. 0.
      0. 0. 0. 0. 0. 0. 0. 0. 0. 0. 0. 0. 0. 0. 0. 0. 0. 0. 0. 0. 0. 0.
      0. 0. 0. 0. 0. -2.62513072e-006 -2.62513072e-006 -2.62513072e-006
      -2.62513072e-006 -2.62513072e-006 -2.62513072e-006
      -2.82780616e-006 -2.62513072e-006 -2.62513072e-006
      -2.82780616e-006 -2.62513072e-006 -2.62513072e-006
      -2.62513072e-006 -2.62513072e-006 0. 0. 0. 0. 0. 0. 0. 0. 0. 0. 0.
      0. 0. 0. 0. 0. 0. 0. 0. 0. 0. 0. 0. 0. 0. 0. 0. 0. 0. 0. 0. 0. 0.
      0. 0. 0. 0. 0. 0. 0. 0. 0. 0. 0. 0. 0. 0. 0. 0. 0. 0. 0. 0. 0. 0.
      0. 0. 0. 0. 0. 0. 0. 0. 0. 0. 0. 0. 0. 0. 0. 0. 0. 0. 0. 0. 0. 0.
      0. 0. 0. 0. 0. 0. 0. 0. 0. 0. 0. 0. 0. 0. 0. 0. 0. 0. 0. 0. 0. 0.
      0. 0. 0. 0. 0. 0. 0. 0. 0. 0. 0. 0. 0. 0. 0. 0. 0. 0. 0. 0. 0. 0.
      0. 0. 0. -2.62513072e-006 -2.62513072e-006 -2.62513072e-006
      -2.62513072e-006 -2.62513072e-006 -2.62513072e-006
      -2.62513072e-006 -2.62513072e-006 -2.62513072e-006
      -2.62513072e-006 -2.62513072e-006 -2.62513072e-006
      -2.62513072e-006 -2.62513072e-006 -2.62513072e-006
      -2.62513072e-006 0. 0. 0. 0. 0. 0. 0. 0. 0. 0. 0. 0. 0. 0. 0. 0.
      0. 0. 0. 0. 0. 0. 0. 0. 0. 0. 0. 0. 0. 0. 0. 0. 0. 0. 0. 0. 0. 0.
      0. 0. 0. 0. 0. 0. 0. 0. 0. 0. 0. 0. 0. 0. 0. 0. 0. 0. 0. 0. 0. 0.
      0. 0. 0. 0. 0. 0. 0. 0. 0. 0. 0. 0. 0. 0. 0. 0. 0. 0. 0. 0. 0. 0.
      0. 0. 0. 0. 0. 0. 0. 0. 0. 0. 0. 0. 0. 0. 0. 0. 0. 0. 0. 0. 0. 0.
      0. 0. 0. 0. 0. 0. 0. 0. 0. 0. 0. 0. 0. 0. 0. 0. 0. 0. 0.
      -2.62513072e-006 -2.62513072e-006 -2.62513072e-006
      -2.62513072e-006 -2.62513072e-006 -2.62513072e-006
      -2.62513072e-006 -2.62513072e-006 -2.62513072e-006
      -2.62513072e-006 -2.62513072e-006 -2.62513072e-006
      -2.62513072e-006 -2.62513072e-006 -2.62513072e-006
      -2.62513072e-006 -2.62513072e-006 -2.62513072e-006
      -2.62513072e-006 0. 0. 0. 0. 0. 0. 0. 0. 0. 0. 0. 0. 0. 0. 0. 0.
      0. 0. 0. 0. 0. 0. 0. 0. 0. 0. 0. 0. 0. 0. 0. 0. 0. 0. 0. 0. 0. 0.
      0. 0. 0. 0. 0. 0. 0. 0. 0. 0. 0. 0. 0. 0. 0. 0. 0. 0. 0. 0. 0. 0.
      0. 0. 0. 0. 0. 0. 0. 0. 0. 0. 0. 0. 0. 0. 0. 0. 0. 0. 0. 0. 0. 0.
      0. 0. 0. 0. 0. 0. 0. 0. 0. 0. 0. 0. 0. 0. 0. 0. 0. 0. 0. 0. 0. 0.
      0. 0. 0. 0. 0. 0. 0. 0. 0. 0. 0. 0. 0. 0. 0. -2.62513072e-006
      -2.62513072e-006 -2.62513072e-006 -2.62513072e-006
      -2.62513072e-006 -2.62513072e-006 -2.62513072e-006
      -2.62513072e-006 -2.62513072e-006 -2.62513072e-006
      -2.62513072e-006 0. 0. 0. 0. 0. 0. 0. -2.62513072e-006
      -2.62513072e-006 -2.62513072e-006 -2.62513072e-006 0. 0. 0. 0. 0.
      0. 0. 0. 0. 0. 0. 0. 0. 0. 0. 0. 0. 0. 0. 0. 0. 0. 0. 0. 0. 0. 0.
      0. 0. 0. 0. 0. 0. 0. 0. 0. 0. 0. 0. 0. 0. 0. 0. 0. 0. 0. 0. 0. 0.
      0. 0. 0. 0. 0. 0. 0. 0. 0. 0. 0. 0. 0. 0. 0. 0. 0. 0. 0. 0. 0. 0.
      0. 0. 0. 0. 0. 0. 0. 0. 0. 0. 0. 0. 0. 0. 0. 0. 0. 0. 0. 0. 0. 0.
      0. 0. 0. 0. 0. 0. 0. 0. 0. 0. 0. 0. 0. 0. 0. 0. 0. 0. 0. 0. 0. 0.
      0. 0. 0. -2.62513072e-006 -2.62513072e-006 -2.62513072e-006
      -2.62513072e-006 -2.62513072e-006 -2.62513072e-006
      -2.62513072e-006 -2.62513072e-006 -2.62513072e-006
      -2.62513072e-006 -2.62513072e-006 0. 0. 0. 0. 0. 0. 0.
      -2.62513072e-006 -2.62513072e-006 -2.62513072e-006
      -2.62513072e-006 -2.62513072e-006 0. 0. 0. 0. 0. 0. 0. 0. 0. 0. 0.
      0. 0. 0. 0. 0. 0. 0. 0. 0. 0. 0. 0. 0. 0. 0. 0. 0. 0. 0. 0. 0. 0.
      0. 0. 0. 0. 0. 0. 0. 0. 0. 0. 0. 0. 0. 0. 0. 0. 0. 0. 0. 0. 0. 0.
      0. 0. 0. 0. 0. 0. 0. 0. 0. 0. 0. 0. 0. 0. 0. 0. 0. 0. 0. 0. 0. 0.
      0. 0. 0. 0. 0. 0. 0. 0. 0. 0. 0. 0. 0. 0. 0. 0. 0. 0. 0. 0. 0. 0.
      0. 0. 0. 0. 2.62513072e-006 2.62513072e-006 0. 0. 0. 0. 0. 0. 0.
      0. 0. 0. 0. 0. -2.62513072e-006 -2.62513072e-006 -2.62513072e-006
      -2.62513072e-006 -2.62513072e-006 -2.62513072e-006
      -2.62513072e-006 -2.62513072e-006 -2.62513072e-006
      -2.62513072e-006 0. 0. 0. 0. 0. 0. 0. 0. 0. 0. -2.62513072e-006
      -2.62513072e-006 -2.62513072e-006 0. 0. 0. 0. 0. 0. 0. 0. 0. 0. 0.
      0. 0. 0. 0. 0. 0. 0. 0. 0. 0. 0. 0. 0. 0. 0. 0. 0. 0. 0. 0. 0. 0.
      0. 0. 0. 0. 0. 0. 0. 0. 0. 0. 0. 0. 0. 0. 0. 0. 0. 0. 0. 0. 0. 0.
      0. 0. 0. 0. 0. 0. 0. 0. 0. 0. 0. 0. 0. 0. 0. 0. 0. 0. 0. 0. 0. 0.
      0. 0. 0. 0. 0. 0. 0. 0. 0. 0. 0. 0. 0. 0. 0. 0. 0. 0. 0. 0. 0. 0.
      0. 0. 0. 2.62513072e-006 2.62513072e-006 2.62513072e-006
      2.62513072e-006 0. 0. 0. 0. 0. 0. 0. 0. 0. 0. 0. -2.62513072e-006
      -2.62513072e-006 -2.62513072e-006 -2.62513072e-006
      -2.62513072e-006 -2.62513072e-006 -2.62513072e-006
      -2.62513072e-006 -2.62513072e-006 -2.62513072e-006
      -2.62513072e-006 0. 0. 0. 0. 0. 0. 0. 0. 0. 0. -2.62513072e-006
      -2.62513072e-006 -2.62513072e-006 0. 0. 0. 0. 0. 0. 0. 0. 0. 0. 0.
      0. 0. 0. 0. 0. 0. 0. 0. 0. 0. 0. 0. 0. 0. 0. 0. 0. 0. 0. 0. 0. 0.
      0. 0. 0. 0. 0. 0. 0. 0. 0. 0. 0. 0. 0. 0. 0. 0. 0. 0. 0. 0. 0. 0.
      0. 0. 0. 0. 0. 0. 0. 0. 0. 0. 0. 0. 0. 0. 0. 0. 0. 0. 0. 0. 0. 0.
      0. 0. 0. 0. 0. 0. 0. 0. 0. 0. 0. 0. 0. 0. 0. 0. 0. 0. 0. 0. 0. 0.
      2.62513072e-006 2.62513072e-006 2.62513072e-006 2.62513072e-006
      2.62513072e-006 2.62513072e-006 2.62513072e-006 2.62513072e-006 0.
      0. 0. 0. 0. 0. 0. 0. 0. -2.62513072e-006 -2.62513072e-006
      -2.62513072e-006 -2.62513072e-006 -2.62513072e-006
      -2.62513072e-006 -2.62513072e-006 -2.62513072e-006
      -2.62513072e-006 -2.62513072e-006 -2.62513072e-006 0. 0. 0. 0. 0.
      0. 0. 0. 0. -2.62513072e-006 -2.62513072e-006 -2.62513072e-006
      -2.62513072e-006 -2.62513072e-006 0. 0. 0. 0. 0. 0. 0. 0. 0. 0. 0.
      0. 0. 0. 0. 0. 0. 0. 0. 0. 0. 0. 0. 0. 0. 0. 0. 0. 0. 0. 0. 0. 0.
      0. 0. 0. 0. 0. 0. 0. 0. 0. 0. 0. 0. 0. 0. 0. 0. 0. 0. 0. 0. 0. 0.
      0. 0. 0. 0. 0. 0. 0. 0. 0. 0. 0. 0. 0. 0. 0. 0. 0. 0. 0. 0. 0. 0.
      0. 0. 0. 0. 0. 0. 0. 0. 0. 0. 0. 0. 0. 0. 0. 0. 0. 0. 0. 0. 0.
      2.62513072e-006 2.62513072e-006 2.62513072e-006 2.62513072e-006
      2.62513072e-006 2.62513072e-006 2.62513072e-006 2.62513072e-006 0.
      0. 0. 0. 0. 0. 0. 0. 0. -2.82780616e-006 -2.62513072e-006
      -2.62513072e-006 -2.62513072e-006 -2.62513072e-006
      -2.62513072e-006 -2.62513072e-006 -2.62513072e-006
      -2.62513072e-006 -2.62513072e-006 0. 0. 0. 0. 0. 0. 0. 0. 0. 0. 0.
      -2.62513072e-006 -2.62513072e-006 -2.62513072e-006
      -2.62513072e-006 0. 0. 0. 0. 0. 0. 0. 0. 0. 0. 0. 0. 0. 0. 0. 0.
      0. 0. 0. 0. 0. 0. 0. 0. 0. 0. 0. 0. 0. 0. 0. 0. 0. 0. 0. 0. 0. 0.
      0. 0. 0. 0. 0. 0. 0. 0. 0. 0. 0. 0. 0. 0. 0. 0. 0. 0. 0. 0. 0. 0.
      0. 0. 0. 0. 0. 0. 0. 0. 0. 0. 0. 0. 0. 0. 0. 0. 0. 0. 0. 0. 0. 0.
      0. 0. 0. 0. 0. 0. 0. 0. 0. 0. 0. 0. 0. 0. 0. 2.62513072e-006
      2.62513072e-006 2.62513072e-006 2.62513072e-006 2.62513072e-006
      2.62513072e-006 2.62513072e-006 2.62513072e-006 2.62513072e-006
      2.62513072e-006 0. 0. 0. 0. 0. 0. 0. 0. -2.82780616e-006
      -2.62513072e-006 -2.62513072e-006 -2.62513072e-006
      -2.62513072e-006 -2.62513072e-006 -2.62513072e-006
      -2.62513072e-006 -2.62513072e-006 0. 0. 0. 0. 0. 0. 0. 0. 0. 0. 0.
      0. -2.62513072e-006 -2.62513072e-006 -2.62513072e-006
      -2.62513072e-006 -2.62513072e-006 0. 0. 0. 0. 0. 2.62513072e-006
      2.62513072e-006 2.62513072e-006 2.62513072e-006 0. 0. 0. 0. 0. 0.
      0. 0. 0. 0. 0. 0. 0. 0. 0. 0. 0. 0. 0. 0. 0. 0. 0. 0. 0. 0. 0. 0.
      0. 0. 0. 0. 0. 0. 0. 0. 0. 0. 0. 0. 0. 0. 0. 0. 0. 0. 0. 0. 0. 0.
      0. 0. 0. 0. 0. 0. 0. 0. 0. 0. 0. 0. 0. 0. 0. 0. 0. 0. 0. 0. 0. 0.
      0. 0. 0. 0. 0. 0. 0. 0. 0. 0. 0. 0. 0. 0. 0. 2.62513072e-006
      2.62513072e-006 2.62513072e-006 2.62513072e-006 2.62513072e-006
      2.62513072e-006 2.62513072e-006 2.62513072e-006 2.62513072e-006
      2.62513072e-006 0. 0. 0. 0. 0. 0. 0. 0. -2.82780616e-006
      -2.82780616e-006 -2.62513072e-006 -2.62513072e-006
      -2.82780616e-006 -2.62513072e-006 -2.62513072e-006
      -2.62513072e-006 -2.62513072e-006 -2.62513072e-006 0. 0. 0. 0. 0.
      0. 0. 0. 0. 0. 0. -2.62513072e-006 -2.62513072e-006
      -2.62513072e-006 -2.62513072e-006 -2.62513072e-006 0. 0. 0. 0.
      2.62513072e-006 2.62513072e-006 2.62513072e-006 2.62513072e-006
      2.62513072e-006 2.62513072e-006 0. 0. 0. 0. 0. 0. 0. 0. 0. 0. 0.
      0. 0. 0. 0. 0. 0. 0. 0. 0. 0. 0. 0. 0. 0. 0. 0. 0. 0. 0. 0. 0. 0.
      0. 0. 0. 0. 0. 0. 0. 0. 0. 0. 0. 0. 0. 0. 0. 0. 0. 0. 0. 0. 0. 0.
      0. 0. 0. 0. 0. 0. 0. 0. 0. 0. 0. 0. 0. 0. 0. 0. 0. 0. 0. 0. 0. 0.
      0. 0. 0. 0. 0. 0. 0. 0. 0. 2.62513072e-006 2.62513072e-006
      2.62513072e-006 2.62513072e-006 2.62513072e-006 2.62513072e-006
      2.62513072e-006 2.62513072e-006 2.62513072e-006 2.62513072e-006 0.
      0. 0. 0. 0. 0. 0. -2.82780616e-006 -2.82780616e-006
      -2.82780616e-006 -2.82780616e-006 -2.62513072e-006
      -2.82780616e-006 -2.62513072e-006 -2.62513072e-006
      -2.62513072e-006 -2.62513072e-006 0. 0. 0. 0. 0. 0. 0. 0. 0. 0. 0.
      0. -2.62513072e-006 -2.62513072e-006 -2.62513072e-006
      -2.62513072e-006 -2.62513072e-006 0. 0. 0. 2.62513072e-006
      2.62513072e-006 2.62513072e-006 2.62513072e-006 2.62513072e-006
      2.62513072e-006 2.62513072e-006 2.62513072e-006 2.62513072e-006 0.
      0. 0. 0. 0. 0. 0. 0. 0. 0. 0. 0. 0. 0. 0. 0. 0. 0. 0. 0. 0. 0. 0.
      0. 0. 0. 0. 0. 0. 0. 0. 0. 0. 0. 0. 0. 0. 0. 0. 0. 0. 0. 0. 0. 0.
      0. 0. 0. 0. 0. 0. 0. 0. 0. 0. 0. 0. 0. 0. 0. 0. 0. 0. 0. 0. 0. 0.
      0. 0. 0. 0. 0. 0. 0. 0. 0. 0. 0. 0. 0. 0. 0. 0. 0. 0.
      2.62513072e-006 2.62513072e-006 2.62513072e-006 2.62513072e-006
      2.62513072e-006 2.62513072e-006 2.62513072e-006 2.62513072e-006
      2.62513072e-006 0. 0. 0. 0. 0. 0. -2.82780616e-006
      -2.82780616e-006 -2.82780616e-006 -2.82780616e-006
      -2.82780616e-006 -2.62513072e-006 -2.82780616e-006
      -2.82780616e-006 -2.62513072e-006 -2.62513072e-006
      -2.82780616e-006 0. -2.02675537e-007 -2.02675537e-007
      -2.02675537e-007 -2.02675537e-007 -2.02675537e-007
      -2.02675537e-007 0. 0. 0. 0. -2.62513072e-006 -2.62513072e-006
      -2.62513072e-006 -2.62513072e-006 -2.62513072e-006
      -2.62513072e-006 0. 0. 0. 2.62513072e-006 2.62513072e-006
      2.62513072e-006 2.62513072e-006 2.62513072e-006 2.62513072e-006
      2.62513072e-006 2.62513072e-006 2.62513072e-006 0. 0. 0. 0. 0. 0.
      0. 0. 0. 0. 0. 0. 0. 0. 0. 0. 0. 0. 0. 0. 0. 0. 0. 0. 0. 0. 0. 0.
      0. 0. 0. 0. 0. 0. 0. 0. 0. 0. 0. 0. 0. 0. 0. 0. 0. 0. 0. 0. 0. 0.
      0. 0. 0. 0. 0. 0. 0. 0. 0. 0. 0. 0. 0. 0. 0. 0. 0. 0. 0. 0. 0. 0.
      0. 0. 0. 0. 0. 0. 0. 0. 0. 0. 0. 2.62513072e-006 2.62513072e-006
      2.62513072e-006 2.62513072e-006 2.62513072e-006 2.46106015e-006
      2.46106015e-006 2.62513072e-006 2.62513072e-006 2.62513072e-006
      2.62513072e-006 0. 0. 0. 0. 0. -2.82780616e-006 -2.82780616e-006
      -2.82780616e-006 -2.82780616e-006 -2.82780616e-006
      -2.82780616e-006 -2.62513072e-006 -2.82780616e-006
      -2.82780616e-006 -2.82780616e-006 -2.82780616e-006
      -2.82780616e-006 0. -2.02675537e-007 -2.02675537e-007
      -2.02675537e-007 0. -2.02675537e-007 0. -3.66746207e-007
      -1.64070670e-007 0. 0. -2.62513072e-006 -2.62513072e-006
      -2.62513072e-006 -2.62513072e-006 -2.62513072e-006
      -2.62513072e-006 0. 0. 2.62513072e-006 2.62513072e-006
      2.62513072e-006 2.62513072e-006 2.62513072e-006 2.62513072e-006
      2.62513072e-006 2.62513072e-006 2.62513072e-006 2.62513072e-006 0.
      0. 0. 0. 0. 0. 0. 0. 0. 0. 0. 0. 0. 0. 0. 0. 0. 0. 0. 0. 0. 0. 0.
      0. 0. 0. 0. 0. 0. 0. 0. 0. 0. 0. 0. 0. 0. 0. 0. 0. 0. 0. 0. 0. 0.
      0. 0. 0. 0. 0. 0. 0. 0. 0. 0. 0. 0. 0. 0. 0. 0. 0. 0. 0. 0. 0. 0.
      0. 0. 0. 0. 0. 0. 0. 0. 0. 0. 0. 0. 0. 0. 0. 0. 0. 2.62513072e-006
      2.46106015e-006 2.46106015e-006 2.46106015e-006 2.46106015e-006
      2.46106015e-006 2.46106015e-006 2.62513072e-006 2.62513072e-006
      2.62513072e-006 2.62513072e-006 0. -2.62513072e-006
      -2.82780616e-006 -2.82780616e-006 -2.82780616e-006
      -2.82780616e-006 -2.82780616e-006 -2.82780616e-006
      -2.82780616e-006 -2.82780616e-006 -2.82780616e-006
      -2.82780616e-006 -2.82780616e-006 -2.82780616e-006
      -2.82780616e-006 -2.82780616e-006 -3.66746207e-007
      -3.66746207e-007 -3.66746207e-007 -2.02675537e-007
      -2.02675537e-007 -2.02675537e-007 -2.02675537e-007
      -3.66746207e-007 -3.66746207e-007 -1.64070670e-007
      -2.62513072e-006 -2.62513072e-006 -2.62513072e-006
      -2.62513072e-006 -2.62513072e-006 -2.62513072e-006
      -2.62513072e-006 0. 0. 2.62513072e-006 2.62513072e-006
      2.62513072e-006 2.62513072e-006 2.62513072e-006 2.62513072e-006
      2.62513072e-006 2.62513072e-006 2.62513072e-006 2.62513072e-006
      2.62513072e-006 0. 0. 0. 0. 0. 0. 0. 0. 0. 0. 0. 0. 0. 0. 0. 0. 0.
      0. 0. 0. 0. 0. 0. 0. 0. 0. 0. 0. 0. 0. 0. 0. 0. 0. 0. 0. 0. 0. 0.
      0. 0. 0. 0. 0. 0. 0. 0. 0. 0. 0. 0. 0. 0. 0. 0. 0. 0. 0. 0. 0. 0.
      0. 0. 0. 0. 0. 0. 0. 0. 0. 0. 0. 0. 0. 0. 0. 0. 0. 0. 0. 0. 0. 0.
      2.62513072e-006 2.46106015e-006 2.46106015e-006 2.46106015e-006
      2.46106015e-006 2.46106015e-006 2.46106015e-006 2.46106015e-006
      2.62513072e-006 2.62513072e-006 0. -2.62513072e-006
      -2.62513072e-006 -2.82780616e-006 -2.82780616e-006
      -2.82780616e-006 -2.82780616e-006 -2.82780616e-006
      -2.82780616e-006 -2.82780616e-006 -2.82780616e-006
      -2.82780616e-006 -2.82780616e-006 -2.82780616e-006
      -2.82780616e-006 -2.82780616e-006 -2.82780616e-006
      -2.02675537e-007 -3.66746207e-007 -3.66746207e-007
      -3.66746207e-007 -2.02675537e-007 -2.02675537e-007
      -3.66746207e-007 -3.66746207e-007 -1.64070670e-007
      -1.64070670e-007 -2.62513072e-006 -2.62513072e-006
      -2.62513072e-006 -2.62513072e-006 -2.82780616e-006
      -2.82780616e-006 -2.82780616e-006 0. 0. 2.62513072e-006
      2.62513072e-006 2.46106015e-006 2.46106015e-006 2.46106015e-006
      2.62513072e-006 2.62513072e-006 2.62513072e-006 2.62513072e-006
      2.62513072e-006 2.62513072e-006 0. 0. 0. 0. 0. 0. 0. 0. 0. 0. 0.
      0. 0. 0. 0. 0. 0. 0. 0. 0. 0. 0. 0. 0. 0. 0. 0. 0. 0. 0. 0. 0. 0.
      0. 0. 0. 0. 0. 0. 0. 0. 0. 0. 0. 0. 0. 0. 0. 0. 0. 0. 0. 0. 0. 0.
      0. 0. 0. 0. 0. 0. 0. 0. 0. 0. 0. 0. 0. 0. 0. 0. 0. 0. 0. 0. 0. 0.
      0. 0. 0. 0. 0. 0. 0. 0. 2.46106015e-006 2.46106015e-006
      2.46106015e-006 2.46106015e-006 2.46106015e-006 2.46106015e-006
      2.62513072e-006 0. 0. -2.62513072e-006 -2.62513072e-006
      -2.82780616e-006 -2.82780616e-006 -2.82780616e-006
      -2.82780616e-006 -2.82780616e-006 -2.82780616e-006
      -2.82780616e-006 -2.82780616e-006 -2.82780616e-006
      -2.82780616e-006 -2.82780616e-006 -2.82780616e-006
      -2.82780616e-006 -2.82780616e-006 -2.02675537e-007
      -2.02675537e-007 -2.02675537e-007 -2.02675537e-007
      -2.02675537e-007 -2.02675537e-007 -3.66746207e-007
      -2.02675537e-007 -3.66746207e-007 -1.64070670e-007
      -2.62513072e-006 -2.62513072e-006 -2.62513072e-006
      -2.82780616e-006 -2.82780616e-006 -2.82780616e-006
      -2.82780616e-006 0. 0. 2.46106015e-006 2.46106015e-006
      2.46106015e-006 2.46106015e-006 2.62513072e-006 2.62513072e-006
      2.62513072e-006 2.62513072e-006 2.62513072e-006 2.62513072e-006 0.
      0. 0. 0. 0. 0. 0. 0. 0. 0. 0. 0. 0. 0. 0. 0. 0. 0. 0. 0. 0. 0. 0.
      0. 0. 0. 0. 0. 0. 0. 0. 0. 0. 0. 0. 0. 0. 0. 0. 0. 0. 0. 0. 0. 0.
      0. 0. 0. 0. 0. 0. 0. 0. 0. 0. 0. 0. 0. 0. 0. 0. 0. 0. 0. 0. 0. 0.
      0. 0. 0. 0. 0. 0. 0. 0. 0. 0. 0. 0. 0. 0. 0. 0. 0. 0.
      2.46106015e-006 2.46106015e-006 2.46106015e-006 2.46106015e-006
      2.46106015e-006 2.46106015e-006 2.46106015e-006 0. 0. 0. 0. 0.
      -2.82780616e-006 -2.82780616e-006 -2.82780616e-006
      -2.82780616e-006 -2.82780616e-006 -2.82780616e-006
      -2.82780616e-006 -2.82780616e-006 -2.82780616e-006
      -2.82780616e-006 -2.82780616e-006 -2.82780616e-006
      -2.82780616e-006 -2.82780616e-006 -2.82780616e-006
      -2.02675537e-007 -2.02675537e-007 -2.02675537e-007
      -3.66746207e-007 -3.66746207e-007 -3.66746207e-007
      -2.02675537e-007 -3.66746207e-007 -1.64070670e-007
      -2.62513072e-006 -2.62513072e-006 -2.62513072e-006
      -2.82780616e-006 -2.82780616e-006 -2.82780616e-006
      -2.82780616e-006 0. 0. 2.46106015e-006 2.46106015e-006
      2.46106015e-006 2.46106015e-006 2.62513072e-006 2.62513072e-006
      2.62513072e-006 2.62513072e-006 2.62513072e-006 2.62513072e-006 0.
      0. 0. 0. 0. 0. 0. 0. 0. 0. 0. 0. 0. 0. 0. 0. 0. 0. 0. 0. 0. 0. 0.
      0. 0. 0. 0. 0. 0. 0. 0. 0. 0. 0. 0. 0. 0. 0. 0. 0. 0. 0. 0. 0. 0.
      0. 0. 0. 0. 0. 0. 0. 0. 0. 0. 0. 0. 0. 0. 0. 0. 0. 0. 0. 0. 0. 0.
      0. 0. 0. 0. 0. 0. 0. 0. 0. 0. 0. 0. 0. 0. 0. 0. 0. 0. 0.
      2.62513072e-006 2.62513072e-006 2.46106015e-006 2.46106015e-006
      2.46106015e-006 2.62513072e-006 0. 0. 0. 0. 0. -2.82780616e-006
      -2.82780616e-006 -2.82780616e-006 -2.82780616e-006
      -2.82780616e-006 -2.82780616e-006 -2.82780616e-006
      -2.82780616e-006 -2.82780616e-006 -2.82780616e-006
      -2.82780616e-006 -2.82780616e-006 -2.82780616e-006
      -2.82780616e-006 -2.82780616e-006 -2.02675537e-007
      -2.02675537e-007 -3.66746207e-007 -3.66746207e-007
      -3.66746207e-007 -3.66746207e-007 -2.02675537e-007
      -2.02675537e-007 -2.02675537e-007 -2.82780616e-006
      -2.82780616e-006 -2.62513072e-006 -2.82780616e-006
      -2.82780616e-006 -2.82780616e-006 -2.82780616e-006
      -2.82780616e-006 0. 2.46106015e-006 2.46106015e-006
      2.46106015e-006 2.62513072e-006 2.62513072e-006 2.62513072e-006
      2.62513072e-006 2.62513072e-006 2.62513072e-006 2.62513072e-006 0.
      0. 0. 0. 0. 0. 0. 0. 0. 0. 0. 0. 0. 0. 0. 0. 0. 0. 0. 0. 0. 0. 0.
      0. 0. 0. 0. 0. 0. 0. 0. 0. 0. 0. 0. 0. 0. 0. 0. 0. 0. 0. 0. 0. 0.
      0. 0. 0. 0. 0. 0. 0. 0. 0. 0. 0. 0. 0. 0. 0. 0. 0. 0. 0. 0. 0. 0.
      0. 0. 0. 0. 0. 0. 0. 0. 0. 0. 0. 0. 0. 0. 0. 0. 0. 0. 0.
      2.62513072e-006 2.62513072e-006 2.46106015e-006 2.46106015e-006
      2.46106015e-006 2.62513072e-006 0. 0. 0. 0. 0. -2.62513072e-006
      -2.82780616e-006 -2.82780616e-006 -2.82780616e-006
      -2.82780616e-006 -2.82780616e-006 -2.82780616e-006
      -2.82780616e-006 -2.82780616e-006 -2.82780616e-006
      -2.82780616e-006 -2.82780616e-006 -2.82780616e-006
      -2.82780616e-006 -2.82780616e-006 -2.02675537e-007
      -3.66746207e-007 -3.66746207e-007 -3.66746207e-007
      -3.66746207e-007 -3.66746207e-007 -3.66746207e-007
      -3.66746207e-007 -2.02675537e-007 -2.02675537e-007
      -2.82780616e-006 -2.82780616e-006 -2.82780616e-006
      -2.82780616e-006 -2.82780616e-006 -2.82780616e-006
      -2.82780616e-006 0. 2.46106015e-006 2.46106015e-006
      2.46106015e-006 2.62513072e-006 2.62513072e-006 2.62513072e-006
      2.62513072e-006 2.62513072e-006 2.62513072e-006 2.62513072e-006 0.
      0. 0. 0. 0. 0. 0. 0. 0. 0. 0. 0. 0. 0. 0. 0. 0. 0. 0. 0. 0. 0. 0.
      0. 0. 0. 0. 0. 0. 0. 0. 0. 0. 0. 0. 0. 0. 0. 0. 0. 0. 0. 0. 0. 0.
      0. 0. 0. 0. 0. 0. 0. 0. 0. 0. 0. 0. 0. 0. 0. 0. 0. 0. 0. 0. 0. 0.
      0. 0. 0. 0. 0. 0. 0. 0. 0. 0. 0. 0. 0. 0. 0. 0. 0. 0. 0. 0.
      2.62513072e-006 2.46106015e-006 2.46106015e-006 2.46106015e-006
      -2.02675537e-007 -2.02675537e-007 -2.02675537e-007 0. 0.
      -2.02675537e-007 -2.82780616e-006 -2.82780616e-006
      -2.82780616e-006 -2.82780616e-006 -2.82780616e-006
      -2.82780616e-006 -2.82780616e-006 -2.82780616e-006
      -2.82780616e-006 -2.82780616e-006 -2.82780616e-006
      -2.82780616e-006 -2.82780616e-006 -2.82780616e-006
      -3.66746207e-007 -3.66746207e-007 -3.66746207e-007
      -3.66746207e-007 -3.66746207e-007 -3.66746207e-007
      -3.66746207e-007 -3.66746207e-007 -3.66746207e-007
      -3.66746207e-007 -3.66746207e-007 -2.82780616e-006
      -2.82780616e-006 -2.82780616e-006 -2.82780616e-006
      -2.82780616e-006 -2.82780616e-006 -2.82780616e-006 0.
      2.46106015e-006 2.46106015e-006 2.46106015e-006 2.62513072e-006
      2.62513072e-006 2.62513072e-006 2.62513072e-006 2.62513072e-006
      2.62513072e-006 2.62513072e-006 0. 0. 0. 0. 0. 0. 0. 0. 0. 0. 0.
      0. 0. 0. 0. 0. 0. 0. 0. 0. 0. 0. 0. 0. 0. 0. 0. 0. 0. 0. 0. 0. 0.
      0. 0. 0. 0. 0. 0. 0. 0. 0. 0. 0. 0. 0. 0. 0. 0. 0. 0. 0. 0. 0. 0.
      0. 0. 0. 0. 0. 0. 0. 0. 0. 0. 0. 0. 0. 0. 0. 0. 0. 0. 0. 0. 0. 0.
      0. 0. 0. 0. 0. 0. 0. 0. 0. 2.62513072e-006 2.62513072e-006
      2.46106015e-006 2.62513072e-006 2.62513072e-006 -2.02675537e-007
      -2.02675537e-007 -2.02675537e-007 -2.02675537e-007
      -2.02675537e-007 -2.02675537e-007 -2.82780616e-006
      -2.82780616e-006 -2.82780616e-006 -2.82780616e-006
      -2.82780616e-006 -2.82780616e-006 -2.82780616e-006
      -2.82780616e-006 -2.82780616e-006 -2.82780616e-006
      -2.82780616e-006 -2.82780616e-006 -2.82780616e-006
      -2.82780616e-006 -3.66746207e-007 -3.66746207e-007
      -3.66746207e-007 -3.66746207e-007 -2.02675537e-007
      -3.66746207e-007 -2.02675537e-007 -3.66746207e-007
      -3.66746207e-007 -3.66746207e-007 -3.66746207e-007
      -2.82780616e-006 -2.82780616e-006 -2.82780616e-006
      -2.82780616e-006 -2.82780616e-006 -2.82780616e-006
      -2.82780616e-006 0. 2.46106015e-006 2.46106015e-006
      2.46106015e-006 2.62513072e-006 2.62513072e-006 2.62513072e-006
      2.62513072e-006 2.62513072e-006 2.62513072e-006 2.62513072e-006 0.
      0. 0. 0. 0. 0. 0. 0. 0. 0. 0. 0. 0. 0. 0. 0. 0. 0. 0. 0. 0. 0. 0.
      0. 0. 0. 0. 0. 0. 0. 0. 0. 0. 0. 0. 0. 0. 0. 0. 0. 0. 0. 0. 0. 0.
      0. 0. 0. 0. 0. 0. 0. 0. 0. 0. 0. 0. 0. 0. 0. 0. 0. 0. 0. 0. 0. 0.
      0. 0. 0. 0. 0. 0. 0. 0. 0. 0. 0. 0. 0. 0. 0. 0. 0. 0.
      2.46106015e-006 2.62513072e-006 2.62513072e-006 2.62513072e-006
      2.62513072e-006 -2.02675537e-007 -2.02675537e-007 -2.02675537e-007
      -2.02675537e-007 -2.02675537e-007 -2.02675537e-007
      -2.02675537e-007 -2.82780616e-006 -2.82780616e-006
      -2.82780616e-006 -2.82780616e-006 -2.82780616e-006
      -2.82780616e-006 -2.82780616e-006 -2.82780616e-006
      -2.82780616e-006 -2.82780616e-006 -2.82780616e-006
      -2.82780616e-006 -2.82780616e-006 -2.82780616e-006
      -3.66746207e-007 -3.66746207e-007 -3.66746207e-007
      -3.66746207e-007 -3.66746207e-007 -3.66746207e-007
      -3.66746207e-007 -3.66746207e-007 -3.66746207e-007
      -2.02675537e-007 -2.02675537e-007 -2.82780616e-006
      -2.82780616e-006 -2.82780616e-006 -2.82780616e-006
      -2.82780616e-006 -2.82780616e-006 -2.82780616e-006
      -2.82780616e-006 2.46106015e-006 2.46106015e-006 2.46106015e-006
      2.62513072e-006 2.62513072e-006 2.62513072e-006 2.62513072e-006
      2.62513072e-006 2.62513072e-006 2.62513072e-006 0. 0. 0. 0. 0. 0.
      0. 0. 0. 0. 0. 0. 0. 0. 0. 0. 0. 0. 0. 0. 0. 0. 0. 0. 0. 0. 0. 0.
      0. 0. 0. 0. 0. 0. 0. 0. 0. 0. 0. 0. 0. 0. 0. 0. 0. 0. 0. 0. 0. 0.
      0. 0. 0. 0. 0. 0. 0. 0. 0. 0. 0. 0. 0. 0. 0. 0. 0. 0. 0. 0. 0. 0.
      0. 0. 0. 0. 0. 0. 0. 0. 0. 0. 0. 0. 0. 2.62513072e-006
      2.62513072e-006 2.62513072e-006 2.62513072e-006 -2.02675537e-007
      -2.02675537e-007 -3.66746207e-007 -2.02675537e-007
      -2.02675537e-007 -3.66746207e-007 -3.66746207e-007
      -2.82780616e-006 -2.82780616e-006 -2.82780616e-006
      -2.82780616e-006 -2.82780616e-006 -2.82780616e-006
      -2.82780616e-006 -2.82780616e-006 -2.82780616e-006
      -2.82780616e-006 -2.82780616e-006 -2.82780616e-006
      -2.82780616e-006 -3.66746207e-007 -3.66746207e-007
      -3.66746207e-007 -3.66746207e-007 -3.66746207e-007
      -3.66746207e-007 -2.02675537e-007 -3.66746207e-007
      -3.66746207e-007 -3.66746207e-007 -3.66746207e-007
      -2.02675537e-007 -2.02675537e-007 -2.82780616e-006
      -2.82780616e-006 -2.82780616e-006 -2.82780616e-006
      -2.82780616e-006 -2.82780616e-006 -2.82780616e-006
      -2.02675537e-007 2.46106015e-006 2.46106015e-006 2.46106015e-006
      2.62513072e-006 2.62513072e-006 2.62513072e-006 2.62513072e-006
      2.62513072e-006 2.46106015e-006 2.46106015e-006 0. 0. 0. 0. 0. 0.
      0. 0. 0. 0. 0. 0. 0. 0. 0. 0. 0. 0. 0. 0. 0. 0. 0. 0. 0. 0. 0. 0.
      0. 0. 0. 0. 0. 0. 0. 0. 0. 0. 0. 0. 0. 0. 0. 0. 0. 0. 0. 0. 0. 0.
      0. 0. 0. 0. 0. 0. 0. 0. 0. 0. 0. 0. 0. 2.46106015e-006
      2.46106015e-006 2.46106015e-006 2.46106015e-006 2.46106015e-006
      2.46106015e-006 0. 0. 0. 0. 0. 0. 0. 0. 0. 0. 0. 0. 0. 0. 0. 0.
      2.62513072e-006 2.62513072e-006 2.62513072e-006 2.62513072e-006
      -2.02675537e-007 -2.02675537e-007 -3.66746207e-007
      -3.66746207e-007 -2.02675537e-007 -2.02675537e-007
      -2.02675537e-007 -2.82780616e-006 -2.82780616e-006
      -2.82780616e-006 -2.82780616e-006 -2.82780616e-006
      -2.82780616e-006 -2.82780616e-006 -2.82780616e-006
      -2.82780616e-006 -2.82780616e-006 -2.82780616e-006
      -2.82780616e-006 -2.82780616e-006 -3.66746207e-007
      -3.66746207e-007 -3.66746207e-007 -3.66746207e-007
      -3.66746207e-007 -3.66746207e-007 -3.66746207e-007
      -3.66746207e-007 -3.66746207e-007 -3.66746207e-007
      -3.66746207e-007 -2.02675537e-007 -2.02675537e-007
      -2.82780616e-006 -2.82780616e-006 -2.82780616e-006
      -2.82780616e-006 -2.82780616e-006 -2.82780616e-006
      -2.82780616e-006 -2.02675537e-007 2.46106015e-006 2.46106015e-006
      2.46106015e-006 2.62513072e-006 2.62513072e-006 2.62513072e-006
      2.62513072e-006 2.46106015e-006 2.46106015e-006 0. 0. 0. 0. 0. 0.
      0. 0. 0. 0. 0. 0. 0. 0. 0. 0. 0. 0. 0. 0. 0. 0. 0. 0. 0. 0. 0. 0.
      0. 0. 0. 0. 0. 0. 0. 0. 0. 0. 0. 0. 0. 0. 0. 0. 0. 0. 0. 0. 0. 0.
      0. 0. 0. 0. 0. 0. 0. 0. 0. 0. 0. 0. 0. 0. 2.46106015e-006
      2.46106015e-006 2.46106015e-006 2.46106015e-006 2.46106015e-006
      2.46106015e-006 2.46106015e-006 0. 0. 0. 0. 0. 0. 0. 0. 0. 0. 0.
      0. 0. 0. 0. 0. 2.62513072e-006 2.62513072e-006 2.46106015e-006
      -3.66746207e-007 -2.02675537e-007 -3.66746207e-007
      -3.66746207e-007 -3.66746207e-007 -2.02675537e-007
      -2.02675537e-007 -2.02675537e-007 -2.82780616e-006
      -2.82780616e-006 -2.82780616e-006 -2.82780616e-006
      -2.82780616e-006 -2.82780616e-006 -2.82780616e-006
      -2.82780616e-006 -2.82780616e-006 -2.82780616e-006
      -2.82780616e-006 -2.82780616e-006 -2.02675537e-007
      -3.66746207e-007 -3.66746207e-007 -3.66746207e-007
      -3.66746207e-007 -3.66746207e-007 -3.66746207e-007
      -3.66746207e-007 -3.66746207e-007 -3.66746207e-007
      -3.66746207e-007 -3.66746207e-007 -2.02675537e-007
      -2.82780616e-006 -2.82780616e-006 -2.82780616e-006
      -2.82780616e-006 -2.82780616e-006 -2.82780616e-006
      -2.82780616e-006 -3.66746207e-007 2.46106015e-006 2.62513072e-006
      2.46106015e-006 2.62513072e-006 2.62513072e-006 2.46106015e-006
      2.46106015e-006 2.46106015e-006 2.46106015e-006 0. 0. 0. 0. 0. 0.
      0. 0. 0. 0. 0. 0. 0. 0. 0. 0. 0. 0. 0. 0. 0. 0. 0. 0. 0. 0. 0. 0.
      0. 0. 0. 0. 0. 0. 0. 0. 0. 0. 0. 0. 0. 0. 0. 0. 0. 0. 0. 0. 0. 0.
      0. 0. 0. 0. 0. 0. 0. 0. 0. 0. 0. 0. 0. 0. 2.46106015e-006
      2.46106015e-006 2.46106015e-006 2.46106015e-006 2.46106015e-006
      2.46106015e-006 2.46106015e-006 2.46106015e-006 0. 0. 0. 0. 0. 0.
      0. 0. 0. 0. 0. 0. 0. 0. 0. 0. 2.46106015e-006 2.46106015e-006
      -3.66746207e-007 -3.66746207e-007 -3.66746207e-007
      -3.66746207e-007 -2.02675537e-007 -2.02675537e-007
      -2.02675537e-007 -2.02675537e-007 -2.02675537e-007
      -2.82780616e-006 -2.82780616e-006 -2.82780616e-006
      -2.82780616e-006 -2.82780616e-006 -2.82780616e-006
      -2.82780616e-006 -2.82780616e-006 -2.82780616e-006
      -2.82780616e-006 -2.02675537e-007 -2.02675537e-007
      -3.66746207e-007 -3.66746207e-007 -3.66746207e-007
      -3.66746207e-007 -3.66746207e-007 -3.66746207e-007
      -3.66746207e-007 -3.66746207e-007 -3.66746207e-007
      -3.66746207e-007 -3.66746207e-007 -3.66746207e-007
      -2.82780616e-006 -2.82780616e-006 -2.82780616e-006
      -2.82780616e-006 -2.82780616e-006 -2.82780616e-006
      -2.82780616e-006 -2.02675537e-007 2.46106015e-006 2.46106015e-006
      2.46106015e-006 2.46106015e-006 2.62513072e-006 2.62513072e-006
      2.62513072e-006 2.46106015e-006 2.46106015e-006 0. 0. 0. 0. 0. 0.
      0. 0. 0. 0. 0. 0. 0. 0. 0. 0. 0. 0. 0. 0. 0. 0. 0. 0. 0. 0. 0. 0.
      0. 0. 0. 0. 0. 0. 0. 0. 0. 0. 0. 0. 0. 0. 0. 0. 0. 0. 0. 0. 0. 0.
      0. 0. 0. 0. 0. 0. 0. 0. 0. 0. 0. 0. 0. 0. 2.46106015e-006
      2.46106015e-006 2.46106015e-006 2.46106015e-006 2.46106015e-006
      2.46106015e-006 2.46106015e-006 2.46106015e-006 2.46106015e-006 0.
      0. 0. 0. 0. 0. 0. 0. 0. 0. 0. 0. 0. 0. 0. 2.46106015e-006
      2.46106015e-006 -3.66746207e-007 -2.02675537e-007 -3.66746207e-007
      -3.66746207e-007 -2.02675537e-007 -2.02675537e-007
      -2.02675537e-007 -2.02675537e-007 -2.02675537e-007
      -2.02675537e-007 -2.82780616e-006 -2.82780616e-006
      -2.82780616e-006 -2.82780616e-006 -2.82780616e-006
      -2.82780616e-006 -2.82780616e-006 -2.82780616e-006
      -2.82780616e-006 -2.02675537e-007 -2.02675537e-007
      -2.02675537e-007 -3.66746207e-007 -3.66746207e-007
      -3.66746207e-007 -3.66746207e-007 -3.66746207e-007
      -3.66746207e-007 -3.66746207e-007 -3.66746207e-007
      -3.66746207e-007 -3.66746207e-007 -3.66746207e-007
      -2.82780616e-006 -2.82780616e-006 -2.82780616e-006
      -2.82780616e-006 -2.82780616e-006 -2.82780616e-006
      -3.66746207e-007 -3.66746207e-007 2.46106015e-006 2.62513072e-006
      2.62513072e-006 2.62513072e-006 2.62513072e-006 2.62513072e-006
      2.62513072e-006 2.46106015e-006 2.46106015e-006 0. 0. 0. 0. 0. 0.
      0. 0. 0. 0. 0. 0. 0. 0. 0. 0. 0. 0. 0. 0. 0. 0. 0. 0. 0. 0. 0. 0.
      0. 0. 0. 0. 0. 0. 0. 0. 0. 0. 0. 0. 0. 0. 0. 0. 0. 0. 0. 0. 0. 0.
      0. 0. 0. 0. 0. 0. 0. 0. 0. 0. 0. 0. 0. 0. 2.46106015e-006
      2.46106015e-006 2.46106015e-006 2.46106015e-006 2.46106015e-006
      2.46106015e-006 2.46106015e-006 2.46106015e-006 2.46106015e-006 0.
      0. 0. 0. 0. 0. 0. 0. 0. 0. 0. 0. 0. 0. 0. 2.62513072e-006
      2.62513072e-006 -2.02675537e-007 -3.66746207e-007 -3.66746207e-007
      -3.66746207e-007 -2.02675537e-007 -2.02675537e-007
      -2.02675537e-007 -2.02675537e-007 -2.02675537e-007
      -2.02675537e-007 -2.82780616e-006 -2.82780616e-006
      -2.82780616e-006 -2.82780616e-006 -2.82780616e-006
      -2.82780616e-006 -2.82780616e-006 -2.82780616e-006
      -2.82780616e-006 -2.02675537e-007 -2.02675537e-007
      -2.02675537e-007 -3.66746207e-007 -3.66746207e-007
      -3.66746207e-007 -3.66746207e-007 -3.66746207e-007
      -3.66746207e-007 -3.66746207e-007 -3.66746207e-007
      -3.66746207e-007 -3.66746207e-007 -3.66746207e-007
      -2.82780616e-006 -2.82780616e-006 -2.82780616e-006
      -2.82780616e-006 -2.82780616e-006 -2.82780616e-006
      -3.66746207e-007 -3.66746207e-007 2.46106015e-006 2.62513072e-006
      2.62513072e-006 2.62513072e-006 2.62513072e-006 2.62513072e-006
      2.62513072e-006 2.46106015e-006 2.46106015e-006 0. 0. 0. 0. 0. 0.
      0. 0. 0. 0. 0. 0. 0. 0. 0. 0. 0. 0. 0. 0. 0. 0. 0. 0. 0. 0. 0. 0.
      0. 0. 0. 0. 0. 0. 0. 0. 0. 0. 0. 0. 0. 0. 0. 0. 0. 0. 0. 0. 0. 0.
      0. 0. 0. 0. 0. 0. 0. 0. 0. 0. 0. 0. 0. 0. 2.46106015e-006
      2.46106015e-006 2.46106015e-006 2.46106015e-006 2.46106015e-006
      2.46106015e-006 2.46106015e-006 2.46106015e-006 2.46106015e-006 0.
      0. 0. 0. 0. 0. 0. 0. 0. 0. 0. 0. 0. 0. 0. 2.46106015e-006
      -3.66746207e-007 -3.66746207e-007 -3.66746207e-007
      -3.66746207e-007 -3.66746207e-007 -2.02675537e-007
      -2.02675537e-007 -2.02675537e-007 -2.02675537e-007
      -2.02675537e-007 -2.02675537e-007 -2.02675537e-007
      -2.82780616e-006 -2.82780616e-006 -2.82780616e-006
      -2.82780616e-006 -2.82780616e-006 -2.82780616e-006
      -2.82780616e-006 -2.82780616e-006 -2.02675537e-007
      -3.66746207e-007 -3.66746207e-007 -3.66746207e-007
      -3.66746207e-007 -3.66746207e-007 -3.66746207e-007
      -3.66746207e-007 -3.66746207e-007 -3.66746207e-007
      -3.66746207e-007 -3.66746207e-007 -3.66746207e-007
      -3.66746207e-007 -2.82780616e-006 -2.82780616e-006
      -2.82780616e-006 -2.82780616e-006 -2.82780616e-006
      -2.82780616e-006 -3.66746207e-007 -3.66746207e-007
      -3.66746207e-007 2.62513072e-006 2.62513072e-006 2.62513072e-006
      2.62513072e-006 2.62513072e-006 2.62513072e-006 2.62513072e-006 0.
      0. 0. 0. 0. 0. 0. 0. 0. 0. 0. 0. 0. 0. 0. 0. 0. 0. 0. 0. 0. 0. 0.
      0. 0. 0. 0. 0. 0. 0. 0. 0. 0. 0. 0. 0. 0. 0. 0. 0. 0. 0. 0. 0. 0.
      0. 0. 0. 0. 0. 0. 0. 0. 0. 0. 0. 0. 0. 0. 0. 0. 0. 0. 0. 0.
      2.46106015e-006 2.46106015e-006 2.46106015e-006 2.46106015e-006
      2.46106015e-006 2.46106015e-006 2.46106015e-006 2.46106015e-006
      2.46106015e-006 2.46106015e-006 0. 0. 0. 0. 0. 0. 0. 0. 0. 0. 0.
      0. 0. 0. 0. -3.66746207e-007 -3.66746207e-007 -3.66746207e-007
      -3.66746207e-007 -3.66746207e-007 -2.02675537e-007
      -2.02675537e-007 -2.02675537e-007 -2.02675537e-007
      -2.02675537e-007 -2.02675537e-007 -2.02675537e-007
      -2.82780616e-006 -2.82780616e-006 -2.82780616e-006
      -2.82780616e-006 -2.82780616e-006 -2.82780616e-006
      -2.82780616e-006 -2.82780616e-006 -2.82780616e-006
      -2.02675537e-007 -3.66746207e-007 -3.66746207e-007
      -3.66746207e-007 -3.66746207e-007 -3.66746207e-007
      -3.66746207e-007 -3.66746207e-007 -3.66746207e-007
      -3.66746207e-007 -3.66746207e-007 -3.66746207e-007
      -3.66746207e-007 -2.82780616e-006 -2.82780616e-006
      -2.82780616e-006 -2.82780616e-006 -2.82780616e-006
      -3.66746207e-007 -3.66746207e-007 -3.66746207e-007
      -2.02675537e-007 2.62513072e-006 2.62513072e-006 2.62513072e-006
      2.62513072e-006 2.62513072e-006 2.62513072e-006 2.62513072e-006 0.
      0. 0. 0. 0. 0. 0. 0. 0. 0. 0. 0. 0. 0. 0. 0. 0. 0. 0. 0. 0. 0. 0.
      0. 0. 0. 0. 0. 0. 0. 0. 0. 0. 0. 0. 0. 0. 0. 0. 0. 0. 0. 0. 0. 0.
      0. 0. 0. 0. 0. 0. 0. 0. 0. 0. 0. 0. 0. 0. 0. 0. 0. 0. 0. 0. 0.
      2.46106015e-006 2.46106015e-006 2.46106015e-006 2.46106015e-006
      2.46106015e-006 2.46106015e-006 2.46106015e-006 2.46106015e-006
      2.46106015e-006 2.46106015e-006 0. 0. 0. 0. 0. 0. 0. 0. 0. 0. 0.
      0. 0. 0. -3.66746207e-007 -3.66746207e-007 -3.66746207e-007
      -3.66746207e-007 -3.66746207e-007 -3.66746207e-007
      -3.66746207e-007 -2.02675537e-007 -3.66746207e-007
      -2.02675537e-007 -2.02675537e-007 -2.02675537e-007
      -2.82780616e-006 -2.82780616e-006 -2.82780616e-006
      -2.82780616e-006 -2.82780616e-006 -2.82780616e-006
      -2.82780616e-006 -2.82780616e-006 -2.02675537e-007
      -2.02675537e-007 -3.66746207e-007 -3.66746207e-007
      -3.66746207e-007 -3.66746207e-007 -3.66746207e-007
      -3.66746207e-007 -3.66746207e-007 -3.66746207e-007
      -3.66746207e-007 -3.66746207e-007 -3.66746207e-007
      -3.66746207e-007 -2.82780616e-006 -2.82780616e-006
      -2.82780616e-006 -2.82780616e-006 -2.82780616e-006
      -2.02675537e-007 -2.02675537e-007 -2.02675537e-007
      -2.02675537e-007 2.62513072e-006 2.62513072e-006 2.62513072e-006
      2.62513072e-006 2.62513072e-006 2.62513072e-006 2.62513072e-006
      2.62513072e-006 0. 0. 0. 0. 0. 0. 0. 0. 0. 0. 0. 0. 0. 0. 0. 0. 0.
      0. 0. 0. 0. 0. 0. 0. 0. 0. 0. 0. 0. 0. 0. 0. 0. 0. 0. 0. 0. 0. 0.
      0. 0. 0. 0. 0. 0. 0. 0. 0. 0. 0. 0. 0. 0. 0. 0. 0. 0. 0. 0. 0. 0.
      0. 0. 0. 0. 2.46106015e-006 2.46106015e-006 2.46106015e-006
      2.46106015e-006 2.46106015e-006 2.46106015e-006 2.46106015e-006
      2.46106015e-006 2.46106015e-006 2.46106015e-006 2.46106015e-006 0.
      0. 0. 0. 0. 0. 0. 0. 0. 0. 0. 0. 0. -2.02675537e-007
      -3.66746207e-007 -3.66746207e-007 -3.66746207e-007
      -3.66746207e-007 -3.66746207e-007 -3.66746207e-007
      -3.66746207e-007 -3.66746207e-007 -2.02675537e-007
      -2.02675537e-007 -2.02675537e-007 -2.82780616e-006
      -2.82780616e-006 -2.82780616e-006 -2.82780616e-006
      -2.82780616e-006 -2.82780616e-006 -2.82780616e-006
      -2.82780616e-006 -2.02675537e-007 -2.02675537e-007
      -3.66746207e-007 -3.66746207e-007 -3.66746207e-007
      -3.66746207e-007 -3.66746207e-007 -3.66746207e-007
      -3.66746207e-007 -3.66746207e-007 -3.66746207e-007
      -3.66746207e-007 -3.66746207e-007 -3.66746207e-007
      -2.82780616e-006 -2.82780616e-006 -2.82780616e-006
      -2.82780616e-006 -2.02675537e-007 -2.02675537e-007
      -2.02675537e-007 -2.02675537e-007 -2.02675537e-007 2.62513072e-006
      2.62513072e-006 2.62513072e-006 2.62513072e-006 2.62513072e-006
      2.62513072e-006 2.62513072e-006 2.62513072e-006 0. 0. 0. 0. 0. 0.
      0. 0. 0. 0. 0. 0. 0. 0. 0. 0. 0. 0. 0. 0. 0. 0. 0. 0. 0. 0. 0. 0.
      0. 0. 0. 0. 0. 0. 0. 0. 0. 0. 0. 0. 0. 0. 0. 0. 0. 0. 0. 0. 0. 0.
      0. 0. 0. 0. 0. 0. 0. 0. 0. 0. 0. 0. 0. 0. 0. 0. 2.46106015e-006
      2.46106015e-006 2.46106015e-006 2.46106015e-006 2.46106015e-006
      2.46106015e-006 2.46106015e-006 2.46106015e-006 2.46106015e-006
      2.46106015e-006 0. 0. 0. 0. 0. 0. 0. 0. 0. 0. 0. 0. 0.
      -2.02675537e-007 -3.66746207e-007 -3.66746207e-007
      -3.66746207e-007 -3.66746207e-007 -3.66746207e-007
      -3.66746207e-007 -3.66746207e-007 -3.66746207e-007
      -3.66746207e-007 -2.02675537e-007 -2.02675537e-007
      -2.02675537e-007 -2.82780616e-006 -2.82780616e-006
      -2.82780616e-006 -2.82780616e-006 -2.82780616e-006
      -2.82780616e-006 -2.82780616e-006 -2.02675537e-007
      -2.02675537e-007 -3.66746207e-007 -3.66746207e-007
      -3.66746207e-007 -3.66746207e-007 -3.66746207e-007
      -3.66746207e-007 -3.66746207e-007 -3.66746207e-007
      -3.66746207e-007 -3.66746207e-007 -3.66746207e-007
      -2.82780616e-006 -2.82780616e-006 -2.82780616e-006
      -2.82780616e-006 -2.02675537e-007 -2.02675537e-007
      -2.02675537e-007 -2.02675537e-007 -2.02675537e-007 2.62513072e-006
      2.62513072e-006 2.62513072e-006 2.62513072e-006 2.62513072e-006
      2.62513072e-006 2.62513072e-006 2.62513072e-006 0. 0. 0. 0. 0. 0.
      0. 0. 0. 0. 0. 0. 0. 0. 0. 0. 0. 0. 0. 0. 0. 0. 0. 0. 0. 0. 0. 0.
      0. 0. 0. 0. 0. 0. 0. 0. 0. 0. 0. 0. 0. 0. 0. 0. 0. 0. 0. 0. 0. 0.
      0. 0. 0. 0. 0. 0. 0. 0. 0. 0. 0. 0. 0. 0. 0. 0. 0. 2.46106015e-006
      2.46106015e-006 2.46106015e-006 2.46106015e-006 2.46106015e-006
      2.46106015e-006 2.46106015e-006 2.46106015e-006 2.46106015e-006
      2.46106015e-006 0. 0. 0. 0. 0. 0. 0. 0. 0. 0. 0. 0.
      -2.82780616e-006 -2.02675537e-007 -2.02675537e-007
      -3.66746207e-007 -3.66746207e-007 -3.66746207e-007
      -3.66746207e-007 -3.66746207e-007 -3.66746207e-007
      -3.66746207e-007 -3.66746207e-007 -2.02675537e-007
      -2.02675537e-007 -2.02675537e-007 -2.82780616e-006
      -2.82780616e-006 -2.82780616e-006 -2.82780616e-006
      -2.82780616e-006 -2.82780616e-006 -2.82780616e-006
      -2.02675537e-007 -2.02675537e-007 -3.66746207e-007
      -3.66746207e-007 -3.66746207e-007 -3.66746207e-007
      -3.66746207e-007 -3.66746207e-007 -3.66746207e-007
      -3.66746207e-007 -3.66746207e-007 -3.66746207e-007
      -2.82780616e-006 -2.82780616e-006 -2.82780616e-006
      -2.82780616e-006 -2.82780616e-006 -2.02675537e-007
      -2.02675537e-007 -2.02675537e-007 -2.02675537e-007
      -2.02675537e-007 2.62513072e-006 2.62513072e-006 2.62513072e-006
      2.62513072e-006 2.62513072e-006 2.62513072e-006 2.62513072e-006
      2.62513072e-006 0. 0. 0. 0. 0. 0. 0. 0. 0. 0. 0. 0. 0. 0. 0. 0. 0.
      0. 0. 0. 0. 0. 0. 0. 0. 0. 0. 0. 0. 0. 0. 0. 0. 0. 0. 0. 0. 0. 0.
      0. 0. 0. 0. 0. 0. 0. 0. 0. 0. 0. 0. 0. 0. 0. 0. 0. 0. 0. 0. 0. 0.
      0. 0. 0. 0. 0. 0. 2.46106015e-006 2.46106015e-006 2.46106015e-006
      2.46106015e-006 2.46106015e-006 2.46106015e-006 2.46106015e-006
      2.46106015e-006 2.46106015e-006 2.46106015e-006 2.46106015e-006 0.
      0. 0. 0. 0. 0. 0. 0. 0. 0. -2.82780616e-006 -2.82780616e-006
      -2.82780616e-006 -3.66746207e-007 -3.66746207e-007
      -3.66746207e-007 -3.66746207e-007 -3.66746207e-007
      -3.66746207e-007 -3.66746207e-007 -3.66746207e-007
      -3.66746207e-007 -3.66746207e-007 -2.02675537e-007
      -2.02675537e-007 -2.82780616e-006 -2.82780616e-006
      -2.82780616e-006 -2.82780616e-006 -2.82780616e-006
      -2.82780616e-006 -2.82780616e-006 -2.02675537e-007
      -2.02675537e-007 -3.66746207e-007 -3.66746207e-007
      -3.66746207e-007 -3.66746207e-007 -3.66746207e-007
      -3.66746207e-007 -3.66746207e-007 -2.02675537e-007
      -2.02675537e-007 -2.02675537e-007 -2.82780616e-006
      -2.82780616e-006 -2.82780616e-006 -2.82780616e-006
      -2.82780616e-006 -2.02675537e-007 -2.02675537e-007
      -2.02675537e-007 -2.02675537e-007 -2.02675537e-007 2.46106015e-006
      2.46106015e-006 2.46106015e-006 2.46106015e-006 2.62513072e-006
      2.62513072e-006 2.62513072e-006 2.62513072e-006 0. 0. 0. 0. 0. 0.
      0. 0. 0. 0. 0. 0. 0. 0. 0. 0. 0. 0. 0. 0. 0. 0. 0. 0. 0. 0. 0. 0.
      0. 0. 0. 0. 0. 0. 0. 0. 0. 0. 0. 0. 0. 0. 0. 0. 0. 0. 0. 0. 0. 0.
      0. 0. 0. 0. 0. 0. 0. 0. 0. 0. 0. 0. 0. 0. 0. 0. 0. 0. 0.
      2.46106015e-006 2.46106015e-006 2.46106015e-006 2.46106015e-006
      2.46106015e-006 2.46106015e-006 2.46106015e-006 2.46106015e-006
      2.46106015e-006 0. 0. 0. 0. 0. 0. 0. 0. 0. 0. -2.82780616e-006
      -2.82780616e-006 -2.82780616e-006 -3.66746207e-007
      -3.66746207e-007 -3.66746207e-007 -3.66746207e-007
      -3.66746207e-007 -3.66746207e-007 -3.66746207e-007
      -3.66746207e-007 -3.66746207e-007 -3.66746207e-007
      -3.66746207e-007 -2.02675537e-007 -2.82780616e-006
      -2.82780616e-006 -2.82780616e-006 -2.82780616e-006
      -2.82780616e-006 -2.82780616e-006 -2.82780616e-006
      -2.02675537e-007 -2.02675537e-007 -2.02675537e-007
      -3.66746207e-007 -3.66746207e-007 -3.66746207e-007
      -3.66746207e-007 -3.66746207e-007 -3.66746207e-007
      -3.66746207e-007 -3.66746207e-007 -3.66746207e-007
      -2.82780616e-006 -2.82780616e-006 -2.82780616e-006
      -2.82780616e-006 -2.02675537e-007 -2.02675537e-007
      -2.02675537e-007 -2.02675537e-007 -2.02675537e-007
      -2.02675537e-007 2.62513072e-006 2.62513072e-006 2.62513072e-006
      2.62513072e-006 2.62513072e-006 2.62513072e-006 2.62513072e-006
      2.62513072e-006 0. 0. 0. 0. 0. 0. 0. 0. 0. 0. 0. 0. 0. 0. 0. 0. 0.
      0. 0. 0. 0. 0. 0. 0. 0. 0. 0. 0. 0. 0. 0. 0. 0. 0. 0. 0. 0. 0. 0.
      0. 0. 0. 0. 0. 0. 0. 0. 0. 0. 0. 0. 0. 0. 0. 0. 0. 0. 0. 0. 0. 0.
      0. 0. 0. 0. 0. 0. 0. 0. 2.46106015e-006 2.46106015e-006
      2.46106015e-006 2.46106015e-006 2.46106015e-006 2.46106015e-006
      2.46106015e-006 2.46106015e-006 2.46106015e-006 0. 0. 0. 0. 0. 0.
      0. 0. 0. 0. -2.82780616e-006 -2.82780616e-006 -2.82780616e-006
      -3.66746207e-007 -3.66746207e-007 -3.66746207e-007
      -3.66746207e-007 -3.66746207e-007 -3.66746207e-007
      -3.66746207e-007 -3.66746207e-007 -3.66746207e-007
      -3.66746207e-007 -3.66746207e-007 -3.66746207e-007
      -2.82780616e-006 -2.82780616e-006 -2.82780616e-006
      -2.82780616e-006 -2.82780616e-006 -2.82780616e-006
      -2.82780616e-006 -2.02675537e-007 -2.02675537e-007
      -2.02675537e-007 -3.66746207e-007 -3.66746207e-007
      -3.66746207e-007 -3.66746207e-007 -3.66746207e-007
      -3.66746207e-007 -3.66746207e-007 -3.66746207e-007
      -3.66746207e-007 -2.82780616e-006 -2.82780616e-006
      -2.82780616e-006 -2.02675537e-007 -2.02675537e-007
      -2.02675537e-007 -2.02675537e-007 -2.02675537e-007
      -2.02675537e-007 2.62513072e-006 2.62513072e-006 2.62513072e-006
      2.62513072e-006 2.62513072e-006 2.62513072e-006 2.62513072e-006
      2.62513072e-006 0. 0. 0. 0. 0. 0. 0. 0. 0. 0. 0. 0. 0. 0. 0. 0. 0.
      0. 0. 0. 0. 0. 0. 0. 0. 0. 0. 0. 0. 0. 0. 0. 0. 0. 0. 0. 0. 0. 0.
      0. 0. 0. 0. 0. 0. 0. 0. 0. 0. 0. 0. 0. 0. 0. 0. 0. 0. 0. 0. 0. 0.
      0. 0. 0. 0. 0. 0. 0. 0. 0. 2.46106015e-006 2.46106015e-006
      2.46106015e-006 2.46106015e-006 2.46106015e-006 2.46106015e-006
      2.46106015e-006 2.46106015e-006 2.46106015e-006 2.46106015e-006 0.
      0. 0. 0. 0. 0. 0. 0. -2.82780616e-006 -2.82780616e-006
      -2.82780616e-006 -3.66746207e-007 -3.66746207e-007
      -3.66746207e-007 -3.66746207e-007 -3.66746207e-007
      -3.66746207e-007 -3.66746207e-007 -3.66746207e-007
      -3.66746207e-007 -3.66746207e-007 -3.66746207e-007
      -3.66746207e-007 -3.66746207e-007 -2.82780616e-006
      -2.82780616e-006 -2.82780616e-006 -2.82780616e-006
      -2.82780616e-006 -2.82780616e-006 -2.82780616e-006
      -2.02675537e-007 -2.02675537e-007 -2.02675537e-007
      -3.66746207e-007 -3.66746207e-007 -3.66746207e-007
      -3.66746207e-007 -3.66746207e-007 -3.66746207e-007
      -3.66746207e-007 -3.66746207e-007 -2.82780616e-006
      -2.82780616e-006 -2.82780616e-006 -2.82780616e-006
      -2.02675537e-007 -2.02675537e-007 -2.02675537e-007
      -3.66746207e-007 -3.66746207e-007 -3.66746207e-007 2.46106015e-006
      2.46106015e-006 2.62513072e-006 2.62513072e-006 2.62513072e-006
      2.62513072e-006 2.62513072e-006 0. 0. 0. 0. 0. 0. 0. 0. 0. 0. 0.
      0. 0. 0. 0. 0. 0. 0. 0. 0. 0. 0. 0. 0. 0. 0. 0. 0. 0. 0. 0. 0. 0.
      0. 0. 0. 0. 0. 0. 0. 0. 0. 0. 0. 0. 0. 0. 0. 0. 0. 0. 0. 0. 0. 0.
      0. 0. 0. 0. 0. 0. 0. 0. 0. 0. 0. 0. 0. 0. 0. 0. 0. 2.46106015e-006
      2.46106015e-006 2.46106015e-006 2.46106015e-006 2.46106015e-006
      2.46106015e-006 2.46106015e-006 2.46106015e-006 2.46106015e-006
      2.46106015e-006 0. 0. 0. 0. 0. 0. -2.82780616e-006
      -2.82780616e-006 -2.82780616e-006 -2.82780616e-006
      -3.66746207e-007 -3.66746207e-007 -3.66746207e-007
      -3.66746207e-007 -3.66746207e-007 -3.66746207e-007
      -3.66746207e-007 -3.66746207e-007 -3.66746207e-007
      -3.66746207e-007 -3.66746207e-007 -3.66746207e-007
      -3.66746207e-007 -2.82780616e-006 -2.82780616e-006
      -2.82780616e-006 -2.82780616e-006 -2.82780616e-006
      -2.82780616e-006 -3.66746207e-007 -3.66746207e-007
      -2.02675537e-007 -2.02675537e-007 -3.66746207e-007
      -3.66746207e-007 -3.66746207e-007 -3.66746207e-007
      -3.66746207e-007 -3.66746207e-007 -3.66746207e-007
      -3.66746207e-007 -2.82780616e-006 -2.82780616e-006
      -2.82780616e-006 -2.82780616e-006 -2.02675537e-007
      -2.02675537e-007 -2.02675537e-007 -3.66746207e-007
      -3.66746207e-007 -3.66746207e-007 -3.66746207e-007 2.62513072e-006
      2.62513072e-006 2.62513072e-006 2.62513072e-006 2.62513072e-006
      2.62513072e-006 0. 0. 0. 0. 0. 0. 0. 0. 0. 0. 0. 0. 0. 0. 0. 0. 0.
      0. 0. 0. 0. 0. 0. 0. 0. 0. 0. 0. 0. 0. 0. 0. 0. 0. 0. 0. 0. 0. 0.
      0. 0. 0. 0. 0. 0. 0. 0. 0. 0. 0. 0. 0. 0. 0. 0. 0. 0. 0. 0. 0. 0.
      0. 0. 0. 0. 0. 0. 0. 0. 0. 0. 0. 2.46106015e-006 2.46106015e-006
      2.46106015e-006 2.46106015e-006 2.46106015e-006 2.46106015e-006
      2.46106015e-006 2.46106015e-006 2.46106015e-006 2.46106015e-006 0.
      0. 0. 0. 0. 0. -2.82780616e-006 -2.82780616e-006 -2.82780616e-006
      -2.82780616e-006 -3.66746207e-007 -3.66746207e-007
      -3.66746207e-007 -3.66746207e-007 -3.66746207e-007
      -3.66746207e-007 -3.66746207e-007 -3.66746207e-007
      -3.66746207e-007 -3.66746207e-007 -3.66746207e-007
      -3.66746207e-007 -3.66746207e-007 -2.82780616e-006
      -2.82780616e-006 -2.82780616e-006 -2.82780616e-006
      -2.82780616e-006 -3.66746207e-007 -3.66746207e-007
      -3.66746207e-007 -2.02675537e-007 -2.02675537e-007
      -3.66746207e-007 -3.66746207e-007 -3.66746207e-007
      -3.66746207e-007 -3.66746207e-007 -3.66746207e-007
      -3.66746207e-007 -2.02675537e-007 -2.02675537e-007
      -2.82780616e-006 -2.82780616e-006 -2.02675537e-007
      -2.02675537e-007 -2.02675537e-007 -2.02675537e-007
      -3.66746207e-007 -3.66746207e-007 -3.66746207e-007
      -3.66746207e-007 2.46106015e-006 2.62513072e-006 2.46106015e-006
      2.46106015e-006 2.46106015e-006 2.62513072e-006 0. 0. 0. 0. 0. 0.
      0. 0. 0. 0. 0. 0. 0. 0. 0. 0. 0. 0. 0. 0. 0. 0. 0. 0. 0. 0. 0. 0.
      0. 0. 0. 0. 0. 0. 0. 0. 0. 0. 0. 0. 0. 0. 0. 0. 0. 0. 0. 0. 0. 0.
      0. 0. 0. 0. 0. 0. 0. 0. 0. 0. 0. 0. 0. 0. 0. 0. 0. 0. 0. 0. 0. 0.
      2.46106015e-006 2.46106015e-006 2.46106015e-006 2.46106015e-006
      2.46106015e-006 2.46106015e-006 2.46106015e-006 2.46106015e-006
      2.46106015e-006 2.46106015e-006 2.46106015e-006 0. 0. 0. 0. 0.
      -2.82780616e-006 -2.82780616e-006 -2.82780616e-006
      -2.82780616e-006 -3.66746207e-007 -3.66746207e-007
      -3.66746207e-007 -3.66746207e-007 -3.66746207e-007
      -3.66746207e-007 -3.66746207e-007 -3.66746207e-007
      -3.66746207e-007 -3.66746207e-007 -3.66746207e-007
      -3.66746207e-007 -3.66746207e-007 -2.82780616e-006
      -2.82780616e-006 -2.82780616e-006 -2.82780616e-006
      -2.82780616e-006 -3.66746207e-007 -3.66746207e-007
      -3.66746207e-007 -2.02675537e-007 -2.02675537e-007
      -3.66746207e-007 -3.66746207e-007 -3.66746207e-007
      -3.66746207e-007 -3.66746207e-007 -3.66746207e-007
      -3.66746207e-007 -2.02675537e-007 -2.02675537e-007
      -3.66746207e-007 -3.66746207e-007 -2.02675537e-007
      -2.02675537e-007 -2.02675537e-007 -3.66746207e-007
      -3.66746207e-007 -3.66746207e-007 -3.66746207e-007 2.46106015e-006
      2.46106015e-006 2.46106015e-006 2.46106015e-006 2.46106015e-006
      2.46106015e-006 0. 0. 0. 0. 0. 0. 0. 0. 0. 0. 0. 0. 0. 0. 0. 0. 0.
      0. 0. 0. 0. 0. 0. 0. 0. 0. 0. 0. 0. 0. 0. 0. 0. 0. 0. 0. 0. 0. 0.
      0. 0. 0. 0. 0. 0. 0. 0. 0. 0. 0. 0. 0. 0. 0. 0. 0. 0. 0. 0. 0. 0.
      0. 0. 0. 0. 0. 0. 0. 0. 0. 0. 0. 0. 2.46106015e-006
      2.46106015e-006 2.46106015e-006 2.46106015e-006 2.46106015e-006
      2.46106015e-006 2.46106015e-006 2.46106015e-006 2.46106015e-006
      2.46106015e-006 2.46106015e-006 0. 0. 0. 0. 0. -2.82780616e-006
      -2.82780616e-006 -2.82780616e-006 -2.82780616e-006
      -3.66746207e-007 -3.66746207e-007 -3.66746207e-007
      -3.66746207e-007 -3.66746207e-007 -3.66746207e-007
      -3.66746207e-007 -3.66746207e-007 -3.66746207e-007
      -3.66746207e-007 -3.66746207e-007 -3.66746207e-007
      -3.66746207e-007 -2.82780616e-006 -2.82780616e-006
      -2.82780616e-006 -2.82780616e-006 -2.82780616e-006
      -3.66746207e-007 -3.66746207e-007 -3.66746207e-007
      -2.02675537e-007 -3.66746207e-007 -3.66746207e-007
      -3.66746207e-007 -3.66746207e-007 -3.66746207e-007
      -3.66746207e-007 -3.66746207e-007 -3.66746207e-007
      -3.66746207e-007 -2.02675537e-007 -3.66746207e-007
      -3.66746207e-007 -3.66746207e-007 -3.66746207e-007
      -3.66746207e-007 -3.66746207e-007 -3.66746207e-007
      -3.66746207e-007 -3.66746207e-007 2.46106015e-006 2.46106015e-006
      2.46106015e-006 2.46106015e-006 2.46106015e-006 2.46106015e-006 0.
      0. 0. 0. 0. 0. 0. 0. 0. 0. 0. 0. 0. 0. 0. 0. 0. 0. 0. 0. 0. 0. 0.
      0. 0. 0. 0. 0. 0. 0. 0. 0. 0. 0. 0. 0. 0. 0. 0. 0. 0. 0. 0. 0. 0.
      0. 0. 0. 0. 0. 0. 0. 0. 0. 0. 0. 0. 0. 0. 0. 0. 0. 0. 0. 0. 0. 0.
      0. 0. 0. 0. 0. 0. 2.46106015e-006 2.46106015e-006 2.46106015e-006
      2.46106015e-006 2.46106015e-006 2.46106015e-006 2.46106015e-006
      2.46106015e-006 2.46106015e-006 2.46106015e-006 2.46106015e-006
      2.46106015e-006 0. 0. 0. 0. -2.82780616e-006 -2.82780616e-006
      -2.82780616e-006 -2.82780616e-006 -2.82780616e-006
      -3.66746207e-007 -3.66746207e-007 -3.66746207e-007
      -3.66746207e-007 -3.66746207e-007 -3.66746207e-007
      -3.66746207e-007 -3.66746207e-007 -3.66746207e-007
      -3.66746207e-007 -3.66746207e-007 -3.66746207e-007
      -3.66746207e-007 -2.82780616e-006 -2.82780616e-006
      -2.82780616e-006 -2.82780616e-006 -3.66746207e-007
      -3.66746207e-007 -3.66746207e-007 -3.66746207e-007
      -3.66746207e-007 -3.66746207e-007 -3.66746207e-007
      -3.66746207e-007 -3.66746207e-007 -3.66746207e-007
      -3.66746207e-007 -3.66746207e-007 -3.66746207e-007
      -2.02675537e-007 -3.66746207e-007 -3.66746207e-007
      -3.66746207e-007 -3.66746207e-007 -3.66746207e-007
      -3.66746207e-007 -3.66746207e-007 -3.66746207e-007
      -3.66746207e-007 2.46106015e-006 2.62513072e-006 2.62513072e-006
      2.46106015e-006 2.46106015e-006 2.46106015e-006 0. 0. 0. 0. 0. 0.
      0. 0. 0. 0. 0. 0. 0. 0. 0. 0. 0. 0. 0. 0. 0. 0. 0. 0. 0. 0. 0. 0.
      0. 0. 0. 0. 0. 0. 0. 0. 0. 0. 0. 0. 0. 0. 0. 0. 0. 0. 0. 0. 0. 0.
      0. 0. 0. 0. 0. 0. 0. 0. 0. 0. 0. 0. 0. 0. 0. 0. 0. 0. 0. 0. 0. 0.
      0. 0. 2.46106015e-006 2.46106015e-006 2.46106015e-006
      2.46106015e-006 2.46106015e-006 2.46106015e-006 2.46106015e-006
      2.46106015e-006 2.46106015e-006 2.46106015e-006 2.46106015e-006
      2.46106015e-006 0. 0. 0. -2.82780616e-006 -2.82780616e-006
      -2.82780616e-006 -2.82780616e-006 -2.82780616e-006
      -3.66746207e-007 -3.66746207e-007 -3.66746207e-007
      -3.66746207e-007 -3.66746207e-007 -3.66746207e-007
      -3.66746207e-007 -3.66746207e-007 -3.66746207e-007
      -3.66746207e-007 -3.66746207e-007 -3.66746207e-007
      -3.66746207e-007 -2.82780616e-006 -2.82780616e-006
      -2.82780616e-006 -2.82780616e-006 -2.02675537e-007
      -2.02675537e-007 -2.02675537e-007 -3.66746207e-007
      -3.66746207e-007 -3.66746207e-007 -3.66746207e-007
      -3.66746207e-007 -3.66746207e-007 -3.66746207e-007
      -3.66746207e-007 -3.66746207e-007 -3.66746207e-007
      -3.66746207e-007 -3.66746207e-007 -3.66746207e-007
      -3.66746207e-007 -3.66746207e-007 -3.66746207e-007
      -3.66746207e-007 -3.66746207e-007 -3.66746207e-007
      -3.66746207e-007 2.46106015e-006 2.46106015e-006 2.62513072e-006
      2.46106015e-006 2.46106015e-006 2.46106015e-006 0. 0. 0. 0. 0. 0.
      0. 0. 0. 0. 0. 0. 0. 0. 0. 0. 0. 0. 0. 0. 0. 0. 0. 0. 0. 0. 0. 0.
      0. 0. 0. 0. 0. 0. 0. 0. 0. 0. 0. 0. 0. 0. 0. 0. 0. 0. 0. 0. 0. 0.
      0. 0. 0. 0. 0. 0. 0. 0. 0. 0. 0. 0. 0. 0. 0. 0. 0. 0. 0. 0. 0. 0.
      0. 0. 0. 2.46106015e-006 2.46106015e-006 2.46106015e-006
      2.46106015e-006 2.46106015e-006 2.46106015e-006 2.46106015e-006
      2.46106015e-006 2.46106015e-006 2.46106015e-006 2.46106015e-006
      2.46106015e-006 2.46106015e-006 0. -2.82780616e-006
      -2.82780616e-006 -2.82780616e-006 -2.82780616e-006
      -2.82780616e-006 -3.66746207e-007 -3.66746207e-007
      -3.66746207e-007 -3.66746207e-007 -3.66746207e-007
      -3.66746207e-007 -3.66746207e-007 -3.66746207e-007
      -3.66746207e-007 -3.66746207e-007 -3.66746207e-007
      -3.66746207e-007 -3.66746207e-007 -3.66746207e-007
      -2.02675537e-007 -2.02675537e-007 -3.66746207e-007
      -2.02675537e-007 -2.02675537e-007 -2.02675537e-007
      -2.02675537e-007 -3.66746207e-007 -3.66746207e-007
      -3.66746207e-007 -3.66746207e-007 -3.66746207e-007
      -3.66746207e-007 -3.66746207e-007 -3.66746207e-007
      -3.66746207e-007 -3.66746207e-007 -3.66746207e-007
      -3.66746207e-007 -3.66746207e-007 -3.66746207e-007
      -3.66746207e-007 -3.66746207e-007 -3.66746207e-007
      -3.66746207e-007 -3.66746207e-007 2.46106015e-006 2.46106015e-006
      2.46106015e-006 2.46106015e-006 2.46106015e-006 2.46106015e-006 0.
      0. 0. 0. 0. 0. 0. 0. 0. 0. 0. 0. 0. 0. 0. 0. 0. 0. 0. 0. 0. 0. 0.
      0. 0. 0. 0. 0. 0. 0. 0. 0. 0. 0. 0. 0. 0. 0. 0. 0. 0. 0. 0. 0. 0.
      0. 0. 0. 0. 0. 0. 0. 0. 0. 0. 0. 0. 0. 0. 0. 0. 0. 0. 0. 0. 0. 0.
      0. 0. 0. 0. 0. 0. 0. 0. 2.46106015e-006 2.46106015e-006
      2.46106015e-006 2.46106015e-006 2.46106015e-006 2.46106015e-006
      2.46106015e-006 2.46106015e-006 2.46106015e-006 2.46106015e-006
      2.46106015e-006 2.46106015e-006 2.46106015e-006 2.46106015e-006
      -2.82780616e-006 -2.82780616e-006 -2.82780616e-006
      -2.82780616e-006 -2.82780616e-006 -3.66746207e-007
      -2.02675537e-007 -2.02675537e-007 -2.02675537e-007
      -2.02675537e-007 -3.66746207e-007 -3.66746207e-007
      -3.66746207e-007 -3.66746207e-007 -3.66746207e-007
      -3.66746207e-007 -3.66746207e-007 -3.66746207e-007
      -3.66746207e-007 -2.02675537e-007 -2.02675537e-007
      -2.02675537e-007 -2.02675537e-007 -2.02675537e-007
      -2.02675537e-007 -2.02675537e-007 -3.66746207e-007
      -3.66746207e-007 -3.66746207e-007 -3.66746207e-007
      -3.66746207e-007 -3.66746207e-007 -3.66746207e-007
      -3.66746207e-007 -3.66746207e-007 -3.66746207e-007
      -3.66746207e-007 -3.66746207e-007 -3.66746207e-007
      -3.66746207e-007 -3.66746207e-007 -3.66746207e-007
      -3.66746207e-007 -3.66746207e-007 -3.66746207e-007 2.46106015e-006
      2.46106015e-006 2.46106015e-006 2.46106015e-006 2.46106015e-006
      2.46106015e-006 0. 0. 0. 0. 0. 0. 0. 0. 0. 0. 0. 0. 0. 0. 0. 0. 0.
      0. 0. 0. 0. 0. 0. 0. 0. 0. 0. 0. 0. 0. 0. 0. 0. 0. 0. 0. 0. 0. 0.
      0. 0. 0. 0. 0. 0. 0. 0. 0. 0. 0. 0. 0. 0. 0. 0. 0. 0. 0. 0. 0. 0.
      0. 0. 0. 0. 0. 0. 0. 0. 0. 0. 0. 0. 0. 0. 2.46106015e-006
      2.46106015e-006 2.46106015e-006 2.46106015e-006 2.46106015e-006
      2.46106015e-006 2.46106015e-006 2.46106015e-006 2.46106015e-006
      2.46106015e-006 2.46106015e-006 2.46106015e-006 2.46106015e-006
      2.46106015e-006 -2.82780616e-006 -2.82780616e-006 -2.82780616e-006
      -2.82780616e-006 -2.82780616e-006 -2.82780616e-006
      -2.02675537e-007 -2.02675537e-007 -2.02675537e-007
      -3.66746207e-007 -3.66746207e-007 -3.66746207e-007
      -3.66746207e-007 -3.66746207e-007 -3.66746207e-007
      -3.66746207e-007 -3.66746207e-007 -3.66746207e-007
      -2.02675537e-007 -2.02675537e-007 -2.02675537e-007
      -2.02675537e-007 -2.02675537e-007 -2.02675537e-007
      -2.02675537e-007 -2.02675537e-007 -3.66746207e-007
      -3.66746207e-007 -3.66746207e-007 -3.66746207e-007
      -3.66746207e-007 -3.66746207e-007 -3.66746207e-007
      -3.66746207e-007 -3.66746207e-007 -3.66746207e-007
      -3.66746207e-007 -3.66746207e-007 -3.66746207e-007
      -3.66746207e-007 -3.66746207e-007 -3.66746207e-007
      -3.66746207e-007 -3.66746207e-007 -3.66746207e-007 2.46106015e-006
      2.46106015e-006 2.46106015e-006 2.62513072e-006 2.62513072e-006 0.
      0. 0. 0. 0. 0. 0. 0. 0. 0. 0. 0. 0. 0. 0. 0. 0. 0. 0. 0. 0. 0. 0.
      0. 0. 0. 0. 0. 0. 0. 0. 0. 0. 0. 0. 0. 0. 0. 0. 0. 0. 0. 0. 0. 0.
      0. 0. 0. 0. 0. 0. 0. 0. 0. 0. 0. 0. 0. 0. 0. 0. 0. 0. 0. 0. 0. 0.
      0. 0. 0. 0. 0. 0. 0. 0. 0. 0. 2.46106015e-006 2.46106015e-006
      2.46106015e-006 2.46106015e-006 2.46106015e-006 2.46106015e-006
      2.46106015e-006 2.46106015e-006 2.46106015e-006 2.46106015e-006
      2.46106015e-006 -3.66746207e-007 -3.66746207e-007 -3.66746207e-007
      -2.82780616e-006 -2.82780616e-006 -2.82780616e-006
      -2.82780616e-006 -2.82780616e-006 -2.02675537e-007
      -2.02675537e-007 -2.02675537e-007 -3.66746207e-007
      -3.66746207e-007 -3.66746207e-007 -3.66746207e-007
      -3.66746207e-007 -3.66746207e-007 -3.66746207e-007
      -3.66746207e-007 -2.02675537e-007 -2.02675537e-007
      -2.02675537e-007 -2.02675537e-007 -2.02675537e-007
      -2.02675537e-007 -2.02675537e-007 -3.66746207e-007
      -2.02675537e-007 -3.66746207e-007 -3.66746207e-007
      -3.66746207e-007 -3.66746207e-007 -3.66746207e-007
      -3.66746207e-007 -3.66746207e-007 -3.66746207e-007
      -3.66746207e-007 -3.66746207e-007 -3.66746207e-007
      -3.66746207e-007 -3.66746207e-007 -3.66746207e-007
      -3.66746207e-007 -3.66746207e-007 -3.66746207e-007
      -3.66746207e-007 -3.66746207e-007 2.46106015e-006 2.46106015e-006
      2.46106015e-006 2.46106015e-006 2.62513072e-006 0. 0. 0. 0. 0. 0.
      0. 0. 0. 0. 0. 0. 0. 0. 0. 0. 0. 0. 0. 0. 0. 0. 0. 0. 0. 0. 0. 0.
      0. 0. 0. 0. 0. 0. 0. 0. 0. 0. 0. 0. 0. 0. 0. 0. 0. 0. 0. 0. 0. 0.
      0. 0. 0. 0. 0. 0. 0. 0. 0. 0. 0. 0. 0. 0. 0. 0. 0. 0. 0. 0. 0. 0.
      0. 0. 0. 0. 0. 2.46106015e-006 2.46106015e-006 2.46106015e-006
      2.46106015e-006 2.46106015e-006 2.46106015e-006 2.46106015e-006
      2.46106015e-006 2.46106015e-006 2.46106015e-006 2.46106015e-006
      -3.66746207e-007 -3.66746207e-007 -3.66746207e-007
      -3.66746207e-007 -2.82780616e-006 -2.82780616e-006
      -2.82780616e-006 -2.82780616e-006 -3.66746207e-007
      -3.66746207e-007 -3.66746207e-007 -3.66746207e-007
      -3.66746207e-007 -3.66746207e-007 -3.66746207e-007
      -3.66746207e-007 -3.66746207e-007 -3.66746207e-007
      -3.66746207e-007 -2.02675537e-007 -3.66746207e-007
      -2.02675537e-007 -2.02675537e-007 -3.66746207e-007
      -2.02675537e-007 -3.66746207e-007 -3.66746207e-007
      -3.66746207e-007 -3.66746207e-007 -3.66746207e-007
      -3.66746207e-007 -3.66746207e-007 -3.66746207e-007
      -3.66746207e-007 -3.66746207e-007 -3.66746207e-007
      -3.66746207e-007 -3.66746207e-007 -3.66746207e-007
      -3.66746207e-007 -3.66746207e-007 -3.66746207e-007
      -3.66746207e-007 -3.66746207e-007 -3.66746207e-007
      -3.66746207e-007 -5.69421729e-007 -5.69421729e-007 2.46106015e-006
      2.46106015e-006 2.46106015e-006 0. 0. 0. 0. 0. 0. 0. 0. 0. 0. 0.
      0. 0. 0. 0. 0. 0. 0. 0. 0. 0. 0. 0. 0. 0. 0. 0. 0. 0. 0. 0. 0. 0.
      0. 0. 0. 0. 0. 0. 0. 0. 0. 0. 0. 0. 0. 0. 0. 0. 0. 0. 0. 0. 0. 0.
      0. 0. 0. 0. 0. 0. 0. 0. 0. 0. 0. 0. 0. 0. 0. 0. 0. 0. 0. 0. 0. 0.
      0. 2.46106015e-006 2.46106015e-006 2.46106015e-006 2.46106015e-006
      2.46106015e-006 2.46106015e-006 2.46106015e-006 2.46106015e-006
      2.46106015e-006 2.46106015e-006 -3.66746207e-007 -3.66746207e-007
      -3.66746207e-007 -3.66746207e-007 -3.66746207e-007
      -3.66746207e-007 -3.66746207e-007 -2.82780616e-006
      -3.66746207e-007 -3.66746207e-007 -3.66746207e-007
      -3.66746207e-007 -3.66746207e-007 -3.66746207e-007
      -3.66746207e-007 -3.66746207e-007 -3.66746207e-007
      -3.66746207e-007 -3.66746207e-007 -3.66746207e-007
      -2.02675537e-007 -3.66746207e-007 -2.02675537e-007
      -2.02675537e-007 -3.66746207e-007 -3.66746207e-007
      -3.66746207e-007 -3.66746207e-007 -3.66746207e-007
      -3.66746207e-007 -3.66746207e-007 -3.66746207e-007
      -3.66746207e-007 -3.66746207e-007 -3.66746207e-007
      -3.66746207e-007 -3.66746207e-007 -3.66746207e-007
      -3.66746207e-007 -3.66746207e-007 -3.66746207e-007
      -3.66746207e-007 -3.66746207e-007 -3.66746207e-007
      -3.66746207e-007 -3.66746207e-007 -3.66746207e-007
      -5.69421729e-007 -5.69421729e-007 -4.05351074e-007 2.46106015e-006
      2.46106015e-006 0. 0. 0. 0. 0. 0. 0. 0. 0. 0. 0. 0. 0. 0. 0. 0. 0.
      0. 0. 0. 0. 0. 0. 0. 0. 0. 0. 0. 0. 0. 0. 0. 0. 0. 0. 0. 0. 0. 0.
      0. 0. 0. 0. 0. 0. 0. 0. 0. 0. 0. 0. 0. 0. 0. 0. 0. 0. 0. 0. 0. 0.
      0. 0. 0. 0. 0. 0. 0. 0. 0. 0. 0. 0. 0. 0. 0. 0. 0. 0.
      2.46106015e-006 2.46106015e-006 2.46106015e-006 2.46106015e-006
      2.46106015e-006 2.46106015e-006 2.46106015e-006 2.46106015e-006
      2.46106015e-006 -3.66746207e-007 -3.66746207e-007 -3.66746207e-007
      -3.66746207e-007 -3.66746207e-007 -3.66746207e-007
      -3.66746207e-007 -3.66746207e-007 -3.66746207e-007
      -3.66746207e-007 -3.66746207e-007 -3.66746207e-007
      -3.66746207e-007 -3.66746207e-007 -3.66746207e-007
      -3.66746207e-007 -3.66746207e-007 -3.66746207e-007
      -3.66746207e-007 -3.66746207e-007 -3.66746207e-007
      -3.66746207e-007 -2.02675537e-007 -2.02675537e-007
      -3.66746207e-007 -3.66746207e-007 -3.66746207e-007
      -3.66746207e-007 -3.66746207e-007 -3.66746207e-007
      -3.66746207e-007 -3.66746207e-007 -3.66746207e-007
      -3.66746207e-007 -3.66746207e-007 -3.66746207e-007
      -3.66746207e-007 -3.66746207e-007 -3.66746207e-007
      -3.66746207e-007 -3.66746207e-007 -3.66746207e-007
      -3.66746207e-007 -3.66746207e-007 -3.66746207e-007
      -3.66746207e-007 -3.66746207e-007 -5.69421729e-007
      -3.66746207e-007 -2.02675537e-007 2.46106015e-006 2.46106015e-006
      0. 0. 0. 0. 0. 0. 0. 0. 0. 0. 0. 0. 0. 0. 0. 0. 0. 0. 0. 0. 0. 0.
      0. 0. 0. 0. 0. 0. 0. 0. 0. 0. 0. 0. 0. 0. 0. 0. 0. 0. 0. 0. 0. 0.
      0. 0. 0. 0. 0. 0. 0. 0. 0. 0. 0. 0. 0. 0. 0. 0. 0. 0. 0. 0. 0. 0.
      0. 0. 0. 0. 0. 0. 0. 0. 0. 0. 0. 0. 0. 0. 2.46106015e-006
      2.46106015e-006 2.46106015e-006 2.46106015e-006 2.46106015e-006
      2.46106015e-006 2.46106015e-006 2.46106015e-006 -3.66746207e-007
      -3.66746207e-007 -3.66746207e-007 -3.66746207e-007
      -3.66746207e-007 -3.66746207e-007 -3.66746207e-007
      -3.66746207e-007 -3.66746207e-007 -3.66746207e-007
      -3.66746207e-007 -3.66746207e-007 -3.66746207e-007
      -3.66746207e-007 -3.66746207e-007 -3.66746207e-007
      -3.66746207e-007 -3.66746207e-007 -3.66746207e-007
      -3.66746207e-007 -3.66746207e-007 -3.66746207e-007
      -3.66746207e-007 -3.66746207e-007 -3.66746207e-007
      -3.66746207e-007 -3.66746207e-007 -3.66746207e-007
      -3.66746207e-007 -3.66746207e-007 -3.66746207e-007
      -3.66746207e-007 -3.66746207e-007 -3.66746207e-007
      -3.66746207e-007 -3.66746207e-007 -3.66746207e-007
      -3.66746207e-007 -3.66746207e-007 -3.66746207e-007
      -3.66746207e-007 -3.66746207e-007 -3.66746207e-007
      -3.66746207e-007 -3.66746207e-007 -3.66746207e-007
      -5.69421729e-007 -5.69421729e-007 -5.69421729e-007
      -4.05351074e-007 -4.05351074e-007 2.46106015e-006 0. 0. 0. 0. 0.
      0. 0. 0. 0. 0. 0. 0. 0. 0. 0. 0. 0. 0. 0. 0. 0. 0. 0. 0. 0. 0. 0.
      0. 0. 0. 0. 0. 0. 0. 0. 0. 0. 0. 0. 0. 0. 0. 0. 0. 0. 0. 0. 0. 0.
      0. 0. 0. 0. 0. 0. 0. 0. 0. 0. 0. 0. 0. 0. 0. 0. 0. 0. 0. 0. 0. 0.
      0. 0. 0. 0. 0. 0. 0. 0. 0. 2.46106015e-006 2.46106015e-006
      2.46106015e-006 2.46106015e-006 2.46106015e-006 2.46106015e-006
      2.46106015e-006 -3.66746207e-007 -3.66746207e-007 -3.66746207e-007
      -3.66746207e-007 -3.66746207e-007 -3.66746207e-007
      -3.66746207e-007 -3.66746207e-007 -3.66746207e-007
      -3.66746207e-007 -3.66746207e-007 -3.66746207e-007
      -3.66746207e-007 -3.66746207e-007 -3.66746207e-007
      -3.66746207e-007 -3.66746207e-007 -3.66746207e-007
      -3.66746207e-007 -3.66746207e-007 -3.66746207e-007
      -3.66746207e-007 -3.66746207e-007 -3.66746207e-007
      -3.66746207e-007 -3.66746207e-007 -3.66746207e-007 0. 0. 0. 0. 0.
      -3.66746207e-007 -3.66746207e-007 -3.66746207e-007
      -3.66746207e-007 -3.66746207e-007 -3.66746207e-007
      -3.66746207e-007 -3.66746207e-007 -3.66746207e-007
      -3.66746207e-007 -3.66746207e-007 -3.66746207e-007
      -3.66746207e-007 -3.66746207e-007 -3.66746207e-007
      -3.66746207e-007 -5.69421729e-007 -5.69421729e-007
      -4.05351074e-007 -4.05351074e-007 0. 0. 0. 0. 0. 0. 0. 0. 0. 0. 0.
      0. 0. 0. 0. 0. 0. 0. 0. 0. 0. 0. 0. 0. 0. 0. 0. 0. 0. 0. 0. 0. 0.
      0. 0. 0. 0. 0. 0. 0. 0. 0. 0. 0. 0. 0. 0. 0. 0. 0. 0. 0. 0. 0. 0.
      0. 0. 0. 0. 0. 0. 0. 0. 0. 0. 0. 0. 0. 0. 0. 0. 0. 0. 0. 0. 0. 0.
      0. 0. 0. 0. 0. 0. 2.46106015e-006 2.46106015e-006 2.46106015e-006
      2.46106015e-006 2.46106015e-006 -3.66746207e-007 -3.66746207e-007
      -3.66746207e-007 -3.66746207e-007 -3.66746207e-007
      -3.66746207e-007 -3.66746207e-007 -3.66746207e-007
      -3.66746207e-007 -3.66746207e-007 -3.66746207e-007
      -3.66746207e-007 -3.66746207e-007 -3.66746207e-007
      -3.66746207e-007 -3.66746207e-007 -3.66746207e-007
      -3.66746207e-007 -3.66746207e-007 -3.66746207e-007
      -3.66746207e-007 -3.66746207e-007 -3.66746207e-007
      -3.66746207e-007 -3.66746207e-007 -3.66746207e-007 0. 0. 0. 0. 0.
      0. 0. 0. 0. -3.66746207e-007 -3.66746207e-007 -3.66746207e-007
      -3.66746207e-007 -3.66746207e-007 -3.66746207e-007
      -3.66746207e-007 -3.66746207e-007 -3.66746207e-007
      -3.66746207e-007 -3.66746207e-007 -3.66746207e-007
      -5.69421729e-007 -3.66746207e-007 -3.66746207e-007
      -3.66746207e-007 -5.69421729e-007 0. 0. 0. 0. 0. 0. 0. 0. 0. 0. 0.
      0. 0. 0. 0. 0. 0. 0. 0. 0. 0. 0. 0. 0. 0. 0. 0. 0. 0. 0. 0. 0. 0.
      0. 0. 0. 0. 0. 0. 0. 0. 0. 0. 0. 0. 0. 0. 0. 0. 0. 0. 0. 0. 0. 0.
      0. 0. 0. 0. 0. 0. 0. 0. 0. 0. 0. 0. 0. 0. 0. 0. 0. 0. 0. 0. 0. 0.
      0. 0. 0. 0. 0. 0. 2.46106015e-006 2.46106015e-006 2.46106015e-006
      2.46106015e-006 2.46106015e-006 -3.66746207e-007 -3.66746207e-007
      -3.66746207e-007 -3.66746207e-007 -3.66746207e-007
      -3.66746207e-007 -3.66746207e-007 -3.66746207e-007
      -3.66746207e-007 -3.66746207e-007 -3.66746207e-007
      -3.66746207e-007 -3.66746207e-007 -3.66746207e-007
      -3.66746207e-007 -3.66746207e-007 -3.66746207e-007
      -3.66746207e-007 -3.66746207e-007 -3.66746207e-007
      -3.66746207e-007 -3.66746207e-007 -3.66746207e-007
      -3.66746207e-007 -3.66746207e-007 0. 0. 0. 0. 0. 0. 0. 0. 0. 0. 0.
      0. -3.66746207e-007 -3.66746207e-007 -3.66746207e-007
      -3.66746207e-007 -3.66746207e-007 -3.66746207e-007
      -3.66746207e-007 -3.66746207e-007 -5.69421729e-007
      -3.66746207e-007 -5.69421729e-007 -5.69421729e-007
      -5.69421729e-007 -5.69421729e-007 2.46106015e-006 0. 0. 0. 0. 0.
      0. 0. 0. 0. 0. 0. 0. 0. 0. 0. 0. 0. 0. 0. 0. 0. 0. 0. 0. 0. 0. 0.
      0. 0. 0. 0. 0. 0. 0. 0. 0. 0. 0. 0. 0. 0. 0. 0. 0. 0. 0. 0. 0. 0.
      0. 0. 0. 0. 0. 0. 0. 0. 0. 0. 0. 0. 0. 0. 0. 0. 0. 0. 0. 0. 0. 0.
      0. 0. 0. 0. 0. 0. 0. 0. 0. 0. 0. 0. 0. 2.46106015e-006
      2.46106015e-006 2.46106015e-006 -3.66746207e-007 -3.66746207e-007
      -3.66746207e-007 -3.66746207e-007 -3.66746207e-007
      -3.66746207e-007 -3.66746207e-007 -3.66746207e-007
      -3.66746207e-007 -3.66746207e-007 -3.66746207e-007
      -3.66746207e-007 -3.66746207e-007 -3.66746207e-007
      -3.66746207e-007 -3.66746207e-007 -3.66746207e-007
      -3.66746207e-007 -3.66746207e-007 -3.66746207e-007
      -3.66746207e-007 -3.66746207e-007 -3.66746207e-007
      -3.66746207e-007 -3.66746207e-007 -3.66746207e-007 0. 0. 0. 0. 0.
      0. 0. 0. 0. 0. 0. 0. 0. 0. 0. -1.64070670e-007 -1.64070670e-007
      -1.64070670e-007 -1.64070670e-007 -1.64070670e-007 0. 0.
      -5.69421729e-007 -5.69421729e-007 -5.69421729e-007
      -5.69421729e-007 -5.69421729e-007 0. 0. 0. 0. 0. 0. 0. 0. 0. 0. 0.
      0. 0. 0. 0. 0. 0. 0. 0. 0. 0. 0. 0. 0. 0. 0. 0. 0. 0. 0. 0. 0. 0.
      0. 0. 0. 0. 0. 0. 0. 0. 0. 0. 0. 0. 0. 0. 0. 0. 0. 0. 0. 0. 0. 0.
      0. 0. 0. 0. 0. 0. 0. 0. 0. 0. 0. 0. 0. 0. 0. 0. 0. 0. 0. 0. 0. 0.
      0. 0. 0. 0. 0. 0. 0. 0. 2.46106015e-006 2.46106015e-006
      -3.66746207e-007 -3.66746207e-007 -3.66746207e-007
      -3.66746207e-007 -3.66746207e-007 -3.66746207e-007
      -3.66746207e-007 -3.66746207e-007 -3.66746207e-007
      -3.66746207e-007 -3.66746207e-007 -3.66746207e-007
      -3.66746207e-007 -3.66746207e-007 -3.66746207e-007
      -3.66746207e-007 -3.66746207e-007 -3.66746207e-007
      -3.66746207e-007 -3.66746207e-007 -3.66746207e-007
      -3.66746207e-007 -3.66746207e-007 -3.66746207e-007
      -3.66746207e-007 0. 0. 0. 0. 0. 0. 0. 0. 0. 0. 0. 0. 0. 0. 0. 0.
      0. -1.64070670e-007 0. -1.64070670e-007 0. 0. 0. 0.
      -5.69421729e-007 -5.69421729e-007 -5.69421729e-007
      -5.69421729e-007 0. 0. 0. 0. 0. 0. 0. 0. 0. 0. 0. 0. 0. 0. 0. 0.
      0. 0. 0. 0. 0. 0. 0. 0. 0. 0. 0. 0. 0. 0. 0. 0. 0. 0. 0. 0. 0. 0.
      0. 0. 0. 0. 0. 0. 0. 0. 0. 0. 0. 0. 0. 0. 0. 0. 0. 0. 0. 0. 0. 0.
      0. 0. 0. 0. 0. 0. 0. 0. 0. 0. 0. 0. 0. 0. 0. 0. 0. 0. 0. 0. 0. 0.
      0. 0. 0. 0. 2.46106015e-006 -3.66746207e-007 -3.66746207e-007
      -3.66746207e-007 -3.66746207e-007 -3.66746207e-007
      -3.66746207e-007 -3.66746207e-007 -3.66746207e-007
      -3.66746207e-007 -3.66746207e-007 -3.66746207e-007
      -3.66746207e-007 -3.66746207e-007 -3.66746207e-007
      -3.66746207e-007 -3.66746207e-007 -3.66746207e-007
      -3.66746207e-007 -3.66746207e-007 -3.66746207e-007
      -3.66746207e-007 -3.66746207e-007 -3.66746207e-007
      -3.66746207e-007 -3.66746207e-007 -3.66746207e-007 0. 0. 0. 0. 0.
      0. 0. 0. 0. 0. 0. 0. 0. 0. 0. 0. 0. 0. 0. 0. 0. 0. 0.
      -5.69421729e-007 -5.69421729e-007 -5.69421729e-007
      -5.69421729e-007 0. 0. 0. 0. 0. 0. 0. 0. 0. 0. 0. 0. 0. 0. 0. 0.
      0. 0. 0. 0. 0. 0. 0. 0. 0. 0. 0. 0. 0. 0. 0. 0. 0. 0. 0. 0. 0. 0.
      0. 0. 0. 0. 0. 0. 0. 0. 0. 0. 0. 0. 0. 0. 0. 0. 0. 0. 0. 0. 0. 0.
      0. 0. 0. 0. 0. 0. 0. 0. 0. 0. 0. 0. 0. 0. 0. 0. 0. 0. 0. 0. 0. 0.
      0. 0. 0. 0. -3.66746207e-007 -3.66746207e-007 -3.66746207e-007
      -3.66746207e-007 -3.66746207e-007 -3.66746207e-007
      -3.66746207e-007 -3.66746207e-007 -3.66746207e-007
      -3.66746207e-007 -3.66746207e-007 -3.66746207e-007
      -3.66746207e-007 -3.66746207e-007 -3.66746207e-007
      -3.66746207e-007 -3.66746207e-007 -3.66746207e-007
      -3.66746207e-007 -3.66746207e-007 -3.66746207e-007
      -3.66746207e-007 -3.66746207e-007 -3.66746207e-007
      -3.66746207e-007 -3.66746207e-007 -3.66746207e-007 0. 0. 0. 0. 0.
      0. 0. 0. 0. 0. 0. 0. 0. 0. 0. 0. 0. 0. 0. 0. 0. 0. 0.
      -1.64070670e-007 -1.64070670e-007 -5.69421729e-007
      -5.69421729e-007 0. 0. 0. 0. 0. 0. 0. 0. 0. 0. 0. 0. 0. 0. 0. 0.
      0. 0. 0. 0. 0. 0. 0. 0. 0. 0. 0. 0. 0. 0. 0. 0. 0. 0. 0. 0. 0. 0.
      0. 0. 0. 0. 0. 0. 0. 0. 0. 0. 0. 0. 0. 0. 0. 0. 0. 0. 0. 0. 0. 0.
      0. 0. 0. 0. 0. 0. 0. 0. 0. 0. 0. 0. 0. 0. 0. 0. 0. 0. 0. 0. 0. 0.
      0. 0. 0. 0. -2.82780616e-006 -3.66746207e-007 -3.66746207e-007
      -3.66746207e-007 -3.66746207e-007 -3.66746207e-007
      -3.66746207e-007 -3.66746207e-007 -3.66746207e-007
      -3.66746207e-007 -3.66746207e-007 -3.66746207e-007
      -3.66746207e-007 -3.66746207e-007 -3.66746207e-007
      -3.66746207e-007 -3.66746207e-007 -3.66746207e-007
      -3.66746207e-007 -3.66746207e-007 -3.66746207e-007
      -3.66746207e-007 -3.66746207e-007 -3.66746207e-007
      -3.66746207e-007 -3.66746207e-007 -3.66746207e-007
      -3.66746207e-007 -5.69421729e-007 -5.69421729e-007 0. 0. 0. 0. 0.
      0. 0. 0. 0. 0. 0. 0. 0. 0. 0. 0. -1.64070670e-007 -1.64070670e-007
      -1.64070670e-007 -1.64070670e-007 -1.64070670e-007
      -1.64070670e-007 2.46106015e-006 2.46106015e-006 0. 0. 0. 0. 0. 0.
      0. 0. 0. 0. 0. 0. 0. 0. 0. 0. 0. 0. 0. 0. 0. 0. 0. 0. 0. 0. 0. 0.
      0. 0. 0. 0. 0. 0. 0. 0. 0. 0. 0. 0. 0. 0. 0. 0. 0. 0. 0. 0. 0. 0.
      0. 0. 0. 0. 0. 0. 0. 0. 0. 0. 0. 0. 0. 0. 0. 0. 0. 0. 0. 0. 0. 0.
      0. 0. 0. 0. 0. 0. 0. 0. 0. 0. 0. 0. 0. -2.82780616e-006
      -2.82780616e-006 -3.66746207e-007 -3.66746207e-007
      -3.66746207e-007 -3.66746207e-007 -3.66746207e-007
      -3.66746207e-007 -3.66746207e-007 -3.66746207e-007
      -3.66746207e-007 -3.66746207e-007 -3.66746207e-007
      -3.66746207e-007 -3.66746207e-007 -3.66746207e-007
      -3.66746207e-007 -3.66746207e-007 -3.66746207e-007
      -3.66746207e-007 -3.66746207e-007 -3.66746207e-007
      -3.66746207e-007 -3.66746207e-007 -3.66746207e-007
      -5.69421729e-007 -3.66746207e-007 -3.66746207e-007
      -5.69421729e-007 -5.69421729e-007 -5.69421729e-007 0. 0. 0. 0. 0.
      0. 0. 0. 0. 0. 0. 0. 0. 0. 0. 0. -1.64070670e-007 -1.64070670e-007
      -1.64070670e-007 -1.64070670e-007 -1.64070670e-007
      -1.64070670e-007 2.46106015e-006 2.46106015e-006 0. 0. 0. 0. 0. 0.
      0. 0. 0. 0. 0. 0. 0. 0. 0. 0. 0. 0. 0. 0. 0. 0. 0. 0. 0. 0. 0. 0.
      0. 0. 0. 0. 0. 0. 0. 0. 0. 0. 0. 0. 0. 0. 0. 0. 0. 0. 0. 0. 0. 0.
      0. 0. 0. 0. 0. 0. 0. 0. 0. 0. 0. 0. 0. 0. 0. 0. 0. 0. 0. 0. 0. 0.
      0. 0. 0. 0. 0. 0. 0. 0. 0. 0. 0. 0. 0. -2.82780616e-006
      -2.82780616e-006 -3.66746207e-007 -3.66746207e-007
      -3.66746207e-007 -3.66746207e-007 -3.66746207e-007
      -3.66746207e-007 -3.66746207e-007 -3.66746207e-007
      -3.66746207e-007 -3.66746207e-007 -3.66746207e-007
      -3.66746207e-007 -3.66746207e-007 -3.66746207e-007
      -3.66746207e-007 -3.66746207e-007 -3.66746207e-007
      -3.66746207e-007 -3.66746207e-007 -3.66746207e-007
      -5.69421729e-007 -3.66746207e-007 -3.66746207e-007
      -5.69421729e-007 -3.66746207e-007 -3.66746207e-007
      -5.69421729e-007 -5.69421729e-007 -5.69421729e-007 0. 0. 0. 0. 0.
      0. 0. 0. 0. 0. 0. 0. 0. 0. 0. 0. -1.64070670e-007 -1.64070670e-007
      -1.64070670e-007 -1.64070670e-007 -1.64070670e-007
      -1.64070670e-007 2.46106015e-006 2.46106015e-006 0. 0. 0. 0. 0. 0.
      0. 0. 0. 0. 0. 0. 0. 0. 0. 0. 0. 0. 0. 0. 0. 0. 0. 0. 0. 0. 0.
      2.46106015e-006 2.46106015e-006 2.46106015e-006 2.46106015e-006 0.
      0. 0. 0. 0. 0. 0. 0. 0. 0. 0. 0. 0. 0. 0. 0. 0. 0. 0. 0. 0. 0. 0.
      0. 0. 0. 0. 0. 0. 0. 0. 0. 0. 0. 0. 0. 0. 0. 0. 0. 0. 0. 0. 0. 0.
      0. 0. 0. 0. 0. 0. 0. 0. 0. -2.82780616e-006 -2.82780616e-006
      -3.66746207e-007 -3.66746207e-007 -3.66746207e-007
      -3.66746207e-007 -3.66746207e-007 -3.66746207e-007
      -3.66746207e-007 -3.66746207e-007 -3.66746207e-007
      -3.66746207e-007 -3.66746207e-007 -3.66746207e-007
      -3.66746207e-007 -3.66746207e-007 -3.66746207e-007
      -3.66746207e-007 -3.66746207e-007 -3.66746207e-007
      -3.66746207e-007 -3.66746207e-007 -3.66746207e-007
      -3.66746207e-007 -3.66746207e-007 -5.69421729e-007
      -5.69421729e-007 -5.69421729e-007 -3.66746207e-007
      -5.69421729e-007 -5.69421729e-007 -5.69421729e-007 0. 0. 0. 0. 0.
      0. 0. 0. 0. 0. 0. 0. 0. 0. 0. -1.64070670e-007 -1.64070670e-007
      -1.64070670e-007 -1.64070670e-007 -1.64070670e-007
      -1.64070670e-007 2.46106015e-006 2.46106015e-006 2.46106015e-006
      0. 0. 0. 0. 0. 0. 0. 0. 0. 0. 0. 0. 0. 0. 0. 2.46106015e-006
      2.46106015e-006 2.46106015e-006 2.46106015e-006 2.46106015e-006
      2.46106015e-006 2.46106015e-006 2.46106015e-006 2.46106015e-006
      2.46106015e-006 2.46106015e-006 2.46106015e-006 2.46106015e-006
      2.46106015e-006 2.46106015e-006 2.46106015e-006 2.46106015e-006 0.
      0. 0. 0. 0. 0. 0. 0. 0. 0. 0. 0. 0. 0. 0. 0. 0. 0. 0. 0. 0. 0. 0.
      0. 0. 0. 0. 0. 0. 0. 0. 0. 0. 0. 0. 0. 0. 0. 0. 0. 0. 0. 0. 0. 0.
      0. 0. 0. 0. 0. -2.82780616e-006 -2.82780616e-006 -2.82780616e-006
      -2.82780616e-006 -3.66746207e-007 -3.66746207e-007
      -3.66746207e-007 -3.66746207e-007 -3.66746207e-007
      -3.66746207e-007 -3.66746207e-007 -3.66746207e-007
      -3.66746207e-007 -3.66746207e-007 -3.66746207e-007
      -3.66746207e-007 -3.66746207e-007 -3.66746207e-007
      -3.66746207e-007 -3.66746207e-007 -3.66746207e-007
      -3.66746207e-007 -3.66746207e-007 -3.66746207e-007
      -3.66746207e-007 -3.66746207e-007 -3.66746207e-007
      -5.69421729e-007 -5.69421729e-007 -5.69421729e-007
      -5.69421729e-007 -5.69421729e-007 -3.66746207e-007
      -5.69421729e-007 -3.66746207e-007 0. 0. 0. 0. 0. 0. 0. 0. 0. 0. 0.
      0. 0. 0. -1.64070670e-007 -1.64070670e-007 -1.64070670e-007
      -1.64070670e-007 -1.64070670e-007 -1.64070670e-007 2.46106015e-006
      2.46106015e-006 2.46106015e-006 0. 0. 0. 0. 0. 0. 0. 0. 0. 0. 0.
      0. 0. 0. 0. 2.46106015e-006 2.46106015e-006 2.46106015e-006
      2.46106015e-006 2.46106015e-006 2.46106015e-006 2.46106015e-006
      2.46106015e-006 2.46106015e-006 2.46106015e-006 2.46106015e-006
      2.46106015e-006 2.46106015e-006 2.46106015e-006 2.46106015e-006
      2.46106015e-006 2.46106015e-006 2.46106015e-006 2.46106015e-006
      2.46106015e-006 0. 0. 0. 0. 0. 0. 0. 0. 0. 0. 0. 0. 0. 0. 0. 0. 0.
      0. 0. 0. 0. 0. 0. 0. 0. 0. 0. 0. 0. 0. 0. 0. 0. 0. 0. 0. 0. 0. 0.
      0. 0. 0. 0. 0. 0. 0. 0. -2.82780616e-006 -2.82780616e-006
      -2.82780616e-006 -2.82780616e-006 -3.66746207e-007
      -3.66746207e-007 -3.66746207e-007 -3.66746207e-007
      -3.66746207e-007 -3.66746207e-007 -3.66746207e-007
      -3.66746207e-007 -3.66746207e-007 -3.66746207e-007
      -3.66746207e-007 -3.66746207e-007 -3.66746207e-007
      -3.66746207e-007 -3.66746207e-007 -3.66746207e-007
      -3.66746207e-007 -3.66746207e-007 -3.66746207e-007
      -3.66746207e-007 -3.66746207e-007 -3.66746207e-007
      -5.69421729e-007 -5.69421729e-007 -5.69421729e-007
      -5.69421729e-007 -5.69421729e-007 -5.69421729e-007
      -3.66746207e-007 -3.66746207e-007 -3.66746207e-007
      -3.66746207e-007 0. 0. 0. 0. 0. 0. 0. 0. 0. 0. 0. 0. 0.
      -1.64070670e-007 -1.64070670e-007 -1.64070670e-007
      -1.64070670e-007 -1.64070670e-007 -1.64070670e-007
      -1.64070670e-007 -1.64070670e-007 -1.64070670e-007 0. 0. 0. 0. 0.
      0. 0. 0. 0. 0. 0. 0. 2.46106015e-006 2.46106015e-006
      2.46106015e-006 2.46106015e-006 2.46106015e-006 2.46106015e-006
      2.46106015e-006 2.46106015e-006 2.46106015e-006 2.46106015e-006
      2.46106015e-006 2.46106015e-006 2.46106015e-006 2.46106015e-006
      2.46106015e-006 2.46106015e-006 2.46106015e-006 2.46106015e-006
      2.46106015e-006 2.46106015e-006 2.46106015e-006 2.46106015e-006
      2.46106015e-006 2.46106015e-006 0. 0. 0. 0. 0. 0. 0. 0. 0. 0. 0.
      0. 0. 0. 0. 0. 0. 0. 0. 0. 0. 0. 0. 0. 0. 0. 0. 0. 0. 0. 0. 0. 0.
      0. 0. 0. 0. 0. 0. 0. 0. 0. 0. 0. 0. 0. -2.82780616e-006
      -2.82780616e-006 -2.82780616e-006 -2.82780616e-006
      -3.66746207e-007 -3.66746207e-007 -3.66746207e-007
      -3.66746207e-007 -3.66746207e-007 -3.66746207e-007
      -3.66746207e-007 -3.66746207e-007 -3.66746207e-007
      -3.66746207e-007 -3.66746207e-007 -3.66746207e-007
      -3.66746207e-007 -3.66746207e-007 -3.66746207e-007
      -3.66746207e-007 -3.66746207e-007 -3.66746207e-007
      -3.66746207e-007 -3.66746207e-007 -5.69421729e-007
      -5.69421729e-007 -5.69421729e-007 -5.69421729e-007
      -5.69421729e-007 -5.69421729e-007 -5.69421729e-007
      -5.69421729e-007 -5.69421729e-007 -3.66746207e-007
      -3.66746207e-007 -3.66746207e-007 -3.66746207e-007
      -3.66746207e-007 0. 0. 0. 0. 0. 0. 0. 0. 0. -1.64070670e-007
      -1.64070670e-007 -1.64070670e-007 -1.64070670e-007
      -1.64070670e-007 -1.64070670e-007 -1.64070670e-007
      -1.64070670e-007 -1.64070670e-007 -1.64070670e-007
      -1.64070670e-007 -2.62513072e-006 0. 0. 0. 0. 0. 0. 0. 0. 0. 0.
      2.46106015e-006 2.46106015e-006 2.46106015e-006 2.46106015e-006
      2.46106015e-006 2.46106015e-006 2.46106015e-006 2.46106015e-006
      2.46106015e-006 2.46106015e-006 2.46106015e-006 2.46106015e-006
      2.46106015e-006 2.46106015e-006 2.46106015e-006 2.46106015e-006
      2.46106015e-006 2.46106015e-006 2.46106015e-006 2.46106015e-006
      2.46106015e-006 2.46106015e-006 2.46106015e-006 2.46106015e-006
      2.46106015e-006 0. 0. 0. 0. 0. 0. 0. 0. 0. 0. 0. 0. 0. 0. 0. 0. 0.
      0. 0. 0. 0. 0. 0. 0. 0. 0. 0. 0. 0. 0. 0. 0. 0. 0. 0. 0. 0. 0. 0.
      0. 0. 0. 0. 0. 0. 0. 0. -2.82780616e-006 -2.82780616e-006
      -2.82780616e-006 -3.66746207e-007 -3.66746207e-007
      -3.66746207e-007 -3.66746207e-007 -3.66746207e-007
      -3.66746207e-007 -3.66746207e-007 -3.66746207e-007
      -3.66746207e-007 -3.66746207e-007 -3.66746207e-007
      -3.66746207e-007 -3.66746207e-007 -3.66746207e-007
      -3.66746207e-007 -3.66746207e-007 -3.66746207e-007
      -3.66746207e-007 -3.66746207e-007 -3.66746207e-007
      -5.69421729e-007 -5.69421729e-007 -5.69421729e-007
      -5.69421729e-007 -5.69421729e-007 -4.05351074e-007
      -5.69421729e-007 -5.69421729e-007 -5.69421729e-007
      -3.66746207e-007 -3.66746207e-007 -3.66746207e-007
      -3.66746207e-007 -3.66746207e-007 -3.66746207e-007 0. 0. 0. 0. 0.
      0. 0. -1.64070670e-007 -1.64070670e-007 -1.64070670e-007
      -1.64070670e-007 -1.64070670e-007 -1.64070670e-007
      -1.64070670e-007 -1.64070670e-007 -1.64070670e-007
      -1.64070670e-007 -1.64070670e-007 -1.64070670e-007
      -2.62513072e-006 0. 0. 0. 0. 0. 0. 0. 0. 0. 0. 2.46106015e-006
      2.46106015e-006 2.46106015e-006 2.46106015e-006 2.46106015e-006
      2.46106015e-006 2.46106015e-006 2.46106015e-006 2.46106015e-006
      2.46106015e-006 2.46106015e-006 2.46106015e-006 2.46106015e-006
      2.46106015e-006 2.46106015e-006 2.46106015e-006 2.46106015e-006
      2.46106015e-006 2.46106015e-006 2.46106015e-006 2.46106015e-006
      2.46106015e-006 2.46106015e-006 2.46106015e-006 2.46106015e-006 0.
      0. 0. 0. 0. 0. 0. 0. 0. 0. 0. 0. 0. 0. 0. 0. 0. 0. 0. 0. 0. 0. 0.
      0. 0. 0. 0. 0. 0. 0. 0. 0. 0. 0. 0. 0. 0. 0. 0. 0. 0. 0. 0. 0. 0.
      0. 0. -2.82780616e-006 -2.82780616e-006 -2.82780616e-006
      -3.66746207e-007 -3.66746207e-007 -3.66746207e-007
      -3.66746207e-007 -3.66746207e-007 -3.66746207e-007
      -3.66746207e-007 -3.66746207e-007 -3.66746207e-007
      -3.66746207e-007 -3.66746207e-007 -3.66746207e-007
      -3.66746207e-007 -3.66746207e-007 -3.66746207e-007
      -3.66746207e-007 -3.66746207e-007 -3.66746207e-007
      -3.66746207e-007 -5.69421729e-007 -5.69421729e-007
      -5.69421729e-007 -5.69421729e-007 -5.69421729e-007
      -5.69421729e-007 -4.05351074e-007 -5.69421729e-007
      -5.69421729e-007 -3.66746207e-007 -3.66746207e-007
      -3.66746207e-007 -3.66746207e-007 -3.66746207e-007
      -3.66746207e-007 -3.66746207e-007 -3.66746207e-007
      -3.66746207e-007 0. 0. 0. 0. 0. -1.64070670e-007 -1.64070670e-007
      -1.64070670e-007 -1.64070670e-007 -1.64070670e-007
      -1.64070670e-007 -1.64070670e-007 -1.64070670e-007
      -1.64070670e-007 -1.64070670e-007 -1.64070670e-007
      -1.64070670e-007 -2.62513072e-006 0. 0. 0. 0. 0. 0. 0. 0.
      2.46106015e-006 2.46106015e-006 2.46106015e-006 2.46106015e-006
      2.46106015e-006 2.46106015e-006 2.46106015e-006 2.46106015e-006
      2.46106015e-006 2.46106015e-006 2.46106015e-006 2.46106015e-006
      2.46106015e-006 2.46106015e-006 2.46106015e-006 2.46106015e-006
      2.46106015e-006 2.46106015e-006 2.46106015e-006 2.46106015e-006
      2.46106015e-006 2.46106015e-006 2.46106015e-006 2.46106015e-006
      2.46106015e-006 2.46106015e-006 2.46106015e-006 0. 0. 0. 0. 0. 0.
      0. 0. 0. 0. 0. 0. 0. 0. 0. 0. 0. 0. 0. 0. 0. 0. 0. 0. 0. 0. 0. 0.
      0. 0. 0. 0. 0. 0. 0. 0. 0. 0. 0. 0. 0. 0. 0. 0. 0. 0. 0. 0.
      -2.82780616e-006 -2.82780616e-006 -2.82780616e-006
      -3.66746207e-007 -3.66746207e-007 -3.66746207e-007
      -3.66746207e-007 -3.66746207e-007 -3.66746207e-007
      -3.66746207e-007 -3.66746207e-007 -3.66746207e-007
      -3.66746207e-007 -3.66746207e-007 -3.66746207e-007
      -3.66746207e-007 -3.66746207e-007 -3.66746207e-007
      -3.66746207e-007 -3.66746207e-007 -3.66746207e-007
      -3.66746207e-007 -3.66746207e-007 -5.69421729e-007
      -5.69421729e-007 -5.69421729e-007 -5.69421729e-007
      -4.05351074e-007 -4.05351074e-007 -5.69421729e-007
      -3.66746207e-007 -3.66746207e-007 -3.66746207e-007
      -3.66746207e-007 -3.66746207e-007 -3.66746207e-007
      -3.66746207e-007 -3.66746207e-007 -3.66746207e-007
      -3.66746207e-007 -1.64070670e-007 -1.64070670e-007
      -1.64070670e-007 -1.64070670e-007 -1.64070670e-007
      -1.64070670e-007 -1.64070670e-007 -1.64070670e-007
      -1.64070670e-007 -1.64070670e-007 -1.64070670e-007
      -1.64070670e-007 -1.64070670e-007 0. 0. -1.64070670e-007
      -1.64070670e-007 0. 0. 0. 0. 0. 0. 0. 0. 2.46106015e-006
      2.46106015e-006 2.46106015e-006 2.46106015e-006 2.46106015e-006
      2.46106015e-006 2.46106015e-006 2.46106015e-006 2.46106015e-006
      2.46106015e-006 2.46106015e-006 2.46106015e-006 2.46106015e-006
      2.46106015e-006 2.46106015e-006 2.46106015e-006 2.46106015e-006
      2.46106015e-006 2.46106015e-006 2.46106015e-006 2.46106015e-006
      2.46106015e-006 2.46106015e-006 2.46106015e-006 2.46106015e-006
      2.46106015e-006 0. 0. 0. 0. 0. 0. 0. 0. 0. 0. 0. 0. 0. 0. 0. 0. 0.
      0. 0. 0. 0. 0. 0. 0. 0. 0. 0. 0. 0. 0. 0. 0. 0. 0. 0. 0. 0. 0. 0.
      0. 0. 0. 0. 0. 0. 0. 0. 0. 0. 0. -2.82780616e-006 -3.66746207e-007
      -3.66746207e-007 -3.66746207e-007 -3.66746207e-007
      -3.66746207e-007 -3.66746207e-007 -3.66746207e-007
      -3.66746207e-007 -3.66746207e-007 -3.66746207e-007
      -3.66746207e-007 -3.66746207e-007 -3.66746207e-007
      -3.66746207e-007 -3.66746207e-007 -3.66746207e-007
      -3.66746207e-007 -3.66746207e-007 -3.66746207e-007
      -5.69421729e-007 -5.69421729e-007 -5.69421729e-007
      -5.69421729e-007 -5.69421729e-007 -5.69421729e-007
      -5.69421729e-007 -4.05351074e-007 -5.69421729e-007
      -3.66746207e-007 -3.66746207e-007 -3.66746207e-007
      -3.66746207e-007 -3.66746207e-007 -3.66746207e-007
      -3.66746207e-007 -3.66746207e-007 -3.66746207e-007
      -3.66746207e-007 -1.64070670e-007 -1.64070670e-007
      -1.64070670e-007 -1.64070670e-007 -1.64070670e-007
      -1.64070670e-007 -1.64070670e-007 -1.64070670e-007
      -1.64070670e-007 -1.64070670e-007 -1.64070670e-007
      -1.64070670e-007 -1.64070670e-007 0. 0. 0. 0. 0. 0. 0. 0. 0. 0.
      2.46106015e-006 2.46106015e-006 2.46106015e-006 2.46106015e-006
      2.46106015e-006 2.46106015e-006 2.46106015e-006 2.46106015e-006
      2.46106015e-006 2.46106015e-006 2.46106015e-006 2.46106015e-006
      2.46106015e-006 2.46106015e-006 2.46106015e-006 2.46106015e-006
      2.46106015e-006 2.46106015e-006 2.46106015e-006 2.46106015e-006
      2.46106015e-006 2.46106015e-006 2.46106015e-006 0. 0. 0. 0. 0. 0.
      0. 0. 0. 0. 0. 0. 0. 0. 0. 0. 0. 0. 0. 0. 0. 0. 0. 0. 0. 0. 0. 0.
      0. 0. 0. 0. 0. 0. 0. 0. 0. 0. 0. 0. 0. 0. 0. 0. 0. 0. 0. 0. 0. 0.
      0. 0. 0. 0. 0. 0. 2.46106015e-006 -3.66746207e-007
      -3.66746207e-007 -3.66746207e-007 -3.66746207e-007
      -3.66746207e-007 -3.66746207e-007 -3.66746207e-007
      -3.66746207e-007 -3.66746207e-007 -3.66746207e-007
      -3.66746207e-007 -3.66746207e-007 -3.66746207e-007
      -3.66746207e-007 -3.66746207e-007 -3.66746207e-007
      -3.66746207e-007 -5.69421729e-007 -5.69421729e-007
      -5.69421729e-007 -5.69421729e-007 -5.69421729e-007
      -4.05351074e-007 -4.05351074e-007 -4.05351074e-007
      -4.05351074e-007 -5.69421729e-007 -3.66746207e-007
      -2.02675537e-007 -3.66746207e-007 -3.66746207e-007
      -3.66746207e-007 -3.66746207e-007 -3.66746207e-007
      -3.66746207e-007 -3.66746207e-007 -3.66746207e-007
      -3.66746207e-007 -1.64070670e-007 -1.64070670e-007
      -1.64070670e-007 -1.64070670e-007 -1.64070670e-007
      -1.64070670e-007 -1.64070670e-007 -1.64070670e-007
      -1.64070670e-007 -1.64070670e-007 -1.64070670e-007 0. 0. 0. 0. 0.
      0. 0. 2.46106015e-006 2.46106015e-006 2.46106015e-006
      2.46106015e-006 2.46106015e-006 2.46106015e-006 2.46106015e-006
      2.46106015e-006 2.46106015e-006 2.46106015e-006 2.46106015e-006
      2.46106015e-006 2.46106015e-006 2.46106015e-006 2.46106015e-006
      2.46106015e-006 2.46106015e-006 2.46106015e-006 2.46106015e-006
      2.46106015e-006 2.46106015e-006 2.46106015e-006 2.46106015e-006
      2.46106015e-006 2.46106015e-006 2.46106015e-006 2.46106015e-006 0.
      0. 0. 0. 0. 0. 0. 0. 0. 0. 0. 0. 0. 0. 0. 0. 0. 0. 0. 0. 0. 0. 0.
      0. 0. 0. 0. 0. 0. 0. 0. 0. 0. 0. 0. 0. 0. 0. 0. 0. 0. 0. 0. 0. 0.
      0. 0. 0. 0. 0. 0. 0. 0. 0. 0. 0. 0. -3.66746207e-007
      -3.66746207e-007 -3.66746207e-007 -3.66746207e-007
      -3.66746207e-007 -3.66746207e-007 -3.66746207e-007
      -3.66746207e-007 -3.66746207e-007 -3.66746207e-007
      -3.66746207e-007 -3.66746207e-007 -3.66746207e-007
      -3.66746207e-007 -3.66746207e-007 -3.66746207e-007
      -3.66746207e-007 -5.69421729e-007 -5.69421729e-007
      -5.69421729e-007 -5.69421729e-007 -5.69421729e-007
      -5.69421729e-007 -4.05351074e-007 -4.05351074e-007
      -4.05351074e-007 -5.69421729e-007 -3.66746207e-007
      -2.02675537e-007 -3.66746207e-007 -3.66746207e-007
      -3.66746207e-007 -3.66746207e-007 -3.66746207e-007
      -3.66746207e-007 -3.66746207e-007 -3.66746207e-007
      -1.64070670e-007 -1.64070670e-007 -1.64070670e-007
      -1.64070670e-007 -1.64070670e-007 -1.64070670e-007
      -1.64070670e-007 -1.64070670e-007 -1.64070670e-007
      -1.64070670e-007 -1.64070670e-007 0. 0. 0. 0. 0. -1.64070670e-007
      2.46106015e-006 2.46106015e-006 2.46106015e-006 2.46106015e-006
      2.46106015e-006 2.46106015e-006 2.46106015e-006 2.46106015e-006
      2.46106015e-006 2.46106015e-006 2.46106015e-006 2.46106015e-006
      2.46106015e-006 2.46106015e-006 2.46106015e-006 2.46106015e-006
      2.46106015e-006 2.46106015e-006 2.46106015e-006 2.46106015e-006
      2.46106015e-006 2.46106015e-006 2.46106015e-006 2.46106015e-006
      2.46106015e-006 2.46106015e-006 2.46106015e-006 0. 0. 0. 0. 0. 0.
      0. 0. 0. 0. 0. 0. 0. 0. 0. 0. 0. 0. 0. 0. 0. 0. 0. 0. 0. 0. 0. 0.
      0. 0. 0. 0. 0. 0. 0. 0. 0. 0. 0. 0. 0. 0. 0. 0. 0. 0. 0. 0. 0. 0.
      0. 0. 0. 0. 0. 0. 0. 0. 0. -3.66746207e-007 -3.66746207e-007
      -3.66746207e-007 -3.66746207e-007 -3.66746207e-007
      -3.66746207e-007 -3.66746207e-007 -3.66746207e-007
      -3.66746207e-007 -3.66746207e-007 -3.66746207e-007
      -3.66746207e-007 -3.66746207e-007 -3.66746207e-007
      -3.66746207e-007 -3.66746207e-007 -5.69421729e-007
      -5.69421729e-007 -5.69421729e-007 -5.69421729e-007
      -5.69421729e-007 -5.69421729e-007 -5.69421729e-007
      -4.05351074e-007 -4.05351074e-007 -4.05351074e-007
      -3.66746207e-007 -3.66746207e-007 -2.02675537e-007
      -3.66746207e-007 -3.66746207e-007 -3.66746207e-007
      -3.66746207e-007 -3.66746207e-007 -3.66746207e-007
      -3.66746207e-007 -3.66746207e-007 -1.64070670e-007
      -1.64070670e-007 -1.64070670e-007 -1.64070670e-007
      -1.64070670e-007 -1.64070670e-007 -1.64070670e-007
      -1.64070670e-007 -1.64070670e-007 -1.64070670e-007
      -1.64070670e-007 0. 0. 0. 0. 0. -1.64070670e-007 2.46106015e-006
      2.46106015e-006 2.46106015e-006 2.46106015e-006 2.46106015e-006
      2.46106015e-006 2.46106015e-006 2.46106015e-006 2.46106015e-006
      2.46106015e-006 2.46106015e-006 2.46106015e-006 2.46106015e-006
      2.46106015e-006 2.46106015e-006 2.46106015e-006 2.46106015e-006
      2.46106015e-006 2.46106015e-006 2.46106015e-006 2.46106015e-006
      2.46106015e-006 2.46106015e-006 2.46106015e-006 2.46106015e-006
      2.46106015e-006 2.46106015e-006 0. 0. 0. 0. 0. 0. 0. 0. 0. 0. 0.
      0. 0. 0. 0. 0. 0. 0. 0. 0. 0. 0. 0. 0. 0. 0. 0. 0. 0. 0. 0. 0. 0.
      0. 0. 0. 0. 0. 0. 0. 0. 0. 0. 0. 0. 0. 0. 0. 0. 0. 0. 0. 0. 0. 0.
      0. 0. 0. 0. -3.66746207e-007 -3.66746207e-007 -3.66746207e-007
      -3.66746207e-007 -3.66746207e-007 -3.66746207e-007
      -3.66746207e-007 -3.66746207e-007 -3.66746207e-007
      -3.66746207e-007 -3.66746207e-007 -3.66746207e-007
      -3.66746207e-007 -3.66746207e-007 -3.66746207e-007
      -3.66746207e-007 -3.66746207e-007 -5.69421729e-007
      -5.69421729e-007 -5.69421729e-007 -5.69421729e-007
      -5.69421729e-007 -5.69421729e-007 -4.05351074e-007
      -4.05351074e-007 -4.05351074e-007 -2.02675537e-007
      -2.02675537e-007 -2.02675537e-007 -2.02675537e-007
      -3.66746207e-007 -3.66746207e-007 -3.66746207e-007
      -3.66746207e-007 -3.66746207e-007 -3.66746207e-007
      -1.64070670e-007 -1.64070670e-007 -1.64070670e-007
      -1.64070670e-007 -1.64070670e-007 -1.64070670e-007
      -1.64070670e-007 -1.64070670e-007 -1.64070670e-007
      -1.64070670e-007 -1.64070670e-007 -1.64070670e-007
      -1.64070670e-007 -1.64070670e-007 0. 0. 0. -1.64070670e-007
      2.46106015e-006 2.46106015e-006 2.46106015e-006 2.46106015e-006
      2.46106015e-006 2.46106015e-006 2.46106015e-006 2.46106015e-006
      2.46106015e-006 2.46106015e-006 2.46106015e-006 2.46106015e-006
      2.46106015e-006 2.46106015e-006 2.46106015e-006 2.46106015e-006
      2.46106015e-006 2.46106015e-006 2.46106015e-006 2.46106015e-006
      2.46106015e-006 2.46106015e-006 2.46106015e-006 0. 0. 0. 0. 0. 0.
      0. 0. 0. 0. 0. 0. 0. 0. 0. 0. 0. 0. 0. 0. 0. 0. 0. 0. 0. 0. 0. 0.
      0. 0. 0. 0. 0. 0. 0. 0. 0. 0. 0. 0. 0. 0. 0. 0. 0. 0. 0. 0. 0. 0.
      0. 0. 0. 0. 0. 0. 0. 0. 0. 0. 0. 0. 0. -3.66746207e-007
