<?xml version="1.0"?>
<opencv_storage>
<my_svm type_id="opencv-ml-svm">
  <svm_type>C_SVC</svm_type>
  <kernel><type>RBF</type>
    <gamma>1.0000000000000001e-005</gamma></kernel>
  <C>5.0000000000000000e-001</C>
  <term_criteria><epsilon>2.2204460492503131e-016</epsilon>
    <iterations>100</iterations></term_criteria>
  <var_all>19600</var_all>
  <var_count>19600</var_count>
  <class_count>3</class_count>
  <class_labels type_id="opencv-matrix">
    <rows>1</rows>
    <cols>3</cols>
    <dt>i</dt>
    <data>
      -107374176 1 2</data></class_labels>
  <sv_total>14</sv_total>
  <support_vectors>
    <_>
      -431602080. -431602080. -431602080. -431602080. -431602080.
      -431602080. -431602080. -431602080. -431602080. -431602080.
      -431602080. -431602080. -431602080. -431602080. -431602080.
      -431602080. -431602080. -431602080. -431602080. -431602080.
      -431602080. -431602080. -431602080. -431602080. -431602080.
      -431602080. -431602080. -431602080. -431602080. -431602080.
      -431602080. -431602080. -431602080. -431602080. -431602080.
      -431602080. -431602080. -431602080. -431602080. -431602080.
      -431602080. -431602080. -431602080. -431602080. -431602080.
      -431602080. -431602080. -431602080. -431602080. -431602080.
      -431602080. -431602080. -431602080. -431602080. -431602080.
      -431602080. -431602080. -431602080. -431602080. -431602080.
      -431602080. -431602080. -431602080. -431602080. -431602080.
      -431602080. -431602080. -431602080. -431602080. -431602080.
      -431602080. -431602080. -431602080. -431602080. -431602080.
      -431602080. -431602080. -431602080. -431602080. -431602080.
      -431602080. -431602080. -431602080. -431602080. -431602080.
      -431602080. -431602080. -431602080. -431602080. -431602080.
      -431602080. -431602080. -431602080. -431602080. -431602080.
      -431602080. -431602080. -431602080. -431602080. -431602080.
      -431602080. -431602080. -431602080. -431602080. -431602080.
      -431602080. -431602080. -431602080. -431602080. -431602080.
      -431602080. -431602080. -431602080. -431602080. -431602080.
      -431602080. -431602080. -431602080. -431602080. -431602080.
      -431602080. -431602080. -431602080. -431602080. -431602080.
      -431602080. -431602080. -431602080. -431602080. -431602080.
      -431602080. -431602080. -431602080. -431602080. -431602080.
      -431602080. -431602080. -431602080. -431602080. -431602080.
      -431602080. -431602080. -431602080. -431602080. -431602080.
      -431602080. -431602080. -431602080. -431602080. -431602080.
      -431602080. -431602080. -431602080. -431602080. -431602080.
      -431602080. -431602080. -431602080. -431602080. -431602080.
      -431602080. -431602080. -431602080. -431602080. -431602080.
      -431602080. -431602080. -431602080. -431602080. -431602080.
      -431602080. -431602080. -431602080. -431602080. -431602080.
      -431602080. -431602080. -431602080. -431602080. -431602080.
      -431602080. -431602080. -431602080. -431602080. -431602080.
      -431602080. -431602080. -431602080. -431602080. -431602080.
      -431602080. -431602080. -431602080. -431602080. -431602080.
      -431602080. -431602080. -431602080. -431602080. -431602080.
      -431602080. -431602080. -431602080. -431602080. -431602080.
      -431602080. -431602080. -431602080. -431602080. -431602080.
      -431602080. -431602080. -431602080. -431602080. -431602080.
      -431602080. -431602080. -431602080. -431602080. -431602080.
      -431602080. -431602080. -431602080. -431602080. -431602080.
      -431602080. -431602080. -431602080. -431602080. -431602080.
      -431602080. -431602080. -431602080. -431602080. -431602080.
      -431602080. -431602080. -431602080. -431602080. -431602080.
      -431602080. -431602080. -431602080. -431602080. -431602080.
      -431602080. -431602080. -431602080. -431602080. -431602080.
      -431602080. -431602080. -431602080. -431602080. -431602080.
      -431602080. -431602080. -431602080. -431602080. -431602080.
      -431602080. -431602080. -431602080. -431602080. -431602080.
      -431602080. -431602080. -431602080. -431602080. -431602080.
      -431602080. -431602080. -431602080. -431602080. -431602080.
      -431602080. -431602080. -431602080. -431602080. -431602080.
      -431602080. -431602080. -431602080. -431602080. -431602080.
      -431602080. -431602080. -431602080. -431602080. -431602080.
      -431602080. -431602080. -431602080. -431602080. -431602080.
      -431602080. -431602080. -431602080. -431602080. -431602080.
      -431602080. -431602080. -431602080. -431602080. -431602080.
      -431602080. -431602080. -431602080. -431602080. -431602080.
      -431602080. -431602080. -431602080. -431602080. -431602080.
      -431602080. -431602080. -431602080. -431602080. -431602080.
      -431602080. -431602080. -431602080. -431602080. -431602080.
      -431602080. -431602080. -431602080. -431602080. -431602080.
      -431602080. -431602080. -431602080. -431602080. -431602080.
      -431602080. -431602080. -431602080. -431602080. -431602080.
      -431602080. -431602080. -431602080. -431602080. -431602080.
      -431602080. -431602080. -431602080. -431602080. -431602080.
      -431602080. -431602080. -431602080. -431602080. -431602080.
      -431602080. -431602080. -431602080. -431602080. -431602080.
      -431602080. -431602080. -431602080. -431602080. -431602080.
      -431602080. -431602080. -431602080. -431602080. -431602080.
      -431602080. -431602080. -431602080. -431602080. -431602080.
      -431602080. -431602080. -431602080. -431602080. -431602080.
      -431602080. -431602080. -431602080. -431602080. -431602080.
      -431602080. -431602080. -431602080. -431602080. -431602080.
      -431602080. -431602080. -431602080. -431602080. -431602080.
      -431602080. -431602080. -431602080. -431602080. -431602080.
      -431602080. -431602080. -431602080. -431602080. -431602080.
      -431602080. -431602080. -431602080. -431602080. -431602080.
      -431602080. -431602080. -431602080. -431602080. -431602080.
      -431602080. -431602080. -431602080. -431602080. -431602080.
      -431602080. -431602080. -431602080. -431602080. -431602080.
      -431602080. -431602080. -431602080. -431602080. -431602080.
      -431602080. -431602080. -431602080. -431602080. -431602080.
      -431602080. -431602080. -431602080. -431602080. -431602080.
      -431602080. -431602080. -431602080. -431602080. -431602080.
      -431602080. -431602080. -431602080. -431602080. -431602080.
      -431602080. -431602080. -431602080. -431602080. -431602080.
      -431602080. -431602080. -431602080. -431602080. -431602080.
      -431602080. -431602080. -431602080. -431602080. -431602080.
      -431602080. -431602080. -431602080. -431602080. -431602080.
      -431602080. -431602080. -431602080. -431602080. -431602080.
      -431602080. -431602080. -431602080. -431602080. -431602080.
      -431602080. -431602080. -431602080. -431602080. -431602080.
      -431602080. -431602080. -431602080. -431602080. -431602080.
      -431602080. -431602080. -431602080. -431602080. -431602080.
      -431602080. -431602080. -431602080. -431602080. -431602080.
      -431602080. -431602080. -431602080. -431602080. -431602080.
      -431602080. -431602080. -431602080. -431602080. -431602080.
      -431602080. -431602080. -431602080. -431602080. -431602080.
      -431602080. -431602080. -431602080. -431602080. -431602080.
      -431602080. -431602080. -431602080. -431602080. -431602080.
      -431602080. -431602080. -431602080. -431602080. -431602080.
      -431602080. -431602080. -431602080. -431602080. -431602080.
      -431602080. -431602080. -431602080. -431602080. -431602080.
      -431602080. -431602080. -431602080. -431602080. -431602080.
      -431602080. -431602080. -431602080. -431602080. -431602080.
      -431602080. -431602080. -431602080. -431602080. -431602080.
      -431602080. -431602080. -431602080. -431602080. -431602080.
      -431602080. -431602080. -431602080. -431602080. -431602080.
      -431602080. -431602080. -431602080. -431602080. -431602080.
      -431602080. -431602080. -431602080. -431602080. -431602080.
      -431602080. -431602080. -431602080. -431602080. -431602080.
      -431602080. -431602080. -431602080. -431602080. -431602080.
      -431602080. -431602080. -431602080. -431602080. -431602080.
      -431602080. -431602080. -431602080. -431602080. -431602080.
      -431602080. -431602080. -431602080. -431602080. -431602080.
      -431602080. -431602080. -431602080. -431602080. -431602080.
      -431602080. -431602080. -431602080. -431602080. -431602080.
      -431602080. -431602080. -431602080. -431602080. -431602080.
      -431602080. -431602080. -431602080. -431602080. -431602080.
      -431602080. -431602080. -431602080. -431602080. -431602080.
      -431602080. -431602080. -431602080. -431602080. -431602080.
      -431602080. -431602080. -431602080. -431602080. -431602080.
      -431602080. -431602080. -431602080. -431602080. -431602080.
      -431602080. -431602080. -431602080. -431602080. -431602080.
      -431602080. -431602080. -431602080. -431602080. -431602080.
      -431602080. -431602080. -431602080. -431602080. -431602080.
      -431602080. -431602080. -431602080. -431602080. -431602080.
      -431602080. -431602080. -431602080. -431602080. -431602080.
      -431602080. -431602080. -431602080. -431602080. -431602080.
      -431602080. -431602080. -431602080. -431602080. -431602080.
      -431602080. -431602080. -431602080. -431602080. -431602080.
      -431602080. -431602080. -431602080. -431602080. -431602080.
      -431602080. -431602080. -431602080. -431602080. -431602080.
      -431602080. -431602080. -431602080. -431602080. -431602080.
      -431602080. -431602080. -431602080. -431602080. -431602080.
      -431602080. -431602080. -431602080. -431602080. -431602080.
      -431602080. -431602080. -431602080. -431602080. -431602080.
      -431602080. -431602080. -431602080. -431602080. -431602080.
      -431602080. -431602080. -431602080. -431602080. -431602080.
      -431602080. -431602080. -431602080. -431602080. -431602080.
      -431602080. -431602080. -431602080. -431602080. -431602080.
      -431602080. -431602080. -431602080. -431602080. -431602080.
      -431602080. -431602080. -431602080. -431602080. -431602080.
      -431602080. -431602080. -431602080. -431602080. -431602080.
      -431602080. -431602080. -431602080. -431602080. -431602080.
      -431602080. -431602080. -431602080. -431602080. -431602080.
      -431602080. -431602080. -431602080. -431602080. -431602080.
      -431602080. -431602080. -431602080. -431602080. -431602080.
      -431602080. -431602080. -431602080. -431602080. -431602080.
      -431602080. -431602080. -431602080. -431602080. -431602080.
      -431602080. -431602080. -431602080. -431602080. -431602080.
      -431602080. -431602080. -431602080. -431602080. -431602080.
      -431602080. -431602080. -431602080. -431602080. -431602080.
      -431602080. -431602080. -431602080. -431602080. -431602080.
      -431602080. -431602080. -431602080. -431602080. -431602080.
      -431602080. -431602080. -431602080. -431602080. -431602080.
      -431602080. -431602080. -431602080. -431602080. -431602080.
      -431602080. -431602080. -431602080. -431602080. -431602080.
      -431602080. -431602080. -431602080. -431602080. -431602080.
      -431602080. -431602080. -431602080. -431602080. -431602080.
      -431602080. -431602080. -431602080. -431602080. -431602080.
      -431602080. -431602080. -431602080. -431602080. -431602080.
      -431602080. -431602080. -431602080. -431602080. -431602080.
      -431602080. -431602080. -431602080. -431602080. -431602080.
      -431602080. -431602080. -431602080. -431602080. -431602080.
      -431602080. -431602080. -431602080. -431602080. -431602080.
      -431602080. -431602080. -431602080. -431602080. -431602080.
      -431602080. -431602080. -431602080. -431602080. -431602080.
      -431602080. -431602080. -431602080. -431602080. -431602080.
      -431602080. -431602080. -431602080. -431602080. -431602080.
      -431602080. -431602080. -431602080. -431602080. -431602080.
      -431602080. -431602080. -431602080. -431602080. -431602080.
      -431602080. -431602080. -431602080. -431602080. -431602080.
      -431602080. -431602080. -431602080. -431602080. -431602080.
      -431602080. -431602080. -431602080. -431602080. -431602080.
      -431602080. -431602080. -431602080. -431602080. -431602080.
      -431602080. -431602080. -431602080. -431602080. -431602080.
      -431602080. -431602080. -431602080. -431602080. -431602080.
      -431602080. -431602080. -431602080. -431602080. -431602080.
      -431602080. -431602080. -431602080. -431602080. -431602080.
      -431602080. -431602080. -431602080. -431602080. -431602080.
      -431602080. -431602080. -431602080. -431602080. -431602080.
      -431602080. -431602080. -431602080. -431602080. -431602080.
      -431602080. -431602080. -431602080. -431602080. -431602080.
      -431602080. -431602080. -431602080. -431602080. -431602080.
      -431602080. -431602080. -431602080. -431602080. -431602080.
      -431602080. -431602080. -431602080. -431602080. -431602080.
      -431602080. -431602080. -431602080. -431602080. -431602080.
      -431602080. -431602080. -431602080. -431602080. -431602080.
      -431602080. -431602080. -431602080. -431602080. -431602080.
      -431602080. -431602080. -431602080. -431602080. -431602080.
      -431602080. -431602080. -431602080. -431602080. -431602080.
      -431602080. -431602080. -431602080. -431602080. -431602080.
      -431602080. -431602080. -431602080. -431602080. -431602080.
      -431602080. -431602080. -431602080. -431602080. -431602080.
      -431602080. -431602080. -431602080. -431602080. -431602080.
      -431602080. -431602080. -431602080. -431602080. -431602080.
      -431602080. -431602080. -431602080. -431602080. -431602080.
      -431602080. -431602080. -431602080. -431602080. -431602080.
      -431602080. -431602080. -431602080. -431602080. -431602080.
      -431602080. -431602080. -431602080. -431602080. -431602080.
      -431602080. -431602080. -431602080. -431602080. -431602080.
      -431602080. -431602080. -431602080. -431602080. -431602080.
      -431602080. -431602080. -431602080. -431602080. -431602080.
      -431602080. -431602080. -431602080. -431602080. -431602080.
      -431602080. -431602080. -431602080. -431602080. -431602080.
      -431602080. -431602080. -431602080. -431602080. -431602080.
      -431602080. -431602080. -431602080. -431602080. -431602080.
      -431602080. -431602080. -431602080. -431602080. -431602080.
      -431602080. -431602080. -431602080. -431602080. -431602080.
      -431602080. -431602080. -431602080. -431602080. -431602080.
      -431602080. -431602080. -431602080. -431602080. -431602080.
      -431602080. -431602080. -431602080. -431602080. -431602080.
      -431602080. -431602080. -431602080. -431602080. -431602080.
      -431602080. -431602080. -431602080. -431602080. -431602080.
      -431602080. -431602080. -431602080. -431602080. -431602080.
      -431602080. -431602080. -431602080. -431602080. -431602080.
      -431602080. -431602080. -431602080. -431602080. -431602080.
      -431602080. -431602080. -431602080. -431602080. -431602080.
      -431602080. -431602080. -431602080. -431602080. -431602080.
      -431602080. -431602080. -431602080. -431602080. -431602080.
      -431602080. -431602080. -431602080. -431602080. -431602080.
      -431602080. -431602080. -431602080. -431602080. -431602080.
      -431602080. -431602080. -431602080. -431602080. -431602080.
      -431602080. -431602080. -431602080. -431602080. -431602080.
      -431602080. -431602080. -431602080. -431602080. -431602080.
      -431602080. -431602080. -431602080. -431602080. -431602080.
      -431602080. -431602080. -431602080. -431602080. -431602080.
      -431602080. -431602080. -431602080. -431602080. -431602080.
      -431602080. -431602080. -431602080. -431602080. -431602080.
      -431602080. -431602080. -431602080. -431602080. -431602080.
      -431602080. -431602080. -431602080. -431602080. -431602080.
      -431602080. -431602080. -431602080. -431602080. -431602080.
      -431602080. -431602080. -431602080. -431602080. -431602080.
      -431602080. -431602080. -431602080. -431602080. -431602080.
      -431602080. -431602080. -431602080. -431602080. -431602080.
      -431602080. -431602080. -431602080. -431602080. -431602080.
      -431602080. -431602080. -431602080. -431602080. -431602080.
      -431602080. -431602080. -431602080. -431602080. -431602080.
      -431602080. -431602080. -431602080. -431602080. -431602080.
      -431602080. -431602080. -431602080. -431602080. -431602080.
      -431602080. -431602080. -431602080. -431602080. -431602080.
      -431602080. -431602080. -431602080. -431602080. -431602080.
      -431602080. -431602080. -431602080. -431602080. -431602080.
      -431602080. -431602080. -431602080. -431602080. -431602080.
      -431602080. -431602080. -431602080. -431602080. -431602080.
      -431602080. -431602080. -431602080. -431602080. -431602080.
      -431602080. -431602080. -431602080. -431602080. -431602080.
      -431602080. -431602080. -431602080. -431602080. -431602080.
      -431602080. -431602080. -431602080. -431602080. -431602080.
      -431602080. -431602080. -431602080. -431602080. -431602080.
      -431602080. -431602080. -431602080. -431602080. -431602080.
      -431602080. -431602080. -431602080. -431602080. -431602080.
      -431602080. -431602080. -431602080. -431602080. -431602080.
      -431602080. -431602080. -431602080. -431602080. -431602080.
      -431602080. -431602080. -431602080. -431602080. -431602080.
      -431602080. -431602080. -431602080. -431602080. -431602080.
      -431602080. -431602080. -431602080. -431602080. -431602080.
      -431602080. -431602080. -431602080. -431602080. -431602080.
      -431602080. -431602080. -431602080. -431602080. -431602080.
      -431602080. -431602080. -431602080. -431602080. -431602080.
      -431602080. -431602080. -431602080. -431602080. -431602080.
      -431602080. -431602080. -431602080. -431602080. -431602080.
      -431602080. -431602080. -431602080. -431602080. -431602080.
      -431602080. -431602080. -431602080. -431602080. -431602080.
      -431602080. -431602080. -431602080. -431602080. -431602080.
      -431602080. -431602080. -431602080. -431602080. -431602080.
      -431602080. -431602080. -431602080. -431602080. -431602080.
      -431602080. -431602080. -431602080. -431602080. -431602080.
      -431602080. -431602080. -431602080. -431602080. -431602080.
      -431602080. -431602080. -431602080. -431602080. -431602080.
      -431602080. -431602080. -431602080. -431602080. -431602080.
      -431602080. -431602080. -431602080. -431602080. -431602080.
      -431602080. -431602080. -431602080. -431602080. -431602080.
      -431602080. -431602080. -431602080. -431602080. -431602080.
      -431602080. -431602080. -431602080. -431602080. -431602080.
      -431602080. -431602080. -431602080. -431602080. -431602080.
      -431602080. -431602080. -431602080. -431602080. -431602080.
      -431602080. -431602080. -431602080. -431602080. -431602080.
      -431602080. -431602080. -431602080. -431602080. -431602080.
      -431602080. -431602080. -431602080. -431602080. -431602080.
      -431602080. -431602080. -431602080. -431602080. -431602080.
      -431602080. -431602080. -431602080. -431602080. -431602080.
      -431602080. -431602080. -431602080. -431602080. -431602080.
      -431602080. -431602080. -431602080. -431602080. -431602080.
      -431602080. -431602080. -431602080. -431602080. -431602080.
      -431602080. -431602080. -431602080. -431602080. -431602080.
      -431602080. -431602080. -431602080. -431602080. -431602080.
      -431602080. -431602080. -431602080. -431602080. -431602080.
      -431602080. -431602080. -431602080. -431602080. -431602080.
      -431602080. -431602080. -431602080. -431602080. -431602080.
      -431602080. -431602080. -431602080. -431602080. -431602080.
      -431602080. -431602080. -431602080. -431602080. -431602080.
      -431602080. -431602080. -431602080. -431602080. -431602080.
      -431602080. -431602080. -431602080. -431602080. -431602080.
      -431602080. -431602080. -431602080. -431602080. -431602080.
      -431602080. -431602080. -431602080. -431602080. -431602080.
      -431602080. -431602080. -431602080. -431602080. -431602080.
      -431602080. -431602080. -431602080. -431602080. -431602080.
      -431602080. -431602080. -431602080. -431602080. -431602080.
      -431602080. -431602080. -431602080. -431602080. -431602080.
      -431602080. -431602080. -431602080. -431602080. -431602080.
      -431602080. -431602080. -431602080. -431602080. -431602080.
      -431602080. -431602080. -431602080. -431602080. -431602080.
      -431602080. -431602080. -431602080. -431602080. -431602080.
      -431602080. -431602080. -431602080. -431602080. -431602080.
      -431602080. -431602080. -431602080. -431602080. -431602080.
      -431602080. -431602080. -431602080. -431602080. -431602080.
      -431602080. -431602080. -431602080. -431602080. -431602080.
      -431602080. -431602080. -431602080. -431602080. -431602080.
      -431602080. -431602080. -431602080. -431602080. -431602080.
      -431602080. -431602080. -431602080. -431602080. -431602080.
      -431602080. -431602080. -431602080. -431602080. -431602080.
      -431602080. -431602080. -431602080. -431602080. -431602080.
      -431602080. -431602080. -431602080. -431602080. -431602080.
      -431602080. -431602080. -431602080. -431602080. -431602080.
      -431602080. -431602080. -431602080. -431602080. -431602080.
      -431602080. -431602080. -431602080. -431602080. -431602080.
      -431602080. -431602080. -431602080. -431602080. -431602080.
      -431602080. -431602080. -431602080. -431602080. -431602080.
      -431602080. -431602080. -431602080. -431602080. -431602080.
      -431602080. -431602080. -431602080. -431602080. -431602080.
      -431602080. -431602080. -431602080. -431602080. -431602080.
      -431602080. -431602080. -431602080. -431602080. -431602080.
      -431602080. -431602080. -431602080. -431602080. -431602080.
      -431602080. -431602080. -431602080. -431602080. -431602080.
      -431602080. -431602080. -431602080. -431602080. -431602080.
      -431602080. -431602080. -431602080. -431602080. -431602080.
      -431602080. -431602080. -431602080. -431602080. -431602080.
      -431602080. -431602080. -431602080. -431602080. -431602080.
      -431602080. -431602080. -431602080. -431602080. -431602080.
      -431602080. -431602080. -431602080. -431602080. -431602080.
      -431602080. -431602080. -431602080. -431602080. -431602080.
      -431602080. -431602080. -431602080. -431602080. -431602080.
      -431602080. -431602080. -431602080. -431602080. -431602080.
      -431602080. -431602080. -431602080. -431602080. -431602080.
      -431602080. -431602080. -431602080. -431602080. -431602080.
      -431602080. -431602080. -431602080. -431602080. -431602080.
      -431602080. -431602080. -431602080. -431602080. -431602080.
      -431602080. -431602080. -431602080. -431602080. -431602080.
      -431602080. -431602080. -431602080. -431602080. -431602080.
      -431602080. -431602080. -431602080. -431602080. -431602080.
      -431602080. -431602080. -431602080. -431602080. -431602080.
      -431602080. -431602080. -431602080. -431602080. -431602080.
      -431602080. -431602080. -431602080. -431602080. -431602080.
      -431602080. -431602080. -431602080. -431602080. -431602080.
      -431602080. -431602080. -431602080. -431602080. -431602080.
      -431602080. -431602080. -431602080. -431602080. -431602080.
      -431602080. -431602080. -431602080. -431602080. -431602080.
      -431602080. -431602080. -431602080. -431602080. -431602080.
      -431602080. -431602080. -431602080. -431602080. -431602080.
      -431602080. -431602080. -431602080. -431602080. -431602080.
      -431602080. -431602080. -431602080. -431602080. -431602080.
      -431602080. -431602080. -431602080. -431602080. -431602080.
      -431602080. -431602080. -431602080. -431602080. -431602080.
      -431602080. -431602080. -431602080. -431602080. -431602080.
      -431602080. -431602080. -431602080. -431602080. -431602080.
      -431602080. -431602080. -431602080. -431602080. -431602080.
      -431602080. -431602080. -431602080. -431602080. -431602080.
      -431602080. -431602080. -431602080. -431602080. -431602080.
      -431602080. -431602080. -431602080. -431602080. -431602080.
      -431602080. -431602080. -431602080. -431602080. -431602080.
      -431602080. -431602080. -431602080. -431602080. -431602080.
      -431602080. -431602080. -431602080. -431602080. -431602080.
      -431602080. -431602080. -431602080. -431602080. -431602080.
      -431602080. -431602080. -431602080. -431602080. -431602080.
      -431602080. -431602080. -431602080. -431602080. -431602080.
      -431602080. -431602080. -431602080. -431602080. -431602080.
      -431602080. -431602080. -431602080. -431602080. -431602080.
      -431602080. -431602080. -431602080. -431602080. -431602080.
      -431602080. -431602080. -431602080. -431602080. -431602080.
      -431602080. -431602080. -431602080. -431602080. -431602080.
      -431602080. -431602080. -431602080. -431602080. -431602080.
      -431602080. -431602080. -431602080. -431602080. -431602080.
      -431602080. -431602080. -431602080. -431602080. -431602080.
      -431602080. -431602080. -431602080. -431602080. -431602080.
      -431602080. -431602080. -431602080. -431602080. -431602080.
      -431602080. -431602080. -431602080. -431602080. -431602080.
      -431602080. -431602080. -431602080. -431602080. -431602080.
      -431602080. -431602080. -431602080. -431602080. -431602080.
      -431602080. -431602080. -431602080. -431602080. -431602080.
      -431602080. -431602080. -431602080. -431602080. -431602080.
      -431602080. -431602080. -431602080. -431602080. -431602080.
      -431602080. -431602080. -431602080. -431602080. -431602080.
      -431602080. -431602080. -431602080. -431602080. -431602080.
      -431602080. -431602080. -431602080. -431602080. -431602080.
      -431602080. -431602080. -431602080. -431602080. -431602080.
      -431602080. -431602080. -431602080. -431602080. -431602080.
      -431602080. -431602080. -431602080. -431602080. -431602080.
      -431602080. -431602080. -431602080. -431602080. -431602080.
      -431602080. -431602080. -431602080. -431602080. -431602080.
      -431602080. -431602080. -431602080. -431602080. -431602080.
      -431602080. -431602080. -431602080. -431602080. -431602080.
      -431602080. -431602080. -431602080. -431602080. -431602080.
      -431602080. -431602080. -431602080. -431602080. -431602080.
      -431602080. -431602080. -431602080. -431602080. -431602080.
      -431602080. -431602080. -431602080. -431602080. -431602080.
      -431602080. -431602080. -431602080. -431602080. -431602080.
      -431602080. -431602080. -431602080. -431602080. -431602080.
      -431602080. -431602080. -431602080. -431602080. -431602080.
      -431602080. -431602080. -431602080. -431602080. -431602080.
      -431602080. -431602080. -431602080. -431602080. -431602080.
      -431602080. -431602080. -431602080. -431602080. -431602080.
      -431602080. -431602080. -431602080. -431602080. -431602080.
      -431602080. -431602080. -431602080. -431602080. -431602080.
      -431602080. -431602080. -431602080. -431602080. -431602080.
      -431602080. -431602080. -431602080. -431602080. -431602080.
      -431602080. -431602080. -431602080. -431602080. -431602080.
      -431602080. -431602080. -431602080. -431602080. -431602080.
      -431602080. -431602080. -431602080. -431602080. -431602080.
      -431602080. -431602080. -431602080. -431602080. -431602080.
      -431602080. -431602080. -431602080. -431602080. -431602080.
      -431602080. -431602080. -431602080. -431602080. -431602080.
      -431602080. -431602080. -431602080. -431602080. -431602080.
      -431602080. -431602080. -431602080. -431602080. -431602080.
      -431602080. -431602080. -431602080. -431602080. -431602080.
      -431602080. -431602080. -431602080. -431602080. -431602080.
      -431602080. -431602080. -431602080. -431602080. -431602080.
      -431602080. -431602080. -431602080. -431602080. -431602080.
      -431602080. -431602080. -431602080. -431602080. -431602080.
      -431602080. -431602080. -431602080. -431602080. -431602080.
      -431602080. -431602080. -431602080. -431602080. -431602080.
      -431602080. -431602080. -431602080. -431602080. -431602080.
      -431602080. -431602080. -431602080. -431602080. -431602080.
      -431602080. -431602080. -431602080. -431602080. -431602080.
      -431602080. -431602080. -431602080. -431602080. -431602080.
      -431602080. -431602080. -431602080. -431602080. -431602080.
      -431602080. -431602080. -431602080. -431602080. -431602080.
      -431602080. -431602080. -431602080. -431602080. -431602080.
      -431602080. -431602080. -431602080. -431602080. -431602080.
      -431602080. -431602080. -431602080. -431602080. -431602080.
      -431602080. -431602080. -431602080. -431602080. -431602080.
      -431602080. -431602080. -431602080. -431602080. -431602080.
      -431602080. -431602080. -431602080. -431602080. -431602080.
      -431602080. -431602080. -431602080. -431602080. -431602080.
      -431602080. -431602080. -431602080. -431602080. -431602080.
      -431602080. -431602080. -431602080. -431602080. -431602080.
      -431602080. -431602080. -431602080. -431602080. -431602080.
      -431602080. -431602080. -431602080. -431602080. -431602080.
      -431602080. -431602080. -431602080. -431602080. -431602080.
      -431602080. -431602080. -431602080. -431602080. -431602080.
      -431602080. -431602080. -431602080. -431602080. -431602080.
      -431602080. -431602080. -431602080. -431602080. -431602080.
      -431602080. -431602080. -431602080. -431602080. -431602080.
      -431602080. -431602080. -431602080. -431602080. -431602080.
      -431602080. -431602080. -431602080. -431602080. -431602080.
      -431602080. -431602080. -431602080. -431602080. -431602080.
      -431602080. -431602080. -431602080. -431602080. -431602080.
      -431602080. -431602080. -431602080. -431602080. -431602080.
      -431602080. -431602080. -431602080. -431602080. -431602080.
      -431602080. -431602080. -431602080. -431602080. -431602080.
      -431602080. -431602080. -431602080. -431602080. -431602080.
      -431602080. -431602080. -431602080. -431602080. -431602080.
      -431602080. -431602080. -431602080. -431602080. -431602080.
      -431602080. -431602080. -431602080. -431602080. -431602080.
      -431602080. -431602080. -431602080. -431602080. -431602080.
      -431602080. -431602080. -431602080. -431602080. -431602080.
      -431602080. -431602080. -431602080. -431602080. -431602080.
      -431602080. -431602080. -431602080. -431602080. -431602080.
      -431602080. -431602080. -431602080. -431602080. -431602080.
      -431602080. -431602080. -431602080. -431602080. -431602080.
      -431602080. -431602080. -431602080. -431602080. -431602080.
      -431602080. -431602080. -431602080. -431602080. -431602080.
      -431602080. -431602080. -431602080. -431602080. -431602080.
      -431602080. -431602080. -431602080. -431602080. -431602080.
      -431602080. -431602080. -431602080. -431602080. -431602080.
      -431602080. -431602080. -431602080. -431602080. -431602080.
      -431602080. -431602080. -431602080. -431602080. -431602080.
      -431602080. -431602080. -431602080. -431602080. -431602080.
      -431602080. -431602080. -431602080. -431602080. -431602080.
      -431602080. -431602080. -431602080. -431602080. -431602080.
      -431602080. -431602080. -431602080. -431602080. -431602080.
      -431602080. -431602080. -431602080. -431602080. -431602080.
      -431602080. -431602080. -431602080. -431602080. -431602080.
      -431602080. -431602080. -431602080. -431602080. -431602080.
      -431602080. -431602080. -431602080. -431602080. -431602080.
      -431602080. -431602080. -431602080. -431602080. -431602080.
      -431602080. -431602080. -431602080. -431602080. -431602080.
      -431602080. -431602080. -431602080. -431602080. -431602080.
      -431602080. -431602080. -431602080. -431602080. -431602080.
      -431602080. -431602080. -431602080. -431602080. -431602080.
      -431602080. -431602080. -431602080. -431602080. -431602080.
      -431602080. -431602080. -431602080. -431602080. -431602080.
      -431602080. -431602080. -431602080. -431602080. -431602080.
      -431602080. -431602080. -431602080. -431602080. -431602080.
      -431602080. -431602080. -431602080. -431602080. -431602080.
      -431602080. -431602080. -431602080. -431602080. -431602080.
      -431602080. -431602080. -431602080. -431602080. -431602080.
      -431602080. -431602080. -431602080. -431602080. -431602080.
      -431602080. -431602080. -431602080. -431602080. -431602080.
      -431602080. -431602080. -431602080. -431602080. -431602080.
      -431602080. -431602080. -431602080. -431602080. -431602080.
      -431602080. -431602080. -431602080. -431602080. -431602080.
      -431602080. -431602080. -431602080. -431602080. -431602080.
      -431602080. -431602080. -431602080. -431602080. -431602080.
      -431602080. -431602080. -431602080. -431602080. -431602080.
      -431602080. -431602080. -431602080. -431602080. -431602080.
      -431602080. -431602080. -431602080. -431602080. -431602080.
      -431602080. -431602080. -431602080. -431602080. -431602080.
      -431602080. -431602080. -431602080. -431602080. -431602080.
      -431602080. -431602080. -431602080. -431602080. -431602080.
      -431602080. -431602080. -431602080. -431602080. -431602080.
      -431602080. -431602080. -431602080. -431602080. -431602080.
      -431602080. -431602080. -431602080. -431602080. -431602080.
      -431602080. -431602080. -431602080. -431602080. -431602080.
      -431602080. -431602080. -431602080. -431602080. -431602080.
      -431602080. -431602080. -431602080. -431602080. -431602080.
      -431602080. -431602080. -431602080. -431602080. -431602080.
      -431602080. -431602080. -431602080. -431602080. -431602080.
      -431602080. -431602080. -431602080. -431602080. -431602080.
      -431602080. -431602080. -431602080. -431602080. -431602080.
      -431602080. -431602080. -431602080. -431602080. -431602080.
      -431602080. -431602080. -431602080. -431602080. -431602080.
      -431602080. -431602080. -431602080. -431602080. -431602080.
      -431602080. -431602080. -431602080. -431602080. -431602080.
      -431602080. -431602080. -431602080. -431602080. -431602080.
      -431602080. -431602080. -431602080. -431602080. -431602080.
      -431602080. -431602080. -431602080. -431602080. -431602080.
      -431602080. -431602080. -431602080. -431602080. -431602080.
      -431602080. -431602080. -431602080. -431602080. -431602080.
      -431602080. -431602080. -431602080. -431602080. -431602080.
      -431602080. -431602080. -431602080. -431602080. -431602080.
      -431602080. -431602080. -431602080. -431602080. -431602080.
      -431602080. -431602080. -431602080. -431602080. -431602080.
      -431602080. -431602080. -431602080. -431602080. -431602080.
      -431602080. -431602080. -431602080. -431602080. -431602080.
      -431602080. -431602080. -431602080. -431602080. -431602080.
      -431602080. -431602080. -431602080. -431602080. -431602080.
      -431602080. -431602080. -431602080. -431602080. -431602080.
      -431602080. -431602080. -431602080. -431602080. -431602080.
      -431602080. -431602080. -431602080. -431602080. -431602080.
      -431602080. -431602080. -431602080. -431602080. -431602080.
      -431602080. -431602080. -431602080. -431602080. -431602080.
      -431602080. -431602080. -431602080. -431602080. -431602080.
      -431602080. -431602080. -431602080. -431602080. -431602080.
      -431602080. -431602080. -431602080. -431602080. -431602080.
      -431602080. -431602080. -431602080. -431602080. -431602080.
      -431602080. -431602080. -431602080. -431602080. -431602080.
      -431602080. -431602080. -431602080. -431602080. -431602080.
      -431602080. -431602080. -431602080. -431602080. -431602080.
      -431602080. -431602080. -431602080. -431602080. -431602080.
      -431602080. -431602080. -431602080. -431602080. -431602080.
      -431602080. -431602080. -431602080. -431602080. -431602080.
      -431602080. -431602080. -431602080. -431602080. -431602080.
      -431602080. -431602080. -431602080. -431602080. -431602080.
      -431602080. -431602080. -431602080. -431602080. -431602080.
      -431602080. -431602080. -431602080. -431602080. -431602080.
      -431602080. -431602080. -431602080. -431602080. -431602080.
      -431602080. -431602080. -431602080. -431602080. -431602080.
      -431602080. -431602080. -431602080. -431602080. -431602080.
      -431602080. -431602080. -431602080. -431602080. -431602080.
      -431602080. -431602080. -431602080. -431602080. -431602080.
      -431602080. -431602080. -431602080. -431602080. -431602080.
      -431602080. -431602080. -431602080. -431602080. -431602080.
      -431602080. -431602080. -431602080. -431602080. -431602080.
      -431602080. -431602080. -431602080. -431602080. -431602080.
      -431602080. -431602080. -431602080. -431602080. -431602080.
      -431602080. -431602080. -431602080. -431602080. -431602080.
      -431602080. -431602080. -431602080. -431602080. -431602080.
      -431602080. -431602080. -431602080. -431602080. -431602080.
      -431602080. -431602080. -431602080. -431602080. -431602080.
      -431602080. -431602080. -431602080. -431602080. -431602080.
      -431602080. -431602080. -431602080. -431602080. -431602080.
      -431602080. -431602080. -431602080. -431602080. -431602080.
      -431602080. -431602080. -431602080. -431602080. -431602080.
      -431602080. -431602080. -431602080. -431602080. -431602080.
      -431602080. -431602080. -431602080. -431602080. -431602080.
      -431602080. -431602080. -431602080. -431602080. -431602080.
      -431602080. -431602080. -431602080. -431602080. -431602080.
      -431602080. -431602080. -431602080. -431602080. -431602080.
      -431602080. -431602080. -431602080. -431602080. -431602080.
      -431602080. -431602080. -431602080. -431602080. -431602080.
      -431602080. -431602080. -431602080. -431602080. -431602080.
      -431602080. -431602080. -431602080. -431602080. -431602080.
      -431602080. -431602080. -431602080. -431602080. -431602080.
      -431602080. -431602080. -431602080. -431602080. -431602080.
      -431602080. -431602080. -431602080. -431602080. -431602080.
      -431602080. -431602080. -431602080. -431602080. -431602080.
      -431602080. -431602080. -431602080. -431602080. -431602080.
      -431602080. -431602080. -431602080. -431602080. -431602080.
      -431602080. -431602080. -431602080. -431602080. -431602080.
      -431602080. -431602080. -431602080. -431602080. -431602080.
      -431602080. -431602080. -431602080. -431602080. -431602080.
      -431602080. -431602080. -431602080. -431602080. -431602080.
      -431602080. -431602080. -431602080. -431602080. -431602080.
      -431602080. -431602080. -431602080. -431602080. -431602080.
      -431602080. -431602080. -431602080. -431602080. -431602080.
      -431602080. -431602080. -431602080. -431602080. -431602080.
      -431602080. -431602080. -431602080. -431602080. -431602080.
      -431602080. -431602080. -431602080. -431602080. -431602080.
      -431602080. -431602080. -431602080. -431602080. -431602080.
      -431602080. -431602080. -431602080. -431602080. -431602080.
      -431602080. -431602080. -431602080. -431602080. -431602080.
      -431602080. -431602080. -431602080. -431602080. -431602080.
      -431602080. -431602080. -431602080. -431602080. -431602080.
      -431602080. -431602080. -431602080. -431602080. -431602080.
      -431602080. -431602080. -431602080. -431602080. -431602080.
      -431602080. -431602080. -431602080. -431602080. -431602080.
      -431602080. -431602080. -431602080. -431602080. -431602080.
      -431602080. -431602080. -431602080. -431602080. -431602080.
      -431602080. -431602080. -431602080. -431602080. -431602080.
      -431602080. -431602080. -431602080. -431602080. -431602080.
      -431602080. -431602080. -431602080. -431602080. -431602080.
      -431602080. -431602080. -431602080. -431602080. -431602080.
      -431602080. -431602080. -431602080. -431602080. -431602080.
      -431602080. -431602080. -431602080. -431602080. -431602080.
      -431602080. -431602080. -431602080. -431602080. -431602080.
      -431602080. -431602080. -431602080. -431602080. -431602080.
      -431602080. -431602080. -431602080. -431602080. -431602080.
      -431602080. -431602080. -431602080. -431602080. -431602080.
      -431602080. -431602080. -431602080. -431602080. -431602080.
      -431602080. -431602080. -431602080. -431602080. -431602080.
      -431602080. -431602080. -431602080. -431602080. -431602080.
      -431602080. -431602080. -431602080. -431602080. -431602080.
      -431602080. -431602080. -431602080. -431602080. -431602080.
      -431602080. -431602080. -431602080. -431602080. -431602080.
      -431602080. -431602080. -431602080. -431602080. -431602080.
      -431602080. -431602080. -431602080. -431602080. -431602080.
      -431602080. -431602080. -431602080. -431602080. -431602080.
      -431602080. -431602080. -431602080. -431602080. -431602080.
      -431602080. -431602080. -431602080. -431602080. -431602080.
      -431602080. -431602080. -431602080. -431602080. -431602080.
      -431602080. -431602080. -431602080. -431602080. -431602080.
      -431602080. -431602080. -431602080. -431602080. -431602080.
      -431602080. -431602080. -431602080. -431602080. -431602080.
      -431602080. -431602080. -431602080. -431602080. -431602080.
      -431602080. -431602080. -431602080. -431602080. -431602080.
      -431602080. -431602080. -431602080. -431602080. -431602080.
      -431602080. -431602080. -431602080. -431602080. -431602080.
      -431602080. -431602080. -431602080. -431602080. -431602080.
      -431602080. -431602080. -431602080. -431602080. -431602080.
      -431602080. -431602080. -431602080. -431602080. -431602080.
      -431602080. -431602080. -431602080. -431602080. -431602080.
      -431602080. -431602080. -431602080. -431602080. -431602080.
      -431602080. -431602080. -431602080. -431602080. -431602080.
      -431602080. -431602080. -431602080. -431602080. -431602080.
      -431602080. -431602080. -431602080. -431602080. -431602080.
      -431602080. -431602080. -431602080. -431602080. -431602080.
      -431602080. -431602080. -431602080. -431602080. -431602080.
      -431602080. -431602080. -431602080. -431602080. -431602080.
      -431602080. -431602080. -431602080. -431602080. -431602080.
      -431602080. -431602080. -431602080. -431602080. -431602080.
      -431602080. -431602080. -431602080. -431602080. -431602080.
      -431602080. -431602080. -431602080. -431602080. -431602080.
      -431602080. -431602080. -431602080. -431602080. -431602080.
      -431602080. -431602080. -431602080. -431602080. -431602080.
      -431602080. -431602080. -431602080. -431602080. -431602080.
      -431602080. -431602080. -431602080. -431602080. -431602080.
      -431602080. -431602080. -431602080. -431602080. -431602080.
      -431602080. -431602080. -431602080. -431602080. -431602080.
      -431602080. -431602080. -431602080. -431602080. -431602080.
      -431602080. -431602080. -431602080. -431602080. -431602080.
      -431602080. -431602080. -431602080. -431602080. -431602080.
      -431602080. -431602080. -431602080. -431602080. -431602080.
      -431602080. -431602080. -431602080. -431602080. -431602080.
      -431602080. -431602080. -431602080. -431602080. -431602080.
      -431602080. -431602080. -431602080. -431602080. -431602080.
      -431602080. -431602080. -431602080. -431602080. -431602080.
      -431602080. -431602080. -431602080. -431602080. -431602080.
      -431602080. -431602080. -431602080. -431602080. -431602080.
      -431602080. -431602080. -431602080. -431602080. -431602080.
      -431602080. -431602080. -431602080. -431602080. -431602080.
      -431602080. -431602080. -431602080. -431602080. -431602080.
      -431602080. -431602080. -431602080. -431602080. -431602080.
      -431602080. -431602080. -431602080. -431602080. -431602080.
      -431602080. -431602080. -431602080. -431602080. -431602080.
      -431602080. -431602080. -431602080. -431602080. -431602080.
      -431602080. -431602080. -431602080. -431602080. -431602080.
      -431602080. -431602080. -431602080. -431602080. -431602080.
      -431602080. -431602080. -431602080. -431602080. -431602080.
      -431602080. -431602080. -431602080. -431602080. -431602080.
      -431602080. -431602080. -431602080. -431602080. -431602080.
      -431602080. -431602080. -431602080. -431602080. -431602080.
      -431602080. -431602080. -431602080. -431602080. -431602080.
      -431602080. -431602080. -431602080. -431602080. -431602080.
      -431602080. -431602080. -431602080. -431602080. -431602080.
      -431602080. -431602080. -431602080. -431602080. -431602080.
      -431602080. -431602080. -431602080. -431602080. -431602080.
      -431602080. -431602080. -431602080. -431602080. -431602080.
      -431602080. -431602080. -431602080. -431602080. -431602080.
      -431602080. -431602080. -431602080. -431602080. -431602080.
      -431602080. -431602080. -431602080. -431602080. -431602080.
      -431602080. -431602080. -431602080. -431602080. -431602080.
      -431602080. -431602080. -431602080. -431602080. -431602080.
      -431602080. -431602080. -431602080. -431602080. -431602080.
      -431602080. -431602080. -431602080. -431602080. -431602080.
      -431602080. -431602080. -431602080. -431602080. -431602080.
      -431602080. -431602080. -431602080. -431602080. -431602080.
      -431602080. -431602080. -431602080. -431602080. -431602080.
      -431602080. -431602080. -431602080. -431602080. -431602080.
      -431602080. -431602080. -431602080. -431602080. -431602080.
      -431602080. -431602080. -431602080. -431602080. -431602080.
      -431602080. -431602080. -431602080. -431602080. -431602080.
      -431602080. -431602080. -431602080. -431602080. -431602080.
      -431602080. -431602080. -431602080. -431602080. -431602080.
      -431602080. -431602080. -431602080. -431602080. -431602080.
      -431602080. -431602080. -431602080. -431602080. -431602080.
      -431602080. -431602080. -431602080. -431602080. -431602080.
      -431602080. -431602080. -431602080. -431602080. -431602080.
      -431602080. -431602080. -431602080. -431602080. -431602080.
      -431602080. -431602080. -431602080. -431602080. -431602080.
      -431602080. -431602080. -431602080. -431602080. -431602080.
      -431602080. -431602080. -431602080. -431602080. -431602080.
      -431602080. -431602080. -431602080. -431602080. -431602080.
      -431602080. -431602080. -431602080. -431602080. -431602080.
      -431602080. -431602080. -431602080. -431602080. -431602080.
      -431602080. -431602080. -431602080. -431602080. -431602080.
      -431602080. -431602080. -431602080. -431602080. -431602080.
      -431602080. -431602080. -431602080. -431602080. -431602080.
      -431602080. -431602080. -431602080. -431602080. -431602080.
      -431602080. -431602080. -431602080. -431602080. -431602080.
      -431602080. -431602080. -431602080. -431602080. -431602080.
      -431602080. -431602080. -431602080. -431602080. -431602080.
      -431602080. -431602080. -431602080. -431602080. -431602080.
      -431602080. -431602080. -431602080. -431602080. -431602080.
      -431602080. -431602080. -431602080. -431602080. -431602080.
      -431602080. -431602080. -431602080. -431602080. -431602080.
      -431602080. -431602080. -431602080. -431602080. -431602080.
      -431602080. -431602080. -431602080. -431602080. -431602080.
      -431602080. -431602080. -431602080. -431602080. -431602080.
      -431602080. -431602080. -431602080. -431602080. -431602080.
      -431602080. -431602080. -431602080. -431602080. -431602080.
      -431602080. -431602080. -431602080. -431602080. -431602080.
      -431602080. -431602080. -431602080. -431602080. -431602080.
      -431602080. -431602080. -431602080. -431602080. -431602080.
      -431602080. -431602080. -431602080. -431602080. -431602080.
      -431602080. -431602080. -431602080. -431602080. -431602080.
      -431602080. -431602080. -431602080. -431602080. -431602080.
      -431602080. -431602080. -431602080. -431602080. -431602080.
      -431602080. -431602080. -431602080. -431602080. -431602080.
      -431602080. -431602080. -431602080. -431602080. -431602080.
      -431602080. -431602080. -431602080. -431602080. -431602080.
      -431602080. -431602080. -431602080. -431602080. -431602080.
      -431602080. -431602080. -431602080. -431602080. -431602080.
      -431602080. -431602080. -431602080. -431602080. -431602080.
      -431602080. -431602080. -431602080. -431602080. -431602080.
      -431602080. -431602080. -431602080. -431602080. -431602080.
      -431602080. -431602080. -431602080. -431602080. -431602080.
      -431602080. -431602080. -431602080. -431602080. -431602080.
      -431602080. -431602080. -431602080. -431602080. -431602080.
      -431602080. -431602080. -431602080. -431602080. -431602080.
      -431602080. -431602080. -431602080. -431602080. -431602080.
      -431602080. -431602080. -431602080. -431602080. -431602080.
      -431602080. -431602080. -431602080. -431602080. -431602080.
      -431602080. -431602080. -431602080. -431602080. -431602080.
      -431602080. -431602080. -431602080. -431602080. -431602080.
      -431602080. -431602080. -431602080. -431602080. -431602080.
      -431602080. -431602080. -431602080. -431602080. -431602080.
      -431602080. -431602080. -431602080. -431602080. -431602080.
      -431602080. -431602080. -431602080. -431602080. -431602080.
      -431602080. -431602080. -431602080. -431602080. -431602080.
      -431602080. -431602080. -431602080. -431602080. -431602080.
      -431602080. -431602080. -431602080. -431602080. -431602080.
      -431602080. -431602080. -431602080. -431602080. -431602080.
      -431602080. -431602080. -431602080. -431602080. -431602080.
      -431602080. -431602080. -431602080. -431602080. -431602080.
      -431602080. -431602080. -431602080. -431602080. -431602080.
      -431602080. -431602080. -431602080. -431602080. -431602080.
      -431602080. -431602080. -431602080. -431602080. -431602080.
      -431602080. -431602080. -431602080. -431602080. -431602080.
      -431602080. -431602080. -431602080. -431602080. -431602080.
      -431602080. -431602080. -431602080. -431602080. -431602080.
      -431602080. -431602080. -431602080. -431602080. -431602080.
      -431602080. -431602080. -431602080. -431602080. -431602080.
      -431602080. -431602080. -431602080. -431602080. -431602080.
      -431602080. -431602080. -431602080. -431602080. -431602080.
      -431602080. -431602080. -431602080. -431602080. -431602080.
      -431602080. -431602080. -431602080. -431602080. -431602080.
      -431602080. -431602080. -431602080. -431602080. -431602080.
      -431602080. -431602080. -431602080. -431602080. -431602080.
      -431602080. -431602080. -431602080. -431602080. -431602080.
      -431602080. -431602080. -431602080. -431602080. -431602080.
      -431602080. -431602080. -431602080. -431602080. -431602080.
      -431602080. -431602080. -431602080. -431602080. -431602080.
      -431602080. -431602080. -431602080. -431602080. -431602080.
      -431602080. -431602080. -431602080. -431602080. -431602080.
      -431602080. -431602080. -431602080. -431602080. -431602080.
      -431602080. -431602080. -431602080. -431602080. -431602080.
      -431602080. -431602080. -431602080. -431602080. -431602080.
      -431602080. -431602080. -431602080. -431602080. -431602080.
      -431602080. -431602080. -431602080. -431602080. -431602080.
      -431602080. -431602080. -431602080. -431602080. -431602080.
      -431602080. -431602080. -431602080. -431602080. -431602080.
      -431602080. -431602080. -431602080. -431602080. -431602080.
      -431602080. -431602080. -431602080. -431602080. -431602080.
      -431602080. -431602080. -431602080. -431602080. -431602080.
      -431602080. -431602080. -431602080. -431602080. -431602080.
      -431602080. -431602080. -431602080. -431602080. -431602080.
      -431602080. -431602080. -431602080. -431602080. -431602080.
      -431602080. -431602080. -431602080. -431602080. -431602080.
      -431602080. -431602080. -431602080. -431602080. -431602080.
      -431602080. -431602080. -431602080. -431602080. -431602080.
      -431602080. -431602080. -431602080. -431602080. -431602080.
      -431602080. -431602080. -431602080. -431602080. -431602080.
      -431602080. -431602080. -431602080. -431602080. -431602080.
      -431602080. -431602080. -431602080. -431602080. -431602080.
      -431602080. -431602080. -431602080. -431602080. -431602080.
      -431602080. -431602080. -431602080. -431602080. -431602080.
      -431602080. -431602080. -431602080. -431602080. -431602080.
      -431602080. -431602080. -431602080. -431602080. -431602080.
      -431602080. -431602080. -431602080. -431602080. -431602080.
      -431602080. -431602080. -431602080. -431602080. -431602080.
      -431602080. -431602080. -431602080. -431602080. -431602080.
      -431602080. -431602080. -431602080. -431602080. -431602080.
      -431602080. -431602080. -431602080. -431602080. -431602080.
      -431602080. -431602080. -431602080. -431602080. -431602080.
      -431602080. -431602080. -431602080. -431602080. -431602080.
      -431602080. -431602080. -431602080. -431602080. -431602080.
      -431602080. -431602080. -431602080. -431602080. -431602080.
      -431602080. -431602080. -431602080. -431602080. -431602080.
      -431602080. -431602080. -431602080. -431602080. -431602080.
      -431602080. -431602080. -431602080. -431602080. -431602080.
      -431602080. -431602080. -431602080. -431602080. -431602080.
      -431602080. -431602080. -431602080. -431602080. -431602080.
      -431602080. -431602080. -431602080. -431602080. -431602080.
      -431602080. -431602080. -431602080. -431602080. -431602080.
      -431602080. -431602080. -431602080. -431602080. -431602080.
      -431602080. -431602080. -431602080. -431602080. -431602080.
      -431602080. -431602080. -431602080. -431602080. -431602080.
      -431602080. -431602080. -431602080. -431602080. -431602080.
      -431602080. -431602080. -431602080. -431602080. -431602080.
      -431602080. -431602080. -431602080. -431602080. -431602080.
      -431602080. -431602080. -431602080. -431602080. -431602080.
      -431602080. -431602080. -431602080. -431602080. -431602080.
      -431602080. -431602080. -431602080. -431602080. -431602080.
      -431602080. -431602080. -431602080. -431602080. -431602080.
      -431602080. -431602080. -431602080. -431602080. -431602080.
      -431602080. -431602080. -431602080. -431602080. -431602080.
      -431602080. -431602080. -431602080. -431602080. -431602080.
      -431602080. -431602080. -431602080. -431602080. -431602080.
      -431602080. -431602080. -431602080. -431602080. -431602080.
      -431602080. -431602080. -431602080. -431602080. -431602080.
      -431602080. -431602080. -431602080. -431602080. -431602080.
      -431602080. -431602080. -431602080. -431602080. -431602080.
      -431602080. -431602080. -431602080. -431602080. -431602080.
      -431602080. -431602080. -431602080. -431602080. -431602080.
      -431602080. -431602080. -431602080. -431602080. -431602080.
      -431602080. -431602080. -431602080. -431602080. -431602080.
      -431602080. -431602080. -431602080. -431602080. -431602080.
      -431602080. -431602080. -431602080. -431602080. -431602080.
      -431602080. -431602080. -431602080. -431602080. -431602080.
      -431602080. -431602080. -431602080. -431602080. -431602080.
      -431602080. -431602080. -431602080. -431602080. -431602080.
      -431602080. -431602080. -431602080. -431602080. -431602080.
      -431602080. -431602080. -431602080. -431602080. -431602080.
      -431602080. -431602080. -431602080. -431602080. -431602080.
      -431602080. -431602080. -431602080. -431602080. -431602080.
      -431602080. -431602080. -431602080. -431602080. -431602080.
      -431602080. -431602080. -431602080. -431602080. -431602080.
      -431602080. -431602080. -431602080. -431602080. -431602080.
      -431602080. -431602080. -431602080. -431602080. -431602080.
      -431602080. -431602080. -431602080. -431602080. -431602080.
      -431602080. -431602080. -431602080. -431602080. -431602080.
      -431602080. -431602080. -431602080. -431602080. -431602080.
      -431602080. -431602080. -431602080. -431602080. -431602080.
      -431602080. -431602080. -431602080. -431602080. -431602080.
      -431602080. -431602080. -431602080. -431602080. -431602080.
      -431602080. -431602080. -431602080. -431602080. -431602080.
      -431602080. -431602080. -431602080. -431602080. -431602080.
      -431602080. -431602080. -431602080. -431602080. -431602080.
      -431602080. -431602080. -431602080. -431602080. -431602080.
      -431602080. -431602080. -431602080. -431602080. -431602080.
      -431602080. -431602080. -431602080. -431602080. -431602080.
      -431602080. -431602080. -431602080. -431602080. -431602080.
      -431602080. -431602080. -431602080. -431602080. -431602080.
      -431602080. -431602080. -431602080. -431602080. -431602080.
      -431602080. -431602080. -431602080. -431602080. -431602080.
      -431602080. -431602080. -431602080. -431602080. -431602080.
      -431602080. -431602080. -431602080. -431602080. -431602080.
      -431602080. -431602080. -431602080. -431602080. -431602080.
      -431602080. -431602080. -431602080. -431602080. -431602080.
      -431602080. -431602080. -431602080. -431602080. -431602080.
      -431602080. -431602080. -431602080. -431602080. -431602080.
      -431602080. -431602080. -431602080. -431602080. -431602080.
      -431602080. -431602080. -431602080. -431602080. -431602080.
      -431602080. -431602080. -431602080. -431602080. -431602080.
      -431602080. -431602080. -431602080. -431602080. -431602080.
      -431602080. -431602080. -431602080. -431602080. -431602080.
      -431602080. -431602080. -431602080. -431602080. -431602080.
      -431602080. -431602080. -431602080. -431602080. -431602080.
      -431602080. -431602080. -431602080. -431602080. -431602080.
      -431602080. -431602080. -431602080. -431602080. -431602080.
      -431602080. -431602080. -431602080. -431602080. -431602080.
      -431602080. -431602080. -431602080. -431602080. -431602080.
      -431602080. -431602080. -431602080. -431602080. -431602080.
      -431602080. -431602080. -431602080. -431602080. -431602080.
      -431602080. -431602080. -431602080. -431602080. -431602080.
      -431602080. -431602080. -431602080. -431602080. -431602080.
      -431602080. -431602080. -431602080. -431602080. -431602080.
      -431602080. -431602080. -431602080. -431602080. -431602080.
      -431602080. -431602080. -431602080. -431602080. -431602080.
      -431602080. -431602080. -431602080. -431602080. -431602080.
      -431602080. -431602080. -431602080. -431602080. -431602080.
      -431602080. -431602080. -431602080. -431602080. -431602080.
      -431602080. -431602080. -431602080. -431602080. -431602080.
      -431602080. -431602080. -431602080. -431602080. -431602080.
      -431602080. -431602080. -431602080. -431602080. -431602080.
      -431602080. -431602080. -431602080. -431602080. -431602080.
      -431602080. -431602080. -431602080. -431602080. -431602080.
      -431602080. -431602080. -431602080. -431602080. -431602080.
      -431602080. -431602080. -431602080. -431602080. -431602080.
      -431602080. -431602080. -431602080. -431602080. -431602080.
      -431602080. -431602080. -431602080. -431602080. -431602080.
      -431602080. -431602080. -431602080. -431602080. -431602080.
      -431602080. -431602080. -431602080. -431602080. -431602080.
      -431602080. -431602080. -431602080. -431602080. -431602080.
      -431602080. -431602080. -431602080. -431602080. -431602080.
      -431602080. -431602080. -431602080. -431602080. -431602080.
      -431602080. -431602080. -431602080. -431602080. -431602080.
      -431602080. -431602080. -431602080. -431602080. -431602080.
      -431602080. -431602080. -431602080. -431602080. -431602080.
      -431602080. -431602080. -431602080. -431602080. -431602080.
      -431602080. -431602080. -431602080. -431602080. -431602080.
      -431602080. -431602080. -431602080. -431602080. -431602080.
      -431602080. -431602080. -431602080. -431602080. -431602080.
      -431602080. -431602080. -431602080. -431602080. -431602080.
      -431602080. -431602080. -431602080. -431602080. -431602080.
      -431602080. -431602080. -431602080. -431602080. -431602080.
      -431602080. -431602080. -431602080. -431602080. -431602080.
      -431602080. -431602080. -431602080. -431602080. -431602080.
      -431602080. -431602080. -431602080. -431602080. -431602080.
      -431602080. -431602080. -431602080. -431602080. -431602080.
      -431602080. -431602080. -431602080. -431602080. -431602080.
      -431602080. -431602080. -431602080. -431602080. -431602080.
      -431602080. -431602080. -431602080. -431602080. -431602080.
      -431602080. -431602080. -431602080. -431602080. -431602080.
      -431602080. -431602080. -431602080. -431602080. -431602080.
      -431602080. -431602080. -431602080. -431602080. -431602080.
      -431602080. -431602080. -431602080. -431602080. -431602080.
      -431602080. -431602080. -431602080. -431602080. -431602080.
      -431602080. -431602080. -431602080. -431602080. -431602080.
      -431602080. -431602080. -431602080. -431602080. -431602080.
      -431602080. -431602080. -431602080. -431602080. -431602080.
      -431602080. -431602080. -431602080. -431602080. -431602080.
      -431602080. -431602080. -431602080. -431602080. -431602080.
      -431602080. -431602080. -431602080. -431602080. -431602080.
      -431602080. -431602080. -431602080. -431602080. -431602080.
      -431602080. -431602080. -431602080. -431602080. -431602080.
      -431602080. -431602080. -431602080. -431602080. -431602080.
      -431602080. -431602080. -431602080. -431602080. -431602080.
      -431602080. -431602080. -431602080. -431602080. -431602080.
      -431602080. -431602080. -431602080. -431602080. -431602080.
      -431602080. -431602080. -431602080. -431602080. -431602080.
      -431602080. -431602080. -431602080. -431602080. -431602080.
      -431602080. -431602080. -431602080. -431602080. -431602080.
      -431602080. -431602080. -431602080. -431602080. -431602080.
      -431602080. -431602080. -431602080. -431602080. -431602080.
      -431602080. -431602080. -431602080. -431602080. -431602080.
      -431602080. -431602080. -431602080. -431602080. -431602080.
      -431602080. -431602080. -431602080. -431602080. -431602080.
      -431602080. -431602080. -431602080. -431602080. -431602080.
      -431602080. -431602080. -431602080. -431602080. -431602080.
      -431602080. -431602080. -431602080. -431602080. -431602080.
      -431602080. -431602080. -431602080. -431602080. -431602080.
      -431602080. -431602080. -431602080. -431602080. -431602080.
      -431602080. -431602080. -431602080. -431602080. -431602080.
      -431602080. -431602080. -431602080. -431602080. -431602080.
      -431602080. -431602080. -431602080. -431602080. -431602080.
      -431602080. -431602080. -431602080. -431602080. -431602080.
      -431602080. -431602080. -431602080. -431602080. -431602080.
      -431602080. -431602080. -431602080. -431602080. -431602080.
      -431602080. -431602080. -431602080. -431602080. -431602080.
      -431602080. -431602080. -431602080. -431602080. -431602080.
      -431602080. -431602080. -431602080. -431602080. -431602080.
      -431602080. -431602080. -431602080. -431602080. -431602080.
      -431602080. -431602080. -431602080. -431602080. -431602080.
      -431602080. -431602080. -431602080. -431602080. -431602080.
      -431602080. -431602080. -431602080. -431602080. -431602080.
      -431602080. -431602080. -431602080. -431602080. -431602080.
      -431602080. -431602080. -431602080. -431602080. -431602080.
      -431602080. -431602080. -431602080. -431602080. -431602080.
      -431602080. -431602080. -431602080. -431602080. -431602080.
      -431602080. -431602080. -431602080. -431602080. -431602080.
      -431602080. -431602080. -431602080. -431602080. -431602080.
      -431602080. -431602080. -431602080. -431602080. -431602080.
      -431602080. -431602080. -431602080. -431602080. -431602080.
      -431602080. -431602080. -431602080. -431602080. -431602080.
      -431602080. -431602080. -431602080. -431602080. -431602080.
      -431602080. -431602080. -431602080. -431602080. -431602080.
      -431602080. -431602080. -431602080. -431602080. -431602080.
      -431602080. -431602080. -431602080. -431602080. -431602080.
      -431602080. -431602080. -431602080. -431602080. -431602080.
      -431602080. -431602080. -431602080. -431602080. -431602080.
      -431602080. -431602080. -431602080. -431602080. -431602080.
      -431602080. -431602080. -431602080. -431602080. -431602080.
      -431602080. -431602080. -431602080. -431602080. -431602080.
      -431602080. -431602080. -431602080. -431602080. -431602080.
      -431602080. -431602080. -431602080. -431602080. -431602080.
      -431602080. -431602080. -431602080. -431602080. -431602080.
      -431602080. -431602080. -431602080. -431602080. -431602080.
      -431602080. -431602080. -431602080. -431602080. -431602080.
      -431602080. -431602080. -431602080. -431602080. -431602080.
      -431602080. -431602080. -431602080. -431602080. -431602080.
      -431602080. -431602080. -431602080. -431602080. -431602080.
      -431602080. -431602080. -431602080. -431602080. -431602080.
      -431602080. -431602080. -431602080. -431602080. -431602080.
      -431602080. -431602080. -431602080. -431602080. -431602080.
      -431602080. -431602080. -431602080. -431602080. -431602080.
      -431602080. -431602080. -431602080. -431602080. -431602080.
      -431602080. -431602080. -431602080. -431602080. -431602080.
      -431602080. -431602080. -431602080. -431602080. -431602080.
      -431602080. -431602080. -431602080. -431602080. -431602080.
      -431602080. -431602080. -431602080. -431602080. -431602080.
      -431602080. -431602080. -431602080. -431602080. -431602080.
      -431602080. -431602080. -431602080. -431602080. -431602080.
      -431602080. -431602080. -431602080. -431602080. -431602080.
      -431602080. -431602080. -431602080. -431602080. -431602080.
      -431602080. -431602080. -431602080. -431602080. -431602080.
      -431602080. -431602080. -431602080. -431602080. -431602080.
      -431602080. -431602080. -431602080. -431602080. -431602080.
      -431602080. -431602080. -431602080. -431602080. -431602080.
      -431602080. -431602080. -431602080. -431602080. -431602080.
      -431602080. -431602080. -431602080. -431602080. -431602080.
      -431602080. -431602080. -431602080. -431602080. -431602080.
      -431602080. -431602080. -431602080. -431602080. -431602080.
      -431602080. -431602080. -431602080. -431602080. -431602080.
      -431602080. -431602080. -431602080. -431602080. -431602080.
      -431602080. -431602080. -431602080. -431602080. -431602080.
      -431602080. -431602080. -431602080. -431602080. -431602080.
      -431602080. -431602080. -431602080. -431602080. -431602080.
      -431602080. -431602080. -431602080. -431602080. -431602080.
      -431602080. -431602080. -431602080. -431602080. -431602080.
      -431602080. -431602080. -431602080. -431602080. -431602080.
      -431602080. -431602080. -431602080. -431602080. -431602080.
      -431602080. -431602080. -431602080. -431602080. -431602080.
      -431602080. -431602080. -431602080. -431602080. -431602080.
      -431602080. -431602080. -431602080. -431602080. -431602080.
      -431602080. -431602080. -431602080. -431602080. -431602080.
      -431602080. -431602080. -431602080. -431602080. -431602080.
      -431602080. -431602080. -431602080. -431602080. -431602080.
      -431602080. -431602080. -431602080. -431602080. -431602080.
      -431602080. -431602080. -431602080. -431602080. -431602080.
      -431602080. -431602080. -431602080. -431602080. -431602080.
      -431602080. -431602080. -431602080. -431602080. -431602080.
      -431602080. -431602080. -431602080. -431602080. -431602080.
      -431602080. -431602080. -431602080. -431602080. -431602080.
      -431602080. -431602080. -431602080. -431602080. -431602080.
      -431602080. -431602080. -431602080. -431602080. -431602080.
      -431602080. -431602080. -431602080. -431602080. -431602080.
      -431602080. -431602080. -431602080. -431602080. -431602080.
      -431602080. -431602080. -431602080. -431602080. -431602080.
      -431602080. -431602080. -431602080. -431602080. -431602080.
      -431602080. -431602080. -431602080. -431602080. -431602080.
      -431602080. -431602080. -431602080. -431602080. -431602080.
      -431602080. -431602080. -431602080. -431602080. -431602080.
      -431602080. -431602080. -431602080. -431602080. -431602080.
      -431602080. -431602080. -431602080. -431602080. -431602080.
      -431602080. -431602080. -431602080. -431602080. -431602080.
      -431602080. -431602080. -431602080. -431602080. -431602080.
      -431602080. -431602080. -431602080. -431602080. -431602080.
      -431602080. -431602080. -431602080. -431602080. -431602080.
      -431602080. -431602080. -431602080. -431602080. -431602080.
      -431602080. -431602080. -431602080. -431602080. -431602080.
      -431602080. -431602080. -431602080. -431602080. -431602080.
      -431602080. -431602080. -431602080. -431602080. -431602080.
      -431602080. -431602080. -431602080. -431602080. -431602080.
      -431602080. -431602080. -431602080. -431602080. -431602080.
      -431602080. -431602080. -431602080. -431602080. -431602080.
      -431602080. -431602080. -431602080. -431602080. -431602080.
      -431602080. -431602080. -431602080. -431602080. -431602080.
      -431602080. -431602080. -431602080. -431602080. -431602080.
      -431602080. -431602080. -431602080. -431602080. -431602080.
      -431602080. -431602080. -431602080. -431602080. -431602080.
      -431602080. -431602080. -431602080. -431602080. -431602080.
      -431602080. -431602080. -431602080. -431602080. -431602080.
      -431602080. -431602080. -431602080. -431602080. -431602080.
      -431602080. -431602080. -431602080. -431602080. -431602080.
      -431602080. -431602080. -431602080. -431602080. -431602080.
      -431602080. -431602080. -431602080. -431602080. -431602080.
      -431602080. -431602080. -431602080. -431602080. -431602080.
      -431602080. -431602080. -431602080. -431602080. -431602080.
      -431602080. -431602080. -431602080. -431602080. -431602080.
      -431602080. -431602080. -431602080. -431602080. -431602080.
      -431602080. -431602080. -431602080. -431602080. -431602080.
      -431602080. -431602080. -431602080. -431602080. -431602080.
      -431602080. -431602080. -431602080. -431602080. -431602080.
      -431602080. -431602080. -431602080. -431602080. -431602080.
      -431602080. -431602080. -431602080. -431602080. -431602080.
      -431602080. -431602080. -431602080. -431602080. -431602080.
      -431602080. -431602080. -431602080. -431602080. -431602080.
      -431602080. -431602080. -431602080. -431602080. -431602080.
      -431602080. -431602080. -431602080. -431602080. -431602080.
      -431602080. -431602080. -431602080. -431602080. -431602080.
      -431602080. -431602080. -431602080. -431602080. -431602080.
      -431602080. -431602080. -431602080. -431602080. -431602080.
      -431602080. -431602080. -431602080. -431602080. -431602080.
      -431602080. -431602080. -431602080. -431602080. -431602080.
      -431602080. -431602080. -431602080. -431602080. -431602080.
      -431602080. -431602080. -431602080. -431602080. -431602080.
      -431602080. -431602080. -431602080. -431602080. -431602080.
      -431602080. -431602080. -431602080. -431602080. -431602080.
      -431602080. -431602080. -431602080. -431602080. -431602080.
      -431602080. -431602080. -431602080. -431602080. -431602080.
      -431602080. -431602080. -431602080. -431602080. -431602080.
      -431602080. -431602080. -431602080. -431602080. -431602080.
      -431602080. -431602080. -431602080. -431602080. -431602080.
      -431602080. -431602080. -431602080. -431602080. -431602080.
      -431602080. -431602080. -431602080. -431602080. -431602080.
      -431602080. -431602080. -431602080. -431602080. -431602080.
      -431602080. -431602080. -431602080. -431602080. -431602080.
      -431602080. -431602080. -431602080. -431602080. -431602080.
      -431602080. -431602080. -431602080. -431602080. -431602080.
      -431602080. -431602080. -431602080. -431602080. -431602080.
      -431602080. -431602080. -431602080. -431602080. -431602080.
      -431602080. -431602080. -431602080. -431602080. -431602080.
      -431602080. -431602080. -431602080. -431602080. -431602080.
      -431602080. -431602080. -431602080. -431602080. -431602080.
      -431602080. -431602080. -431602080. -431602080. -431602080.
      -431602080. -431602080. -431602080. -431602080. -431602080.
      -431602080. -431602080. -431602080. -431602080. -431602080.
      -431602080. -431602080. -431602080. -431602080. -431602080.
      -431602080. -431602080. -431602080. -431602080. -431602080.
      -431602080. -431602080. -431602080. -431602080. -431602080.
      -431602080. -431602080. -431602080. -431602080. -431602080.
      -431602080. -431602080. -431602080. -431602080. -431602080.
      -431602080. -431602080. -431602080. -431602080. -431602080.
      -431602080. -431602080. -431602080. -431602080. -431602080.
      -431602080. -431602080. -431602080. -431602080. -431602080.
      -431602080. -431602080. -431602080. -431602080. -431602080.
      -431602080. -431602080. -431602080. -431602080. -431602080.
      -431602080. -431602080. -431602080. -431602080. -431602080.
      -431602080. -431602080. -431602080. -431602080. -431602080.
      -431602080. -431602080. -431602080. -431602080. -431602080.
      -431602080. -431602080. -431602080. -431602080. -431602080.
      -431602080. -431602080. -431602080. -431602080. -431602080.
      -431602080. -431602080. -431602080. -431602080. -431602080.
      -431602080. -431602080. -431602080. -431602080. -431602080.
      -431602080. -431602080. -431602080. -431602080. -431602080.
      -431602080. -431602080. -431602080. -431602080. -431602080.
      -431602080. -431602080. -431602080. -431602080. -431602080.
      -431602080. -431602080. -431602080. -431602080. -431602080.
      -431602080. -431602080. -431602080. -431602080. -431602080.
      -431602080. -431602080. -431602080. -431602080. -431602080.
      -431602080. -431602080. -431602080. -431602080. -431602080.
      -431602080. -431602080. -431602080. -431602080. -431602080.
      -431602080. -431602080. -431602080. -431602080. -431602080.
      -431602080. -431602080. -431602080. -431602080. -431602080.
      -431602080. -431602080. -431602080. -431602080. -431602080.
      -431602080. -431602080. -431602080. -431602080. -431602080.
      -431602080. -431602080. -431602080. -431602080. -431602080.
      -431602080. -431602080. -431602080. -431602080. -431602080.
      -431602080. -431602080. -431602080. -431602080. -431602080.
      -431602080. -431602080. -431602080. -431602080. -431602080.
      -431602080. -431602080. -431602080. -431602080. -431602080.
      -431602080. -431602080. -431602080. -431602080. -431602080.
      -431602080. -431602080. -431602080. -431602080. -431602080.
      -431602080. -431602080. -431602080. -431602080. -431602080.
      -431602080. -431602080. -431602080. -431602080. -431602080.
      -431602080. -431602080. -431602080. -431602080. -431602080.
      -431602080. -431602080. -431602080. -431602080. -431602080.
      -431602080. -431602080. -431602080. -431602080. -431602080.
      -431602080. -431602080. -431602080. -431602080. -431602080.
      -431602080. -431602080. -431602080. -431602080. -431602080.
      -431602080. -431602080. -431602080. -431602080. -431602080.
      -431602080. -431602080. -431602080. -431602080. -431602080.
      -431602080. -431602080. -431602080. -431602080. -431602080.
      -431602080. -431602080. -431602080. -431602080. -431602080.
      -431602080. -431602080. -431602080. -431602080. -431602080.
      -431602080. -431602080. -431602080. -431602080. -431602080.
      -431602080. -431602080. -431602080. -431602080. -431602080.
      -431602080. -431602080. -431602080. -431602080. -431602080.
      -431602080. -431602080. -431602080. -431602080. -431602080.
      -431602080. -431602080. -431602080. -431602080. -431602080.
      -431602080. -431602080. -431602080. -431602080. -431602080.
      -431602080. -431602080. -431602080. -431602080. -431602080.
      -431602080. -431602080. -431602080. -431602080. -431602080.
      -431602080. -431602080. -431602080. -431602080. -431602080.
      -431602080. -431602080. -431602080. -431602080. -431602080.
      -431602080. -431602080. -431602080. -431602080. -431602080.
      -431602080. -431602080. -431602080. -431602080. -431602080.
      -431602080. -431602080. -431602080. -431602080. -431602080.
      -431602080. -431602080. -431602080. -431602080. -431602080.
      -431602080. -431602080. -431602080. -431602080. -431602080.
      -431602080. -431602080. -431602080. -431602080. -431602080.
      -431602080. -431602080. -431602080. -431602080. -431602080.
      -431602080. -431602080. -431602080. -431602080. -431602080.
      -431602080. -431602080. -431602080. -431602080. -431602080.
      -431602080. -431602080. -431602080. -431602080. -431602080.
      -431602080. -431602080. -431602080. -431602080. -431602080.
      -431602080. -431602080. -431602080. -431602080. -431602080.
      -431602080. -431602080. -431602080. -431602080. -431602080.
      -431602080. -431602080. -431602080. -431602080. -431602080.
      -431602080. -431602080. -431602080. -431602080. -431602080.
      -431602080. -431602080. -431602080. -431602080. -431602080.
      -431602080. -431602080. -431602080. -431602080. -431602080.
      -431602080. -431602080. -431602080. -431602080. -431602080.
      -431602080. -431602080. -431602080. -431602080. -431602080.
      -431602080. -431602080. -431602080. -431602080. -431602080.
      -431602080. -431602080. -431602080. -431602080. -431602080.
      -431602080. -431602080. -431602080. -431602080. -431602080.
      -431602080. -431602080. -431602080. -431602080. -431602080.
      -431602080. -431602080. -431602080. -431602080. -431602080.
      -431602080. -431602080. -431602080. -431602080. -431602080.
      -431602080. -431602080. -431602080. -431602080. -431602080.
      -431602080. -431602080. -431602080. -431602080. -431602080.
      -431602080. -431602080. -431602080. -431602080. -431602080.
      -431602080. -431602080. -431602080. -431602080. -431602080.
      -431602080. -431602080. -431602080. -431602080. -431602080.
      -431602080. -431602080. -431602080. -431602080. -431602080.
      -431602080. -431602080. -431602080. -431602080. -431602080.
      -431602080. -431602080. -431602080. -431602080. -431602080.
      -431602080. -431602080. -431602080. -431602080. -431602080.
      -431602080. -431602080. -431602080. -431602080. -431602080.
      -431602080. -431602080. -431602080. -431602080. -431602080.
      -431602080. -431602080. -431602080. -431602080. -431602080.
      -431602080. -431602080. -431602080. -431602080. -431602080.
      -431602080. -431602080. -431602080. -431602080. -431602080.
      -431602080. -431602080. -431602080. -431602080. -431602080.
      -431602080. -431602080. -431602080. -431602080. -431602080.
      -431602080. -431602080. -431602080. -431602080. -431602080.
      -431602080. -431602080. -431602080. -431602080. -431602080.
      -431602080. -431602080. -431602080. -431602080. -431602080.
      -431602080. -431602080. -431602080. -431602080. -431602080.
      -431602080. -431602080. -431602080. -431602080. -431602080.
      -431602080. -431602080. -431602080. -431602080. -431602080.
      -431602080. -431602080. -431602080. -431602080. -431602080.
      -431602080. -431602080. -431602080. -431602080. -431602080.
      -431602080. -431602080. -431602080. -431602080. -431602080.
      -431602080. -431602080. -431602080. -431602080. -431602080.
      -431602080. -431602080. -431602080. -431602080. -431602080.
      -431602080. -431602080. -431602080. -431602080. -431602080.
      -431602080. -431602080. -431602080. -431602080. -431602080.
      -431602080. -431602080. -431602080. -431602080. -431602080.
      -431602080. -431602080. -431602080. -431602080. -431602080.
      -431602080. -431602080. -431602080. -431602080. -431602080.
      -431602080. -431602080. -431602080. -431602080. -431602080.
      -431602080. -431602080. -431602080. -431602080. -431602080.
      -431602080. -431602080. -431602080. -431602080. -431602080.
      -431602080. -431602080. -431602080. -431602080. -431602080.
      -431602080. -431602080. -431602080. -431602080. -431602080.
      -431602080. -431602080. -431602080. -431602080. -431602080.
      -431602080. -431602080. -431602080. -431602080. -431602080.
      -431602080. -431602080. -431602080. -431602080. -431602080.
      -431602080. -431602080. -431602080. -431602080. -431602080.
      -431602080. -431602080. -431602080. -431602080. -431602080.
      -431602080. -431602080. -431602080. -431602080. -431602080.
      -431602080. -431602080. -431602080. -431602080. -431602080.
      -431602080. -431602080. -431602080. -431602080. -431602080.
      -431602080. -431602080. -431602080. -431602080. -431602080.
      -431602080. -431602080. -431602080. -431602080. -431602080.
      -431602080. -431602080. -431602080. -431602080. -431602080.
      -431602080. -431602080. -431602080. -431602080. -431602080.
      -431602080. -431602080. -431602080. -431602080. -431602080.
      -431602080. -431602080. -431602080. -431602080. -431602080.
      -431602080. -431602080. -431602080. -431602080. -431602080.
      -431602080. -431602080. -431602080. -431602080. -431602080.
      -431602080. -431602080. -431602080. -431602080. -431602080.
      -431602080. -431602080. -431602080. -431602080. -431602080.
      -431602080. -431602080. -431602080. -431602080. -431602080.
      -431602080. -431602080. -431602080. -431602080. -431602080.
      -431602080. -431602080. -431602080. -431602080. -431602080.
      -431602080. -431602080. -431602080. -431602080. -431602080.
      -431602080. -431602080. -431602080. -431602080. -431602080.
      -431602080. -431602080. -431602080. -431602080. -431602080.
      -431602080. -431602080. -431602080. -431602080. -431602080.
      -431602080. -431602080. -431602080. -431602080. -431602080.
      -431602080. -431602080. -431602080. -431602080. -431602080.
      -431602080. -431602080. -431602080. -431602080. -431602080.
      -431602080. -431602080. -431602080. -431602080. -431602080.
      -431602080. -431602080. -431602080. -431602080. -431602080.
      -431602080. -431602080. -431602080. -431602080. -431602080.
      -431602080. -431602080. -431602080. -431602080. -431602080.
      -431602080. -431602080. -431602080. -431602080. -431602080.
      -431602080. -431602080. -431602080. -431602080. -431602080.
      -431602080. -431602080. -431602080. -431602080. -431602080.
      -431602080. -431602080. -431602080. -431602080. -431602080.
      -431602080. -431602080. -431602080. -431602080. -431602080.
      -431602080. -431602080. -431602080. -431602080. -431602080.
      -431602080. -431602080. -431602080. -431602080. -431602080.
      -431602080. -431602080. -431602080. -431602080. -431602080.
      -431602080. -431602080. -431602080. -431602080. -431602080.
      -431602080. -431602080. -431602080. -431602080. -431602080.
      -431602080. -431602080. -431602080. -431602080. -431602080.
      -431602080. -431602080. -431602080. -431602080. -431602080.
      -431602080. -431602080. -431602080. -431602080. -431602080.
      -431602080. -431602080. -431602080. -431602080. -431602080.
      -431602080. -431602080. -431602080. -431602080. -431602080.
      -431602080. -431602080. -431602080. -431602080. -431602080.
      -431602080. -431602080. -431602080. -431602080. -431602080.
      -431602080. -431602080. -431602080. -431602080. -431602080.
      -431602080. -431602080. -431602080. -431602080. -431602080.
      -431602080. -431602080. -431602080. -431602080. -431602080.
      -431602080. -431602080. -431602080. -431602080. -431602080.
      -431602080. -431602080. -431602080. -431602080. -431602080.
      -431602080. -431602080. -431602080. -431602080. -431602080.
      -431602080. -431602080. -431602080. -431602080. -431602080.
      -431602080. -431602080. -431602080. -431602080. -431602080.
      -431602080. -431602080. -431602080. -431602080. -431602080.
      -431602080. -431602080. -431602080. -431602080. -431602080.
      -431602080. -431602080. -431602080. -431602080. -431602080.
      -431602080. -431602080. -431602080. -431602080. -431602080.
      -431602080. -431602080. -431602080. -431602080. -431602080.
      -431602080. -431602080. -431602080. -431602080. -431602080.
      -431602080. -431602080. -431602080. -431602080. -431602080.
      -431602080. -431602080. -431602080. -431602080. -431602080.
      -431602080. -431602080. -431602080. -431602080. -431602080.
      -431602080. -431602080. -431602080. -431602080. -431602080.
      -431602080. -431602080. -431602080. -431602080. -431602080.
      -431602080. -431602080. -431602080. -431602080. -431602080.
      -431602080. -431602080. -431602080. -431602080. -431602080.
      -431602080. -431602080. -431602080. -431602080. -431602080.
      -431602080. -431602080. -431602080. -431602080. -431602080.
      -431602080. -431602080. -431602080. -431602080. -431602080.
      -431602080. -431602080. -431602080. -431602080. -431602080.
      -431602080. -431602080. -431602080. -431602080. -431602080.
      -431602080. -431602080. -431602080. -431602080. -431602080.
      -431602080. -431602080. -431602080. -431602080. -431602080.
      -431602080. -431602080. -431602080. -431602080. -431602080.
      -431602080. -431602080. -431602080. -431602080. -431602080.
      -431602080. -431602080. -431602080. -431602080. -431602080.
      -431602080. -431602080. -431602080. -431602080. -431602080.
      -431602080. -431602080. -431602080. -431602080. -431602080.
      -431602080. -431602080. -431602080. -431602080. -431602080.
      -431602080. -431602080. -431602080. -431602080. -431602080.
      -431602080. -431602080. -431602080. -431602080. -431602080.
      -431602080. -431602080. -431602080. -431602080. -431602080.
      -431602080. -431602080. -431602080. -431602080. -431602080.
      -431602080. -431602080. -431602080. -431602080. -431602080.
      -431602080. -431602080. -431602080. -431602080. -431602080.
      -431602080. -431602080. -431602080. -431602080. -431602080.
      -431602080. -431602080. -431602080. -431602080. -431602080.
      -431602080. -431602080. -431602080. -431602080. -431602080.
      -431602080. -431602080. -431602080. -431602080. -431602080.
      -431602080. -431602080. -431602080. -431602080. -431602080.
      -431602080. -431602080. -431602080. -431602080. -431602080.
      -431602080. -431602080. -431602080. -431602080. -431602080.
      -431602080. -431602080. -431602080. -431602080. -431602080.
      -431602080. -431602080. -431602080. -431602080. -431602080.
      -431602080. -431602080. -431602080. -431602080. -431602080.
      -431602080. -431602080. -431602080. -431602080. -431602080.
      -431602080. -431602080. -431602080. -431602080. -431602080.
      -431602080. -431602080. -431602080. -431602080. -431602080.
      -431602080. -431602080. -431602080. -431602080. -431602080.
      -431602080. -431602080. -431602080. -431602080. -431602080.
      -431602080. -431602080. -431602080. -431602080. -431602080.
      -431602080. -431602080. -431602080. -431602080. -431602080.
      -431602080. -431602080. -431602080. -431602080. -431602080.
      -431602080. -431602080. -431602080. -431602080. -431602080.
      -431602080. -431602080. -431602080. -431602080. -431602080.
      -431602080. -431602080. -431602080. -431602080. -431602080.
      -431602080. -431602080. -431602080. -431602080. -431602080.
      -431602080. -431602080. -431602080. -431602080. -431602080.
      -431602080. -431602080. -431602080. -431602080. -431602080.
      -431602080. -431602080. -431602080. -431602080. -431602080.
      -431602080. -431602080. -431602080. -431602080. -431602080.
      -431602080. -431602080. -431602080. -431602080. -431602080.
      -431602080. -431602080. -431602080. -431602080. -431602080.
      -431602080. -431602080. -431602080. -431602080. -431602080.
      -431602080. -431602080. -431602080. -431602080. -431602080.
      -431602080. -431602080. -431602080. -431602080. -431602080.
      -431602080. -431602080. -431602080. -431602080. -431602080.
      -431602080. -431602080. -431602080. -431602080. -431602080.
      -431602080. -431602080. -431602080. -431602080. -431602080.
      -431602080. -431602080. -431602080. -431602080. -431602080.
      -431602080. -431602080. -431602080. -431602080. -431602080.
      -431602080. -431602080. -431602080. -431602080. -431602080.
      -431602080. -431602080. -431602080. -431602080. -431602080.
      -431602080. -431602080. -431602080. -431602080. -431602080.
      -431602080. -431602080. -431602080. -431602080. -431602080.
      -431602080. -431602080. -431602080. -431602080. -431602080.
      -431602080. -431602080. -431602080. -431602080. -431602080.
      -431602080. -431602080. -431602080. -431602080. -431602080.
      -431602080. -431602080. -431602080. -431602080. -431602080.
      -431602080. -431602080. -431602080. -431602080. -431602080.
      -431602080. -431602080. -431602080. -431602080. -431602080.
      -431602080. -431602080. -431602080. -431602080. -431602080.
      -431602080. -431602080. -431602080. -431602080. -431602080.
      -431602080. -431602080. -431602080. -431602080. -431602080.
      -431602080. -431602080. -431602080. -431602080. -431602080.
      -431602080. -431602080. -431602080. -431602080. -431602080.
      -431602080. -431602080. -431602080. -431602080. -431602080.
      -431602080. -431602080. -431602080. -431602080. -431602080.
      -431602080. -431602080. -431602080. -431602080. -431602080.
      -431602080. -431602080. -431602080. -431602080. -431602080.
      -431602080. -431602080. -431602080. -431602080. -431602080.
      -431602080. -431602080. -431602080. -431602080. -431602080.
      -431602080. -431602080. -431602080. -431602080. -431602080.
      -431602080. -431602080. -431602080. -431602080. -431602080.
      -431602080. -431602080. -431602080. -431602080. -431602080.
      -431602080. -431602080. -431602080. -431602080. -431602080.
      -431602080. -431602080. -431602080. -431602080. -431602080.
      -431602080. -431602080. -431602080. -431602080. -431602080.
      -431602080. -431602080. -431602080. -431602080. -431602080.
      -431602080. -431602080. -431602080. -431602080. -431602080.
      -431602080. -431602080. -431602080. -431602080. -431602080.
      -431602080. -431602080. -431602080. -431602080. -431602080.
      -431602080. -431602080. -431602080. -431602080. -431602080.
      -431602080. -431602080. -431602080. -431602080. -431602080.
      -431602080. -431602080. -431602080. -431602080. -431602080.
      -431602080. -431602080. -431602080. -431602080. -431602080.
      -431602080. -431602080. -431602080. -431602080. -431602080.
      -431602080. -431602080. -431602080. -431602080. -431602080.
      -431602080. -431602080. -431602080. -431602080. -431602080.
      -431602080. -431602080. -431602080. -431602080. -431602080.
      -431602080. -431602080. -431602080. -431602080. -431602080.
      -431602080. -431602080. -431602080. -431602080. -431602080.
      -431602080. -431602080. -431602080. -431602080. -431602080.
      -431602080. -431602080. -431602080. -431602080. -431602080.
      -431602080. -431602080. -431602080. -431602080. -431602080.
      -431602080. -431602080. -431602080. -431602080. -431602080.
      -431602080. -431602080. -431602080. -431602080. -431602080.
      -431602080. -431602080. -431602080. -431602080. -431602080.
      -431602080. -431602080. -431602080. -431602080. -431602080.
      -431602080. -431602080. -431602080. -431602080. -431602080.
      -431602080. -431602080. -431602080. -431602080. -431602080.
      -431602080. -431602080. -431602080. -431602080. -431602080.
      -431602080. -431602080. -431602080. -431602080. -431602080.
      -431602080. -431602080. -431602080. -431602080. -431602080.
      -431602080. -431602080. -431602080. -431602080. -431602080.
      -431602080. -431602080. -431602080. -431602080. -431602080.
      -431602080. -431602080. -431602080. -431602080. -431602080.
      -431602080. -431602080. -431602080. -431602080. -431602080.
      -431602080. -431602080. -431602080. -431602080. -431602080.
      -431602080. -431602080. -431602080. -431602080. -431602080.
      -431602080. -431602080. -431602080. -431602080. -431602080.
      -431602080. -431602080. -431602080. -431602080. -431602080.
      -431602080. -431602080. -431602080. -431602080. -431602080.
      -431602080. -431602080. -431602080. -431602080. -431602080.
      -431602080. -431602080. -431602080. -431602080. -431602080.
      -431602080. -431602080. -431602080. -431602080. -431602080.
      -431602080. -431602080. -431602080. -431602080. -431602080.
      -431602080. -431602080. -431602080. -431602080. -431602080.
      -431602080. -431602080. -431602080. -431602080. -431602080.
      -431602080. -431602080. -431602080. -431602080. -431602080.
      -431602080. -431602080. -431602080. -431602080. -431602080.
      -431602080. -431602080. -431602080. -431602080. -431602080.
      -431602080. -431602080. -431602080. -431602080. -431602080.
      -431602080. -431602080. -431602080. -431602080. -431602080.
      -431602080. -431602080. -431602080. -431602080. -431602080.
      -431602080. -431602080. -431602080. -431602080. -431602080.
      -431602080. -431602080. -431602080. -431602080. -431602080.
      -431602080. -431602080. -431602080. -431602080. -431602080.
      -431602080. -431602080. -431602080. -431602080. -431602080.
      -431602080. -431602080. -431602080. -431602080. -431602080.
      -431602080. -431602080. -431602080. -431602080. -431602080.
      -431602080. -431602080. -431602080. -431602080. -431602080.
      -431602080. -431602080. -431602080. -431602080. -431602080.
      -431602080. -431602080. -431602080. -431602080. -431602080.
      -431602080. -431602080. -431602080. -431602080. -431602080.
      -431602080. -431602080. -431602080. -431602080. -431602080.
      -431602080. -431602080. -431602080. -431602080. -431602080.
      -431602080. -431602080. -431602080. -431602080. -431602080.
      -431602080. -431602080. -431602080. -431602080. -431602080.
      -431602080. -431602080. -431602080. -431602080. -431602080.
      -431602080. -431602080. -431602080. -431602080. -431602080.
      -431602080. -431602080. -431602080. -431602080. -431602080.
      -431602080. -431602080. -431602080. -431602080. -431602080.
      -431602080. -431602080. -431602080. -431602080. -431602080.
      -431602080. -431602080. -431602080. -431602080. -431602080.
      -431602080. -431602080. -431602080. -431602080. -431602080.
      -431602080. -431602080. -431602080. -431602080. -431602080.
      -431602080. -431602080. -431602080. -431602080. -431602080.
      -431602080. -431602080. -431602080. -431602080. -431602080.
      -431602080. -431602080. -431602080. -431602080. -431602080.
      -431602080. -431602080. -431602080. -431602080. -431602080.
      -431602080. -431602080. -431602080. -431602080. -431602080.
      -431602080. -431602080. -431602080. -431602080. -431602080.
      -431602080. -431602080. -431602080. -431602080. -431602080.
      -431602080. -431602080. -431602080. -431602080. -431602080.
      -431602080. -431602080. -431602080. -431602080. -431602080.
      -431602080. -431602080. -431602080. -431602080. -431602080.
      -431602080. -431602080. -431602080. -431602080. -431602080.
      -431602080. -431602080. -431602080. -431602080. -431602080.
      -431602080. -431602080. -431602080. -431602080. -431602080.
      -431602080. -431602080. -431602080. -431602080. -431602080.
      -431602080. -431602080. -431602080. -431602080. -431602080.
      -431602080. -431602080. -431602080. -431602080. -431602080.
      -431602080. -431602080. -431602080. -431602080. -431602080.
      -431602080. -431602080. -431602080. -431602080. -431602080.
      -431602080. -431602080. -431602080. -431602080. -431602080.
      -431602080. -431602080. -431602080. -431602080. -431602080.
      -431602080. -431602080. -431602080. -431602080. -431602080.
      -431602080. -431602080. -431602080. -431602080. -431602080.
      -431602080. -431602080. -431602080. -431602080. -431602080.
      -431602080. -431602080. -431602080. -431602080. -431602080.
      -431602080. -431602080. -431602080. -431602080. -431602080.
      -431602080. -431602080. -431602080. -431602080. -431602080.
      -431602080. -431602080. -431602080. -431602080. -431602080.
      -431602080. -431602080. -431602080. -431602080. -431602080.
      -431602080. -431602080. -431602080. -431602080. -431602080.
      -431602080. -431602080. -431602080. -431602080. -431602080.
      -431602080. -431602080. -431602080. -431602080. -431602080.
      -431602080. -431602080. -431602080. -431602080. -431602080.
      -431602080. -431602080. -431602080. -431602080. -431602080.
      -431602080. -431602080. -431602080. -431602080. -431602080.
      -431602080. -431602080. -431602080. -431602080. -431602080.
      -431602080. -431602080. -431602080. -431602080. -431602080.
      -431602080. -431602080. -431602080. -431602080. -431602080.
      -431602080. -431602080. -431602080. -431602080. -431602080.
      -431602080. -431602080. -431602080. -431602080. -431602080.
      -431602080. -431602080. -431602080. -431602080. -431602080.
      -431602080. -431602080. -431602080. -431602080. -431602080.
      -431602080. -431602080. -431602080. -431602080. -431602080.
      -431602080. -431602080. -431602080. -431602080. -431602080.
      -431602080. -431602080. -431602080. -431602080. -431602080.
      -431602080. -431602080. -431602080. -431602080. -431602080.
      -431602080. -431602080. -431602080. -431602080. -431602080.
      -431602080. -431602080. -431602080. -431602080. -431602080.
      -431602080. -431602080. -431602080. -431602080. -431602080.
      -431602080. -431602080. -431602080. -431602080. -431602080.
