<?xml version="1.0"?>
<opencv_storage>
<my_svm type_id="opencv-ml-svm">
  <svm_type>C_SVC</svm_type>
  <kernel><type>LINEAR</type></kernel>
  <C>6.2500000000000000e+001</C>
  <term_criteria><epsilon>1.1920928955078125e-007</epsilon>
    <iterations>1000</iterations></term_criteria>
  <var_all>6515</var_all>
  <var_count>6515</var_count>
  <class_count>3</class_count>
  <class_labels type_id="opencv-matrix">
    <rows>1</rows>
    <cols>3</cols>
    <dt>i</dt>
    <data>
      1 2 3</data></class_labels>
  <sv_total>3</sv_total>
  <support_vectors>
    <_>
      0. 0. 6.77034616e-001 -6.33040011e-001 0. -4.06375110e-001 0. 0.
      0. 0. 0. 0. 3.69339645e-001 -4.94614929e-001 0. 0. 0.
      -4.53222543e-001 7.86658108e-001 0. -5.01040816e-001
      3.46025079e-001 0. -9.64640453e-002 0. -1.72108725e-001
      5.67960382e-001 0. 0. -5.01040816e-001 0. 0. 0. 0. 0. 0. 0. 0. 0.
      -4.30012822e-001 0. -5.01040816e-001 0. 0. 0. 9.28019643e-001
      1.03705359e+000 0. 5.67960382e-001 0. 0. -5.01040816e-001 0. 0. 0.
      1.40853989e+000 0. 5.37648559e-001 0. 0. 0. 0. 0. -4.16570932e-001
      -1.22665890e-001 2.94763297e-001 0. 0. 0. 0. 0. 0. 0.
      -8.72015953e-001 7.86658108e-001 -2.17794895e-001 -5.12518227e-001
      0. 4.04436171e-001 2.67649710e-001 0. -1.72108725e-001
      2.68951654e-001 0. 0. -3.37091118e-001 0. 0. -2.17794895e-001 0.
      0. 0. 0. 0. 1.26928031e-001 3.60209018e-001 0. 0. 0. 0. 0. 0. 0.
      2.23024949e-001 0. 0. 0. 0. 1.55311501e+000 -1.67009577e-001 0.
      -3.96955311e-001 0. 0. 0. 0. 0. 9.84381557e-001 0.
      -1.02168334e+000 0. 0. 0. 6.70284569e-001 -4.06375110e-001
      1.09281278e+000 -4.06375110e-001 0. 7.86658108e-001
      -2.58428693e-001 0. -9.52094793e-001 -4.10182059e-001 0. 0.
      -2.45080426e-001 7.41692245e-001 0. 0. 4.40088481e-001 0. 0. 0. 0.
      0. -2.58428693e-001 0. 0. -3.73884916e-001 0. 0. 0. 0. 0. 0. 0. 0.
      0. -1.99354831e-002 0. 0. 0. 1.33996058e+000 -9.95655775e-001 0.
      6.77034616e-001 0. 0. -4.94614929e-001 0. -1.20850635e+000
      2.02160764e+000 0. 4.40088481e-001 0. 0. 0. -7.77942300e-001
      3.99137229e-001 -4.12987232e-001 0. -4.12987232e-001 0.
      9.93131518e-001 0. 6.52724326e-001 0. 0. 0. 3.67401421e-001 0. 0.
      2.40365073e-001 2.67649710e-001 5.37648559e-001 0.
      -2.03027189e-001 -4.12987232e-001 7.86658108e-001 4.95031983e-001
      -2.66285837e-002 0. 0. 0. 0. 0. 0. 5.67960382e-001
      -5.19328833e-001 0. -3.23327929e-001 7.41692245e-001
      3.07346940e-001 -1.67009577e-001 0. 4.43677828e-002
      -2.93734217e+000 0. 0. 9.44684386e-001 -2.17794895e-001 0.
      -4.16570932e-001 0. 0. 0. -2.97218871e+000 0. 0. 6.25730097e-001
      0. 0. 0. 0. -5.19328833e-001 0. 0. -7.02817023e-001 0. 0. 0.
      6.52724326e-001 0. 0. 0. 0. 0. 0. -7.35313535e-001 0. 0.
      -4.09076840e-001 -2.14821458e+000 0. 0. 0. 0. 0. 9.60957646e-001
      0. 0. 0. 0. 0. 0. 2.28652135e-001 -2.71874309e-001 0.
      -4.12987232e-001 0. 0. 6.93098128e-001 0. 0. 0. -6.92915082e-001
      0. 4.40088481e-001 0. -9.32316065e-001 0. 0. 0. 3.46025079e-001
      -2.55544245e-001 2.67649710e-001 0. 0. 0. 1.83005190e+000
      6.74748361e-001 0. -2.71874309e-001 -3.18210460e-002
      -2.62902260e-001 0. -5.19328833e-001 0. 0. 0. -4.06375110e-001 0.
      0. 0. -2.71874309e-001 3.50165516e-001 0. -4.16570932e-001 0. 0.
      0. 0. -2.96772689e-001 4.40088481e-001 -4.06375110e-001 0. 0. 0.
      0. 0. 0. 0. 0. 0. 0. 0. 5.48961496e+000 0. 6.03781879e-001
      2.23024949e-001 4.46049899e-001 0. 5.57914793e-001 0. 0. 0. 0.
      -7.63943076e-001 0. 0. 3.74564618e-001 4.98050570e-001 0. 0.
      -1.73058522e+000 0. 0. 0. 0. -1.44463551e+000 -2.66285837e-002
      3.60209018e-001 0. 0. 0. 0. 0. 0. -9.54819798e-001 0.
      1.71682024e+000 0. 0. 0. 0. 0. 0. -4.30012822e-001 0. 0. 0. 0.
      -6.54998720e-001 -1.25795877e+000 0. 0. 0. 3.46025079e-001
      9.48584199e-001 0. -1.05538964e+000 0. 2.50395536e-001
      4.04436171e-001 0. 3.46025079e-001 2.28652135e-001 1.48060811e+000
      0. -1.16832666e-001 0. 0. 0. 0. 0. 2.42085242e+000 0.
      -4.39615816e-001 1.19062757e+000 0. 0. 7.30979919e-001
      -1.04532111e+000 0. -4.10182059e-001 0. 0. -7.00835824e-001 0. 0.
      0. 3.60209018e-001 6.76686585e-001 -9.11222935e-001
      -1.72108725e-001 0. -2.90249735e-001 0. 0. 0. 0. 0. 0.
      -4.06375110e-001 0. 0. 0. 0. 0. -4.10182059e-001 -9.29510951e-001
      0. -4.30012822e-001 3.18383187e-001 0. 0. 0. 0. 0. 0.
      -2.97283500e-001 1.11657488e+000 0. -1.34532297e+000 0. 0. 0.
      -4.12987232e-001 0. 6.03781879e-001 4.95031983e-001
      -5.98642156e-002 1.03418839e+000 -2.03027189e-001 5.20748854e-001
      0. -4.12987232e-001 0. 9.03119862e-001 0. 0. 0. 0.
      -2.10339516e-001 2.50395536e-001 -8.69793475e-001 0. 0. 0. 0. 0.
      0. 0. 6.77034616e-001 0. 0. -2.17794895e-001 0. 5.54469049e-001 0.
      0. 0. 0. 0. 0. -3.37091118e-001 -5.01040816e-001 0. 0.
      -7.72915125e-001 0. 0. 1.11450195e+000 0. 0. 0. -4.12987232e-001
      0. 0. 0. 0. 0. 0. 0. -3.18210460e-002 0. 0. 0. 0. 4.43677828e-002
      -1.09462821e+000 1.87210977e-001 -4.38494921e+000 0. 0. 0. 0. 0.
      -4.53222543e-001 0. 0. 4.23309088e-001 0. 0. 0. -1.77738875e-001
      -4.35010999e-001 -7.72915125e-001 0. 0. -6.14763379e-001 0.
      -3.37091118e-001 0. 8.00297499e-001 0. 0. 2.28652135e-001 0. 0.
      7.98274457e-001 2.28652135e-001 0. 2.50395536e-001
      -1.72108725e-001 0. 0. 0. 0. 2.21847582e+000 0. 0. 0. 0. 0. 0. 0.
      -4.30537432e-001 0. 0. 0. 1.00970179e-001 0. -3.60072553e-001 0.
      -1.67009577e-001 0. 0. 0. 1.61026672e-001 0. -9.00990069e-001 0.
      0. 0. 5.20748854e-001 0. -4.06375110e-001 0. -2.45080426e-001 0.
      0. 0. 1.14082944e+000 0. 0. 5.37648559e-001 0. 0. 2.67649710e-001
      0. 0. 0. 0. -4.35010999e-001 -5.69684505e-002 0. -2.34332040e-001
      -1.46533930e+000 0. 0. 0. 0. 0. 6.21542931e-001 0. 0. 0. 0.
      2.50395536e-001 -1.72108725e-001 0. 0. 0. -5.01040816e-001 0. 0.
      2.67649710e-001 0. -5.19328833e-001 -2.40180731e+000
      2.64582664e-001 0. 4.95031983e-001 0. -2.58601516e-001
      1.87332642e+000 0. 0. 0. 0. -8.36387932e-001 0. 0.
      -4.10182059e-001 -3.23327929e-001 0. -2.10339516e-001
      6.52724326e-001 0. 0. 0. -3.23327929e-001 0. 1.12453079e+000
      4.40088481e-001 -4.73241776e-001 7.65369356e-001 1.58413839e+000
      0. 0. -6.73149586e-001 0. 0. 0. 8.02378893e-001 0. 1.35238200e-001
      0. 0. -4.30012822e-001 0. 0. 4.23309088e-001 7.69334197e-001
      1.25333321e+000 -4.06375110e-001 1.14340484e+000 0. 0. 0. 0.
      5.37648559e-001 -2.82675338e+000 0. 0. 0. 0. 0. 0. 0. 0.
      7.09040165e-001 0. 0. -4.12987232e-001 6.14976764e-001 0. 0. 0. 0.
      0. -6.73149586e-001 0. 0. 0. 0. 0. 0. 3.69339645e-001 0. 0. 0.
      7.86658108e-001 1.81840688e-001 0. 0. 0. -2.45080426e-001
      -1.45337507e-001 0. 0. 0. 0. -4.06375110e-001 1.81840688e-001 0.
      0. 0. 2.44632468e-001 -2.62902260e-001 0. 0. 0. -5.62296867e-001
      0. 0. -4.16570932e-001 0. 0. -4.53222543e-001 -5.01040816e-001 0.
      -4.94614929e-001 0. 0. -5.98642156e-002 0. -2.97283500e-001
      9.58608508e-001 0. -1.15152550e+000 -4.30012822e-001
      6.13694370e-001 0. 1.00740516e+000 0. 0. -5.01040816e-001
      -4.30012822e-001 0. 6.03781879e-001 0. 2.57366943e+000 0. 0. 0.
      6.77034616e-001 -2.33597219e-001 8.13751042e-001 0. 0. 0. 0. 0. 0.
      -9.38245058e-001 5.67960382e-001 1.35766089e+000 0. 0.
      -4.20679033e-001 0. -4.53222543e-001 7.54745901e-001
      2.68951654e-001 0. 9.84381557e-001 -4.10182059e-001
      -3.18210460e-002 0. 0. 0. 0. -2.17794895e-001 0. 0. 0. 0.
      2.01184058e+000 0. 2.67649710e-001 0. -5.19328833e-001 0. 0.
      -9.56688106e-001 -2.62902260e-001 0. 0. 0. 0. 0. 0.
      3.18383187e-001 0. 0. 0. 0. 9.25185025e-001 0. 0. -4.95436668e-001
      5.57914793e-001 0. 0. 0. 0. 0. 0. 0. 0. 0. 0. 6.03781879e-001 0.
      0. -1.01156962e+000 0. 4.04436171e-001 0. 0. 0. -8.22946072e-001
      0. -4.67150509e-001 0. 3.46025079e-001 0. 0. 0. 2.68951654e-001 0.
      0. 0. 0. -2.58428693e-001 0. 0. -3.37091118e-001 0. 0.
      5.37903309e-001 3.63681376e-001 0. 0. 0. 0. 0. -4.60204870e-001 0.
      0. 9.62350965e-001 0. 0. 3.90669405e-001 -4.12987232e-001 0.
      -4.12987232e-001 -4.53222543e-001 -4.12987232e-001 0.
      7.08612680e-001 6.48149669e-001 2.54237556e+000 3.60209018e-001
      6.13694370e-001 9.37300026e-001 0. 0. 0. 3.90392870e-001 0.
      1.81840688e-001 -7.73059785e-001 0. 0. 1.26854358e-002
      6.03781879e-001 0. 0. -4.94614929e-001 0. 1.24086452e+000 0. 0. 0.
      -7.04954445e-001 0. 0. 0. 0. 0. 0. 0. 0. 0. 0. 0. -5.27082145e-001
      6.90958798e-001 -4.10182059e-001 0. 0. 0. -3.37091118e-001 0. 0.
      1.24661341e-001 -3.23327929e-001 0. -1.72108725e-001 0.
      1.30740690e+000 0. 0. 0. 0. 0. 4.04436171e-001 -3.52258158e+000 0.
      0. 0. -5.19328833e-001 0. 0. 0. -1.20621502e+000 0. 0. 0.
      6.21542931e-001 -1.43881762e+000 0. 0. 0. 0. 0. 0.
      -5.98642156e-002 0. 0. 1.49606526e-001 0. 0. -6.75597608e-001 0.
      -3.37091118e-001 5.82016349e-001 0. 0. 0. 0. 0. 0. 0. 0.
      -2.26873785e-001 0. 0. 0. -6.79473162e-001 0. 1.11693054e-001 0.
      0. 0. 0. 0. 0. 0. 0. 0. -2.71874309e-001 0. -2.71874309e-001
      1.66217935e+000 -4.30012822e-001 0. 6.98675215e-001 0. 0.
      -2.62902260e-001 0. 0. 0. 0. 0. 0. 0. -1.68162322e+000 0.
      -1.32158303e+000 -2.71874309e-001 -1.45564353e+000 0. 0. 0. 0. 0.
      0. 0. 0. 0. 0. 1.16708291e+000 -2.58428693e-001 -5.82171559e-001
      -5.68408370e-001 0. -4.10182059e-001 5.20748854e-001 0. 0.
      -9.15610254e-001 0. 0. -2.03027189e-001 0. 0. 0. 6.77034616e-001
      0. -1.25975668e+000 0. -1.15364826e+000 0. 0. 0. 0.
      8.82024169e-001 -3.02024782e-001 0. 0. 0. 0. 0. 2.95508599e+000 0.
      -7.50506043e-001 0. 0. 0. 0. 0. -9.29446101e-001 0. 0. 0. 0.
      1.72943449e+000 0. -4.85043585e-001 -7.12409794e-001
      8.76297951e-001 0. 0. -3.84804457e-001 0. 0. 0. 0.
      -2.58428693e-001 -4.65929449e-001 -5.75888455e-001 0. 0. 0. 0. 0.
      0. 0. 5.07535875e-001 0. -4.27005231e-001 1.07388556e+000
      8.99897635e-001 -4.85043585e-001 0. -6.58730641e-002 0. 0.
      -1.72108725e-001 0. -4.06375110e-001 0. 5.86032867e-001 0. 0.
      4.42384839e-001 -3.37091118e-001 0. 4.43677828e-002 0.
      -3.84173942e+000 0. -3.70354839e-002 -1.78502750e+000 0.
      -9.64137137e-001 0. 0. 0. 0. 7.98274457e-001 0. 0. 0. 0. 0. 0. 0.
      1.81840688e-001 -2.34332040e-001 -3.75135928e-001 0.
      4.43677828e-002 -4.10182059e-001 -1.41221702e+000 0. 0. 0. 0.
      -4.53222543e-001 0. 6.10604525e-001 -4.10182059e-001
      -3.23327929e-001 0. 0. 0. 4.78312343e-001 0. 2.23024949e-001
      7.66538620e-001 0. -2.62902260e-001 1.42749596e+000 0. 0. 0. 0. 0.
      -2.71874309e-001 0. 4.04436171e-001 0. 6.03781879e-001
      6.58319116e-001 0. -4.94614929e-001 0. 0. 0. -1.36198568e+000 0.
      0. 0. -8.30028236e-001 0. 0. -2.45080426e-001 0. 0. 0. 0. 0. 0. 0.
      1.20464790e+000 -4.85043585e-001 -5.77778459e-001 0.
      -1.25854719e+000 0. 0. -3.60072553e-001 6.52724326e-001 0. 0. 0.
      0. 0. 0. -3.15397143e-001 0. 0. 0. -1.72108725e-001 0.
      -8.38027000e-001 0. 0. 0. -5.01040816e-001 1.81840688e-001 0. 0.
      0. 0. 0. -1.01347363e+000 0. 6.76854074e-001 -4.10182059e-001 0.
      -4.43199515e-001 0. 0. 0. 0. 0. 0. 2.33350372e+000 0.
      6.69303083e+000 -2.34332040e-001 0. 0. 0. 0. 0. 0. 0. 0. 0. 0.
      -1.72108725e-001 2.67649710e-001 -2.17794895e-001 6.21542931e-001
      5.82016349e-001 -1.72108725e-001 0. 0. 0. 1.11719418e+000 0.
      3.99137229e-001 0. 0. 8.75749290e-001 -5.33667445e-001 0.
      -5.01040816e-001 0. 0. -2.67722774e+000 0. 0. 0. 0. 0. 0.
      3.06615651e-001 -6.30782127e-001 3.69339645e-001 0. 0. 0. 0.
      -4.06375110e-001 0. 0. 0. 4.43677828e-002 0. 0. 0. 0. 0. 0. 0. 0.
      0. 0. -1.72108725e-001 0. 0. 1.61026672e-001 7.86658108e-001 0. 0.
      -3.60072553e-001 0. 0. 0. 0. 0. 0. 0. 0. 0. 0. 4.95031983e-001
      1.38977349e+000 0. -6.14763379e-001 4.04436171e-001 0.
      6.77034616e-001 0. 0. -4.16570932e-001 0. 0. 5.76318622e-001 0. 0.
      0. 3.99137229e-001 -4.16570932e-001 0. 0. 5.00223875e-001 0. 0. 0.
      0. -4.16570932e-001 1.34459054e+000 -1.07225865e-001
      2.67649710e-001 0. 0. -7.77757525e-001 5.37648559e-001
      5.67960382e-001 0. 1.49734843e+000 0. -5.19328833e-001 0. 0. 0.
      2.23024949e-001 0. -4.16570932e-001 -6.64803803e-001 0. 0.
      -2.58428693e-001 0. 0. 0. 0. 0. 0. 0. 1.05519593e+000 0.
      4.59593439e+000 0. 0. -1.67009577e-001 0. 0. 0. 8.90494585e-001
      4.40088481e-001 3.60209018e-001 0. 3.67401421e-001 0. 0. 0.
      1.31273434e-001 -4.16570932e-001 0. 0. 0. -4.16570932e-001
      -2.66285837e-002 5.67960382e-001 -1.35235834e+000 -6.25531226e-002
      6.61250532e-001 0. 0. 7.86658108e-001 3.69339645e-001 0.
      6.77034616e-001 7.88044095e-001 -5.58009267e-001 -3.37091118e-001
      0. -2.58428693e-001 3.90669405e-001 0. 0. 6.21542931e-001 0.
      7.78814971e-001 0. 0. 0. 3.07346940e-001 0. 2.61664104e+000 0. 0.
      0. 0. 0. 0. 1.02223313e+000 0. 0. 0. 0. 0. 0. 0. 0.
      1.32028031e+000 0. 0. 0. 0. -2.61358827e-001 0. 0.
      -4.53222543e-001 0. 0. 0. 0. 0. 0. 0. 0. 0. 0. 0. -5.98642156e-002
      0. 0. 0. 0. -4.10182059e-001 0. 0. -4.30012822e-001 0. 0. 0. 0. 0.
      5.57914793e-001 0. 0. -5.19328833e-001 -6.09402299e-001 0.
      -5.01040816e-001 1.04124820e+000 0. 0. 0. 0. 0. 0.
      -2.45080426e-001 0. -4.10182059e-001 0. 0. 0. -2.45080426e-001 0.
      0. 0. -8.43000054e-001 3.99137229e-001 0. 0. 0. 0. 4.23309088e-001
      0. 0. 0. -7.85510838e-001 0. 6.36766374e-001 0. -4.30012822e-001
      0. 2.67649710e-001 -1.02852917e+000 6.77034616e-001 0.
      7.86658108e-001 7.55663276e-001 0. 7.66300678e-001 0.
      -2.60406524e-001 0. 0. 0. -5.01040816e-001 5.67960382e-001 0.
      -2.71886975e-001 0. 0. 4.40088481e-001 0. 0. 0. 0. 0. 0. 0. 0. 0.
      0. 0. 0. 0. -5.45430899e-001 0. -2.01776177e-001 0.
      5.39399743e-001 0. 0. 0. 0. -2.45080426e-001 0. 4.40088481e-001
      7.58070827e-001 4.18094546e-002 -5.01040816e-001 0.
      5.67960382e-001 0. 0. 0. 0. 0. 0. 0. 2.40650725e+000
      -7.17274904e-001 0. -5.19328833e-001 0. 0. 5.37648559e-001 0.
      -6.82056367e-001 0. 0. 4.04436171e-001 3.46025079e-001 0.
      -1.26175308e+000 -1.67009577e-001 0. 0. 8.58875334e-001 0.
      3.46025079e-001 0. -1.72108725e-001 0. -2.34332040e-001 0. 0. 0.
      6.03781879e-001 -2.71874309e-001 0. 0. 0. 3.90669405e-001
      -8.06929171e-001 0. 0. -2.62902260e-001 0. 0. 0. 0. 0. 0. 0.
      -4.16570932e-001 0. 0. 0. 0. 0. -1.31914639e+000 0. 0. 0. 0. 0.
      -1.98737308e-001 0. 2.20070314e+000 0. 0. 0. 0. 0. 7.86658108e-001
      0. 0. 0. 0. 0. 0. 0. 0. 0. 0. 0. 0. 0. 0. 1.31583774e+000
      -4.67929244e-001 0. -1.64949286e+000 0. 9.26668465e-001 0. 0. 0.
      6.52724326e-001 -1.61497378e+000 1.61026672e-001 1.21134973e+000
      -5.95202208e-001 0. -4.06375110e-001 0. 0. -4.94614929e-001 0. 0.
      0. 0. 0. 0. 0. 7.18941450e-001 0. -3.37091118e-001 0. 0.
      -5.01040816e-001 2.68951654e-001 0. 0. 0. 7.63983607e-001 0. 0. 0.
      0. -4.16570932e-001 0. 7.02589512e-001 -1.80220437e+000 0.
      5.37648559e-001 0. 7.86658108e-001 0. 0. 0. -4.30012822e-001
      1.61026672e-001 0. 0. 0. 0. 0. 0. 0. 0. 0. 6.72053516e-001
      -8.66096377e-001 0. -3.29104543e-001 0. 0. 0. 0. 0. 0.
      6.21542931e-001 0. 0. 0. 0. 0. 6.35051131e-001 0. -6.54998720e-001
      -3.23750186e+000 -3.94059569e-001 0. 0. -4.53222543e-001 0.
      9.01395977e-001 0. 0. -4.16570932e-001 2.28652135e-001 0. 0. 0.
      5.67960382e-001 0. 0. 9.36785817e-001 0. 0. 0. -8.29558134e-001 0.
      0. 0. 0. -2.62902260e-001 -4.30012822e-001 6.03781879e-001 0. 0.
      0. 0. -4.06375110e-001 0. 0. 6.52724326e-001 6.21542931e-001 0. 0.
      8.18355918e-001 0. -2.58428693e-001 0. 0. -1.67009577e-001 0. 0.
      -2.10339516e-001 0. -5.01040816e-001 0. 0. 0. 0. 0.
      -9.44767118e-001 0. 0. 0. 0. 1.07617188e+000 0. 0. 6.52724326e-001
      0. 3.60209018e-001 5.20748854e-001 0. 0. -2.58428693e-001 0. 0. 0.
      0. 0. 0. 0. 0. 0. 0. 4.11422193e-001 0. 6.48149669e-001
      2.13254690e+000 0. 0. 0. 0. 0. 0. -2.45080426e-001 5.67960382e-001
      -2.91300476e-001 8.63397598e-001 0. 1.27426732e+000 0. 0. 0. 0. 0.
      0. 0. 7.15364754e-001 0. 7.57447302e-001 0. -4.34317529e-001 0.
      -9.07415986e-001 0. 0. 0. 0. 0. -5.98642156e-002 -1.72108725e-001
      0. 6.73528433e-001 5.67960382e-001 7.58471668e-001 0. 0. 0.
      1.50922224e-001 0. -1.68305766e-002 0. 0. 0. 0. 3.46025079e-001
      -2.03027189e-001 -4.30012822e-001 0. 0. 0. 0. 3.20894986e-001 0.
      2.67649710e-001 0. 0. 0. 0. -2.47554088e+000 4.23309088e-001
      6.73704624e-001 0. -4.16570932e-001 0. 5.20748854e-001 0.
      7.73775816e-001 0. 4.95031983e-001 -6.19598150e-001 0. 0.
      6.52724326e-001 0. -2.45080426e-001 0. 0. 0. 0. 0. 0. 0. 0. 0.
      1.76492476e+000 -4.30012822e-001 0. 0. 3.60209018e-001
      -2.62902260e-001 0. 0. 0. 0. 0. 0. 0. 8.13978493e-001 0. 0.
      -5.98642156e-002 0. 0. 3.07346940e-001 -2.55766362e-002
      -2.66285837e-002 1.52026582e+000 0. 0. 0. 5.20748854e-001
      -1.38725400e-001 -2.01776177e-001 0. 5.20748854e-001 0. 0. 0. 0.
      0. 0. 2.28652135e-001 -1.07945943e+000 -5.30303001e-001 0. 0. 0.
      0. 0. 9.39911485e-001 0. 0. 0. 9.36770141e-002 0. 0. 0. 0.
      1.07529712e+000 3.67401421e-001 2.28652135e-001 0. 0. 0.
      6.03781879e-001 0. -4.94327694e-001 0. 0. -5.69684505e-002 0.
      6.52724326e-001 0. -1.03409505e+000 0. 0. 0. 0. 0. 0. 0.
      6.03781879e-001 3.60209018e-001 4.79047656e-001 0. 0. 0. 0.
      5.20748854e-001 4.94120240e-001 0. -3.63719702e-001 0.
      -1.27166331e+000 0. 0. 0. 0. 0. 5.74037731e-001 -2.34332040e-001
      0. -5.69684505e-002 0. 0. 0. -1.03581738e+000 0. 0. 0. 0.
      -9.17900980e-001 0. -4.30012822e-001 0. 0. 7.58070827e-001 0. 0.
      -2.62902260e-001 -1.01082432e+000 0. 0. -2.66285837e-002 0.
      -1.72108725e-001 6.10604525e-001 -1.04759848e+000 9.46709096e-001
      0. 0. 0. -5.01040816e-001 6.21542931e-001 -4.06375110e-001 0.
      2.23659828e-001 0. 0. 0. 0. 1.01531029e+000 0. -4.94614929e-001 0.
      4.43677828e-002 0. 0. 0. 0. 5.65116644e-001 0. 0. 0. 0. 0. 0. 0.
      0. 0. 0. 0. 0. 5.37648559e-001 -2.97283500e-001 0.
      -4.10182059e-001 0. 0. 0. -4.53222543e-001 3.67401421e-001 0. 0.
      1.24215126e+000 0. 0. 4.87415977e-002 0. 1.64880395e-001 0. 0. 0.
      -5.19328833e-001 5.67960382e-001 0. 7.86658108e-001 0. 0.
      -5.98642156e-002 0. 3.60209018e-001 3.07346940e-001 0. 0.
      -4.39615816e-001 7.86658108e-001 0. 0. 0. 0. -3.37091118e-001
      -3.60072553e-001 6.21542931e-001 0. 0. 0. 0. 0. 0.
      -5.98642156e-002 0. -4.30012822e-001 -5.22739530e-001 0.
      -1.55069506e+000 0. 0. 0. 0. 0. 0. -2.58428693e-001
      4.04436171e-001 6.21542931e-001 0. 0. 7.57794261e-001 0.
      4.49490398e-001 0. 7.86658108e-001 5.14291763e-001 0.
      -2.34332040e-001 0. -2.97283500e-001 0. 0. 0. 0. 0. 0.
      1.81840688e-001 0. 3.69339645e-001 -2.76752263e-001 0.
      -4.43199515e-001 0. -9.00990069e-001 0. 0. 1.14143050e+000
      -3.37091118e-001 0. 0. 0. 0. 1.81840688e-001 0. 0. 0. 0. 0.
      -4.12987232e-001 -2.44463658e+000 0. 0. 6.77034616e-001 0.
      2.67649710e-001 6.10604525e-001 0. 0. 0. 3.46025079e-001 0.
      5.20748854e-001 -9.30556878e-002 1.42903280e+000 0.
      3.99137229e-001 -2.03027189e-001 0. 0. 3.47467721e-001 0.
      1.61680177e-001 0. -4.10182059e-001 0. 0. 0. 0. 0. 0.
      6.07076585e-001 0. 0. 3.99137229e-001 0. 0. 0. -8.12750220e-001 0.
      0. -4.30012822e-001 0. 0. 0. -8.40194881e-001 0. 0. 0.
      -5.15284181e-001 0. -5.75463355e-001 -1.67009577e-001 0. 0.
      1.22441518e+000 1.07866359e+000 0. 0. 0. 0. 0. -2.62902260e-001 0.
      0. 0. 0. 0. 6.52724326e-001 0. 0. 0. 0. 2.31349754e+000 0. 0.
      -4.53222543e-001 0. 0. -4.58044100e+000 1.89407253e+000 0. 0. 0.
      -1.07156968e+000 0. 0. 1.02874935e+000 0. 2.46970916e+000
      1.22588217e+000 0. 0. 2.28652135e-001 0. -7.53340721e-001 0. 0. 0.
      0. 0. 0. 0. 0. 0. 0. 3.69339645e-001 0. 0. 0. 0. 0.
      1.61026672e-001 0. -5.01040816e-001 0. 0. 0. -2.58428693e-001 0.
      0. 0. -4.16570932e-001 0. 0. 0. -1.78160876e-001 0. 0. 0. 0. 0. 0.
      0. 0. 0. -2.45080426e-001 0. 5.11567555e-002 -3.62007350e-001 0.
      1.09574544e+000 0. 0. 0. -2.66285837e-002 0. -8.22946072e-001
      -2.17794895e-001 0. 0. 7.86658108e-001 -6.90646350e-001 0.
      1.57600927e+000 0. 0. 0. 0. 5.67960382e-001 0. 0. -1.11384070e+000
      1.36721659e+000 0. 0. 0. 0. 0. 0. 0. 0. 0. 0. 0. 5.20748854e-001
      0. 1.98565185e+000 0. 0. 0. 0. 0. 0. -1.22730508e-001 0. 0. 0.
      -4.94614929e-001 0. 4.43677828e-002 -2.17409921e+000 0. 0. 0. 0.
      7.86658108e-001 4.57304269e-001 5.67960382e-001 0. 0.
      8.58875334e-001 -1.03383934e+000 0. 0. -5.01040816e-001
      -1.19254589e+000 0. 0. 6.85784578e-001 5.45605898e-001
      4.95031983e-001 0. 1.94326246e+000 1.26514941e-001 0. 0.
      -2.62902260e-001 0. 0. 2.50395536e-001 0. 2.87764096e+000
      -2.01776177e-001 0. 0. 3.58848363e-001 -3.19754028e+000
      7.86658108e-001 6.52724326e-001 3.82232517e-001 2.15387678e+000
      6.24029413e-002 0. 0. 0. -2.58428693e-001 0. -4.10182059e-001 0.
      5.37648559e-001 0. 0. 2.07294130e+000 0. 0. 3.90669405e-001 0. 0.
      0. 4.40088481e-001 -4.16570932e-001 0. -5.43748617e-001
      -3.18210460e-002 0. 9.36390340e-001 -5.19328833e-001 0. 0.
      -3.18210460e-002 0. 0. -5.01040816e-001 0. 0. -5.31615555e-001
      -2.01776177e-001 -4.55419958e-001 0. 0. 0. 0. 0. 0. 0. 0. 0. 0. 0.
      5.20748854e-001 0. 2.50395536e-001 0. 0. -2.03027189e-001
      -1.40617824e+000 0. 0. -2.01776177e-001 0. 0. 0. -5.69684505e-002
      0. 0. -6.69277370e-001 0. 0. -1.40367889e+000 0. 1.66766989e+000
      0. 7.98274457e-001 0. 0. 0. 7.59346247e-001 0. 0. 0. 0. 0. 0. 0.
      -6.54157281e-001 0. -7.10758209e-001 0. -2.45080426e-001
      4.04436171e-001 0. 0. -4.06375110e-001 0. -1.52391672e+000 0. 0.
      0. 6.13674819e-001 0. 0. -3.37091118e-001 -3.18210460e-002
      -1.16664922e+000 -5.72943866e-001 0. 0. 0. 0. 0. 0. 0. 0. 0. 0.
      2.73019910e-001 0. -2.97283500e-001 0. 0. 4.23309088e-001
      -4.94614929e-001 0. 0. 6.46334052e-001 -4.53222543e-001 0.
      -4.30012822e-001 0. 0. 0. 2.28652135e-001 0. 4.01692867e-001 0. 0.
      0. 0. 1.21063912e+000 0. -3.37091118e-001 0. -2.58428693e-001 0.
      0. 9.05686796e-001 0. 4.36716862e-002 -4.59955454e-001 0.
      -4.30012822e-001 2.50395536e-001 0. 0. 0. 0. 0. 0. 0. 0. 0. 0.
      -4.12987232e-001 0. 0. 0. 0. 0. 0. 0. 0. -7.35372901e-001
      -1.45635402e+000 0. 0. 0. 0. 0. 0. 0. 0. 0. 0. 0. 1.94456708e+000
      0. 0. 0. 0. 0. -4.94614929e-001 0. 0. 2.67329246e-001 0. 0. 0. 0.
      0. 0. 0. 0. 0. 0. -2.66285837e-002 0. 0. 0. 0. 0. 0.
      -4.53222543e-001 0. 0. 0. 0. 0. 0. 0. -2.71874309e-001
      1.94156921e+000 0. 0. 0. 0. 0. -7.10029066e-001 0. 0. 0. 0. 0. 0.
      0. -6.08151317e-001 0. 0. 0. 0. 0. 0. 0. -8.91688108e-001
      4.43677828e-002 0. 4.77383316e-001 0. 0. 4.43677828e-002
      -1.14349890e+000 0. 0. 0. -6.31946862e-001 0. 0. 5.37648559e-001
      0. 0. -4.12987232e-001 0. 2.68951654e-001 -1.14465773e+000
      4.40088481e-001 0. 0. 0. -5.82290828e-001 0. 0. 0. 0. 0.
      2.68951654e-001 0. -1.64071906e+000 0. 6.77034616e-001
      6.03781879e-001 -4.01341617e-001 5.21235704e-001 -2.10339516e-001
      0. 0. 0. 0. 0. 0. 0. 0. 0. -1.21958005e+000 0. 0. 0. 0. 0.
      -1.67009577e-001 0. 0. 6.21542931e-001 0. 0. 0. -9.25704002e-001
      -4.16570932e-001 -1.90686953e+000 0. -1.81529939e-001 0.
      6.76686585e-001 4.04436171e-001 0. 1.11585274e-001 0. 0. 0.
      -5.19328833e-001 3.63681376e-001 0. 5.20748854e-001 0. 0. 0. 0. 0.
      0. 3.67401421e-001 0. 6.77034616e-001 9.18123782e-001
      -7.53340721e-001 0. 0. 4.40088481e-001 0. -2.97283500e-001 0. 0.
      0. 5.20748854e-001 0. 2.28652135e-001 0. 0. 0. 0. 0. 0. 0. 0. 0.
      0. 0. 0. 0. 0. -7.53063142e-001 2.09601426e+000 4.40088481e-001 0.
      -4.10182059e-001 6.41064942e-001 -4.06375110e-001 0. 0. 0.
      -5.60185730e-001 5.19347191e-001 3.60209018e-001 1.81840688e-001
      0. 0. 0. -9.95655775e-001 0. 0. 0. 0. 7.68476844e-001
      5.20748854e-001 0. 0. 0. -6.68050408e-001 0. 0. 0. 4.23309088e-001
      0. 0. -2.80560660e+000 0. 3.60209018e-001 0. 3.60209018e-001 0. 0.
      1.96150875e+000 0. -3.89903635e-001 0. 0. -4.10182059e-001
      -5.39182246e-001 0. 0. 0. 3.90669405e-001 0. 0. 0. 0. 0. 0.
      6.67555928e-001 0. 0. 0. 0. 0. 9.90063965e-001 0. 0. 0. 0.
      -1.72108725e-001 0. 0. 0. 0. -1.72108725e-001 0. 0. 0.
      -8.22008312e-001 5.57914793e-001 0. 0. -3.93843859e-001 0. 0. 0.
      -4.16570932e-001 0. 0. 0. 2.50395536e-001 -2.90249735e-001
      -4.53222543e-001 0. 0. -7.30092704e-001 -5.01040816e-001 0. 0. 0.
      3.18383187e-001 -4.10182059e-001 -9.54776928e-002 3.46025079e-001
      6.21542931e-001 0. 0. 0. 6.21542931e-001 0. 0. 0. 0. 0. 0.
      2.57387972e+000 0. 2.46349216e-001 0. 0. 1.31585443e+000
      5.57914793e-001 0. 5.57914793e-001 0. 0. -8.84232998e-001 0.
      6.93837345e-001 4.23309088e-001 0. 0. 0. -9.07415986e-001 0. 0.
      3.67401421e-001 0. 0. 0. 0. -2.10339516e-001 0. 0. 1.26854358e-002
      -6.82056367e-001 0. 0. 1.05839741e+000 0. -2.10339516e-001 0.
      -7.43466258e-001 0. 0. -4.30012822e-001 0. 0. 0. 4.43677828e-002
      0. 0. 0. 0. 1.07707787e+000 0. 4.04436171e-001 5.14783800e-001 0.
      -2.03027189e-001 0. 0. 6.36353076e-001 0. 0. 0. 0. 2.46347308e+000
      3.18383187e-001 0. 0. 5.57914793e-001 0. 0. 7.55721748e-001
      -3.44217449e-001 0. 0. -4.56641406e-001 0. 6.77034616e-001 0. 0.
      0. 0. 4.95031983e-001 0. 0. 1.02217424e+000 0. 0. 0.
      -4.12987232e-001 1.17174232e+000 -2.34332040e-001 -4.94614929e-001
      0. -4.94614929e-001 0. 0. 0. 0. -2.10339516e-001 0. 0.
      -5.19328833e-001 0. 0. -1.42562509e+000 1.20100963e+000 0.
      -5.14785004e+000 3.60209018e-001 0. 0. 0. 0. 0. -4.30012822e-001
      0. 0. 0. 0. 0. 0. 0. 0. 0. 0. 0. -8.12495172e-001 0.
      6.52724326e-001 -2.17794895e-001 0. -2.97283500e-001 0.
      -5.84968328e-001 0. 0. 0. 0. -1.67009577e-001 0. 0.
      1.46063375e+000 0. 0. 4.95031983e-001 2.23024949e-001 0.
      -2.34332040e-001 0. 0. 0. 0. -2.62902260e-001 0. 1.06665385e+000
      -9.00990069e-001 0. 0. 0. 0. 0. 0. -6.54795885e-001 0. 0. 0. 0.
      -3.37091118e-001 0. 0. 0. 0. 0. -7.53340721e-001 -1.12275565e+000
      0. 0. 0. 0. 0. 7.69334197e-001 2.50395536e-001 0. -3.60072553e-001
      0. -2.83916187e+000 1.22068477e+000 0. 0. -5.98642156e-002 0. 0.
      -4.10182059e-001 0. 0. 0. 0. 0. 3.99137229e-001 0.
      -6.55262530e-001 6.52724326e-001 0. 0. -9.89806175e-001 0. 0.
      6.52724326e-001 -5.58009267e-001 0. 0. -3.23327929e-001
      -2.03027189e-001 1.61026672e-001 8.62433374e-001 -3.18210460e-002
      -9.12701845e-001 0. 0. -2.71874309e-001 3.90669405e-001 0. 0. 0.
      0. 0. 0. -4.44808275e-001 1.14143050e+000 0. 0. -8.85339141e-001
      -9.70647156e-001 0. 0. 1.14707625e+000 0. 0. 8.06600213e-001
      -4.92760718e-001 7.30656028e-001 -2.97283500e-001 0. 0.
      1.81840688e-001 0. 0. 0. 0. 0. 1.48630142e+000 0. 1.34713256e+000
      0. 0. 0. 0. 0. -7.50506043e-001 0. 2.86416799e-001 5.20748854e-001
      -4.53222543e-001 0. 0. 5.09106100e-001 0. 0. -5.19328833e-001 0.
      0. 0. 0. 1.61026672e-001 0. 0. 0. 0. 2.33745128e-001 0. 0. 0.
      -2.71874309e-001 0. 0. 1.05674791e+000 0. 0. 0. 0. 0.
      -3.37091118e-001 -1.82657659e-001 0. 0. 0. -5.34776568e-001 0.
      5.49690008e-001 0. 0. 1.72874525e-001 0. 0. -8.33141863e-001 0. 0.
      0. 4.05444652e-001 0. 0. 0. 6.77034616e-001 0. 5.57914793e-001 0.
      0. 0. 0. 0. -2.10339516e-001 0. 0. -2.01776177e-001
      -1.10129607e+000 0. 5.83630919e-001 0. 0. 0. 0. 0. 0.
      -1.07183337e+000 0. 8.86343598e-001 1.36867440e+000
      -5.61848760e-001 0. 0. 0. -5.69684505e-002 -2.47867370e+000
      1.27753735e-001 0. 0. 2.23024949e-001 0. 0. 0. 0. 0.
      6.21542931e-001 4.95031983e-001 0. 0. 2.68951654e-001
      5.20748854e-001 1.42492664e+000 0. 1.51389465e-001 0. 0.
      -2.65486884e+000 -4.30012822e-001 0. 0. 0. -2.71874309e-001 0.
      -4.12987232e-001 0. -5.01040816e-001 0. 0. 0. 0. -4.12987232e-001
      0. 1.23494947e+000 -2.45080426e-001 0. 0. -4.84921753e-001 0. 0.
      6.90958798e-001 0. -7.50506043e-001 0. 0. 1.04149771e+000 0.
      -5.25804520e-001 -1.11786520e+000 0. 0. 0. -4.72312868e-002
      -1.52033293e+000 0. 0. 0. 0. 0. -2.71874309e-001 0. 0.
      -1.06995559e+000 0. 0. 0. 0. 1.21841466e+000 0. 4.76040959e-001 0.
      0. 0. 0. 0. 0. 0. 0. -6.78249419e-001 0. 5.52326083e-001 0.
      -9.72551405e-001 -2.50377208e-001 -2.23178081e-002 0. 0. 0. 0. 0.
      0. 0. 0. 0. -2.03027189e-001 -3.37091118e-001 -5.55712163e-001 0.
      -2.66285837e-002 0. 0. 0. 0. -4.94614929e-001 0. 6.21542931e-001
      1.59000129e-001 0. 0. 0. 0. 0. 0. 0. 0. 0. -7.21105039e-001
      4.04436171e-001 0. 0. 1.24308586e+000 3.99137229e-001
      5.67960382e-001 0. 0. 0. 0. 2.67649710e-001 -3.23327929e-001 0.
      -4.37430239e+000 -6.14763379e-001 0. -2.45080426e-001
      3.99137229e-001 0. 0. -1.72108725e-001 0. 0. 2.71012690e-002
      1.12587523e+000 0. 0. 0. 1.50513041e+000 0. 0. 0. 0. 0.
      -2.54672877e-002 -4.94614929e-001 0. 0. 0. -1.98461640e+000 0.
      -3.60072553e-001 -5.01040816e-001 0. 0. 0. 0. 0. 0. 0. 0. 0. 0. 0.
      3.46025079e-001 0. 0. 0. 0. 0. 0. 7.81338811e-001 -4.12987232e-001
      3.69339645e-001 0. 0. 5.20748854e-001 0. 0. 6.21542931e-001
      -2.90249735e-001 0. 0. 0. 0. 0. 0. 0. 3.46025079e-001 0. 0. 0. 0.
      0. 0. 0. 9.45986271e-001 0. 3.67401421e-001 0. 0. 0. 0. 0. 0. 0.
      0. 0. 0. 0. 0. 0. 0. 0. -1.61767825e-001 0. 0. 0. 0. 0. 0.
      4.40088481e-001 0. 0. 0. 4.04436171e-001 0. 0. 0. 0. 0. 0.
      1.00821805e+000 0. 0. -4.89877045e-001 0. 0. 3.69339645e-001
      -3.68785739e-001 0. -2.03027189e-001 0. 0. 0. -3.18210460e-002 0.
      4.95031983e-001 0. -2.71874309e-001 1.14308882e+000
      -2.32061195e+000 0. -4.06375110e-001 0. 0. 0. 0. 0.
      -1.66083646e+000 0. -1.67009577e-001 0. 0. 0. 0. 0. 0. 0.
      6.03781879e-001 0. 0. -1.67375162e-001 0. 0. 1.58151901e+000 0. 0.
      0. 0. 0. 0. 0. 0. 0. -4.53222543e-001 0. 0. 0. 0. 1.06163144e+000
      1.55611038e+000 -8.98465097e-001 0. 0. 0. 0. 0. 6.74748361e-001 0.
      1.22532487e+000 0. 0. 0. 0. 0. 3.69339645e-001 0. 0. 0. 0. 0.
      1.81840688e-001 0. 0. 1.82398272e+000 0. 0. 0. 0. 0. 0. 0. 0. 0.
      0. 2.50395536e-001 0. -2.03027189e-001 0. 5.31844437e-001 0. 0.
      6.52724326e-001 -2.71874309e-001 0. -2.62902260e-001 0.
      -4.16570932e-001 0. 0. 0. 0. 0. 0. 0. -9.47837472e-001 0.
      -1.53290057e+000 -4.06375110e-001 0. 0. 0. -4.30012822e-001
      -3.50106406e+000 0. 0. 0. 0. 2.67649710e-001 0. 0.
      -2.03027189e-001 5.57914793e-001 -1.67009577e-001 3.60209018e-001
      6.21542931e-001 0. 0. 1.21468318e+000 0. 0. -4.06375110e-001 0.
      3.99137229e-001 0. 0. 0. 3.60209018e-001 2.22293600e-001 0. 0.
      -4.61661108e-002 -4.30012822e-001 0. -2.62902260e-001 0.
      -2.09887028e+000 0. 0. 0. 0. 0. -4.53222543e-001 0. 0.
      -2.58428693e-001 0. 0. 0. 0. 0. 0. -5.69684505e-002
      3.46025079e-001 0. 0. 0. 0. 0. 0. 0. 0. 0. 0. 0. 0. 0. 0. 0. 0. 0.
      0. 0. 0. 2.68951654e-001 0. 0. 0. 0. 0. 0. 0. 0. 5.86032867e-001
      0. 0. 0. 0. 0. 0. 6.52724326e-001 2.12380862e+000 0.
      1.94538379e+000 0. 0. 6.52724326e-001 0. -1.03109002e+000 0. 0. 0.
      1.11712313e+000 0. 0. 0. 0. 0. 0. 0. 0. 7.86658108e-001 0. 0.
      -6.84861541e-001 0. 3.46025079e-001 8.62179771e-002
      -2.10339516e-001 0. 9.82378125e-001 -2.89530843e-001 0. 0. 0.
      -4.94614929e-001 0. 0. 0. 0. -1.67009577e-001 0. 0. 0.
      -5.98642156e-002 0. 0. 0. 0. 0. 0. 0. 0. 8.57812762e-001 0.
      -3.18210460e-002 0. 9.45986271e-001 1.07617188e+000 0.
      -2.91956210e+000 0. 5.67960382e-001 0. -4.06375110e-001 0.
      -2.18534485e-001 0. 0. 0. -5.54479122e-001 0. 0. -1.68948281e+000
      3.07346940e-001 0. 0. -8.20364118e-001 0. 6.10604525e-001 0. 0. 0.
      0. -5.19328833e-001 -8.30028236e-001 0. 0. 3.46025079e-001 0.
      -4.28134412e-001 0. -5.12122512e-001 0. 0. 0. -3.23327929e-001
      4.23309088e-001 0. 0. -1.41442776e+000 0. -5.19328833e-001 0.
      5.57914793e-001 0. 0. 0. 0. 0. 0. 2.23024949e-001 0. 0. 0.
      -1.35432088e+000 0. 0. 0. -7.53662050e-001 0. 0. 0. 0.
      6.52724326e-001 -4.12987232e-001 -2.17794895e-001 0. 0. 0.
      -1.08235657e+000 0. 0. -4.94614929e-001 0. 0. 0. 0. 0.
      -3.37091118e-001 -2.17794895e-001 0. 0. 3.60209018e-001
      2.68951654e-001 0. 0. -1.30641735e+000 -1.28546762e+000
      -3.23327929e-001 0. -2.10339516e-001 -1.34387004e+000
      7.01179206e-002 0. 0. 0. 7.86658108e-001 -2.01776177e-001 0. 0. 0.
      0. 0. 4.23309088e-001 1.16515970e+000 -5.27414858e-001 0. 0.
      -6.44514084e-001 0. -8.40194881e-001 -8.10741603e-001 0. 0. 0. 0.
      5.37648559e-001 -4.10182059e-001 -7.82231092e-001 -4.06375110e-001
      0. 0. 0. 0. 0. 0. 0. 0. 3.57620895e-001 0. -1.23814678e+000 0. 0.
      9.26668465e-001 0. -4.30012822e-001 -3.23327929e-001 0. 0.
      -6.83990002e-001 0. 3.46025079e-001 0. 0. -7.70184517e-001 0. 0.
      0. 0. 0. -2.98502892e-001 -2.97283500e-001 0. 1.46369278e+000 0.
      0. 0. 1.30544865e+000 0. 0. 1.20477688e+000 0. 0. 0. 0. 0. 0. 0.
      0. -5.94404578e-001 2.67649710e-001 0. 0. 3.80282998e-001 0.
      3.99137229e-001 -5.19328833e-001 0. 0. 0. -2.58428693e-001 0.
      8.26866448e-001 0. 0. 2.47714236e-001 0. 0. -3.29104543e-001
      -8.17739248e-001 0. 0. 3.67401421e-001 -2.97283500e-001
      4.23309088e-001 0. -1.33787715e+000 0. 0. 0. -2.95383006e-001 0.
      -3.98212403e-001 0. 2.28652135e-001 0. 0. 0. 2.23024949e-001 0. 0.
      -6.11958265e-001 0. 0. 0. 0. -2.44423479e-001 0. 0. 0. 0. 0.
      3.07346940e-001 0. 0. -4.99059677e-001 0. 0. 0. 0. 0.
      -4.94614929e-001 0. 0. 5.67960382e-001 0. 0. 0. 0. 0. 0.
      1.75993800e-001 0. 0. 1.03268051e+000 0. 0. 2.23024949e-001
      1.56765652e+000 2.79131579e+000 0. 4.95031983e-001 5.67960382e-001
      0. 0. -2.01776177e-001 0. 0. -6.40548944e-001 0. -5.19328833e-001
      -5.98642156e-002 0. 0. 0. 0. 0. -3.18210460e-002 0.
      -4.16570932e-001 -5.69684505e-002 3.90669405e-001 0. 0. 0.
      -1.72108725e-001 -1.54536891e+000 0. 0. -5.11672139e-001 0.
      -7.07465589e-001 0. 0. -7.53340721e-001 0. 0. 0. 0.
      4.53162879e-001 0. 0. 0. 0. 9.03119862e-001 0. -4.94614929e-001 0.
      0. 0. -1.73853028e+000 0. 0. 0. 0. 0. -2.66285837e-002 0.
      3.46025079e-001 1.32047474e-001 0. 0. -6.40352309e-001 0.
      -5.60905039e-001 0. 0. 6.52724326e-001 0. 0. -4.38883901e-001
      -1.67009577e-001 -4.10182059e-001 -6.10209107e-001 0.
      -2.66285837e-002 0. 0. 0. 3.46025079e-001 -6.17524147e-001 0.
      -8.13295126e-001 0. 0. 0. 0. 0. 0. 3.67401421e-001 0. 0. 0.
      -7.07465589e-001 0. 0. 1.10504127e+000 -4.03552353e-001 0. 0.
      6.77034616e-001 -5.01040816e-001 4.40088481e-001 0.
      3.18383187e-001 -4.10182059e-001 2.28652135e-001 0.
      4.95031983e-001 0. 0. 0. 0. 0. 0. 0. -1.27592719e+000 0. 0.
      4.89374608e-001 0. 6.03781879e-001 0. 0. 8.44995499e-001 0.
      5.60590625e-001 0. -5.07623017e-001 -1.11584735e+000
      1.86336350e+000 0. 0. 0. 0. -3.68785739e-001 5.67960382e-001
      -2.62902260e-001 0. 0. -4.53222543e-001 0. 0. -7.33510017e-001
      -9.57490265e-001 -2.30193353e+000 0. 0. 0. 0. 0. 5.67960382e-001
      0. 0. 0. 0. 0. 0. 0. 0. 0. 0. 0. 0. 0. -9.81605232e-001
      9.51737165e-001 0. 0. 0. 0. -2.45080426e-001 0. 0. 0. 0. 0.
      1.33369339e+000 0. 1.96110040e-001 0. 0. -4.04803365e-001 0.
      1.07866359e+000 0. 0. -1.40936208e+000 -5.51149905e-001
      -6.54998720e-001 -2.00532818e+000 0. 0. 0. -2.29655787e-001 0. 0.
      0. 0. 0. 0. 0. 1.22532487e+000 0. 0. 0. 0. 0. 0. 0. 0.
      7.86658108e-001 -6.82056367e-001 0. -3.60072553e-001 0.
      -4.30012822e-001 0. -4.53222543e-001 0. 0. 0. -2.71874309e-001
      -5.16857386e-001 0. 0. 0. 0. 0. 0. 0. 1.54667544e+000 0. 0. 0. 0.
      -6.40707135e-001 0. -3.60072553e-001 0. 1.12395859e+000 0. 0. 0.
      0. 0. -1.19277072e+000 -4.10182059e-001 8.88637066e-001 0. 0. 0.
      0. -5.69684505e-002 -2.66285837e-002 -5.01040816e-001
      3.07346940e-001 0. 0. 0. 0. -4.10182059e-001 0. -2.01776177e-001
      0. -5.02414070e-004 0. -6.09402299e-001 0. 0. -4.94614929e-001
      -2.03027189e-001 0. 0. -1.80989397e+000 -2.62902260e-001
      -1.87079310e-002 4.58075196e-001 4.40088481e-001 0. 0. 0. 0. 0.
      -4.10182059e-001 0. -2.71874309e-001 0. 1.50019646e-001
      1.81840688e-001 0. 0. 0. 0. -4.06440765e-001 0. 0. 0. 0. 0.
      -7.04068065e-001 0. 0. -2.66285837e-002 9.75005150e-001 0. 0. 0.
      5.67960382e-001 0. 6.36353076e-001 0. 0. 0. 0. 0. 0. 0. 0. 0. 0.
      0. -2.58428693e-001 -5.26435971e-001 0. 0. 0. -3.04944634e-001
      2.23024949e-001 0. 0. 2.67649710e-001 0. 1.87226272e+000 0.
      -1.77576792e+000 5.72510123e-001 0. 5.37648559e-001
      6.52724326e-001 0. -5.00310659e-001 -1.67009577e-001
      -4.66574617e-002 0. 0. -4.10182059e-001 0. 0. 0. 0. 0. 0. 0.
      7.09052622e-001 0. -1.30165589e+000 0. -5.19328833e-001
      1.28169012e+000 0. 0. 0. 0. 0. 0. 0. 6.03781879e-001
      4.95031983e-001 0. 0. 0. 0. -2.58428693e-001 0. 0. 0.
      -6.05803668e-001 0. 0. 0. 0. 4.23309088e-001 0. 0. 0.
      1.81840688e-001 0. 0. 0. 1.68453538e+000 -6.17154181e-001
      5.57914793e-001 0. -2.25663275e-001 -9.06245470e-001 0. 0. 0. 0.
      -1.63658857e+000 0. 0. 0. 0. 0. -1.75699818e+000 -9.14028049e-001
      0. 4.95031983e-001 -8.33141863e-001 0. 0. 0. 0. 0. 0.
      7.11923718e-001 1.51389465e-001 9.18341100e-001 0. 4.56011176e-001
      0. 0. -4.30012822e-001 -6.30353153e-001 4.04436171e-001 0. 0. 0.
      0. 0. -8.55454803e-001 0. 0. 0. -4.18401384e+000 0. 0. 0.
      -1.67009577e-001 1.31623697e+000 0. 0. 0. 0. 0. 0. 0. 0. 0.
      2.67649710e-001 2.28652135e-001 0. 1.05229542e-002 0.
      -2.00425267e+000 0. 2.99347138e+000 0. 0. -1.09932566e+000
      6.03781879e-001 0. 0. -5.01040816e-001 2.50395536e-001 0. 0. 0.
      -2.34332040e-001 0. 8.08310330e-001 0. 0. 0. 1.02709103e+000 0. 0.
      0. 0. 0. 1.43510544e+000 -4.94614929e-001 0. 0. 0. 0. 0.
      -1.81076086e+000 0. 0. 0. 0. 0. 0. 0. 0. 0. -1.79338920e+000
      1.23177302e+000 0. 0. 0. -4.42003131e-001 0. 0. -1.72108725e-001
      0. 0. 3.67401421e-001 0. 0. -3.29295874e+000 0. -4.16570932e-001
      0. 0. -2.69844711e-001 0. 5.67960382e-001 0. 0. -8.72304559e-001
      0. 9.25010324e-001 -1.26486957e+000 0. 0. 0. 0. 0. 0. 0. 0. 0. 0.
      0. 4.04436171e-001 5.83630919e-001 0. 5.67960382e-001
      -1.03865767e+000 0. 0. -8.98784757e-001 0. 0. 0. 8.46618176e-001
      0. 0. 0. 0. 0. 0. 0. 0. 0. 0. 0. 0. 0. 3.90905201e-001 0. 0. 0. 0.
      0. 7.60673523e-001 0. 0. 0. 9.63990927e-001 -2.45080426e-001 0. 0.
      0. 0. 0. 0. -4.10182059e-001 0. 0. 0. 0. 3.46025079e-001
      -1.43461242e-001 -4.94614929e-001 0. 0. -1.62216651e+000
      4.95031983e-001 0. -3.23327929e-001 1.43037832e+000 0. 0.
      1.96769106e+000 9.05686796e-001 0. 0. 0. 0. 0. -4.94614929e-001 0.
      -2.10339516e-001 -1.89964250e-001 5.67960382e-001 0.
      -2.70954490e+000 0. -5.69684505e-002 6.52724326e-001 0. 0. 0. 0.
      0. 0. 0. 4.23309088e-001 -5.65335751e-001 0. -2.01776177e-001 0.
      0. 0. 0. 0. 0. 2.20823675e-001 0. 0. 0. 0. 0. 0. 0. 0. 0.
      -2.62902260e-001 1.28909886e+000 0. 0. 0. 0. 0. 0. 0. 0. 0. 0. 0.
      2.50395536e-001 0. -4.28134412e-001 0. 0. 0. -2.17794895e-001
      4.95031983e-001 0. 0. 1.27426732e+000 -5.08398712e-001 0. 0. 0.
      5.67411780e-001 0. 0. 0. -2.71874309e-001 0. 0. 0.
      -1.42482829e+000 1.44800329e+000 -9.17351723e-001 -7.21105039e-001
      0. -8.74911308e-001 0. 0. 0. 0. 0. 0. -7.57517159e-001 0. 0. 0. 0.
      0. 0. -3.40014160e-001 -2.64842331e-001 0. -4.56641406e-001 0.
      -1.72108725e-001 -1.68144047e+000 0. -2.58428693e-001 0. 0. 0. 0.
      0. 0. 1.81840688e-001 0. 0. 0. 0. 0. 0. 0. 0. 0. 0.
      -5.69684505e-002 0. 0. 0. 0. -4.73650485e-001 0. 0. 0. 0. 0.
      -4.65955973e-001 0. 0. -5.26355147e-001 -8.38425517e-001 0. 0. 0.
      0. -1.35775435e+000 0. -1.93482578e+000 0. 3.99137229e-001
      -5.19328833e-001 0. 6.21542931e-001 0. 0. 0. 0. 0. 0. 0. 0. 0. 0.
      0. 0. 4.79409844e-001 0. -8.67263854e-001 0. 0. -1.28334665e+000
      -2.45080426e-001 -3.42501327e-002 0. 1.81840688e-001 0. 0. 0. 0.
      0. 0. 0. -2.01776177e-001 0. 0. 0. 0. 0. 0. 0. 0. 0. 0. 0.
      8.56329203e-001 0. 6.21542931e-001 4.40088481e-001
      -4.48391974e-001 -4.06375110e-001 2.23024949e-001 -4.30012822e-001
      0. -3.18210460e-002 0. 0. 2.68951654e-001 0. 5.49292639e-002 0. 0.
      -2.61640400e-001 0. 0. 0. -2.58428693e-001 4.40088481e-001
      -9.10221517e-001 6.14976764e-001 -1.31340437e-002 0. 0. 0. 0.
      -7.77757525e-001 -6.75093234e-001 0. 0. 0. 0. -1.37892652e+000
      -4.53222543e-001 0. 8.82626474e-001 0. -3.23327929e-001
      3.99137229e-001 -4.17041004e-001 0. 0. 0. 0. 0. 0. 0. 0. 0. 0. 0.
      0. -3.29762280e-001 0. 0. -9.17611778e-001 0. 3.60209018e-001 0.
      0. 0. 0. 4.43677828e-002 8.33629489e-001 0. 0. 0. 0. 0. 0. 0. 0.
      -4.94614929e-001 0. 3.90669405e-001 0. 0. -4.16570932e-001 0.
      -2.90249735e-001 0. 2.28652135e-001 1.56923437e+000 0. 0. 0. 0. 0.
      0. 0. 0. 6.03781879e-001 -5.19328833e-001 0. 0. 0. 0.
      -1.50166714e+000 -9.32316065e-001 0. 0. -4.99059677e-001 0. 0.
      -8.88176084e-001 -7.11651206e-001 0. -3.37091118e-001
      -3.23327929e-001 0. 0. 0. 0. 0. 0. 0. 0. 0. -5.01040816e-001 0. 0.
      5.67960382e-001 0. 0. 0. 0. 0. 0. 0. -8.68209004e-001
      -4.39519501e+000 0. 0. 2.23024949e-001 0. 0. 0. 0.
      -2.34332040e-001 0. 0. 0. 0. 0. 0. 1.58374119e+000 0. 0. 0. 0.
      5.39399743e-001 0. 0. 0. 1.12453079e+000 0. 4.99258310e-001 0. 0.
      0. -5.19328833e-001 -5.01040816e-001 0. -4.16570932e-001
      3.67401421e-001 0. 0. -7.72915125e-001 0. 0. -2.10339516e-001 0.
      0. 3.60209018e-001 0. 0. 0. 0. 1.00804889e+000 0. 0. 0. 0. 0. 0.
      0. 1.00804889e+000 0. 3.69339645e-001 -5.07325709e-001
      -4.94614929e-001 0. 0. 0. -2.27286410e+000 5.20748854e-001 0. 0.
      -1.24913800e+000 0. 0. 0. 0. 0. 0. 0. -1.72108725e-001
      -1.80746353e+000 -1.42090344e+000 1.03700340e+000 1.82419717e-001
      -5.98642156e-002 0. -5.01040816e-001 0. 0. -2.58428693e-001 0. 0.
      6.73450753e-002 0. 1.31312275e+000 -5.19328833e-001 0. 0. 0.
      -4.10182059e-001 0. 0. 0. -5.40879592e-002 0. 0. 0.
      2.03128695e+000 0. 0. 0. 0. 0. 0. 0. 0. -2.97283500e-001 0. 0.
      -2.36968100e-001 4.43677828e-002 0. 0. 3.60209018e-001
      2.50395536e-001 -4.53222543e-001 0. 0. -2.58428693e-001
      -4.53222543e-001 -1.40985179e+000 7.21402407e-001 0. 0.
      -6.20611429e-001 0. 8.75963941e-002 0. 6.77034616e-001 0.
      1.23494947e+000 0. 3.07346940e-001 0. 0. 0. -5.69684505e-002 0. 0.
      0. 0. 0. 1.09281278e+000 2.50395536e-001 0. 0. 0. 9.42084730e-001
      0. -4.06375110e-001 0. 0. 0. 0. 0. 0. 0. 0. -3.44217449e-001 0. 0.
      0. 0. 0. 0. 0. -4.12987232e-001 0. 0. 0. 0. 0. -4.06375110e-001
      3.49215835e-001 -4.53222543e-001 0. 0. 0. 0. -1.89757720e-001 0.
      0. 0. 0. 0. 0. -8.26753020e-001 0. 1.53906786e+000 0. 0. 0. 0. 0.
      0. 0. 0. 0. 3.99137229e-001 0. 0. 0. 0. -9.76086974e-001 0. 0. 0.
      -7.63943076e-001 0. 0. 0. 0. 0. 0. 0. -1.47075379e+000 0. 0. 0. 0.
      0. -3.23327929e-001 0. 0. -3.77349079e-001 0. 0. 0. 0. 0. 0.
      -4.06375110e-001 0. -7.53660917e-001 0. 0. 0. 2.59662598e-001 0.
      4.23309088e-001 9.98003304e-001 -6.22974813e-001 1.30047846e+000
      0. 9.82378125e-001 0. 4.23309088e-001 0. 0. 0. 0. 0. 0.
      3.60209018e-001 -5.27669430e-001 0. 0. 0. 0. -2.01776177e-001 0.
      7.96612501e-001 -1.72108725e-001 0. -3.60072553e-001 0. 0.
      1.66312441e-001 0. 0. -5.26355147e-001 3.22485268e-002 0.
      9.04002786e-001 0. -7.72915125e-001 0. 0. 0. 0. 3.07346940e-001 0.
      0. 5.73484004e-001 -4.62875307e-001 0. 1.18599105e+000
      -8.23638618e-001 0. 0. 0. -4.12987232e-001 0. -8.03336501e-001 0.
      0. 0. -8.12750220e-001 6.77034616e-001 0. 0. 0. 0. 0.
      -3.54251951e-001 0. 0. 3.18383187e-001 0. 0. 0. 2.28652135e-001 0.
      0. -1.67009577e-001 0. 0. 0. 0. 0. 0. 0. 0. -1.62007761e+000 0. 0.
      0. 0. 0. 0. 0. 6.21542931e-001 0. -5.69684505e-002 0. 0. 0. 0. 0.
      0. 9.05941010e-001 5.57914793e-001 0. 0. 0. 0. 3.07346940e-001 0.
      0. 0. 0. 6.52724326e-001 0. 0. 0. 0. 0. 0. 0. 0. 0. 0. 0. 0. 0. 0.
      0. 0. 0. 0. 0. 0. -4.12987232e-001 0. 0. 0. 0. 0. 8.75749290e-001
      0. 0. 0. 0. 0. 0. 6.52724326e-001 0. 0. 0. 0. 0. 0. 0.
      6.52724326e-001 0. 0. 0. -9.04797018e-001 0. 0. 0. 0.
      -1.72108725e-001 0. 0. 0. 0. 0. -2.71874309e-001 0. 0. 0. 0. 0. 0.
      0. -3.60072553e-001 0. 1.76439512e+000 0. 0. 0. 0.
      -1.07866549e+000 0. 0. 0. 0. 0. 0. 0. 0. -6.69621304e-002 0. 0. 0.
      0. 0. 0. 0. 0. -5.98642156e-002 0. 0. 0. -2.51197243e+000 0. 0.
      7.86658108e-001 0. 0. 0. -3.37091118e-001 0. 0. -2.45080426e-001
      -2.68933326e-001 0. -1.23431027e+000 5.10025084e-001 0. 0.
      4.23309088e-001 0. 0. 2.88928658e-001 0. 0. 0. 0. 0.
      -1.86275554e+000 0. 0. 0. -5.98642156e-002 0. -8.74911308e-001 0.
      0. 1.39329135e-001 0. 0. 0. 0. 0. 0. 1.05351067e+000
      -7.10270703e-001 5.37648559e-001 0. 0. 0. 6.03781879e-001
      1.97230905e-001 0. 0. 0. 0. 0. 0. 0. 2.04820681e+000
      1.79812348e+000 -9.01489079e-001 0. 5.20748854e-001 0. 0. 0. 0.
      1.22068477e+000 0. -3.23327929e-001 6.68088853e-001
      -2.12850976e+000 1.15335107e+000 0. 0. 0. -5.98642156e-002
      2.23024949e-001 0. 5.67960382e-001 -1.67009577e-001 0. 0. 0. 0.
      -1.72108725e-001 0. -3.18210460e-002 0. 0. 0. -8.61113429e-001
      4.43677828e-002 -4.12987232e-001 4.43677828e-002 0.
      -5.01040816e-001 7.86658108e-001 0. 0. -2.17794895e-001 0.
      3.69339645e-001 0. -1.28371513e+000 0. 0. 0. -5.69684505e-002 0.
      0. 6.76686585e-001 -4.94614929e-001 -5.69684505e-002 0. 0. 0.
      1.61026672e-001 2.28652135e-001 0. 0. -9.75942373e-001
      -2.45080426e-001 0. -2.17515397e+000 0. -1.94020927e+000 0.
      -5.19328833e-001 0. 0. 0. 0. -4.10182059e-001 0. 0. 0. 0. 0.
      -1.05623841e+000 -6.94238842e-001 0. 0. -2.01776177e-001 0. 0.
      -7.91898429e-001 0. 0. -5.19328833e-001 5.57914793e-001
      -6.63632512e-001 0. 0. 0. 0. 0. -3.53775434e-002 9.60837305e-001
      0. 0. -2.99134459e-002 -1.16991162e+000 2.94763297e-001 0. 0. 0.
      0. 0. -2.61640400e-001 0. -6.98302984e-001 0. -4.94614929e-001 0.
      -1.01088250e+000 0. 6.56058669e-001 0. -1.37047619e-001 0.
      7.21402407e-001 0. 0. 0. 0. 0. 0. 4.95031983e-001 1.00555134e+000
      0. 0. 6.77034616e-001 0. 0. -2.17794895e-001 4.95031983e-001 0.
      -1.49061263e-001 0. 0. -3.60072553e-001 0. 0. 4.95031983e-001 0.
      0. 0. 0. 0. 0. 0. -4.68664080e-001 0. 0. -8.65148664e-001 0. 0. 0.
      0. -1.24853981e+000 0. 0. 0. 0. 6.57323122e-001 0. 0. 0.
      -1.01875588e-001 9.21675980e-001 0. -5.19328833e-001 0. 0. 0.
      6.52724326e-001 4.95031983e-001 0. 0. 0. 0. -2.62902260e-001 0. 0.
      0. 0. 0. 0. 0. 0. 6.33088291e-001 9.72396553e-001 -4.53222543e-001
      0. 0. 0. 0. 0. 0. 0. 0. -1.36591256e+000 0. 1.23687017e+000 0.
      5.67960382e-001 -5.16954720e-001 -2.45080426e-001 0. 0. 0. 0.
      6.77034616e-001 0. 0. 0. 0. 0. 0. -2.01776177e-001 0. 0.
      5.67960382e-001 0. 0. 7.86658108e-001 -1.72108725e-001 0. 0. 0.
      -1.11629643e-001 0. 0. 0. 0. 0. 0. -4.10182059e-001
      -4.89877045e-001 -4.79851127e-001 7.86658108e-001 1.17945778e+000
      0. 0. 0. 0. 1.39274776e-001 0. 0. 0. 5.20748854e-001
      -3.21969151e-001 0. 3.69339645e-001 0. 0. 0. 0. 0. 0. 0. 0.
      -2.62902260e-001 0. 0. 2.28652135e-001 6.69195578e-002 0. 0. 0.
      9.84381557e-001 0. 0. 0. 0. 0. 1.79104888e+000 0. 0. 0. 0.
      -5.01040816e-001 -1.12529802e+000 -2.34332040e-001 1.41998008e-003
      0. 3.69339645e-001 0. 0. -4.16570932e-001 0. -5.98642156e-002 0.
      5.27865767e-001 0. 0. 0. 0. 0. -3.23327929e-001 0. 0. 0.
      -4.30012822e-001 9.32077527e-001 0. 0. 0. 0. 0. 0.
      -1.67009577e-001 0. 1.57087958e+000 -4.12987232e-001 0. 0. 0.
      -1.72108725e-001 6.72085881e-001 0. 0. 0. 0. 0. 0. 0.
      -3.80296379e-001 -1.72108725e-001 -1.47901714e+000 0.
      -4.31888282e-001 1.03705359e+000 0. -5.19328833e-001
      -5.35828412e-001 0. 0. 4.79047656e-001 6.77034616e-001 0.
      -3.29104543e-001 0. 0. 2.68951654e-001 1.75539565e+000
      1.06163144e+000 0. 0. -4.10182059e-001 0. -5.98642156e-002 0.
      8.93855169e-002 0. 0. 0. 0. 0. 0. 0. -2.97283500e-001
      -9.36868846e-001 0. 0. 0. -1.04836655e+000 1.61026672e-001
      5.67960382e-001 0. 0. -3.60072553e-001 3.18383187e-001 0.
      -4.16570932e-001 0. 0. 3.90669405e-001 0. 0. 0. 0.
      -2.45080426e-001 0. 0. 0. 7.90710509e-001 4.43677828e-002
      3.62827837e-001 0. 3.65539819e-001 0. 0. 0. 0. -1.13348019e+000 0.
      -6.75889492e-001 0. 0. 0. 0. 0. -5.19328833e-001 -3.23327929e-001
      1.33395493e-001 0. 0. -7.11651206e-001 0. -6.20232105e-001 0. 0.
      0. 0. 0. 3.90669405e-001 0. 0. 0. -9.63699043e-001 3.99137229e-001
      0. 0. -9.43849504e-001 1.49456334e+000 9.42084730e-001 0.
      6.03781879e-001 5.37648559e-001 0. 1.81840688e-001 0.
      1.40337348e-001 0. 0. 0. 0. 0. 0. 0. 0. 0. 0. 0. -4.10182059e-001
      0. 6.03781879e-001 -2.10339516e-001 0. 0. 0. 0. -3.18210460e-002
      -8.02740395e-001 0. -3.60072553e-001 0. 0. 7.69334197e-001 0. 0.
      8.20647717e-001 -2.44423479e-001 0. 6.33088291e-001 0. 0. 0.
      -2.62902260e-001 0. 0. 0. 0. 0. -3.94059569e-001 0.
      -1.79617301e-001 5.20748854e-001 3.37518603e-001 0. 0. 0.
      -4.10182059e-001 0. 0. -4.46856588e-001 0. 0. 0. -4.53222543e-001
      0. 1.95982254e+000 6.03781879e-001 0. 0. 0. 0. -4.53222543e-001
      -6.68050408e-001 0. 9.73067507e-002 0. 0. 5.64574480e-001 0. 0.
      -4.89468336e-001 9.29839969e-001 0. 0. 0. 0. 0. 0. 0. 0. 0. 0.
      3.18383187e-001 -2.01776177e-001 0. 0. 0. -2.45080426e-001 0.
      -4.74901497e-001 -5.19328833e-001 0. 0. 0. 0. 0. 0.
      5.65462887e-001 0. 0. 0. 3.60209018e-001 0. 1.81840688e-001 0. 0.
      -2.97283500e-001 0. 0. -4.12987232e-001 -9.80534673e-001 0. 0. 0.
      0. 0. 0. 0. -4.10182059e-001 0. 0. 0. -8.42656791e-001 0.
      3.99137229e-001 3.69339645e-001 -4.10182059e-001 0. 0. 0. 0. 0. 0.
      0. 0. 0. 0. -3.18210460e-002 0. 1.61303246e+000 -4.94614929e-001
      0. 0. -3.23327929e-001 -4.06375110e-001 1.90531313e-001 0. 0. 0.
      0. 0. 2.14320630e-001 -1.26977968e+000 0. 0. 0. 0. 9.30744335e-002
      0. -2.34332040e-001 4.40088481e-001 0. 1.50858235e+000 0. 0. 0. 0.
      0. 0. 2.15944815e+000 0. 0. 0. 0. 0. -2.97283500e-001 0. 0. 0. 0.
      0. 0. -2.01776177e-001 0. 0. 0. -1.54964318e-002 0.
      -4.53222543e-001 0. -4.63343561e-001 0. 0. 0. 0. -1.68077856e-001
      0. 0. 1.81840688e-001 7.45162308e-001 8.80176961e-001
      -2.10339516e-001 0. 0. 3.60209018e-001 0. 3.07346940e-001 0. 0. 0.
      0. 0. -2.62902260e-001 0. -4.10182059e-001 0. 0. 0. 0. 0.
      -4.62875307e-001 0. 0. -3.94059569e-001 0. 1.34761524e+000
      -2.17794895e-001 0. 0. 6.03781879e-001 0. 0. 0. 0. 0. 0. 0. 0. 0.
      0. 4.23309088e-001 0. 0. 0. 0. 0. 0. 0. 0. 0. 0. 0. 0. 0. 0.
      5.20748854e-001 -4.36810642e-001 0. 0. 0. 0. 0. -3.49956512e-001
      0. -4.16570932e-001 0. 0. 0. 3.67316186e-001 -5.27782105e-002 0.
      0. 0. -1.72108725e-001 0. -2.03027189e-001 1.21438646e+000 0. 0.
      0. 0. 0. 5.54809161e-002 0. 0. 0. 0. 0. 0. 0. 0. 0. 0.
      5.99544868e-002 0. 0. 0. -3.83192152e-001 0. 0. 4.95031983e-001 0.
      -4.16570932e-001 0. 0. -4.30012822e-001 0. 0. 5.28428078e-001 0.
      0. 2.67649710e-001 0. -2.34332040e-001 0. 0. 0. 0. 0. 0. 0. 0.
      -2.45080426e-001 0. 4.40088481e-001 -2.45080426e-001
      -4.10182059e-001 0. 0. -3.60072553e-001 0. 0. 0. 0.
      -1.72108725e-001 0. 0. -5.01040816e-001 0. 0. 0. 0. 0.
      3.83905843e-002 0. 0. 1.61026672e-001 -5.98642156e-002
      -6.31788969e-001 0. 0. 0. 0. 0. 9.62350965e-001 -1.12358701e+000
      0. 0. 2.50395536e-001 0. -2.62902260e-001 0. 0. 0. 0. 0. 0.
      3.60972524e-001 0. 0. 0. 0. -2.71874309e-001 3.45782220e-001
      -4.10182059e-001 -6.88441515e-001 0. 0. 0. 0. 0. -2.45080426e-001
      0. 0. 0. 0. -1.27740949e-001 0. -4.10182059e-001 0. 0.
      6.77034616e-001 0. 0. 0. 3.67401421e-001 0. -2.66285837e-002 0. 0.
      0. -5.69684505e-002 0. 0. 0. 0. 0. -2.62902260e-001 0. 0. 0. 0. 0.
      5.20748854e-001 0. 2.68951654e-001 0. 0. 0. -1.13070877e-002 0. 0.
      -2.66285837e-002 1.48484480e+000 -4.30012822e-001 0. 0. 0. 0. 0.
      0. 0. 0. 0. 0. 8.60844731e-001 0. 0. 0. 0. 0. 0. 0.
      -2.04522491e+000 4.69243601e-002 0. 0. 0. 0. 0. 0. 0. 0. 0. 0. 0.
      -2.97283500e-001 0. 0. 1.96110040e-001 0. -4.30012822e-001 0.
      6.52724326e-001 0. 0. 0. -2.58428693e-001 0. 0. 0. 0. 0.
      4.23309088e-001 0. 1.57778323e-001 -5.01040816e-001 0.
      -3.37091118e-001 0. 0. -2.97283500e-001 0. 7.86658108e-001 0. 0.
      0. 1.45511878e+000 0. 0. -4.51757818e-001 0. 0. 0. 0. 0. 0.
      4.40088481e-001 0. 0. 0. -6.22974813e-001 4.95031983e-001 0. 0. 0.
      4.04436171e-001 0. 0. 0. 0. -5.98642156e-002 0. 0.
      -1.67009577e-001 0. 0. 0. 0. 0. 0. 0. 7.43773758e-001
      -3.18210460e-002 0. 0. 0. 0. 0. 0. 0. 0. 0. 0. 0. 0.
      1.35302043e+000 0. 0. 3.60209018e-001 0. -2.01776177e-001 0. 0. 0.
      0. 0. -2.58428693e-001 8.94169211e-001 0. 0. 0. 0.
      -9.24627721e-001 0. 0. 0. 0. 0. -4.48107630e-001 -2.62902260e-001
      0. 0. 0. -2.98502892e-001 0. 0. -4.60204870e-001 0. 0. 0. 0. 0. 0.
      -7.37803757e-001 0. 0. 0. 0. 1.48591459e+000 0. 0. 0. 0.
      4.43677828e-002 0. -2.97283500e-001 0. 0. -2.71874309e-001 0. 0.
      2.23645759e+000 0. -3.18210460e-002 0. -7.77757525e-001
      1.02229762e+000 0. 0. 0. 0. 0. 4.95031983e-001 0. 0.
      2.28652135e-001 0. 0. -1.35509908e+000 0. -2.66285837e-002 0. 0.
      0. 0. -2.97283500e-001 5.27865767e-001 3.67401421e-001 0. 0. 0. 0.
      0. -3.18210460e-002 4.95031983e-001 5.37648559e-001 0. 0. 0. 0.
      -4.10182059e-001 0. 0. 0. 0. 0. 0. 0. 0. 1.61026672e-001 0. 0.
      1.22532487e+000 0. 0. 0. 0. 0. 0. 0. 0. -2.45080426e-001
      -3.60072553e-001 0. 0. -2.97283500e-001 0. 0. 0. 0. 0.
      6.03781879e-001 -2.01776177e-001 -2.01776177e-001 -2.30197579e-001
      0. 0. -2.17794895e-001 -4.10182059e-001 0. 0. 5.37648559e-001 0.
      0. 0. 6.35051131e-001 0. 0. 0.</_>
    <_>
      0. 0. 4.49894637e-001 0. 0. 0. -5.47161222e-001 -4.81068224e-001
      -5.28077066e-001 0. 0. 0. 1.67372003e-001 0. 0. 0. 0. 0.
      4.80629474e-001 0. 0. 2.82984793e-001 0. 2.87813514e-001 0. 0.
      -2.70791590e-001 0. 0. 0. 0. 0. 0. 0. 0. 0. 0. -5.29332638e-001
      -1.05426557e-001 0. 0. 0. 0. 0. 0. 8.37353528e-001 6.86426938e-001
      0. 4.16804582e-001 0. 0. 0. 0. -1.15750313e-001 0. 9.90735888e-001
      0. 3.73476982e-001 0. -7.61695921e-001 -1.15034950e+000
      -4.13582325e-001 0. 0. 1.63457915e-001 2.69609958e-001 0. 0. 0. 0.
      0. 0. 0. 0. 4.80629474e-001 0. 0. 0. 3.04207176e-001
      1.75529033e-001 0. 0. 1.98806420e-001 0. 0. 0. 0. -2.01214030e-001
      0. 0. 0. 0. 0. -1.55416405e+000 4.10603017e-001 2.24000975e-001 0.
      0. 0. 0. 0. 0. 0. 1.04045048e-001 0. 0. 0. 0. 1.00328267e+000 0.
      -2.99585640e-001 0. 0. 0. 0. 0. 0. 6.13352537e-001 0. 0. 0. 0. 0.
      6.93587780e-001 0. 7.11970866e-001 0. -2.51156449e-001
      4.80629474e-001 0. -1.91158026e-001 0. 0. 0. 0. 0. 4.10360962e-001
      0. 0. 3.59219491e-001 0. -7.78865993e-001 0. 0. 0. 0. 0. 0. 0. 0.
      0. 0. -2.10356927e+000 0. 0. 0. 0. 0. 1.79508701e-001 0.
      -2.58053124e-001 0. 1.10522139e+000 0. -8.62310290e-001
      4.49894637e-001 0. 0. 0. 0. 0. 1.26636720e+000 0. 3.59219491e-001
      0. 0. 0. 0. 2.37797961e-001 0. 0. 0. 0. 5.22311211e-001
      -2.01214030e-001 3.52751374e-001 0. -4.74372506e-001 0.
      1.80734769e-001 0. 0. 3.73476982e-001 1.75529033e-001
      3.73476982e-001 0. 0. 0. -7.71236643e-002 3.23564857e-001 0.
      -2.07943961e-001 0. 0. 0. 0. 0. 4.16804582e-001 0.
      -1.36098158e+000 0. 4.10360962e-001 1.63457915e-001 0. 0.
      6.38125315e-002 0. 0. 0. 6.25423670e-001 0. 0. 0. 0. 0. 0. 0. 0.
      0. 3.41576457e-001 0. 0. 0. 0. 0. 0. 0. 0. 0. 0. 0.
      3.52751374e-001 0. -1.91158026e-001 0. 0. 0. 0. 0. 0. 0. 0. 0. 0.
      0. 0. 0. 0. 6.05719388e-001 0. 0. 0. -1.45729885e-001 0. 0.
      -3.25225174e-001 0. 0. 0. 0. 0. 6.55692101e-001 0. 0. 0. 0. 0.
      3.59219491e-001 -2.99700022e-001 0. 0. 0. 0. 2.82984793e-001
      6.02650754e-002 1.75529033e-001 0. 0. 0. 9.38995004e-001
      3.44192684e-001 0. 0. 0. 0. 0. 0. 0. 0. -9.47585285e-001 0. 0. 0.
      0. 0. 4.16804582e-001 0. 0. 0. 0. 0. 0. 3.35843056e-001
      3.59219491e-001 0. 0. 0. -2.48958260e-001 0. -2.37093925e+000 0.
      0. 0. 0. 0. 0. 3.59523416e+000 0. 3.57843190e-001 1.04045048e-001
      2.08090097e-001 0. 3.35843056e-001 0. 0. 0. 0. 0. 0. 0.
      4.39888120e-001 3.35843056e-001 0. 0. 0. 0. 0. -7.52466977e-001 0.
      0. 0. 2.24000975e-001 0. 0. 0. -4.33335632e-001 0. 0. 0. 0.
      1.14172029e+000 0. -1.38744390e+000 0. 0. 0. 0. 0. 0.
      -1.12675941e+000 0. 0. 0. 0. 0. -1.73078373e-001 0.
      2.82984793e-001 5.87187052e-001 0. 0. 0. 2.05797434e-001
      -3.00533146e-001 0. 2.82984793e-001 1.57995299e-001
      9.91899788e-001 0. 0. 0. 0. 0. -5.07011414e-001 0. 1.50930810e+000
      0. 0. 7.50364244e-001 0. 0. 6.56158507e-001 0. 0. 0. 0. 0. 0. 0.
      0. 0. 2.24000975e-001 3.30829918e-001 0. 0. 0. 0. 0. 0. 0. 0.
      -7.62355924e-001 0. 0. -1.91158026e-001 0. 0. 0. 0. 0. 0. 0. 0.
      1.78118527e-001 0. 0. -2.01974154e+000 0. 0. -1.61565566e+000 0.
      7.34167874e-001 0. 0. 0. 0. 0. 0. 0. 3.57843190e-001
      3.23564857e-001 0. 5.94061732e-001 -2.99700022e-001
      3.19675863e-001 0. 0. 0. 5.58548808e-001 0. -3.07531863e-001 0. 0.
      0. 2.05797434e-001 0. 0. 0. 0. 0. 0. 0. 0. 4.49894637e-001 0. 0.
      0. 0. 4.18108284e-001 0. 0. 0. -1.28042698e+000 0. 0. 0. 0. 0. 0.
      0. 0. 0. 6.88154757e-001 0. 0. 0. 0. -4.33335632e-001 0. 0. 0. 0.
      -5.38825914e-002 0. 0. 0. 0. 0. 0. 6.38125315e-002 0.
      3.57843190e-001 3.19675863e-001 0. 0. -3.08611631e-001 0. 0. 0.
      -1.45729885e-001 0. 2.32242420e-001 0. 0. 0. -3.64640743e-001
      -5.51252961e-001 0. 0. 0. 0. 0. 0. 0. 5.83220482e-001 0. 0.
      1.57995299e-001 0. 0. 4.75595921e-001 1.57995299e-001 0.
      2.05797434e-001 0. 0. 0. 0. 0. 1.41546929e+000 -3.08611631e-001 0.
      0. 0. 0. 0. 0. 0. 0. -2.58053124e-001 0. 3.59219491e-001 0. 0. 0.
      0. 0. 0. -1.01136756e+000 6.02650754e-002 -1.91158026e-001 0. 0.
      0. 0. 3.19675863e-001 0. 0. 0. 0. 0. 0. -6.04257166e-001
      6.48158908e-001 0. 0. 3.73476982e-001 -4.98689890e-001 0.
      1.75529033e-001 0. -6.04257166e-001 -5.51252961e-001 0. 0. 0. 0.
      0. 0. 0. 0. 0. 0. 0. 4.10603017e-001 0. 0. 0. 0. 2.05797434e-001
      0. 0. 0. 0. 0. 0. -7.72174895e-001 -7.82310724e-001
      -1.41735613e+000 0. 0. 7.76024103e-001 -1.74608842e-001
      3.23564857e-001 -2.15194702e-001 0. 1.33486402e+000
      -5.51252961e-001 0. 0. 0. 0. 0. -1.38036931e+000 -1.91158026e-001
      0. 0. 0. 3.52751374e-001 0. 0. 0. 0. 0. 6.77519083e-001
      3.59219491e-001 0. 6.73895597e-001 1.72477567e+000 0. 0. 0. 0. 0.
      0. 4.87022787e-001 0. 1.63457915e-001 0. 0. 0. -3.07531863e-001 0.
      2.32242420e-001 5.15227199e-001 8.12159002e-001 0. 7.22791076e-001
      0. 0. 0. 0. 3.73476982e-001 0. 0. 0. 0. 0. 0. 0. 0. 0.
      5.58025956e-001 -3.08611631e-001 0. 0. 4.81791198e-001
      -1.76358640e+000 -7.29173958e-001 0. 0. 0. 0. 0. 0. 0.
      -1.42567408e+000 0. 0. 1.67372003e-001 0. 0. 0. 4.80629474e-001
      1.79508701e-001 0. 0. -1.69435906e+000 -8.28723788e-001
      1.75529033e-001 0. 0. 0. 0. 0. 1.79508701e-001 0. 0. 0.
      4.16804582e-001 0. 0. -4.33335632e-001 0. 0. 0. 0. 0. 0. 0. 0. 0.
      0. 0. 0. 0. 0. -1.50399280e+000 0. 5.83300471e-001 0. 0. 0.
      3.55389059e-001 0. 6.90880775e-001 0. 0. 0. 0. 0. 3.57843190e-001
      0. 1.67421758e+000 0. 0. 0. 4.49894637e-001 0. 4.13016438e-001 0.
      -8.67122471e-001 0. 0. 0. 0. -2.34111592e-001 4.16804582e-001
      9.35286880e-001 0. 0. 0. 0. 0. 4.93838370e-001 1.98806420e-001
      -1.91158026e-001 6.13352537e-001 0. 0. -1.20689833e+000 0. 0. 0.
      0. 0. 0. 0. 0. 1.27814400e+000 0. 1.75529033e-001 0. 0. 0. 0. 0.
      0. 0. 0. 0. 0. 0. 0. 1.42365843e-001 0. 0. 0. 0. 3.24183047e-001
      0. -2.99700022e-001 0. 3.35843056e-001 0. 0. 0. 0. 0. 0. 0.
      -1.01503968e+000 -9.96682823e-001 0. 3.57843190e-001 0. 0. 0. 0.
      3.04207176e-001 0. 0. 0. 0. 0. 0. 0. 2.82984793e-001 0. 0. 0.
      1.98806420e-001 0. 0. -2.51156449e-001 0. 0. 0. 0. 0. 0. 0.
      3.97612840e-001 3.59017402e-001 0. 0. 0. -3.08611631e-001 0. 0. 0.
      0. 6.40050232e-001 0. 0. 2.51344025e-001 0. 0. 0. 0. 0. 0.
      4.05169964e-001 4.21655744e-001 1.69643807e+000 2.24000975e-001
      3.55389059e-001 5.84176600e-001 0. 0. 0. 3.46797317e-001 0.
      1.79508701e-001 0. 0. 0. 1.04045048e-001 3.57843190e-001 0.
      -1.18796968e+000 0. 0. 8.19942355e-001 0. 0. 0. 0. 0. 0. 0. 0. 0.
      0. -8.56617808e-001 0. 0. 0. 0. 0. 4.07771468e-001 0. 0. 0. 0.
      -2.48958260e-001 0. 0. 3.73476982e-001 0. 0. 0. 0. 8.00305367e-001
      -6.91388786e-001 0. 0. 0. -3.01643085e+000 3.04207176e-001 0. 0.
      0. 0. 0. -2.07943961e-001 0. 0. 0. -1.03956187e+000 0. 0.
      4.10603017e-001 0. 0. 0. 0. 0. -2.01214030e-001 0. 0. 0. 0.
      1.80734769e-001 0. 0. 3.52751374e-001 -2.48958260e-001 0.
      4.37289536e-001 0. 0. 0. 0. 0. 0. -1.26507282e-001 0. 0.
      -5.51252961e-001 0. 0. 0. 0. -2.21856222e-001 0. -3.48113567e-001
      0. 0. 0. 0. 0. 0. 0. 0. 0. 0. 1.05099607e+000 0. 0.
      4.33742076e-001 0. 0. 0. 0. 0. 0. 0. -5.47161222e-001 0. 0. 0. 0.
      0. 0. 0. 0. 0. -5.33811629e-001 0. 0. 0. 0. -5.47161222e-001 0.
      -1.13590693e+000 6.55963302e-001 0. 0. 0. 0. 0. 3.19675863e-001 0.
      0. 2.38383606e-001 -1.65760875e-001 0. 0. 0. 0. 0. 2.00936377e-001
      0. 0. 0. 0. 0. 0. 0. -4.74372506e-001 6.04438007e-001 0. 0. 0. 0.
      0. 0. 2.08437634e+000 0. 0. -1.47115862e+000 -2.58053124e-001 0.
      0. 0. 0. 0. 0. 0. 0. 1.01088941e+000 0. 0. 0. 5.13961613e-001 0.
      0. 0. 0. 0. 0. -5.47161222e-001 0. 0. 1.63457915e-001 0. 0. 0.
      -1.73078373e-001 0. 0. 0. 4.78614450e-001 0. 0. 5.81990659e-001
      6.07118607e-001 0. 0. 3.23564857e-001 -1.77921027e-001 0. 0. 0. 0.
      0. 3.53647560e-001 -3.79135042e-001 0. 3.52751374e-001
      -2.34111592e-001 0. 6.38125315e-002 -6.41279578e-001 0.
      -3.08611631e-001 1.67372003e-001 0. -6.41279578e-001 0. 0. 0.
      -3.39538157e-001 -4.13582325e-001 4.75595921e-001 -1.05426557e-001
      0. 0. 0. 0. 0. 0. 1.79508701e-001 0. 0. 0. 6.38125315e-002 0.
      -2.28550911e+000 0. 0. 0. 0. 0. 0. 4.29798424e-001 0. 0. 0. 0. 0.
      3.48106772e-001 0. 1.04045048e-001 4.18532729e-001 0. 0.
      1.03708661e+000 0. 0. 0. 0. 0. -3.48113567e-001 0.
      -2.42954031e-001 0. 3.57843190e-001 4.26873058e-001 0. 0.
      -1.65760875e-001 0. 0. 0. 0. 0. 0. 0. 0. 0. 0. 0. -4.13582325e-001
      0. 0. 0. 0. 0. 7.34930456e-001 0. 0. -5.47161222e-001 0. 0. 0. 0.
      3.52751374e-001 0. 0. 0. 0. 0. 0. -4.56902236e-001 0. 0. 0. 0. 0.
      0. 0. 0. 0. 0. 1.79508701e-001 -1.77921027e-001 0. 0. 0. 0.
      1.79508701e-001 0. 3.65077436e-001 0. 0. 0. 0. 0. 0. 0. 0. 0.
      1.64501715e+000 0. 4.60932922e+000 0. 0. 0. 0. 0. 0. 0.
      -5.59842944e-001 0. 0. 0. 0. 1.75529033e-001 -8.09306085e-001
      4.10603017e-001 4.37289536e-001 -1.05633903e+000 0. 0. 0.
      6.65407896e-001 0. 2.37797961e-001 -3.06908339e-001 0.
      4.56796408e-001 0. 0. 0. 0. 0. 0. 0. 0. 0. 0. 0. 0.
      1.95858777e-001 0. 1.67372003e-001 0. 0. 0. 0. 0. 0. 0. 0.
      6.38125315e-002 0. 0. 0. 0. 0. 0. 0. -6.42073989e-001 0.
      -3.23650897e-001 0. -4.13582325e-001 0. 6.02650754e-002
      4.80629474e-001 0. 0. 0. 0. 0. 0. 0. 0. 0. 0. 0. 0. 0.
      3.23564857e-001 8.72816265e-001 0. 0. 3.04207176e-001 0.
      4.49894637e-001 0. 0. 0. 0. 0. 4.80629474e-001 0. 0. 0.
      2.37797961e-001 0. 0. 0. 3.57627243e-001 0. 0. 0. 0. 0.
      8.37353528e-001 7.15483308e-001 1.75529033e-001 0. 0. 0.
      3.73476982e-001 4.16804582e-001 0. 1.11497557e+000 0. 0. 0. 0. 0.
      1.04045048e-001 0. 0. 0. -1.26507282e-001 0. 0. -1.62276089e+000
      0. 0. -1.15750313e-001 0. 0. 0. 5.85875213e-001 0. 3.17819595e+000
      0. 0. 0. 0. 0. 0. 5.03982902e-001 3.59219491e-001 2.24000975e-001
      0. 1.80734769e-001 0. 0. 0. 3.73476982e-001 0. 0. 0. 0. 0. 0.
      4.16804582e-001 -3.57526839e-002 2.51344025e-001 4.17892307e-001
      -2.15194702e-001 0. 4.80629474e-001 1.67372003e-001 0.
      4.49894637e-001 5.79274416e-001 0. 0. 0. 0. 2.51344025e-001
      -9.95751917e-001 0. 4.10603017e-001 0. 6.73895597e-001 0. 0. 0.
      1.63457915e-001 0. 1.51439548e+000 0. 0. -1.26507282e-001 0. 0. 0.
      6.90739393e-001 0. 0. 0. 0. 0. 0. 0. 0. 7.40210235e-001 0.
      -1.93472695e+000 0. 0. 1.79508701e-001 0. 0. 0. 0.
      -8.81037474e-001 0. 0. -4.67464924e-001 0. 0. 0. 0. 0.
      -6.04257166e-001 0. 0. 0. -1.22659719e+000 0. 0. -1.23880684e+000
      0. 0. 0. 0. 0. 0. 0. 3.35843056e-001 0. 0. 0. 0. 0.
      -1.22147453e+000 6.39250457e-001 0. 0. 0. 0. 0. 0. 0. 0. 0. 0. 0.
      0. 0. 0. 0. 0. 0. 2.37797961e-001 0. 0. 0. 0. 2.32242420e-001 0.
      0. 0. 0. 0. 3.56237054e-001 0. -1.74608842e-001 0. 1.75529033e-001
      0. 4.49894637e-001 0. 4.80629474e-001 6.59407914e-001 0.
      5.31472325e-001 0. -2.51505792e-001 0. 0. 0. 0. 4.16804582e-001 0.
      2.82163590e-001 0. 0. 3.05336922e-001 0. 0. 0. 0. 0. 0. 0. 0. 0.
      0. -9.32208538e-001 0. 0. 0. 0. 0. -2.34111592e-001
      3.87377411e-001 0. -4.13582325e-001 0. -6.90084636e-001 0. 0.
      3.59219491e-001 4.32078779e-001 3.23564857e-001 -1.05426557e-001
      0. 4.16804582e-001 0. -2.48958260e-001 0. 0. 0. 0.
      -1.02262032e+000 1.57063818e+000 0. 0. 0. 0. -1.77921027e-001
      3.73476982e-001 0. 0. -4.03782994e-001 0. 3.04207176e-001
      2.82984793e-001 0. 0. 0. 0. -4.35325623e-001 6.29403353e-001 0.
      2.82984793e-001 0. -1.01783943e+000 0. 0. 0. 0. 0. 3.57843190e-001
      0. 0. -1.20851433e+000 0. 2.51344025e-001 0. 0. 0. 0. 0. 0. 0. 0.
      0. 0. 0. 0. 0. 0. 0. -2.69864291e-001 0. 3.52751374e-001 0. 0. 0.
      0. 0. -1.58312893e+000 0. 1.33572423e+000 0. 0. 0. 0. 0.
      4.80629474e-001 0. 0. 0. -5.47161222e-001 0. 0. 0.
      -7.42410958e-001 0. 0. 0. 0. 0. 0. 8.16015899e-001 0. 0. 0. 0.
      5.72797239e-001 0. 0. 0. 3.52751374e-001 5.55807292e-001
      6.02650754e-002 4.18828130e-001 0. 0. 0. 0. -1.14356720e+000 0. 0.
      0. 0. 0. 0. 0. 0. 3.96108150e-001 0. 0. 0. 0. 0. 1.98806420e-001
      0. 0. 0. 5.22371292e-001 0. 0. 0. 0. 0. 0. 4.99184549e-001 0. 0.
      -4.01053242e-002 0. 4.80629474e-001 0. 0. 0. 0. 6.02650754e-002 0.
      0. -4.23567116e-001 -2.07943961e-001 0. 0. 0. 0. 0.
      6.01905584e-001 2.51344025e-001 -1.23155260e+000 0. 0. 0. 0. 0. 0.
      -2.58053124e-001 4.10603017e-001 0. 0. 0. 0. 0. 4.76521738e-002 0.
      0. 0. 0. -9.63569939e-001 0. 0. 0. 8.97434056e-001 0. 0.
      -4.49306309e-001 1.57995299e-001 0. 0. 0. 4.16804582e-001 0. 0.
      6.11274958e-001 0. 0. 0. 0. 0. 0. 0. 0. 0. 0. 3.57843190e-001 0.
      0. 0. -9.43625033e-001 0. 0. 0. 3.52751374e-001 4.10603017e-001
      -3.57526839e-002 0. 6.22602046e-001 0. 0. 0. 0. 0. 0. 0. 0. 0. 0.
      0. -5.87005615e-001 0. 0. 0. 0. 0. -1.77921027e-001
      -1.50001514e+000 0. 6.87692583e-001 0. 0. 3.52751374e-001 0.
      2.24000975e-001 3.19675863e-001 0. 0. 0. 0. 0. 0. 0. 0. 0. 0. 0.
      0. 0. 2.66062528e-001 0. 4.21655744e-001 1.45580947e+000 0. 0.
      -1.26507282e-001 0. 0. 0. 0. 4.16804582e-001 0. 5.91461897e-001 0.
      7.63354361e-001 0. 0. 0. 0. 0. 0. 0. 4.50356781e-001 0.
      5.49047291e-001 0. 0. 0. 0. 0. 0. -1.02047145e+000 0.
      -5.47161222e-001 -1.73078373e-001 0. 0. 4.86619920e-001
      4.16804582e-001 5.37338018e-001 0. -9.97333527e-001 0.
      4.29520428e-001 0. 3.73476982e-001 0. 0. 0. 0. 2.82984793e-001
      -4.33335632e-001 0. 0. 0. 0. 0. 7.19504595e-001 0. 1.75529033e-001
      0. 0. 0. 0. 0. 8.65125358e-002 4.38039869e-001 0. 0. 0.
      3.19675863e-001 0. 4.71579194e-001 0. 3.23564857e-001 0. 0. 0.
      3.52751374e-001 0. 0. 0. 0. 0. 0. 0. 0. 0. 0. 0. 1.11170518e+000
      0. 0. -3.99872482e-001 2.24000975e-001 0. 0. 0. 0. 0. 0. 0. 0.
      4.83586431e-001 0. 0. -1.73078373e-001 0. -6.21526301e-001
      1.63457915e-001 3.04207176e-001 0. 9.75893319e-001 0. 0. 0.
      3.19675863e-001 1.75529033e-001 0. 0. 3.19675863e-001 0. 0. 0. 0.
      0. 0. 1.57995299e-001 0. 0. -4.13582325e-001 0. 0. 0. 0.
      6.11587465e-001 0. 0. 0. 5.77975035e-001 0. 0. 0. -1.82562804e+000
      7.46953964e-001 1.80734769e-001 1.57995299e-001 -1.15750313e-001
      0. -2.21718812e+000 3.57843190e-001 0. 0. -1.05426557e-001 0. 0.
      0. 1.74830347e-001 -1.30782974e+000 0. 0. 0. 0. -9.82073903e-001
      -3.48113567e-001 -1.41179234e-001 0. 3.57843190e-001
      2.24000975e-001 3.63792747e-001 0. 0. 0. 0. 3.19675863e-001
      3.19675863e-001 -5.28708696e-001 0. 0. 0. -4.65460896e-001 0. 0.
      0. -5.51252961e-001 5.21301091e-001 0. 0. 0. 0. 0. 0.
      -6.58139765e-001 0. 0. 0. 0. 0. 0. 0. 0. 0. 4.32078779e-001
      -3.48113567e-001 0. 0. 1.67372003e-001 0. 0. 0. -5.51252961e-001
      0. 4.29798424e-001 0. 5.85605204e-001 0. 0. 0. 0. 4.10603017e-001
      0. 0. 2.51344025e-001 -1.45412862e+000 0. 0. 0. 6.38624787e-001 0.
      0. 0. 6.38125315e-002 0. 0. 0. -4.63863879e-001 3.83488387e-001 0.
      0. 0. 0. 0. 0. 0. 0. 0. 0. 0. -3.36887896e-001 3.73476982e-001
      -4.33335632e-001 0. 0. 0. 0. 0. 0. 1.80734769e-001 0. 0.
      -2.45277211e-001 0. 0. 2.82984793e-001 0. 2.32242420e-001 0. 0. 0.
      0. 4.16804582e-001 -6.04257166e-001 4.80629474e-001
      -1.34287536e+000 0. 0. -2.34111592e-001 2.24000975e-001
      1.63457915e-001 0. 0. 0. 4.80629474e-001 -7.67878771e-001 0. 0. 0.
      0. 0. 4.10603017e-001 0. 0. 0. 0. -6.41279578e-001 0. 0. 0. 0. 0.
      0. 0. 0. 0. -1.34728968e+000 -9.80496824e-001 0. 0. 0.
      3.04207176e-001 4.10603017e-001 0. 0. 5.27532101e-001 0.
      3.55037749e-001 0. 4.80629474e-001 8.91199648e-001 0. 0. 0. 0. 0.
      0. 0. 0. 0. 0. 1.79508701e-001 0. 1.67372003e-001 2.37797961e-001
      0. 0. 0. 0. 0. 0. 7.31320202e-001 0. 0. 0. 0. 0. 1.79508701e-001
      0. -6.65466905e-001 0. 0. 0. 0. 0. 0. 0. 4.49894637e-001 0.
      1.75529033e-001 4.29798424e-001 -2.07943961e-001 0. 0.
      -6.46440089e-001 0. 3.19675863e-001 2.62618959e-001
      9.50557292e-001 0. 2.37797961e-001 0. 0. 0. 3.04207176e-001 0.
      6.40805542e-001 -5.59181631e-001 0. 0. 0. 0. 0. -2.34111592e-001
      0. 2.32602492e-001 0. 0. 2.37797961e-001 -2.28011775e+000 0. 0. 0.
      -1.36217415e+000 -1.07754993e+000 0. 0. 0. 0. 0. 0.
      -1.74608842e-001 0. 0. 0. 1.63457915e-001 0. 0. 0.
      -9.10359025e-001 6.55518949e-001 0. 0. -5.47161222e-001 0.
      -2.48958260e-001 0. 0. 0. 0. 0. -1.05426557e-001 3.52751374e-001
      0. 0. 0. 0. 1.48152685e+000 -4.12032604e-001 0. -1.87318838e+000
      0. 0. 0. 1.27256954e+000 0. 0. 0. 0. 0. -4.33335632e-001
      6.77165091e-001 -2.48958260e-001 1.46526635e+000 8.77295434e-001
      -1.04507768e+000 0. -3.93257648e-001 0. 0. 0. 0. 0.
      -1.74608842e-001 0. -7.78865993e-001 0. -6.04257166e-001
      -9.85416651e-001 0. 1.67372003e-001 0. 0. 0. 0. 0. 6.02650754e-002
      0. 0. 0. 0. 0. 0. -2.10530639e+000 0. 0. 0. 0. 0. 0.
      4.16804582e-001 0. 0. 0. 0. -5.22726536e-001 0. 0. 0. 0. 0. 0.
      1.98806420e-001 6.38125315e-002 -3.60618889e-001 6.58662796e-001
      0. 0. 0. 0. 0. 0. 0. 0. 0. 4.80629474e-001 0. 0. 1.19282866e+000
      -1.05426557e-001 0. 0. 0. 4.16804582e-001 0. 0. 0. 9.23604012e-001
      0. -1.45729885e-001 0. 0. 0. 0. 0. 0. 0. 0. 0. 3.19675863e-001
      -1.30458105e+000 1.19636786e+000 0. 0. 0. 0. 0. 0. 3.52751374e-001
      -4.13582325e-001 0. 0. 0. 0. 6.38125315e-002 3.99655581e-001 0. 0.
      0. -1.13398087e+000 4.80629474e-001 3.15990597e-001
      4.16804582e-001 0. -4.46297121e+000 6.29403353e-001
      3.57843190e-001 0. 0. 0. 0. 0. 0. 3.58853310e-001 9.35971856e-001
      3.23564857e-001 0. 1.30326414e+000 1.14181846e-001 0. 0. 0. 0. 0.
      2.05797434e-001 0. 1.76646352e+000 0. 0. 0. 2.51344025e-001 0.
      4.80629474e-001 3.52751374e-001 3.60243469e-001 1.51305318e+000
      3.87458891e-001 0. 0. 0. 0. 0. 0. 0. 3.73476982e-001 0. 0.
      1.30019927e+000 0. -1.15750313e-001 2.51344025e-001 0. 0. 0.
      3.59219491e-001 0. 0. 0. 0. 0. 6.92743838e-001 0. 0. 0. 0.
      -3.07531863e-001 0. 0. 0. 0. 0. -8.42102289e-001 0. 0. 0. 0. 0. 0.
      -2.58053124e-001 0. -1.77953362e+000 0. 0. 0. 3.19675863e-001 0.
      2.05797434e-001 0. 0. -1.73078373e-001 0. 0. 0. 0. 0. 0. 0. 0. 0.
      0. 0. -3.08611631e-001 0. 1.80734769e-001 0. 1.22617447e+000
      -6.41279578e-001 4.75595921e-001 0. 0. -5.47161222e-001
      4.61798936e-001 0. 0. 0. 0. 0. -1.01511681e+000 0. 0. 0. 0. 0. 0.
      3.04207176e-001 0. 0. 0. 0. 0. 0. 0. 0. -3.74020606e-001 0. 0. 0.
      0. 0. 0. 0. -3.21962357e+000 0. 0. 0. -2.58053124e-001 0. 0. 0. 0.
      2.21807837e-001 -3.57526839e-002 0. 0. -1.91158026e-001
      2.32242420e-001 0. 0. -3.08611631e-001 3.36287469e-001 0. 0. 0. 0.
      0. 0. 1.57995299e-001 0. 3.73013467e-001 0. 0. 0. 0.
      6.88594460e-001 0. 0. -1.15141833e+000 0. -4.57362318e+000 0.
      6.07889950e-001 0. 1.75529033e-001 0. 0. 0. -5.84804296e-001 0. 0.
      0. 0. 0. 0. 0. 0. 0. 0. 0. 0. 0. 0. 0. 0. 0. 0. 0. 0. 0. 0. 0. 0.
      0. 0. 0. 0. 0. 0. -8.50952983e-001 0. 7.60386109e-001 0. 0. 0. 0.
      0. 0. 0. 0. 4.80629474e-001 -3.01116109e-001 0. 0. 0. 0. 0. 0.
      -5.86660683e-001 0. 0. 0. -3.65766853e-001 -2.15194702e-001 0.
      -6.04257166e-001 -5.51252961e-001 0. 0. 0. 0. 0. -1.47687519e+000
      0. 0. 0. 0. 1.63900971e+000 0. 0. 0. 0. 0. 0. 0. -4.33335632e-001
      0. 0. 0. -2.07943961e-001 0. 0. 0. -4.33335632e-001 0. 0. 0. 0. 0.
      0. 6.38125315e-002 0. 3.45490545e-001 0. 0. 6.38125315e-002 0.
      -1.77921027e-001 0. 0. 0. 0. 0. 3.73476982e-001 0. 0. 0. 0.
      -1.04438281e+000 0. 3.59219491e-001 0. 0. 0. 0. 0. 0. 0. 0. 0.
      1.98806420e-001 0. 0. -1.15750313e-001 4.49894637e-001
      3.57843190e-001 0. 2.84266055e-001 0. 0. 0. 0. 0. 0. 0. 0. 0. 0.
      0. 0. -5.38825914e-002 0. 0. -7.57946610e-001 0. 0. 0.
      2.84095734e-001 -1.31947291e+000 0. 0. 0. 0. 0. -1.30722260e+000
      1.57995299e-001 0. 3.30829918e-001 3.04207176e-001
      -1.65760875e-001 6.56158507e-001 -3.99101973e-001 0. 0. 0.
      3.59017402e-001 0. 3.19675863e-001 0. 0. 0. -3.48113567e-001 0.
      -1.77921027e-001 1.80734769e-001 0. 4.49894637e-001
      5.59844017e-001 0. 0. 0. -2.49927211e+000 0. 0. 0. 0.
      -7.77335525e-001 3.19675863e-001 0. 1.57995299e-001 0. 0. 0. 0. 0.
      -5.13874471e-001 0. 0. -6.04257166e-001 0. -4.70799893e-001 0. 0.
      -1.77921027e-001 0. 1.45303750e+000 3.59219491e-001 0. 0.
      1.48529828e-001 0. 0. 0. 0. 0. 4.04603869e-001 2.24000975e-001
      1.79508701e-001 0. -5.88899553e-001 0. 0. 0. 0. 0. 0.
      4.05169964e-001 3.19675863e-001 0. -6.40009820e-001
      -3.99101973e-001 0. -3.08611631e-001 0. 0. 2.32242420e-001 0. 0.
      0. 0. 2.24000975e-001 0. 2.24000975e-001 0. 0. 1.32376063e+000 0.
      0. 0. 0. 0. 0. 0. 0. -2.27691960e+000 2.51344025e-001 0. 0. 0. 0.
      0. 0. 3.87458891e-001 0. 0. 0. 0. 0. 6.47129714e-001 0. 0. 0. 0.
      0. 0. 0. 0. -2.29474545e+000 0. 0. 0. 0. 0. 3.35843056e-001 0.
      -1.45729885e-001 -6.03154302e-001 0. 0. 0. 0. 0. 0. 0.
      2.05797434e-001 0. 0. 0. -1.15750313e-001 4.16804582e-001 0. 0. 0.
      0. 1.78118527e-001 0. 2.37797961e-001 2.82984793e-001
      4.10603017e-001 0. 0. 0. 4.10603017e-001 0. 0. 0. -7.33519852e-001
      0. 0. 1.62426841e+000 0. 3.52751374e-001 0. 0. 8.75227034e-001
      3.35843056e-001 -2.01214030e-001 3.35843056e-001 0. 0. 0. 0.
      6.40805542e-001 2.32242420e-001 0. 0. 0. 0. 0. 0. 1.80734769e-001
      0. 0. 0. 0. 0. 0. 0. 1.04045048e-001 0. 0. 0. 6.93152845e-001 0.
      0. 0. 0. 0. 0. 0. -2.34111592e-001 0. 0. 6.38125315e-002 0. 0. 0.
      0. 7.02120543e-001 0. 3.04207176e-001 4.80629474e-001 0. 0.
      -1.05426557e-001 0. 3.79541188e-001 0. 0. 0. 0. 1.54694271e+000
      1.78118527e-001 0. 0. 3.35843056e-001 0. 0. 7.11970866e-001 0. 0.
      0. -3.07531863e-001 0. 4.49894637e-001 0. 0. 0. -3.48113567e-001
      3.23564857e-001 0. -2.48958260e-001 7.10594594e-001 0.
      -2.58053124e-001 0. 0. 7.74647772e-001 0. 0. 0. 0. 0.
      -4.33335632e-001 0. 0. 0. 0. 0. 0. 0. 0. 0. 8.35438788e-001
      -2.34111592e-001 0. 2.24000975e-001 0. -1.28650999e+000 0. 0. 0.
      0. 0. 0. 0. -1.05426557e-001 0. 0. 0. 0. 0. 0. 0. 0. 0.
      3.52751374e-001 0. -5.47161222e-001 0. -1.74475062e+000 0. 0. 0.
      0. 0. -4.13582325e-001 0. 0. 8.06469083e-001 -4.26207304e-001
      -1.77921027e-001 3.23564857e-001 1.04045048e-001 -5.47161222e-001
      0. 0. 0. 0. 0. 0. 0. 7.43831575e-001 0. 0. 0. 0. 0. 0. 0. 0. 0. 0.
      0. 0. -1.74608842e-001 0. 0. 0. 0. 0. 0. 0. 0. 0. 0.
      -2.15194702e-001 0. 5.15227199e-001 2.05797434e-001 0. 0.
      -2.15194702e-001 -2.48958260e-001 2.95183450e-001 0. 0. 0. 0. 0.
      0. 0. -2.15194702e-001 0. -3.17665309e-001 0. 2.37797961e-001 0.
      0. 3.52751374e-001 0. 0. 0. 0. 0. 3.52751374e-001 0. 0. 0. 0. 0.
      6.02650754e-002 5.04299641e-001 0. 4.63779783e-003 0. 0. 0.
      2.51344025e-001 0. 0. -2.58053124e-001 0. 0. 0. 0. 7.31320202e-001
      -1.91158026e-001 0. 0. 0. 0. 0. 1.35383534e+000 0. 0.
      5.72283447e-001 0. 3.95700336e-001 0. 0. 0. 1.79508701e-001 0. 0.
      0. 0. 0. 9.72611845e-001 0. 8.55283618e-001 0. 0. -2.48958260e-001
      0. -5.51252961e-001 0. 0. 3.19675863e-001 3.19675863e-001 0. 0. 0.
      5.15838504e-001 0. -2.48958260e-001 0. -3.48113567e-001 0. 0. 0.
      6.02650754e-002 0. -2.22285581e+000 0. 0. 3.57843190e-001 0. 0. 0.
      0. -3.40369731e-001 0. 6.41129076e-001 0. 0. 0. 0. 0.
      -4.49335009e-001 1.78118527e-001 0. 0. 0. 0. -1.65760875e-001
      4.80629474e-001 0. 0. 2.51344025e-001 0. 0. 0. 0. 0. 0.
      5.53939700e-001 0. 0. 0. 4.49894637e-001 -1.05426557e-001
      1.20648354e-001 0. 0. 0. 0. 0. 0. -3.07531863e-001 0. 0.
      1.63457915e-001 0. 4.80629474e-001 0. 0. 0. 0. 0. 0. 0.
      -8.44440639e-001 5.94923139e-001 9.17918980e-001 0. 0.
      -6.56679511e-001 -5.47161222e-001 0. 0. 2.69609958e-001 0. 0.
      1.04045048e-001 0. 0. 0. 0. 0. 4.10603017e-001 3.23564857e-001 0.
      0. 1.98806420e-001 3.19675863e-001 1.00071478e+000 0.
      4.16804582e-001 0. 0. 0. 0. 0. 0. 0. 0. -2.58053124e-001
      -1.74608842e-001 0. 0. 0. 0. 0. 0. 0. -6.92446351e-001
      7.85737693e-001 0. 0. 0. 1.75529033e-001 0. 0. 4.07771468e-001 0.
      0. -2.71187425e-001 -9.82486844e-001 6.39351726e-001 0. 0. 0. 0.
      0. 0. 1.67372003e-001 0. 0. 0. 0. 0. 0. 0. 0. 0. 0.
      -5.38825914e-002 0. 0. 0. 7.87793636e-001 0. 4.21655744e-001 0. 0.
      0. 0. 0. 0. 0. 0. -3.57526839e-002 0. 4.80629474e-001 0. 0.
      1.98806420e-001 2.51344025e-001 0. 0. 0. 0. -2.58053124e-001 0. 0.
      0. 0. 0. 0. 0. 0. 0. 0. 0. 0. 0. 0. 0. 4.10603017e-001
      1.67372003e-001 -2.33242655e+000 0. 0. 0. 0. 0. 0. 0. 0. 0.
      3.04207176e-001 0. -5.51252961e-001 8.21206033e-001
      2.37797961e-001 4.16804582e-001 0. 0. 0. 0. 1.75529033e-001
      -5.51252961e-001 0. 0. 0. 0. 0. 2.37797961e-001 -1.65760875e-001
      0. -2.07943961e-001 0. 0. 3.59219491e-001 7.52647638e-001 0. 0. 0.
      8.45991433e-001 0. 0. 0. 0. 0. 4.10603017e-001 0. 0. 0.
      -7.20239580e-001 0. -4.13582325e-001 0. 0. 0. 0. -4.45429891e-001
      0. 0. 0. 0. 0. 0. 0. 0. 2.82984793e-001 0. 0. -1.20851433e+000 0.
      0. 0. 1.76003389e-002 0. 1.67372003e-001 0. -2.73123264e+000
      3.19675863e-001 0. 0. 4.10603017e-001 0. 0. 0. 0. -3.48113567e-001
      0. 0. 0. 2.82984793e-001 0. 0. 0. 0. 0. 0. 0. 6.48701072e-001 0.
      1.80734769e-001 0. 0. 0. 0. 0. 0. 0. 0. -5.08745909e-001 0. 0. 0.
      0. 0. 0. 2.37797961e-001 -2.34111592e-001 0. -6.04257166e-001 0.
      0. 0. 3.59219491e-001 0. 0. 0. 3.04207176e-001 0. 0.
      -1.65760875e-001 0. 0. 0. 6.62050366e-001 -3.08611631e-001 0. 0.
      0. 0. 1.67372003e-001 0. 0. 0. 0. 0. 0. 0. 0. 3.23564857e-001 0.
      0. 6.74843907e-001 0. 0. 0. 0. 0. 0. -6.04257166e-001 0. 0. 0. 0.
      0. 0. 0. 0. 0. -1.45729885e-001 0. 3.57843190e-001
      -1.84024072e+000 0. 1.80734769e-001 0. 0. 1.09053969e+000 0. 0. 0.
      0. 0. 0. 0. 0. 0. 0. 0. -5.51252961e-001 0. 0. 7.69822538e-001
      1.22683191e+000 -5.07643998e-001 0. 0. 0. -4.33335632e-001 0.
      3.44192684e-001 0. 7.68446207e-001 0. 0. 0. 0. 0. 1.67372003e-001
      0. 0. 0. 0. 0. 1.79508701e-001 0. 0. 8.20744574e-001 0. 0. 0. 0.
      0. 0. 0. 0. 0. 0. 2.05797434e-001 0. 0. 0. 4.72016186e-001 0. 0.
      3.52751374e-001 0. -5.47161222e-001 0. 0. 0. 0. 0. 0. 0. 0. 0. 0.
      0. 0. 0. 0. 0. 0. 0. 0. 0. 0. -1.35871351e+000 0. 0.
      1.75529033e-001 0. 0. 0. 3.35843056e-001 0. 2.24000975e-001
      4.10603017e-001 0. 0. 8.23371649e-001 0. -1.26507282e-001 0. 0.
      2.37797961e-001 0. -3.07531863e-001 -2.99700022e-001
      2.24000975e-001 3.59219491e-001 -2.84453082e+000 0.
      2.24000975e-001 0. 0. 0. -1.26507282e-001 0. 0. 0. 0. 0. 0.
      -4.33335632e-001 0. 0. 0. 0. 0. 0. 0. -8.09306085e-001 0. 0.
      2.82984793e-001 0. 0. 0. 0. 0. 0. -2.92749834e+000 0. 0. 0. 0. 0.
      0. 0. 0. 0. 0. 0. 0. 0. 1.98806420e-001 0. 0. 0. -5.51252961e-001
      0. -6.41279578e-001 0. 0. 3.53647560e-001 -1.73078373e-001 0. 0.
      0. 0. 0. 3.52751374e-001 1.39384615e+000 0. 1.80822587e+000 0. 0.
      3.52751374e-001 0. 0. 0. 0. 0. 8.09114158e-001 0. 0. 0.
      -1.05426557e-001 0. 0. 0. 0. 4.80629474e-001 0. -7.13282347e-001
      0. 0. 2.82984793e-001 2.32242420e-001 0. 0. 6.62525952e-001 0. 0.
      0. 0. 0. -1.28843486e+000 0. 0. 0. 0. 0. 0. -9.32859421e-001 0.
      -8.19451869e-001 -6.27711892e-001 -5.47161222e-001 0. 0. 0. 0. 0.
      5.80802679e-001 0. 0. 0. 6.48701072e-001 6.87692583e-001
      -3.48113567e-001 0. 0. 4.16804582e-001 -2.99700022e-001 0. 0.
      -6.91292644e-001 0. 0. 0. 0. 0. 0. 0. 1.63457915e-001 0. 0. 0. 0.
      4.29798424e-001 0. 0. 0. -1.09581947e+000 0. -1.77921027e-001 0.
      0. 2.82984793e-001 0. 0. -3.50999385e-001 1.98806420e-001 0. 0. 0.
      0. 2.32242420e-001 0. -5.54732859e-001 0. 0. 0. -2.15194702e-001
      3.35843056e-001 0. 0. 0. 0. 0. 0. -2.02595547e-001 0. 0. 0. 0. 0.
      0. 0. 0. 0. -7.23940611e-001 -3.49861890e-001 0. 3.52751374e-001
      0. 0. 0. 0. 0. 1.67372003e-001 0. 0. 0. 0. -9.67736840e-001 0. 0.
      0. 0. 0. -2.15194702e-001 -2.01214030e-001 2.24000975e-001
      1.98806420e-001 0. 0. 1.78118527e-001 0. 0. 0. 0. 0.
      1.80734769e-001 0. 0. 0. 4.80629474e-001 0. 0. -3.30945015e-001 0.
      0. 0. 2.32242420e-001 7.44260609e-001 6.02650754e-002 0. 0. 0.
      -1.77921027e-001 0. 0. 0. 0. 0. 0. 3.73476982e-001 0.
      -1.22327983e+000 0. 0. 0. 0. -1.73078373e-001 0. 0. 0.
      -3.43681902e-001 4.16804582e-001 0. 0. 0. 0. 5.72797239e-001 0.
      -2.99700022e-001 -6.04257166e-001 0. 0. 0. 0. 2.82984793e-001
      -2.69077301e-001 0. 0. 0. 0. 0. 0. 0. 0. 0. 0. 9.30524111e-001 0.
      0. 0. 7.05502748e-001 0. 0. 7.38649011e-001 0. 0. 0. 0. 0. 0.
      -1.26507282e-001 0. 0. 1.75529033e-001 0. 0. 4.80629474e-001 0.
      2.37797961e-001 0. 0. 0. -2.28491426e-001 0. -1.15551007e+000
      5.34649491e-001 -2.61480182e-001 0. 3.55037749e-001 0. 0. 0.
      6.73567355e-001 0. 0. 1.80734769e-001 0. 2.32242420e-001 0.
      1.78118527e-001 0. 0. 0. 4.80629474e-001 0. 3.52751374e-001 0.
      1.57995299e-001 0. -1.43221164e+000 -9.18635309e-001
      1.04045048e-001 -3.48113567e-001 -1.77921027e-001 0. 0.
      -6.39281213e-001 0. 0. -2.01214030e-001 0. 0. 0. 0. 0.
      1.63457915e-001 0. 0. 0. 0. 0. 0. 0. -2.58053124e-001 0. 0. 0.
      -1.45972693e+000 0. -7.42410958e-001 0. -2.24908113e+000 0.
      -1.91158026e-001 4.49894637e-001 0. 0. 6.97041869e-001 0. 0.
      1.04045048e-001 1.00343943e+000 1.81162417e+000 0. 3.23564857e-001
      4.16804582e-001 0. 0. 0. 0. 0. 0. 0. 0. 0. -1.45729885e-001 0. 0.
      0. 0. 0. 0. 0. -2.99700022e-001 2.51344025e-001 0. 0. 0. 0.
      -1.10003376e+000 -1.65760875e-001 0. 0. 0. 0. 0. 0. 0. 0. 0. 0. 0.
      7.76024103e-001 0. -9.18881357e-001 0. 0. 5.58548808e-001 0.
      -8.28083813e-001 0. 0. 0. 0. 0. 0. 0. 0. 0. 0. 0. 2.82984793e-001
      4.62202489e-001 0. -1.59309149e-001 0. 0. 0. 0. 0. 3.52751374e-001
      0. 0. 0. 0. 0. 0. 0. 0. 0. 0. 0. 2.82984793e-001 0. 0. 0. 0. 0. 0.
      0. 0. 0. 1.80734769e-001 0. 0. 0. 0. 0. 0. 6.58748031e-001 0. 0.
      -3.48113567e-001 4.49894637e-001 0. 3.59219491e-001 0.
      1.78118527e-001 0. 1.57995299e-001 0. 3.23564857e-001 0.
      -1.12573421e+000 0. 0. 0. 0. 0. 0. 0. -2.27681565e+000
      4.80629474e-001 0. 3.57843190e-001 0. 0. 5.36934912e-001 0.
      7.69822538e-001 0. 0. 2.37797961e-001 1.04134583e+000
      -8.99366498e-001 0. 0. -7.22193956e-001 0. 4.16804582e-001 0. 0.
      0. 0. 0. 0. 0. 0. 0. 0. 0. 0. 0. 0. 4.16804582e-001 0. 0.
      -3.40860581e+000 -3.48113567e-001 -4.33335632e-001
      -1.05426557e-001 0. -5.51252961e-001 0. -5.57753146e-001 0. 0. 0.
      0. 4.73242253e-001 0. 0. -4.13582325e-001 -3.26119751e-001 0. 0.
      -1.77921027e-001 0. 0. 0. 8.16743314e-001 0. 2.37797961e-001 0. 0.
      0. 0. 6.55518949e-001 0. 0. 0. 0. 0. 0. 0. 0. 0. 0. 0. 0. 0. 0. 0.
      0. -1.19595110e+000 7.68446207e-001 0. -1.23851371e+000
      -2.34111592e-001 0. 0. 0. 0. 0. 4.80629474e-001 0. 0. 0. 0. 0. 0.
      0. 0. 0. 0. 0. 0. -2.07943961e-001 0. 0. 0. 0. 0. 0.
      -4.16174680e-001 0. 0. 0. 0. 0. -4.74372506e-001 0. 0.
      5.85000694e-001 -3.08611631e-001 0. 0. 0. 0. 0. 0. 4.65000808e-001
      0. -7.50299990e-001 0. -4.33335632e-001 0. 0. -4.63863879e-001
      1.63457915e-001 0. 0. 0. 0. 0. 0. 0. 0. 4.80629474e-001
      -3.07531863e-001 0. -8.22059751e-001 0. 0. 0. 0. 0. 0. 0.
      1.78118527e-001 2.94997066e-001 3.59219491e-001 0. 0. 0. 0. 0. 0.
      0. 0. 0. -2.19593287e-001 1.79508701e-001 -3.48113567e-001 0. 0.
      0. 0. 0. 0. 0. -5.80961585e-001 0. 0. 0. 0. 0. 5.43851495e-001 0.
      0. 0. 4.16804582e-001 0. 3.79541188e-001 0. 0. 0. -4.33335632e-001
      -5.47161222e-001 0. -3.07531863e-001 -5.47161222e-001 0. 0. 0. 0.
      0. 0. 0. 0. 0. -6.21816754e-001 -1.91158026e-001 0.
      1.75529033e-001 0. 1.02736080e+000 0. 0. 4.30852711e-001 0.
      3.73476982e-001 3.52751374e-001 -1.22998321e+000 0. 0.
      4.49894637e-001 0. -1.94737482e+000 0. -1.06192279e+000 0. 0. 0.
      0. -2.58053124e-001 0. -2.18231365e-001 0. 0. -3.07531863e-001 0.
      8.04194331e-001 0. 0. -2.12841797e+000 0. 0. -1.74608842e-001
      -3.44364315e-001 3.57843190e-001 3.23564857e-001 0.
      -3.57526839e-002 0. 0. 0. 0. 0. 0. 5.34328818e-001 0. 0. 0.
      -1.45729885e-001 2.32242420e-001 0. 0. 0. 1.79508701e-001
      -5.47161222e-001 -1.99358928e+000 0. 1.15097249e+000
      -6.06166720e-001 3.35843056e-001 0. 1.98806420e-001 0. 0. 0. 0. 0.
      0. -9.20593739e-001 0. 0. -1.21566153e+000 0. 0. 0. 0.
      3.23564857e-001 0. -2.07943961e-001 0. 0. 0. 0. -4.33724076e-001
      4.51271415e-001 4.16804582e-001 5.55807292e-001 0. 5.73641002e-001
      0. 0. 0. -3.48113567e-001 3.04207176e-001 0. 0. -3.47553909e-001
      -5.29332638e-001 -2.15194702e-001 0. 0. -5.51252961e-001 0. 0. 0.
      0. -4.79718953e-001 0. 1.00519693e+000 0. 0. 0. 0. 0. 0.
      -2.12619710e+000 0. 0. -3.24149206e-002 1.57995299e-001 0.
      1.98806420e-001 0. -5.73706746e-001 0. 2.05918431e+000 0.
      -5.38825914e-002 0. 3.57843190e-001 0. 0. 0. 2.05797434e-001
      -3.12077546e+000 0. 0. 0. -5.14978588e-001 -1.40547717e+000
      -8.03675890e-001 0. -6.55645430e-001 5.90085626e-001
      -2.58053124e-001 0. 0. 0. 0. 8.81973445e-001 0. 0. 0. 0. 0. 0. 0.
      0. 0. 0. 0. 0. 0. 0. 0. 0. 0. 6.71671629e-001 0. 0. 0. 0. 0.
      -3.48113567e-001 0. 0. 0. 1.80734769e-001 0. 0. 0. 0. 0. 0. 0.
      1.63457915e-001 -1.00153053e+000 4.16804582e-001 0. 0. 0. 0.
      1.69054061e-001 -2.48958260e-001 -2.15194702e-001 0. 0. 0.
      -7.39577830e-001 0. 0. 0. 0. -3.60924602e-001 -5.51252961e-001
      3.04207176e-001 4.80629474e-001 0. 4.16804582e-001 0. 0. 0. 0. 0.
      0. 0. 4.64484841e-001 0. 0. -2.10361525e-001 0. 0. 0. 0. 0. 0. 0.
      0. -4.06352729e-001 0. 3.35843056e-001 0. 0. 0. -2.09301782e+000
      -2.58053124e-001 4.77522045e-001 0. 0. 0. 5.81844151e-001 0. 0. 0.
      0. 0. 0. 0. 0. 0. 0. 0. 0. 2.82984793e-001 0. -4.33335632e-001 0.
      -2.58053124e-001 1.67372003e-001 3.23564857e-001 0. 0.
      8.82789373e-001 0. 0. 1.20018137e+000 6.07889950e-001 0. 0. 0. 0.
      0. 0. 0. 0. 6.38125315e-002 -8.12609434e-001 0. 0.
      -2.48958260e-001 0. 3.52751374e-001 0. 0. 0. 0. 0. 0. 0.
      2.32242420e-001 0. 0. 0. 0. 0. 0. 0. 0. 0. 3.35843056e-001
      -1.73078373e-001 0. -3.57526839e-002 -3.73704851e-001 0. 0. 0. 0.
      0. 0. 7.98061907e-001 0. 0. -5.51252961e-001 0. 0.
      -8.09306085e-001 0. 0. 0. 0. 0. 2.05797434e-001 0.
      -1.46735346e+000 -3.08611631e-001 0. 0. 0. 3.23564857e-001 0.
      -1.77921027e-001 4.15240794e-001 4.20508534e-001 0. 0. 0.
      1.20252240e+000 0. 0. 0. 0. -1.08117270e+000 0. 0. 0.
      8.22890937e-001 0. 0. 0. 0. 0. -2.87994176e-001 0. 0. 0. 0. 0. 0.
      0. 0. -8.43994439e-001 0. 0. 6.02650754e-002 3.79541188e-001 0. 0.
      0. 0. 0. 0. 0. 0. 0. -3.52043891e+000 0. 0. -4.07189965e-001
      1.79508701e-001 -7.96119452e-001 0. 0. 0. 0. 0. -1.22000921e+000
      0. -4.13582325e-001 0. 0. 0. 0. 0. -1.05426557e-001 0.
      -1.26507282e-001 0. 0. 0. -2.15194702e-001 5.61612010e-001 0. 0.
      -2.01214030e-001 0. 0. -1.46090996e+000 0. -4.13582325e-001 0.
      -2.99700022e-001 0. 0. -3.09363246e-001 0. 0. 4.10603017e-001 0.
      0. 0. 0. 0. 0. 0. -2.48958260e-001 0. 0. 0. 0. 2.38383606e-001 0.
      2.24000975e-001 0. 0. 0. -1.77921027e-001 1.57995299e-001 0.
      1.79508701e-001 0. 0. 0. 0. 0. 0. 0. 0. 0. 0. 0. 0. 0.
      -1.74608842e-001 0. -1.69281399e+000 0. 0. -2.07943961e-001
      5.00410616e-001 -7.82178164e-001 4.10603017e-001 3.59219491e-001
      0. 0. 1.04045048e-001 0. 0. 0. -7.94750094e-001 0. 1.98806420e-001
      0. 5.16577840e-001 0. 0. 0. 0. 0. 0. 0. 3.59219491e-001 0.
      4.81791198e-001 3.59219491e-001 0. 0. 0. 0. 0. 0. 0. 0. 0. 0. 0.
      0. 0. 6.57320261e-001 0. 0. 2.37797961e-001 0. -3.11490774e-001 0.
      0. 0. 0. 0. 0. 0. 0. 0. 0. -2.07943961e-001 1.80734769e-001 0. 0.
      0. -5.22940278e-001 2.24000975e-001 0. 0. 0. 0. 6.38125315e-002
      5.33843458e-001 0. 0. 0. -1.45729885e-001 0. 0. -1.20418406e+000
      0. 0. 0. 2.51344025e-001 0. -1.05473745e+000 0. 0. 0. 0.
      1.57995299e-001 1.09794700e+000 -1.30154574e+000 0. 0. 0. 0. 0. 0.
      0. -2.07741782e-001 0. 0. 0. 0. 0. 0. 0. 0. 0. 0. 0. 0.
      2.71417052e-001 -2.48958260e-001 -7.61071980e-001 -7.30493486e-001
      0. 0. 0. 0. 0. 0. 0. 0. 0. 0. 0. -3.13499999e+000 0.
      4.16804582e-001 0. 0. -4.12323713e-001 0. 0. 0. 0. 0. 0. 0. 0.
      1.04045048e-001 -1.17409468e+000 0. -7.78865993e-001 0. 0. 0. 0.
      0. 0. 0. 0. 1.06004536e+000 0. -8.33511651e-001 0.
      -1.15290010e+000 -3.21299493e-001 0. -4.49335009e-001 0.
      2.74418801e-001 0. 9.56568182e-001 0. 0. 0. 0. 0. 0. 0.
      1.80734769e-001 0. -8.46917927e-001 0. 0. 0. 0. -1.07461524e+000
      0. 2.24000975e-001 -2.99700022e-001 0. 0. 0. 7.76024103e-001 0. 0.
      0. 0. -6.84986532e-001 0. 0. -1.90656209e+000 0. -6.67395964e-002
      0. 0. 0. 0. 0. 0. 3.19675863e-001 0. 0. 0. 0. 0. 0.
      -8.53134215e-001 0. 0. -2.57601523e+000 0. 0. 2.51344025e-001
      5.87631464e-001 4.49894637e-001 0. 0. 0. 0. 0. 0. 0. 0.
      3.04207176e-001 0. 9.37587321e-001 0. 0. 0. 0. 0. 0.
      -4.72778380e-001 0. 2.39773780e-001 0. 0. 0. 1.19900990e+000 0. 0.
      0. 0. 0. 0. 0. 0. 0. 0. 0. 0. 6.38125315e-002 -9.80496824e-001 0.
      2.24000975e-001 2.05797434e-001 -3.08611631e-001 0.
      -9.86067712e-001 0. 0. 0. 5.13707161e-001 0. 0. 0. 0.
      2.82984793e-001 -2.01214030e-001 4.49894637e-001 0.
      7.85737693e-001 0. 1.63457915e-001 0. 0. 0. 0. 0. -5.22722423e-001
      0. -3.07531863e-001 -1.23127544e+000 7.11970866e-001
      2.05797434e-001 0. 0. 0. 6.77684188e-001 -1.65760875e-001 0. 0. 0.
      0. 0. -3.08611631e-001 0. 0. 0. 0. -7.27248609e-001 0. 0. 0.
      -2.30110431e+000 0. 0. 0. -5.51252961e-001 -1.77921027e-001 0. 0.
      0. 0. 5.13961613e-001 0. 0. 0. 0. 0. 3.73476982e-001
      -4.79229987e-001 -1.26507282e-001 0. 0. 0. -9.60743546e-001 0. 0.
      9.47674513e-001 0. 0. 0. 0. 0. 0. 0. 0. 0. 2.37797961e-001 0. 0.
      0. 0. 0. 0. 0. 0. 0. 0. 0. 0. 0. -3.07531863e-001 0. 0. 0. 0. 0.
      0. 0. 0. 0. 0. 0. 0. 0. 0. 0. 0. 0. 0. 0. 0. 0. 0. 0. 0.
      3.73169422e-001 0. 2.32242420e-001 6.95062578e-001 0.
      6.85769141e-001 0. 6.62525952e-001 0. 2.32242420e-001 0. 0. 0.
      -2.46158671e+000 0. 0. 2.24000975e-001 0. 0. 0. 0. 0. 0. 0.
      5.74799895e-001 0. 0. 0. 0. 0. 1.67372003e-001 0. 0. 0.
      1.67372003e-001 0. 5.55070221e-001 0. 0. 0. 0. 0. 0.
      1.63457915e-001 0. 0. 7.11970866e-001 0. 0. 9.82215166e-001 0. 0.
      0. 0. 0. 0. 0. -6.77760243e-001 0. -2.38245320e+000 0.
      4.49894637e-001 -1.97671318e+000 0. 0. 0. 0. 0. 0. 0.
      1.78118527e-001 0. 0. 0. 1.57995299e-001 0. 0. 0. 0. 0. 0. 0. 0.
      0. 0. 0. 0. 0. 0. 0. 0. 0. -2.79214716e+000 0. 4.10603017e-001 0.
      0. 0. 0. 0. 0. -2.48958260e-001 0. 5.41707456e-001 3.35843056e-001
      0. 0. 0. 0. 1.63457915e-001 0. -6.04257166e-001 0. 0.
      3.52751374e-001 -1.06865001e+000 0. 0. -1.91158026e-001
      -5.38825914e-002 -9.13945854e-001 -9.69785750e-001 0.
      -1.15750313e-001 -4.14719135e-001 0. 0. 0. 0. 0. 0. 0. 0.
      -4.01996166e-001 0. 0. 0. 0. 0. 0. 0. 4.56796408e-001 0.
      -5.47161222e-001 0. 0. 0. 0. 3.52751374e-001 0. -1.74608842e-001
      0. 0. 0. 0. -1.04693091e+000 3.52751374e-001 0. 0. 0. 0. 0. 0. 0.
      0. 0. 0. -3.07531863e-001 0. -4.79229987e-001 0. 0. 0. 0. 0. 0. 0.
      0. 0. 0. 0. 1.21332598e+000 0. 0. 0. 0. 0. 0. 0. 0. 0. 0. 0. 0. 0.
      2.82984793e-001 0. 0. 0. 0. 0. 0. -5.93371332e-001
      -1.07703555e+000 0. -2.55420113e+000 0. -2.61480182e-001 0. 0. 0.
      4.80629474e-001 -5.47161222e-001 -5.47161222e-001 0. 0. 0. 0. 0.
      2.05797434e-001 0. 0. 4.49894637e-001 0. 0. 2.32242420e-001 0. 0.
      3.96108150e-001 0. 0. 0. 0. 0. 0. 0. 0. 0. 0. 0. 0. 0. 0.
      4.10603017e-001 0. 0. 0. 0. 0. 0. 9.30524111e-001 0.
      3.73476982e-001 -4.31725693e+000 0. 0. 3.57843190e-001
      1.67372003e-001 0. 0. 0. 0. 0. 0. -1.08923662e+000 1.23967266e+000
      1.19904459e+000 0. 0. 3.19675863e-001 0. 0. 0. -5.93972206e-001
      7.69555986e-001 0. 0. 4.36604381e-001 0. 7.50437915e-001 0. 0. 0.
      0. 1.04045048e-001 0. 4.16804582e-001 0. 0. 0. 0. 0. 0. 0. 0. 0.
      0. 0. 0. 6.38125315e-002 -3.07531863e-001 6.38125315e-002 0. 0.
      4.80629474e-001 0. -1.74608842e-001 0. -6.04257166e-001
      1.67372003e-001 0. 6.29403353e-001 0. 0. 0. 0. 0. 0.
      3.12442593e-002 0. 0. 0. 0. -1.26507282e-001 6.02650754e-002
      1.57995299e-001 0. 0. 0. 0. 0. 0. 0. 0. -8.53215396e-001 0. 0.
      -2.07943961e-001 0. 0. 0. 0. 0. 0. 0. 0. 0. 0. 0. -3.63479674e-001
      0. 0. -5.51252961e-001 0. 0. 0. 0. 3.35843056e-001 2.05797434e-001
      0. 0. -3.59152961e+000 0. -5.81268597e+000 4.19201583e-001
      6.78895354e-001 0. 0. 2.32242420e-001 0. 2.69609958e-001 0. 0.
      -5.16555607e-001 0. 0. 0. -1.74608842e-001 0. 0. 0. 0. 0. 0.
      3.83829951e-001 0. 1.04045048e-001 0. 5.13707161e-001 0. 0. 0. 0.
      0. 0. 3.23564857e-001 6.69809163e-001 0. 0. 4.49894637e-001 0. 0.
      -4.13582325e-001 3.23564857e-001 0. 3.59219491e-001 0. 0. 0.
      -1.15750313e-001 -2.01214030e-001 3.23564857e-001 0. 0. 0. 0. 0.
      0. -2.99700022e-001 -1.73078373e-001 0. -1.73078373e-001 0.
      -1.77921027e-001 0. 0. 0. -1.75446463e+000 0. 0. -2.34111592e-001
      0. 6.95961952e-001 0. 0. -1.40637791e+000 6.02650754e-002
      5.51557779e-001 0. 0. 0. 0. 0. 3.52751374e-001 3.23564857e-001
      -6.04257166e-001 0. 0. 0. 0. 0. 0. 0. 0. -9.76732314e-001 0. 0. 0.
      4.62202489e-001 7.21011758e-001 0. 0. 0. -3.48367643e+000 0. 0.
      -6.50520325e-001 0. 0. 0. 0. 8.20045710e-001 0. 4.16804582e-001
      -2.92268157e-001 0. 0. 0. 0. -2.58053124e-001 4.49894637e-001
      -8.09306085e-001 0. 0. 0. 0. 0. -4.13582325e-001 0. 0.
      4.16804582e-001 0. -9.35778916e-001 4.80629474e-001
      -5.47161222e-001 0. 0. -4.14719135e-001 1.78118527e-001 0. 0. 0.
      0. 0. 0. 0. 0. 0. 4.80629474e-001 7.46446073e-001 0. 0. 0. 0.
      4.90936875e-001 0. 0. 0. 2.60045286e-002 1.78118527e-001 0.
      1.67372003e-001 0. 0. -2.07943961e-001 0. 0. 0. -1.91158026e-001
      0. 0. -1.26507282e-001 0. 1.57995299e-001 4.16804582e-001 0. 0. 0.
      6.13352537e-001 0. 0. -3.48113567e-001 0. 0. 1.00426531e+000 0. 0.
      0. -4.13582325e-001 0. 0. 0. 3.19675863e-001 0. 1.67372003e-001
      -4.33335632e-001 0. 0. 0. 0. 0. 4.62493479e-001 -7.17013836e-001
      -1.56011784e+000 0. 0. 0. 0. 0. 0. 0. 0. 5.33507586e-001 0. 0. 0.
      0. 0. 0. 0. 0. 1.01244569e+000 -5.29240549e-001 0. 0. 0. 0.
      4.79736239e-001 -3.08611631e-001 0. 0. -6.04257166e-001 0. 0. 0.
      0. 0. 0. 0. 7.10594594e-001 6.86426938e-001 0. 0. 0. 0. 0.
      3.63792747e-001 4.49894637e-001 0. 0. 0. 0. 1.98806420e-001
      1.17122638e+000 7.69822538e-001 0. 0. 0. 0. 0. -8.99366498e-001
      2.84779817e-001 0. 0. 0. 0. 0. -1.26507282e-001 0. 0.
      1.80734769e-001 0. 0. 0. 0. 6.02650754e-002 4.16804582e-001 0. 0.
      0. 1.78118527e-001 0. 0. 0. -3.57526839e-002 8.55831355e-002 0. 0.
      0. 0. 0. 0. 0. 0. 4.12977189e-001 6.38125315e-002 3.41576457e-001
      0. 3.73476982e-001 0. 0. 0. 0. 1.78118527e-001 0. 0. 0. 0. 0. 0.
      0. 0. 0. 3.52751374e-001 0. 0. 0. 0. 0. 0. 0. 0. 0. 0.
      2.51344025e-001 0. 0. 0. 0. 2.37797961e-001 0. 0. 0.
      9.98453915e-001 6.77684188e-001 0. 3.57843190e-001 3.73476982e-001
      -1.15750313e-001 1.79508701e-001 0. 1.63457915e-001 0. 0. 0. 0. 0.
      0. -4.33335632e-001 0. 0. -5.51252961e-001 0. 0. -3.57526839e-002
      3.57843190e-001 -2.15194702e-001 0. 0. 0. 0. 0. 0. 0. 0. 0. 0.
      5.15227199e-001 0. 0. 5.10415494e-001 0. 0. 4.62202489e-001 0. 0.
      0. 0. 0. 0. 0. 0. 0. 0. 0. 2.05797434e-001 3.19675863e-001
      1.67372003e-001 0. 0. 0. 0. 0. 0. 0. 0. 0. 0. 0. 0.
      1.46734905e+000 3.57843190e-001 -4.25269634e-001 0. 0. 0. 0. 0.
      -1.59309149e-001 -8.33221793e-001 0. 0. 4.10603017e-001 0. 0.
      2.51344025e-001 7.42107868e-001 -3.08611631e-001 0. 0. 0. 0. 0. 0.
      0. 0. 0. 1.78118527e-001 0. 0. 0. 0. 0. 0. 0. 0. 0. 0. 0. 0. 0.
      -5.51252961e-001 3.64472270e-001 0. -1.26507282e-001 0.
      2.24000975e-001 0. 1.79508701e-001 0. 0. 0. 0. -1.15750313e-001 0.
      0. 0. 0. 0. -5.36558032e-001 0. 0. 0. 0. 0. 0. 0. 0. 0.
      2.37797961e-001 1.67372003e-001 0. 0. -1.26507282e-001 0. 0. 0. 0.
      0. -1.77921027e-001 0. 0. -6.71011567e-001 0. 1.05937290e+000 0.
      -1.60306835e+000 0. 0. 0. 2.05797434e-001 0. 0. 0.
      -1.15741968e+000 0. 3.73476982e-001 0. 0. 0. -3.57526839e-002 0.
      3.06711972e-001 0. 0. 3.59219491e-001 0. 8.41829181e-001 0. 0. 0.
      -2.22313857e+000 0. 0. 1.49708998e+000 0. 0. 0. 0. 0. 0. 0. 0. 0.
      0. 0. 0. 0. 0. 0. 0. 6.38125315e-002 0. 0. 0. 0. 0. 0. 0. 0.
      6.02650754e-002 -1.30706906e+000 0. -2.13661981e+000
      5.20782769e-001 -9.89263207e-002 0. -2.15194702e-001 0.
      -1.25860929e-001 -9.62123632e-001 1.63457915e-001 0. 0. 0.
      -5.38825914e-002 0. 0. 0. 0. 0. 0. 0. 0. 0. 0. 0. 0. 0. 0.
      8.54325354e-001 0. -2.48958260e-001 0. 3.57843190e-001 0. 0. 0. 0.
      -6.04257166e-001 0. 0. 0. 0. 0. 2.32242420e-001 -4.33335632e-001
      0. 0. 0. 0. 0. 0. 0. 0. 0. 0. 0. 0. 0. 3.19675863e-001 0. 0.
      -1.91158026e-001 0. 0. 0. 0. 0. 0. 0. 0. 0. 2.37797961e-001
      2.24000975e-001 0. 0. 0. 0. 0. 0. 7.87641585e-001 0. 0. 0.
      -3.48113567e-001 0. 1.78118527e-001 0. 0. 0. -3.48113567e-001 0.
      0. 0. 0. 0. 0. 1.78118527e-001 0. 0. 0. 0. -3.16964328e-001 0.
      3.23564857e-001 0. 0. 0. 0. 0. -2.48958260e-001 0. 2.40999848e-001
      0. 0. 1.75529033e-001 0. 0. -2.99700022e-001 0. 0. 0. 0. 0. 0. 0.
