<?xml version="1.0"?>
<opencv_storage>
<my_svm type_id="opencv-ml-svm">
  <svm_type>C_SVC</svm_type>
  <kernel><type>LINEAR</type></kernel>
  <C>1.2500000000000000e+001</C>
  <term_criteria><epsilon>1.1920928955078125e-007</epsilon>
    <iterations>1000</iterations></term_criteria>
  <var_all>171</var_all>
  <var_count>171</var_count>
  <class_count>3</class_count>
  <class_labels type_id="opencv-matrix">
    <rows>1</rows>
    <cols>3</cols>
    <dt>i</dt>
    <data>
      1 2 3</data></class_labels>
  <sv_total>3</sv_total>
  <support_vectors>
    <_>
      0. 0. 1.07579160e+000 -1.88151896e+000 0. 0. 0. 0. 0.
      1.71850610e+000 0. 0. 0. 0. 0. 0. -2.39654803e+000 0.
      3.32278937e-001 -3.68617736e-002 0. 0. 0. 3.41963470e-001 0.
      -4.04706150e-001 0. 0. 0. -4.99784499e-001 1.35348034e+000
      -5.26866615e-001 0. 0. 0. 0. 2.55266023e+000 0. 0. 0. 0.
      2.00092030e+000 0. 0. -1.88151896e+000 0. -3.97968364e+000 0. 0.
      0. 0. 0. -1.27808762e+000 0. 0. 0. 0. 0. 0. 0. 0. 0.
      2.50000000e+000 0. 0. 1.41582370e+000 0. 0. 0. 0. 0. 0. 0. 0. 0.
      0. 0. 2.50000000e+000 2.55772229e-002 -4.01077121e-001 0. 0.
      1.35348034e+000 0. -9.24208343e-001 0. 2.48110580e+000 0.
      -1.37783408e+000 -2.50000000e+000 1.41582370e+000 0. 0. 0. 0.
      -6.18675888e-001 -5.12537241e-001 1.09487915e+000 0.
      2.43143034e+000 -1.78737462e-001 0. 2.56281686e+000
      2.02649760e+000 0. -2.83882904e+000 0. 0. 1.17529988e+000 0. 0. 0.
      0. 0. -4.99784499e-001 0. -4.36883068e+000 -2.90470624e+000 0. 0.
      0. 0. -9.24208343e-001 -2.25121570e+000 0. 0. 5.88138163e-001 0.
      0. 0. 3.08662868e+000 0. 0. 0. 0. 4.04305339e-001 0. 0. 0.
      -9.58850443e-001 0. 0. 0. -2.66074836e-001 0. 0. -1.13273787e+000
      0. 0. 0. 0. -3.12500000e+000 0. 1.77494323e+000 2.50000000e+000
      -9.24208403e-001 0. -1.78737372e-001 0. 4.06820148e-001 0. 0. 0.
      0. 0. -6.18675888e-001 0. -2.32781291e+000 0. 1.75585604e+000
      1.84329224e+000</_>
    <_>
      0. 0. 1.32279277e+000 0. 0. -1.44422185e+000 0. 0.
      -5.70084900e-002 6.51012063e-001 0. 0. 0. 0. -8.14668536e-001 0.
      0. 0. 1.14587545e+000 5.68833649e-001 0. 0. -8.14668536e-001
      1.00072587e+000 -1.46799064e+000 0. -4.13947701e-001
      -1.77357411e+000 -1.05363496e-001 0. 6.96486115e-001
      9.81048048e-002 0. 0. 0. -2.16215938e-001 1.11114621e+000 0. 0. 0.
      0. 2.84375966e-001 0. 0. 0. -1.05363496e-001 -4.74941045e-001 0.
      0. -3.16116065e-001 0. -1.76308560e+000 -3.25290978e-001 0. 0. 0.
      0. 0. 0. -1.20496243e-001 0. -1.06192231e+000 1.58884585e-001
      -1.27971792e+000 0. 8.89515758e-001 0. 0. 2.42924497e-001 0. 0. 0.
      -9.87823963e-001 0. 0. 0. 0. 1.04840040e+000 6.11600876e-001
      8.26770186e-001 0. 0. 6.96486115e-001 0. 0. 0. 1.36908257e+000
      -1.06863081e+000 0. -1.34911251e+000 0. 0. -4.08040851e-001 0. 0.
      -3.78601044e-001 3.73606712e-001 6.51012063e-001 0.
      6.98464632e-001 7.94590890e-001 0. 6.15123391e-001 6.11600876e-001
      0. -1.76817358e+000 0. -1.54825914e+000 1.68367219e+000 0. 0. 0.
      0. 0. -3.25290978e-001 -1.27118826e+000 0. 0. 0. 0.
      -5.95437288e-001 -3.98865938e-001 0. 0. -3.78601044e-001 0.
      3.24857920e-001 0. 0. 0. 5.37065685e-001 0. 6.09302461e-001 0. 0.
      5.37065744e-001 0. 0. -1.42641079e+000 0. -1.20496243e-001 0. 0.
      1.92279613e+000 0. 0. 0. -5.86981297e-001 0. 0. 0. 0. 0.
      1.68826938e+000 3.41029286e-001 0. 0. 0. 0. 4.47012275e-001
      -2.38829568e-001 0. 0. 6.09302461e-001 -7.30063796e-001 0. 0. 0.
      -5.70084900e-002 6.51012063e-001 3.73606712e-001</_>
    <_>
      0. 0. 2.30422243e-001 3.83551061e-001 0. -1.63819671e+000 0. 0. 0.
      0. 0. 0. 0. 0. -6.99138105e-001 0. 1.42366505e+000 0.
      1.69480395e+000 3.81916165e-001 0. 0. -6.99138105e-001
      1.30777085e+000 -1.74031186e+000 7.73600414e-002 -4.18566525e-001
      -1.43548977e+000 -3.70684154e-002 4.65495348e-001 0.
      6.63646102e-001 0. 0. 0. -2.90703446e-001 0. 0. 0. 0. 0. 0. 0. 0.
      0. -3.70684154e-002 4.08258677e-001 0. 0. -5.38941324e-001 0.
      -2.06071639e+000 -1.76238403e-001 0. 0. 0. 2.77572513e-001 0. 0.
      -3.66890907e-001 0. -1.03979385e+000 0. -1.56772721e+000 0. 0. 0.
      0. 0. 0. 0. 0. -1.01499033e+000 2.79402316e-001 0. 0. 0. 0. 0.
      6.53885424e-001 0. 0. 0. 0. 1.61973405e+000 0. 0. -1.22163939e+000
      2.53129154e-001 1.54770324e-002 0. 0. -5.98402798e-001 0. 0.
      -3.45190205e-002 1.12146366e+000 0. 0. 0. 5.12112796e-001 0.
      -9.76256967e-001 0. 0. -1.31189859e+000 0. -1.46145892e+000
      8.00482690e-001 0. 0. 0. -1.35093108e-001 0. -1.32907480e-001
      -1.49301827e+000 8.60957742e-001 8.95663857e-001 0. 0.
      -8.42939854e-001 -5.38941324e-001 2.19108656e-001 1.10851741e+000
      -2.23234311e-001 0. 3.47289950e-001 3.47289950e-001 0. 0. 0. 0.
      1.12305284e+000 0. 0. 0. 0. 0. -1.72623932e+000 4.65495348e-001
      -3.66890907e-001 0. 0. 2.37535882e+000 0. 0. 4.41844463e-001
      -5.63744903e-001 0. 0. 0. 8.00482690e-001 0. 1.47904909e+000 0.
      9.19421494e-001 0. 4.18257207e-001 0. 4.18257177e-001
      -1.92678764e-001 0. 0. 0. -9.57507849e-001 1.88715294e-001 0.
      1.55944061e+000 0. 0. 0.</_></support_vectors>
  <decision_functions>
    <_>
      <sv_count>1</sv_count>
      <rho>7.5791562585920097e-002</rho>
      <alpha>
        1.</alpha>
      <index>
        0</index></_>
    <_>
      <sv_count>1</sv_count>
      <rho>-3.1041891078747930e-002</rho>
      <alpha>
        1.</alpha>
      <index>
        1</index></_>
    <_>
      <sv_count>1</sv_count>
      <rho>-8.0578570892949744e-002</rho>
      <alpha>
        1.</alpha>
      <index>
        2</index></_></decision_functions></my_svm>
</opencv_storage>
